<?xml version="1.0"?>
<opencv_storage>
<my_svm type_id="opencv-ml-svm">
  <svm_type>C_SVC</svm_type>
  <kernel><type>RBF</type>
    <gamma>1.</gamma></kernel>
  <C>1.</C>
  <term_criteria><epsilon>1.1920928955078125e-07</epsilon>
    <iterations>1000</iterations></term_criteria>
  <var_all>1500</var_all>
  <var_count>1500</var_count>
  <class_count>2</class_count>
  <class_labels type_id="opencv-matrix">
    <rows>1</rows>
    <cols>2</cols>
    <dt>i</dt>
    <data>
      0 1</data></class_labels>
  <sv_total>263</sv_total>
  <support_vectors>
    <_>
      0. 0. 0. 0. 0. 0. 0. 0. 0. 0. 1.14942528e-02 0. 0. 0. 0. 0. 0. 0.
      0. 0. 0. 0. 0. 0. 0. 0. 0. 5.74712642e-03 0. 0. 0. 5.74712642e-03
      0. 0. 5.74712642e-03 0. 0. 0. 0. 0. 0. 0. 0. 0. 0. 0. 0. 0. 0. 0.
      0. 0. 0. 5.74712642e-03 5.74712642e-03 0. 0. 0. 0. 0. 0. 0. 0. 0.
      0. 0. 0. 5.74712642e-03 0. 0. 0. 0. 0. 5.74712642e-03 0. 0. 0. 0.
      5.74712642e-03 0. 0. 1.14942528e-02 0. 0. 0. 0. 0. 0. 0.
      5.74712642e-03 0. 0. 0. 0. 0. 0. 0. 0. 0. 0. 0. 5.74712642e-03 0.
      0. 0. 0. 0. 5.74712642e-03 5.74712642e-03 0. 0. 0. 0. 0.
      5.74712642e-03 0. 0. 0. 0. 0. 0. 0. 0. 0. 0. 0. 0. 0. 0. 0.
      5.74712642e-03 0. 5.74712642e-03 0. 0. 0. 0. 0. 5.74712642e-03 0.
      0. 0. 5.74712642e-03 5.74712642e-03 0. 0. 0. 0. 0. 0. 0. 0. 0. 0.
      5.74712642e-03 0. 0. 5.74712642e-03 0. 0. 5.74712642e-03 0. 0. 0.
      0. 0. 0. 0. 0. 0. 0. 0. 0. 5.74712642e-03 0. 0. 0. 0. 0. 0. 0. 0.
      0. 0. 0. 0. 0. 0. 0. 0. 0. 0. 0. 0. 0. 0. 0. 0. 0. 5.74712642e-03
      0. 0. 0. 0. 0. 0. 0. 0. 0. 0. 0. 0. 0. 0. 0. 0. 0. 0. 0. 0. 0. 0.
      0. 0. 0. 0. 0. 0. 0. 0. 0. 0. 0. 0. 0. 0. 0. 0. 5.74712642e-03 0.
      0. 0. 0. 0. 0. 0. 0. 0. 0. 0. 0. 0. 0. 0. 1.14942528e-02 0. 0.
      5.74712642e-03 5.74712642e-03 0. 0. 0. 0. 0. 0. 0. 0. 0. 0.
      5.74712642e-03 0. 0. 0. 0. 0. 0. 0. 0. 0. 0. 0. 0. 0. 0. 0. 0. 0.
      1.14942528e-02 0. 0. 0. 0. 0. 0. 0. 0. 0. 0. 5.74712642e-03 0. 0.
      0. 0. 0. 0. 0. 0. 0. 1.14942528e-02 0. 0. 0. 5.74712642e-03 0.
      5.74712642e-03 5.74712642e-03 0. 0. 0. 0. 0. 0. 5.74712642e-03
      1.14942528e-02 5.74712642e-03 0. 0. 0. 0. 0. 0. 0. 0. 0. 0. 0. 0.
      0. 0. 0. 0. 0. 0. 0. 0. 0. 0. 0. 0. 0. 0. 0. 0. 0. 0. 0. 0. 0. 0.
      0. 0. 0. 0. 0. 0. 0. 0. 0. 0. 0. 0. 0. 0. 0. 0. 0. 0.
      5.74712642e-03 0. 0. 0. 0. 0. 0. 1.14942528e-02 0. 5.74712642e-03
      0. 0. 0. 0. 0. 0. 0. 0. 0. 0. 0. 0. 0. 0. 0. 0. 0. 0. 0. 0. 0. 0.
      0. 0. 0. 0. 5.74712642e-03 0. 0. 1.72413792e-02 0. 0. 0. 0.
      1.14942528e-02 0. 0. 0. 0. 5.74712642e-03 0. 0. 0. 0. 0. 0. 0. 0.
      0. 0. 0. 0. 0. 0. 0. 5.74712642e-03 0. 0. 0. 0. 0. 0. 0. 0. 0. 0.
      5.74712642e-03 0. 0. 0. 0. 0. 0. 0. 0. 0. 0. 0. 0. 0. 0. 0. 0. 0.
      0. 0. 0. 5.74712642e-03 0. 0. 0. 0. 0. 0. 0. 0. 0. 1.14942528e-02
      0. 0. 0. 0. 1.14942528e-02 0. 5.74712642e-03 0. 0. 0. 0. 0. 0. 0.
      0. 0. 0. 0. 5.74712642e-03 0. 0. 0. 0. 0. 0. 0. 0. 0. 0.
      5.74712642e-03 0. 0. 0. 0. 0. 0. 0. 0. 0. 0. 0. 0. 0. 0.
      5.74712642e-03 0. 0. 0. 0. 5.74712642e-03 0. 0. 0. 0. 0. 0. 0. 0.
      5.74712642e-03 0. 0. 0. 0. 5.74712642e-03 0. 0. 0. 1.14942528e-02
      0. 0. 0. 0. 0. 0. 0. 0. 0. 0. 0. 0. 0. 0. 0. 0. 0. 0. 0. 0. 0. 0.
      0. 0. 0. 0. 0. 0. 0. 0. 0. 0. 0. 5.74712642e-03 0. 0.
      5.74712642e-03 0. 0. 5.74712642e-03 0. 0. 0. 0. 0. 0. 0. 0. 0. 0.
      0. 0. 0. 5.74712642e-03 5.74712642e-03 0. 0. 1.14942528e-02
      5.74712642e-03 0. 5.74712642e-03 0. 0. 0. 0. 0. 0. 0. 0. 0. 0.
      1.14942528e-02 0. 0. 0. 0. 0. 0. 0. 0. 0. 0. 0. 0. 0.
      5.74712642e-03 0. 0. 0. 0. 0. 0. 0. 0. 0. 0. 0. 5.74712642e-03 0.
      0. 0. 0. 0. 0. 0. 5.74712642e-03 0. 0. 0. 0. 0. 5.74712642e-03 0.
      0. 0. 0. 1.14942528e-02 0. 0. 0. 0. 0. 0. 1.14942528e-02
      5.74712642e-03 0. 0. 5.74712642e-03 0. 0. 0. 0. 0. 0. 0. 0. 0. 0.
      0. 5.74712642e-03 0. 0. 0. 0. 5.74712642e-03 0. 0. 0. 0. 0. 0. 0.
      0. 0. 0. 0. 4.02298868e-02 0. 0. 0. 0. 0. 0. 0. 0. 0. 0. 0. 0. 0.
      0. 0. 0. 0. 0. 0. 0. 0. 5.74712642e-03 0. 0. 0. 0. 0. 0. 0. 0. 0.
      0. 0. 0. 5.74712642e-03 0. 0. 0. 0. 0. 0. 0. 0. 0. 0. 0. 0. 0. 0.
      0. 0. 0. 0. 0. 0. 0. 0. 0. 5.74712642e-03 5.74712642e-03 0. 0. 0.
      0. 0. 0. 0. 0. 0. 0. 0. 0. 0. 0. 0. 0. 0. 0. 0. 5.74712642e-03 0.
      0. 0. 0. 0. 0. 0. 0. 0. 0. 0. 0. 5.74712642e-03 0. 0. 0. 0. 0. 0.
      0. 0. 0. 0. 0. 0. 0. 5.74712642e-03 0. 0. 0. 0. 0. 0. 0. 0.
      5.74712642e-03 0. 0. 0. 0. 0. 0. 0. 0. 0. 0. 0. 0. 5.74712642e-03
      0. 0. 0. 0. 0. 0. 0. 0. 0. 0. 0. 0. 0. 0. 0. 0. 0. 0. 0. 0. 0. 0.
      0. 0. 0. 0. 0. 0. 0. 0. 0. 0. 0. 0. 0. 0. 0. 0. 0. 0.
      5.74712642e-03 0. 0. 0. 0. 0. 5.74712642e-03 0. 0. 0. 0. 0. 0. 0.
      0. 0. 0. 0. 0. 0. 0. 0. 0. 0. 0. 0. 0. 0. 0. 0. 0. 0. 0. 0. 0. 0.
      0. 0. 0. 0. 0. 0. 0. 0. 0. 0. 0. 0. 0. 0. 0. 0. 5.74712642e-03 0.
      0. 0. 0. 1.14942528e-02 0. 0. 0. 5.74712642e-03 0. 0. 0. 0. 0. 0.
      0. 0. 0. 0. 0. 0. 0. 0. 5.74712642e-03 0. 0. 0. 0. 0.
      5.74712642e-03 0. 0. 0. 0. 0. 0. 0. 0. 0. 0. 0. 0. 0. 0. 0. 0. 0.
      0. 0. 0. 0. 0. 5.74712642e-03 0. 0. 0. 0. 5.74712642e-03 0. 0. 0.
      0. 5.74712642e-03 0. 0. 0. 0. 0. 0. 0. 0. 0. 0. 0. 0. 0.
      2.29885057e-02 5.74712642e-03 5.74712642e-03 0. 0. 0. 0. 0. 0. 0.
      0. 0. 0. 0. 0. 0. 0. 0. 0. 0. 5.74712642e-03 0. 0. 0.
      5.74712642e-03 0. 0. 0. 0. 0. 0. 0. 0. 0. 5.74712642e-03 0. 0. 0.
      0. 0. 0. 0. 0. 0. 0. 0. 0. 0. 0. 0. 0. 0. 0. 0. 0. 0. 0. 0. 0. 0.
      0. 0. 0. 5.74712642e-03 0. 0. 0. 0. 0. 0. 0. 0. 0. 0. 0. 0. 0. 0.
      0. 0. 0. 0. 0. 0. 0. 0. 0. 0. 0. 0. 0. 0. 0. 0. 0. 0. 0. 0.
      5.74712642e-03 0. 0. 0. 0. 0. 0. 0. 0. 0. 0. 0. 0. 0.
      5.74712642e-03 0. 0. 0. 0. 0. 0. 0. 0. 0. 0. 0. 0. 0. 0. 0.
      5.74712642e-03 0. 0. 5.74712642e-03 0. 0. 0. 0. 0. 0. 0. 0. 0. 0.
      0. 0. 5.74712642e-03 0. 5.74712642e-03 0. 0. 0. 0. 0. 0. 0. 0. 0.
      0. 0. 0. 0. 0. 0. 0. 5.74712642e-03 0. 0. 0. 0. 0. 0. 0. 0. 0. 0.
      0. 0. 0. 0. 0. 0. 0. 0. 0. 0. 0. 0. 0. 0. 0. 0. 0. 0. 0. 0. 0. 0.
      0. 1.72413792e-02 0. 0. 0. 0. 5.74712642e-03 0. 0. 0. 0. 0. 0. 0.
      0. 0. 0. 0. 0. 0. 0. 0. 0. 0. 0. 0. 0. 0. 0. 0. 0. 0. 0.
      5.74712642e-03 5.74712642e-03 0. 0. 0. 0. 0. 0. 0. 0. 0.
      5.74712642e-03 0. 0. 0. 5.74712642e-03 0. 0. 0. 0. 0. 0. 0. 0. 0.
      0. 0. 0. 0. 0. 0. 0. 1.14942528e-02 0. 0. 0. 0. 0. 0.
      1.14942528e-02 0. 0. 0. 0. 0. 0. 0. 0. 0. 0. 0. 0. 0. 0. 0. 0. 0.
      0. 0. 0. 0. 0. 0. 0. 0. 0. 0. 1.14942528e-02 1.72413792e-02 0. 0.
      0. 0. 0. 0. 0. 0. 0. 0. 0. 0. 0. 0. 0. 0. 0. 0. 0. 0. 0. 0. 0. 0.
      0. 0. 0. 0. 0. 0. 0. 0. 0. 0. 0. 0. 0. 0. 5.74712642e-03 0. 0. 0.
      0. 0. 0. 0. 0. 0. 0. 0. 0. 0. 0. 0. 0. 0. 0. 0. 0. 5.74712642e-03
      0. 0. 0. 0. 0. 0. 0. 0. 1.14942528e-02 0. 0. 5.74712642e-03 0. 0.
      0. 0. 0. 0. 0. 0. 0. 0. 0. 0. 0. 0. 0. 0. 0. 0. 0. 0. 0. 0. 0. 0.
      0. 0. 0. 0. 0. 0. 0. 0. 0. 0. 0. 0. 1.14942528e-02 0. 0. 0. 0.
      5.74712642e-03 5.74712642e-03 0. 0. 0. 0. 0. 5.74712642e-03 0. 0.
      0. 0. 5.74712642e-03 1.14942528e-02 1.14942528e-02 0. 0. 0. 0. 0.
      0. 0. 0. 0. 0. 0. 0. 0. 0. 0. 0. 0. 0. 0. 5.74712642e-03 0. 0. 0.
      0. 0. 0. 0. 0. 0. 0. 0. 0. 0. 0. 0. 0. 0. 0. 0. 0. 0.
      5.74712642e-03 0. 0. 0. 0. 0. 0. 0. 0. 0. 0. 0. 0. 0. 0. 0. 0. 0.
      0. 0. 0. 0. 5.74712642e-03 0. 0.</_>
    <_>
      0. 0. 0. 0. 0. 0. 9.80392192e-03 0. 0. 0. 0. 0. 0. 0. 0. 0. 0. 0.
      0. 0. 0. 0. 0. 0. 0. 0. 0. 0. 0. 9.80392192e-03 0. 0. 0. 0. 0. 0.
      9.80392192e-03 0. 0. 0. 1.96078438e-02 0. 0. 0. 0. 9.80392192e-03
      0. 0. 0. 1.96078438e-02 0. 0. 0. 0. 0. 0. 0. 0. 9.80392192e-03 0.
      0. 0. 0. 0. 0. 0. 0. 0. 9.80392192e-03 0. 0. 9.80392192e-03 0. 0.
      0. 0. 9.80392192e-03 0. 0. 0. 9.80392192e-03 0. 0. 0. 0. 0. 0. 0.
      0. 0. 0. 0. 0. 0. 0. 0. 0. 0. 9.80392192e-03 0. 0. 0. 0.
      9.80392192e-03 0. 0. 0. 0. 0. 0. 0. 0. 0. 0. 0. 0. 9.80392192e-03
      0. 0. 0. 0. 0. 0. 0. 0. 0. 0. 0. 0. 0. 0. 0. 0. 0. 0. 0. 0. 0. 0.
      0. 0. 0. 0. 0. 0. 0. 1.96078438e-02 9.80392192e-03 0. 0. 0. 0. 0.
      0. 0. 0. 0. 0. 0. 0. 0. 0. 0. 0. 0. 0. 0. 0. 0. 0. 0. 0. 0. 0. 0.
      0. 9.80392192e-03 0. 0. 0. 0. 0. 0. 0. 0. 0. 0. 0. 0. 0. 0.
      9.80392192e-03 0. 0. 0. 0. 0. 0. 0. 0. 0. 0. 0. 0. 0. 0. 0. 0. 0.
      0. 0. 0. 0. 0. 0. 0. 9.80392192e-03 0. 0. 0. 0. 0. 0. 0. 0. 0. 0.
      0. 0. 9.80392192e-03 0. 0. 0. 9.80392192e-03 0. 0. 0. 0. 0. 0. 0.
      0. 0. 0. 0. 0. 0. 0. 0. 0. 0. 0. 0. 0. 0. 0. 0. 0. 0. 0. 0.
      9.80392192e-03 0. 0. 0. 0. 0. 0. 0. 0. 0. 0. 0. 0. 0. 0. 0.
      9.80392192e-03 0. 0. 0. 0. 0. 0. 0. 0. 0. 0. 0. 0. 0. 0. 0. 0. 0.
      0. 0. 0. 0. 0. 0. 0. 0. 1.96078438e-02 0. 0. 0. 1.96078438e-02 0.
      0. 0. 0. 0. 0. 0. 0. 0. 0. 0. 0. 0. 9.80392192e-03 0. 0. 0. 0. 0.
      0. 0. 0. 0. 0. 0. 0. 0. 0. 0. 9.80392192e-03 0. 0. 0. 0. 0. 0. 0.
      0. 0. 0. 0. 0. 9.80392192e-03 0. 0. 0. 0. 0. 0. 0. 0. 0. 0. 0. 0.
      0. 0. 0. 0. 9.80392192e-03 0. 0. 0. 0. 0. 0. 0. 0. 0. 0.
      9.80392192e-03 0. 0. 9.80392192e-03 0. 0. 0. 0. 9.80392192e-03 0.
      0. 0. 0. 0. 0. 0. 0. 9.80392192e-03 0. 0. 0. 0. 0. 9.80392192e-03
      0. 0. 0. 0. 0. 0. 0. 0. 0. 0. 0. 9.80392192e-03 0. 0. 0. 0. 0. 0.
      0. 0. 0. 0. 9.80392192e-03 0. 0. 0. 0. 0. 0. 0. 0. 0. 0. 0.
      1.96078438e-02 0. 0. 0. 0. 0. 0. 0. 0. 9.80392192e-03 0. 0.
      9.80392192e-03 0. 1.96078438e-02 0. 0. 0. 0. 0. 0. 0. 0. 0. 0. 0.
      0. 0. 0. 0. 0. 0. 0. 9.80392192e-03 0. 0. 9.80392192e-03 0.
      9.80392192e-03 0. 0. 0. 0. 0. 0. 0. 0. 0. 0. 0. 0. 0. 0. 0. 0. 0.
      0. 0. 9.80392192e-03 0. 0. 0. 0. 0. 0. 0. 0. 0. 0. 9.80392192e-03
      0. 0. 0. 0. 0. 9.80392192e-03 0. 0. 9.80392192e-03 0. 0. 0. 0. 0.
      0. 0. 0. 0. 0. 0. 0. 0. 0. 0. 0. 0. 0. 0. 0. 0. 0. 9.80392192e-03
      0. 9.80392192e-03 0. 0. 0. 0. 0. 0. 0. 9.80392192e-03 0. 0. 0. 0.
      0. 9.80392192e-03 0. 0. 0. 0. 0. 0. 0. 0. 0. 0. 0. 0. 0. 0. 0. 0.
      0. 0. 0. 0. 0. 0. 9.80392192e-03 0. 0. 0. 0. 0. 0. 0. 0. 0. 0. 0.
      0. 0. 0. 0. 0. 0. 0. 0. 0. 0. 0. 0. 0. 0. 0. 0. 0. 0. 0. 0. 0. 0.
      0. 0. 0. 0. 0. 0. 0. 0. 0. 0. 0. 0. 0. 0. 0. 0. 0. 0. 0. 0. 0. 0.
      0. 0. 0. 0. 0. 0. 0. 0. 0. 0. 0. 0. 0. 0. 0. 0. 0. 0. 0. 0. 0. 0.
      0. 0. 0. 0. 0. 0. 0. 0. 0. 0. 0. 0. 0. 0. 0. 0. 0. 0. 0. 0. 0. 0.
      0. 0. 0. 0. 0. 0. 0. 0. 0. 0. 0. 0. 0. 0. 0. 0. 0. 0. 0. 0. 0. 0.
      0. 0. 1.96078438e-02 0. 0. 0. 0. 0. 0. 0. 0. 0. 0. 0. 0. 0.
      9.80392192e-03 0. 0. 0. 0. 0. 0. 0. 0. 0. 0. 0. 0. 0. 0. 0. 0. 0.
      0. 0. 0. 0. 1.96078438e-02 0. 0. 0. 0. 2.94117667e-02 0. 0. 0. 0.
      0. 0. 0. 9.80392192e-03 0. 0. 0. 0. 0. 0. 9.80392192e-03
      9.80392192e-03 0. 0. 0. 0. 0. 0. 0. 0. 0. 0. 9.80392192e-03 0. 0.
      0. 0. 0. 0. 0. 0. 0. 0. 1.96078438e-02 0. 0. 0. 0. 0. 0. 0. 0. 0.
      0. 0. 0. 0. 0. 0. 0. 0. 0. 0. 0. 0. 0. 0. 0. 0. 0. 0. 0. 0. 0. 0.
      0. 0. 0. 0. 0. 0. 9.80392192e-03 0. 0. 0. 0. 0. 0. 0. 0. 0. 0. 0.
      0. 0. 0. 0. 0. 0. 0. 0. 0. 0. 0. 0. 0. 9.80392192e-03 0.
      9.80392192e-03 0. 0. 0. 0. 0. 0. 0. 0. 0. 0. 0. 0. 0.
      9.80392192e-03 0. 0. 0. 0. 0. 0. 0. 0. 0. 0. 0. 0. 0. 0. 0. 0. 0.
      0. 0. 0. 0. 0. 0. 0. 0. 0. 0. 0. 0. 0. 0. 0. 0. 0. 0.
      9.80392192e-03 0. 0. 0. 0. 0. 0. 0. 0. 0. 0. 0. 0. 0. 0. 0. 0. 0.
      0. 0. 0. 0. 0. 9.80392192e-03 0. 0. 0. 0. 0. 9.80392192e-03 0. 0.
      0. 0. 0. 0. 0. 0. 0. 0. 0. 0. 0. 0. 0. 0. 0. 0. 0. 0. 0. 0. 0. 0.
      0. 0. 0. 0. 0. 0. 0. 0. 0. 0. 0. 0. 0. 0. 0. 0. 0. 0. 0. 0. 0. 0.
      0. 0. 0. 0. 9.80392192e-03 0. 0. 0. 0. 0. 0. 0. 0. 0. 0. 0. 0. 0.
      0. 0. 0. 0. 0. 0. 0. 0. 0. 0. 0. 0. 0. 0. 0. 0. 9.80392192e-03 0.
      0. 0. 0. 0. 0. 0. 0. 0. 0. 0. 0. 0. 0. 0. 0. 0. 0. 0.
      9.80392192e-03 0. 0. 0. 0. 0. 0. 0. 0. 0. 0. 0. 0. 0. 0. 0. 0. 0.
      0. 0. 0. 0. 0. 0. 0. 0. 0. 0. 0. 0. 9.80392192e-03 0. 0. 0. 0. 0.
      0. 0. 0. 0. 0. 0. 0. 0. 0. 0. 0. 0. 0. 0. 0. 0. 0. 0. 0. 0. 0. 0.
      0. 0. 9.80392192e-03 0. 0. 0. 0. 0. 0. 0. 0. 0. 0. 0.
      9.80392192e-03 0. 0. 0. 0. 0. 0. 0. 0. 0. 9.80392192e-03 0. 0. 0.
      0. 0. 0. 0. 0. 0. 0. 0. 0. 0. 0. 0. 0. 0. 0. 0. 0. 0. 0. 0. 0. 0.
      0. 0. 0. 0. 0. 0. 0. 0. 0. 0. 0. 0. 0. 0. 0. 0. 0. 0. 0. 0. 0. 0.
      0. 0. 0. 0. 0. 0. 0. 0. 0. 0. 1.96078438e-02 0. 0. 0. 0. 0.
      9.80392192e-03 0. 0. 0. 0. 0. 0. 0. 0. 0. 0. 0. 0. 0. 0. 0. 0. 0.
      0. 0. 0. 0. 0. 0. 0. 0. 0. 0. 0. 0. 0. 0. 0. 0. 0. 0. 0. 0. 0. 0.
      0. 0. 0. 0. 0. 0. 0. 0. 0. 0. 0. 0. 0. 9.80392192e-03 0. 0. 0. 0.
      0. 0. 0. 0. 0. 0. 1.96078438e-02 0. 0. 0. 0. 0. 0. 0. 0. 0. 0. 0.
      0. 0. 0. 0. 0. 0. 0. 0. 0. 0. 0. 0. 0. 0. 0. 0. 0. 0. 0. 0. 0.
      9.80392192e-03 0. 0. 0. 0. 0. 0. 0. 9.80392192e-03 0. 0. 0. 0. 0.
      0. 0. 0. 0. 0. 0. 0. 0. 0. 9.80392192e-03 0. 0. 0. 0. 0. 0. 0. 0.
      0. 0. 0. 0. 0. 0. 0. 0. 0. 0. 0. 0. 0. 0. 0. 0. 0. 0. 0. 0. 0. 0.
      0. 0. 0. 0. 0. 0. 0. 0. 0. 0. 0. 0. 0. 0. 0. 9.80392192e-03 0. 0.
      0. 0. 0. 0. 0. 0. 0. 0. 0. 0. 0. 0. 0. 0. 0. 0. 0. 0. 0. 0. 0. 0.
      0. 0. 0. 0. 0. 0. 0. 0. 0. 0. 0. 0. 0. 0. 0. 0. 0. 0.
      9.80392192e-03 0. 0. 0. 0. 0. 0. 0. 0. 0. 0. 0. 0. 0. 0. 0. 0. 0.
      0. 0. 0. 0. 0. 0. 0. 0. 0. 0. 0. 0. 0. 0. 0. 0. 0. 0. 0. 0. 0. 0.
      0. 0. 0. 0. 0. 0. 0. 0. 0. 0. 0. 0. 0. 0. 0. 1.96078438e-02 0. 0.
      0. 0. 9.80392192e-03 0. 0. 0. 0. 0. 0. 0. 0. 0. 0. 0. 0. 0. 0. 0.
      0. 0. 0. 0. 0. 0. 0. 0. 0. 0. 9.80392192e-03 0. 0. 0. 0. 0. 0. 0.
      0. 0. 0. 0. 0. 0. 0. 0. 0. 0. 0. 0. 0. 0. 0. 0. 0. 0. 0. 0. 0. 0.
      0. 0. 0. 0. 0.</_>
    <_>
      0. 0. 0. 0. 0. 0. 3.26797389e-03 3.26797389e-03 0. 0. 0. 0. 0.
      9.80392192e-03 0. 0. 0. 0. 3.26797389e-03 0. 0. 0. 6.53594779e-03
      3.26797389e-03 0. 0. 0. 3.26797389e-03 0. 0. 0. 0. 0. 0. 0. 0. 0.
      0. 0. 0. 0. 0. 0. 0. 0. 3.26797389e-03 6.53594779e-03 0. 0.
      3.26797389e-03 0. 0. 0. 0. 3.26797389e-03 0. 0. 0. 0. 0. 0. 0. 0.
      0. 3.26797389e-03 3.26797389e-03 0. 3.26797389e-03 0. 0. 0. 0.
      3.26797389e-03 0. 0. 0. 0. 0. 0. 3.26797389e-03 0. 0. 0. 0.
      3.26797389e-03 0. 0. 0. 0. 0. 3.26797389e-03 0. 0. 3.26797389e-03
      0. 0. 0. 0. 0. 0. 0. 0. 3.26797389e-03 0. 0. 0. 0. 3.26797389e-03
      0. 0. 0. 0. 0. 0. 0. 0. 0. 3.26797389e-03 0. 0. 0. 0. 0. 0. 0. 0.
      0. 0. 0. 0. 3.26797389e-03 0. 0. 0. 0. 0. 0. 0. 9.80392192e-03 0.
      9.80392192e-03 3.26797389e-03 6.53594779e-03 3.26797389e-03 0. 0.
      0. 0. 0. 0. 0. 0. 0. 0. 0. 0. 3.26797389e-03 0. 0. 0. 0. 0. 0. 0.
      0. 0. 0. 0. 0. 0. 0. 0. 0. 0. 0. 0. 0. 0. 0. 0. 0. 0.
      1.30718956e-02 0. 6.53594779e-03 3.26797389e-03 3.26797389e-03 0.
      0. 3.26797389e-03 0. 0. 0. 0. 0. 0. 0. 0. 0. 0. 0. 0. 0. 0.
      3.26797389e-03 0. 0. 0. 0. 6.53594779e-03 3.26797389e-03 0. 0. 0.
      3.26797389e-03 0. 3.26797389e-03 0. 0. 0. 0. 0. 3.26797389e-03 0.
      0. 0. 0. 0. 0. 0. 0. 0. 0. 0. 3.26797389e-03 3.26797389e-03 0. 0.
      0. 0. 0. 0. 0. 0. 0. 0. 0. 3.26797389e-03 0. 0. 0. 0. 0. 0. 0. 0.
      0. 3.26797389e-03 0. 0. 0. 0. 9.80392192e-03 0. 0. 0. 0. 0. 0. 0.
      0. 0. 0. 6.53594779e-03 0. 3.26797389e-03 0. 0. 0. 0. 0. 0. 0. 0.
      0. 0. 0. 0. 0. 0. 0. 0. 0. 0. 0. 0. 3.26797389e-03 0. 0.
      6.53594779e-03 0. 0. 3.26797389e-03 0. 0. 0. 3.26797389e-03 0. 0.
      0. 3.26797389e-03 3.26797389e-03 6.53594779e-03 0. 0. 0. 0. 0. 0.
      0. 3.26797389e-03 0. 0. 0. 0. 0. 0. 6.53594779e-03 0.
      3.26797389e-03 0. 3.26797389e-03 0. 0. 0. 0. 3.26797389e-03 0.
      3.26797389e-03 0. 0. 0. 3.26797389e-03 0. 0. 0. 0. 0. 0.
      3.26797389e-03 0. 0. 0. 0. 0. 0. 3.26797389e-03 3.26797389e-03 0.
      0. 0. 0. 0. 0. 3.26797389e-03 0. 0. 0. 0. 0. 0. 0. 0. 0. 0. 0. 0.
      9.80392192e-03 0. 0. 0. 0. 0. 0. 0. 0. 0. 0. 0. 0. 0. 0. 0. 0. 0.
      3.26797389e-03 0. 0. 0. 0. 3.26797389e-03 3.26797389e-03
      3.26797389e-03 0. 0. 6.53594779e-03 0. 0. 0. 3.26797389e-03 0. 0.
      0. 0. 0. 0. 0. 0. 0. 3.26797389e-03 0. 0. 0. 0. 3.26797389e-03 0.
      6.53594779e-03 3.26797389e-03 0. 0. 3.26797389e-03 3.26797389e-03
      0. 0. 0. 0. 0. 0. 0. 0. 0. 0. 3.26797389e-03 0. 0. 0. 0. 0. 0. 0.
      0. 0. 0. 0. 0. 0. 0. 0. 0. 0. 0. 0. 0. 0. 0. 0. 0. 3.26797389e-03
      0. 0. 0. 0. 3.26797389e-03 0. 0. 0. 0. 0. 0. 0. 0. 0. 0. 0.
      3.26797389e-03 0. 0. 0. 0. 0. 0. 0. 0. 0. 0. 0. 0. 0. 0. 0. 0. 0.
      0. 0. 0. 0. 0. 0. 6.53594779e-03 0. 0. 0. 0. 0. 0. 0. 0. 0. 0. 0.
      0. 0. 0. 0. 0. 0. 0. 3.26797389e-03 0. 0. 0. 0. 0. 3.26797389e-03
      0. 0. 0. 0. 0. 0. 0. 0. 0. 0. 0. 0. 0. 0. 0. 0. 0. 0. 0. 0. 0. 0.
      3.26797389e-03 0. 0. 0. 0. 0. 6.53594779e-03 0. 0. 0. 0. 0. 0. 0.
      0. 0. 3.26797389e-03 0. 3.26797389e-03 0. 0. 0. 0. 0. 0. 0. 0. 0.
      0. 0. 0. 0. 0. 3.26797389e-03 9.80392192e-03 0. 0. 0. 0. 0. 0. 0.
      0. 0. 0. 0. 0. 0. 3.26797389e-03 9.80392192e-03 0. 0. 0. 0. 0. 0.
      0. 0. 0. 0. 0. 0. 0. 3.26797389e-03 0. 0. 0. 0. 0. 3.26797389e-03
      0. 0. 0. 0. 3.26797389e-03 0. 0. 3.26797389e-03 0. 0. 0. 0. 0. 0.
      0. 0. 0. 0. 0. 0. 0. 0. 0. 0. 0. 0. 0. 0. 0. 0. 0. 0. 0. 0. 0. 0.
      0. 0. 0. 0. 0. 3.26797389e-03 0. 0. 6.53594779e-03 0. 0. 0. 0. 0.
      0. 0. 0. 0. 0. 3.26797389e-03 0. 0. 1.30718956e-02 0. 0. 0.
      3.26797389e-03 0. 0. 0. 0. 0. 0. 0. 0. 0. 0. 0. 0. 0. 0. 0. 0.
      3.26797389e-03 0. 0. 3.26797389e-03 0. 0. 0. 0. 0. 3.26797389e-03
      0. 0. 0. 0. 0. 0. 0. 0. 0. 0. 0. 0. 0. 0. 3.26797389e-03 0. 0. 0.
      0. 0. 0. 0. 0. 3.26797389e-03 0. 0. 0. 3.26797389e-03 0. 0. 0.
      3.26797389e-03 0. 0. 0. 0. 0. 0. 0. 0. 0. 0. 0. 0. 0. 0. 0. 0. 0.
      3.26797389e-03 0. 0. 0. 0. 3.26797389e-03 0. 3.26797389e-03 0. 0.
      0. 0. 0. 0. 0. 0. 0. 0. 0. 0. 3.26797389e-03 0. 0. 3.26797389e-03
      0. 0. 1.30718956e-02 0. 0. 0. 0. 0. 0. 0. 0. 3.26797389e-03 0. 0.
      0. 0. 0. 0. 0. 0. 0. 0. 0. 0. 0. 0. 0. 0. 0. 0. 0. 0. 0. 0.
      3.26797389e-03 0. 0. 0. 3.26797389e-03 0. 0. 0. 0. 0. 0. 0. 0. 0.
      0. 0. 0. 0. 0. 0. 0. 0. 0. 0. 6.53594779e-03 3.26797389e-03 0. 0.
      0. 0. 3.26797389e-03 0. 0. 0. 6.53594779e-03 0. 3.26797389e-03 0.
      0. 0. 0. 0. 0. 0. 0. 0. 3.26797389e-03 0. 0. 0. 0. 0. 0. 0. 0. 0.
      0. 0. 3.26797389e-03 0. 0. 0. 3.26797389e-03 0. 0. 0. 0. 0. 0. 0.
      3.26797389e-03 0. 0. 0. 0. 0. 0. 0. 0. 0. 0. 0. 0. 0.
      3.26797389e-03 0. 0. 3.26797389e-03 0. 0. 0. 0. 0. 0. 0. 0.
      3.26797389e-03 0. 0. 0. 0. 0. 0. 0. 0. 3.26797389e-03 0.
      3.26797389e-03 0. 0. 0. 0. 0. 0. 3.26797389e-03 0. 0. 0. 0. 0. 0.
      0. 0. 3.26797389e-03 0. 0. 0. 0. 0. 3.26797389e-03 0. 0. 0. 0. 0.
      0. 0. 0. 0. 0. 0. 6.53594779e-03 6.53594779e-03 0. 0. 0. 0.
      1.30718956e-02 0. 0. 0. 0. 0. 3.26797389e-03 0. 0. 0. 0.
      3.26797389e-03 0. 0. 3.26797389e-03 0. 0. 0. 0. 0. 3.26797389e-03
      0. 0. 0. 0. 0. 3.26797389e-03 0. 0. 0. 0. 3.26797389e-03
      3.26797389e-03 0. 0. 0. 0. 0. 0. 0. 3.26797389e-03 9.80392192e-03
      0. 3.26797389e-03 0. 0. 0. 0. 0. 0. 0. 0. 3.26797389e-03 0. 0. 0.
      0. 0. 0. 1.30718956e-02 0. 0. 3.26797389e-03 0. 0. 0. 0. 0. 0. 0.
      0. 3.26797389e-03 0. 9.80392192e-03 0. 0. 0. 6.53594779e-03 0. 0.
      0. 0. 0. 0. 9.80392192e-03 0. 0. 0. 0. 0. 0. 0. 0. 0. 0.
      3.26797389e-03 0. 0. 0. 0. 0. 0. 0. 0. 3.26797389e-03 0. 0. 0. 0.
      3.26797389e-03 0. 0. 0. 0. 0. 0. 0. 0. 0. 0. 0. 0. 0. 0. 0. 0. 0.
      0. 0. 0. 0. 0. 0. 0. 0. 0. 0. 0. 0. 0. 0. 0. 0. 3.26797389e-03 0.
      3.26797389e-03 0. 3.26797389e-03 0. 0. 0. 6.53594779e-03 0. 0. 0.
      0. 0. 0. 0. 6.53594779e-03 3.26797389e-03 0. 0. 3.26797389e-03 0.
      0. 0. 0. 0. 3.26797389e-03 0. 0. 0. 0. 3.26797389e-03 0. 0. 0. 0.
      0. 0. 0. 0. 1.30718956e-02 0. 0. 0. 0. 0. 0. 0. 0. 0. 0. 0. 0. 0.
      0. 3.26797389e-03 0. 0. 0. 0. 0. 0. 3.26797389e-03 0. 0. 0. 0. 0.
      0. 0. 0. 0. 0. 0. 0. 0. 0. 0. 0. 0. 0. 0. 0. 0. 0. 0. 0. 0. 0. 0.
      6.53594779e-03 0. 9.80392192e-03 0. 0. 0. 0. 0. 0. 3.26797389e-03
      3.26797389e-03 0. 6.53594779e-03 3.26797389e-03 0. 3.26797389e-03
      3.26797389e-03 0. 0. 0. 0. 0. 3.26797389e-03 0. 0. 0. 0. 0. 0. 0.
      0. 0. 0. 6.53594779e-03 0. 0. 0. 3.26797389e-03 0. 0. 0. 0. 0. 0.
      0. 0. 3.26797389e-03 9.80392192e-03 0. 0. 0. 0. 0. 0. 0. 0. 0. 0.
      0. 3.26797389e-03 0. 0. 0. 0. 3.26797389e-03 0. 3.26797389e-03 0.
      0. 0. 3.26797389e-03 0. 0. 0. 9.80392192e-03 0. 0. 0. 0. 0. 0. 0.
      0. 0. 0. 0. 0. 0. 0. 6.53594779e-03 0. 0. 0. 0. 0. 0. 0. 0. 0. 0.
      0. 3.26797389e-03 0. 6.53594779e-03 0. 3.26797389e-03 0. 0. 0. 0.
      0. 0. 3.26797389e-03 0. 0. 0. 0. 0. 0. 0. 0. 0. 0. 0. 0. 0.
      6.53594779e-03 0. 0. 0. 3.26797389e-03 0. 0. 0. 0. 0. 0.
      6.53594779e-03 0. 0. 0. 0. 0. 0. 0. 0. 0. 0. 0. 0. 6.53594779e-03
      0. 3.26797389e-03 3.26797389e-03 6.53594779e-03 0. 0.
      6.53594779e-03 3.26797389e-03 0. 0. 0. 9.80392192e-03 0. 0. 0. 0.
      0. 0. 0. 3.26797389e-03 6.53594779e-03 0. 0. 0. 0. 0. 0. 0. 0. 0.
      0. 0. 0. 3.26797389e-03 0. 0. 0. 0. 0. 0. 0. 0. 3.26797389e-03 0.
      0. 0. 0. 9.80392192e-03 0. 0. 0. 0. 0. 0. 0. 0. 0. 0. 0. 0.
      3.26797389e-03 0. 0. 6.53594779e-03 0. 0. 6.53594779e-03 0. 0. 0.
      0. 0. 3.26797389e-03 0. 0. 0. 0. 0. 0. 0. 0. 0. 0. 0. 0. 0. 0. 0.
      0. 0. 0. 0. 0. 1.30718956e-02 0. 0. 0. 0. 0. 0. 0. 0. 0. 0. 0. 0.
      0. 0. 0. 6.53594779e-03 0. 0. 0. 0. 0. 0. 0. 0. 0. 0. 0. 0.
      6.53594779e-03 0. 3.26797389e-03 0. 0. 0. 0. 3.26797389e-03
      3.26797389e-03 0. 0. 3.26797389e-03 0. 0. 0. 0. 0. 0. 0. 0. 0. 0.
      0. 0. 0.</_>
    <_>
      0. 0. 0. 0. 0. 0. 0. 0. 0. 3.27868853e-03 0. 3.27868853e-03 0. 0.
      0. 0. 0. 0. 0. 0. 0. 0. 0. 0. 9.83606558e-03 0. 0. 0. 0. 0. 0. 0.
      0. 0. 0. 0. 0. 0. 0. 6.55737706e-03 0. 3.27868853e-03 0. 0. 0. 0.
      0. 9.83606558e-03 0. 0. 0. 0. 0. 0. 0. 0. 0. 0. 3.27868853e-03
      3.27868853e-03 0. 0. 6.55737706e-03 0. 0. 0. 0. 3.27868853e-03 0.
      0. 3.27868853e-03 0. 6.55737706e-03 0. 0. 0. 0. 0. 0. 0. 0. 0. 0.
      0. 0. 0. 0. 3.27868853e-03 0. 0. 0. 0. 0. 0. 0. 0. 0.
      3.27868853e-03 0. 0. 0. 0. 0. 0. 0. 0. 0. 0. 6.55737706e-03 0.
      3.27868853e-03 0. 3.27868853e-03 0. 0. 0. 0. 0. 0. 0. 0. 0. 0. 0.
      0. 0. 3.27868853e-03 0. 0. 0. 0. 0. 3.27868853e-03 3.27868853e-03
      0. 0. 3.27868853e-03 0. 0. 0. 0. 3.27868853e-03 0. 0.
      3.27868853e-03 9.83606558e-03 0. 0. 0. 3.27868853e-03 0. 0. 0. 0.
      0. 3.27868853e-03 0. 0. 0. 3.27868853e-03 0. 0. 0. 0. 0. 0. 0. 0.
      3.27868853e-03 0. 0. 0. 0. 0. 0. 0. 0. 0. 0. 0. 0. 0. 0. 0. 0. 0.
      0. 6.55737706e-03 0. 0. 0. 0. 0. 0. 0. 0. 0. 0. 3.27868853e-03 0.
      3.27868853e-03 0. 0. 0. 0. 0. 0. 3.27868853e-03 0. 0. 0. 0. 0. 0.
      0. 0. 0. 0. 0. 0. 6.55737706e-03 0. 0. 0. 0. 0. 0. 3.27868853e-03
      0. 0. 3.27868853e-03 0. 0. 0. 0. 0. 0. 0. 0. 0. 3.27868853e-03 0.
      0. 3.27868853e-03 0. 0. 0. 0. 0. 0. 0. 3.27868853e-03 0. 0. 0. 0.
      0. 0. 0. 0. 0. 0. 0. 3.27868853e-03 6.55737706e-03 0. 0.
      6.55737706e-03 0. 0. 0. 0. 0. 0. 0. 0. 3.27868853e-03 0. 0. 0.
      3.27868853e-03 0. 0. 0. 0. 0. 0. 0. 0. 0. 0. 0. 0. 0. 0. 0.
      3.27868853e-03 0. 0. 0. 0. 0. 0. 0. 0. 0. 0. 0. 0. 0. 0. 0. 0. 0.
      0. 0. 3.27868853e-03 0. 0. 0. 3.27868853e-03 3.27868853e-03
      3.27868853e-03 0. 0. 3.27868853e-03 0. 0. 0. 0. 0. 0. 0. 0. 0. 0.
      0. 6.55737706e-03 0. 3.27868853e-03 0. 0. 0. 0. 0. 0.
      3.27868853e-03 0. 0. 0. 0. 0. 0. 0. 0. 6.55737706e-03 0. 0.
      3.27868853e-03 0. 0. 0. 0. 0. 0. 3.27868853e-03 3.27868853e-03 0.
      0. 0. 3.27868853e-03 0. 0. 0. 0. 3.27868853e-03 0. 0. 0. 0. 0. 0.
      0. 6.55737706e-03 0. 0. 0. 0. 0. 6.55737706e-03 3.27868853e-03 0.
      0. 0. 0. 0. 0. 0. 3.27868853e-03 0. 0. 0. 0. 0. 0. 0. 0. 0. 0. 0.
      0. 0. 0. 0. 0. 0. 0. 0. 0. 0. 0. 0. 0. 0. 9.83606558e-03 0. 0. 0.
      0. 0. 0. 3.27868853e-03 0. 0. 3.27868853e-03 0. 0. 0. 0. 0. 0.
      3.27868853e-03 0. 0. 0. 3.27868853e-03 0. 3.27868853e-03 0. 0. 0.
      0. 3.27868853e-03 0. 0. 3.27868853e-03 0. 0. 0. 3.27868853e-03 0.
      0. 0. 0. 0. 0. 0. 0. 0. 0. 3.27868853e-03 0. 6.55737706e-03 0.
      3.27868853e-03 0. 0. 0. 0. 0. 0. 0. 0. 0. 0. 0. 0. 0.
      3.27868853e-03 0. 0. 0. 0. 3.27868853e-03 0. 3.27868853e-03 0. 0.
      0. 0. 3.27868853e-03 0. 0. 0. 0. 3.27868853e-03 3.27868853e-03 0.
      0. 0. 3.27868853e-03 0. 0. 3.27868853e-03 0. 0. 0. 0. 0. 0. 0. 0.
      0. 0. 0. 3.27868853e-03 0. 0. 0. 0. 0. 0. 0. 6.55737706e-03
      9.83606558e-03 0. 0. 0. 0. 3.27868853e-03 0. 0. 3.27868853e-03 0.
      0. 0. 3.27868853e-03 0. 0. 0. 0. 0. 0. 3.27868853e-03 0. 0. 0. 0.
      1.96721312e-02 0. 0. 0. 0. 0. 0. 0. 0. 0. 0. 0. 0. 0. 0.
      3.27868853e-03 0. 3.27868853e-03 0. 0. 0. 0. 0. 0. 0. 0. 0. 0. 0.
      0. 0. 0. 0. 0. 0. 0. 0. 0. 6.55737706e-03 0. 0. 0. 0. 0.
      3.27868853e-03 0. 0. 0. 0. 6.55737706e-03 3.27868853e-03 0. 0.
      6.55737706e-03 0. 0. 0. 0. 0. 0. 0. 0. 0. 0. 0. 1.31147541e-02 0.
      0. 0. 0. 3.27868853e-03 3.27868853e-03 0. 0. 0. 0. 0. 0. 0. 0.
      3.27868853e-03 3.27868853e-03 0. 0. 0. 0. 0. 0. 0. 0. 0. 0. 0.
      3.27868853e-03 0. 0. 3.27868853e-03 0. 3.27868853e-03 0. 0. 0. 0.
      0. 0. 0. 6.55737706e-03 0. 0. 0. 0. 0. 0. 0. 0. 0. 0. 0. 0. 0. 0.
      0. 0. 0. 0. 0. 0. 0. 0. 6.55737706e-03 3.27868853e-03 0. 0. 0.
      9.83606558e-03 0. 0. 0. 0. 0. 0. 0. 3.27868853e-03 0.
      9.83606558e-03 0. 0. 0. 0. 0. 0. 0. 0. 0. 0. 6.55737706e-03 0.
      1.31147541e-02 3.27868853e-03 0. 0. 0. 6.55737706e-03 0. 0. 0.
      3.27868853e-03 0. 0. 0. 0. 0. 3.27868853e-03 0. 0. 0. 0. 0.
      3.27868853e-03 0. 0. 0. 3.27868853e-03 3.27868853e-03 0. 0.
      3.27868853e-03 6.55737706e-03 0. 0. 0. 0. 0. 0. 3.27868853e-03
      9.83606558e-03 0. 0. 0. 0. 0. 0. 0. 0. 0. 6.55737706e-03 0.
      3.27868853e-03 0. 0. 0. 0. 0. 0. 0. 3.27868853e-03 0. 0. 0. 0. 0.
      0. 0. 0. 0. 0. 0. 0. 0. 0. 0. 0. 0. 0. 0. 0. 0. 0. 0. 0. 0. 0. 0.
      0. 0. 6.55737706e-03 0. 0. 0. 0. 0. 0. 0. 0. 0. 0. 0. 0. 0. 0. 0.
      6.55737706e-03 0. 0. 3.27868853e-03 0. 0. 0. 0. 0. 0. 0. 0. 0. 0.
      3.27868853e-03 9.83606558e-03 0. 0. 0. 0. 0. 0. 6.55737706e-03
      3.27868853e-03 0. 0. 0. 0. 0. 0. 0. 0. 0. 0. 0. 6.55737706e-03 0.
      0. 0. 0. 3.27868853e-03 3.27868853e-03 0. 3.27868853e-03 0.
      6.55737706e-03 0. 0. 0. 0. 0. 0. 0. 0. 0. 0. 0. 0. 3.27868853e-03
      0. 0. 0. 0. 0. 0. 0. 0. 0. 3.27868853e-03 0. 0. 3.27868853e-03 0.
      0. 0. 0. 0. 0. 0. 0. 0. 0. 0. 0. 0. 0. 0. 0. 0. 0. 3.27868853e-03
      0. 0. 0. 0. 0. 0. 0. 0. 0. 0. 0. 0. 0. 3.27868853e-03 0. 0. 0. 0.
      0. 0. 0. 0. 0. 0. 0. 0. 0. 0. 0. 0. 0. 0. 0. 6.55737706e-03 0. 0.
      0. 0. 0. 0. 3.27868853e-03 0. 0. 3.27868853e-03 0. 0. 0. 0. 0. 0.
      0. 0. 0. 3.27868853e-03 0. 0. 0. 0. 0. 0. 0. 6.55737706e-03 0. 0.
      3.27868853e-03 0. 3.27868853e-03 0. 0. 0. 0. 0. 0. 0.
      3.27868853e-03 0. 0. 3.27868853e-03 0. 0. 0. 3.27868853e-03
      3.27868853e-03 0. 0. 0. 0. 3.27868853e-03 0. 0. 0. 0. 0. 0. 0. 0.
      0. 0. 0. 0. 0. 0. 0. 0. 0. 0. 0. 0. 0. 0. 0. 0. 0. 0.
      3.27868853e-03 0. 0. 0. 0. 0. 0. 0. 0. 0. 0. 3.27868853e-03 0. 0.
      3.27868853e-03 0. 3.27868853e-03 9.83606558e-03 0. 0. 0. 0. 0. 0.
      0. 0. 0. 0. 0. 0. 0. 0. 0. 0. 0. 0. 0. 0. 0. 6.55737706e-03 0. 0.
      0. 0. 0. 0. 3.27868853e-03 0. 0. 0. 0. 0. 0. 6.55737706e-03 0. 0.
      0. 0. 0. 0. 3.27868853e-03 0. 3.27868853e-03 0. 0. 0. 0. 0. 0. 0.
      0. 0. 3.27868853e-03 3.27868853e-03 0. 0. 0. 0. 0. 0. 0. 0. 0. 0.
      0. 0. 0. 0. 0. 0. 3.27868853e-03 0. 3.27868853e-03 0.
      3.27868853e-03 0. 0. 0. 0. 0. 0. 0. 0. 0. 0. 3.27868853e-03 0. 0.
      0. 0. 0. 0. 0. 0. 0. 3.27868853e-03 0. 9.83606558e-03 0. 0. 0. 0.
      0. 0. 0. 0. 0. 0. 0. 0. 0. 0. 0. 3.27868853e-03 0. 0. 0. 0. 0. 0.
      0. 0. 0. 0. 0. 0. 0. 0. 0. 0. 0. 0. 0. 0. 0. 0. 0. 0. 0.
      3.27868853e-03 0. 0. 0. 0. 0. 0. 0. 0. 3.27868853e-03 0. 0. 0. 0.
      6.55737706e-03 0. 0. 0. 0. 0. 0. 0. 0. 0. 0. 0. 0. 0. 0. 0. 0. 0.
      0. 0. 0. 3.27868853e-03 0. 0. 0. 0. 3.27868853e-03 0. 0.
      3.27868853e-03 0. 0. 0. 3.27868853e-03 0. 0. 0. 0. 0. 0. 0. 0.
      3.27868853e-03 0. 0. 0. 0. 0. 0. 0. 0. 0. 0. 0. 0. 0. 0. 0. 0. 0.
      3.27868853e-03 0. 0. 3.27868853e-03 0. 0. 0. 0. 0. 0. 0. 0. 0.
      3.27868853e-03 3.27868853e-03 0. 0. 3.27868853e-03 0. 0.
      6.55737706e-03 0. 0. 0. 0. 0. 0. 0. 0. 0. 0. 0. 0. 0. 0.
      3.27868853e-03 0. 0. 0. 0. 0. 0. 0. 0. 0. 3.27868853e-03 0. 0.
      3.27868853e-03 0. 0. 0. 0. 0. 3.27868853e-03 0. 6.55737706e-03 0.
      0. 0. 0. 6.55737706e-03 0. 0. 0. 0. 3.27868853e-03 3.27868853e-03
      3.27868853e-03 0. 3.27868853e-03 0. 0. 0. 0. 0. 0. 3.27868853e-03
      0. 3.27868853e-03 0. 0. 0. 0. 6.55737706e-03 0. 3.27868853e-03 0.
      0. 0. 0. 0. 3.27868853e-03 0. 0. 3.27868853e-03 0. 0. 0. 0. 0. 0.
      0. 0. 3.27868853e-03 0. 0. 0. 3.27868853e-03 0. 0. 0. 0. 0. 0. 0.
      0. 0. 0. 0. 0. 0. 6.55737706e-03 0. 0. 0. 0. 0. 0. 0. 0. 0. 0. 0.
      0. 0. 0. 0. 0. 6.55737706e-03 0. 0. 6.55737706e-03 0. 0. 0. 0.
      6.55737706e-03 0. 0. 0. 0. 0. 3.27868853e-03 0. 3.27868853e-03
      3.27868853e-03 0. 3.27868853e-03 0. 9.83606558e-03 0. 0. 0. 0. 0.
      0. 0. 0. 0. 0. 0. 3.27868853e-03 0. 0. 0. 0. 0. 0. 0. 0.
      6.55737706e-03 0. 0. 0. 0. 3.27868853e-03 0. 0. 0. 0.
      3.27868853e-03 0. 3.27868853e-03 0. 0. 0. 0. 3.27868853e-03 0.
      3.27868853e-03 0. 0. 0. 0. 0. 0. 0. 0. 0. 0. 0. 0. 0. 0. 0. 0. 0.
      0. 0. 0. 3.27868853e-03 0. 0. 6.55737706e-03 0. 0. 0. 0. 0. 0. 0.
      0. 0. 6.55737706e-03 0. 0. 0. 0. 0. 0. 0. 0.</_>
    <_>
      0. 7.51879718e-03 0. 0. 0. 0. 0. 7.51879718e-03 0. 0. 0. 0. 0. 0.
      7.51879718e-03 0. 0. 0. 0. 0. 0. 1.50375944e-02 0. 0. 0. 0. 0. 0.
      0. 0. 0. 0. 0. 0. 0. 0. 0. 0. 0. 0. 0. 0. 0. 0. 0. 0. 0. 0. 0. 0.
      0. 0. 0. 0. 0. 0. 0. 0. 0. 0. 0. 0. 0. 0. 0. 0. 0. 0. 0. 0. 0. 0.
      0. 0. 0. 0. 0. 0. 0. 7.51879718e-03 0. 7.51879718e-03 0. 0. 0. 0.
      7.51879718e-03 0. 0. 0. 0. 0. 0. 7.51879718e-03 0. 0. 0. 0. 0. 0.
      0. 0. 0. 0. 0. 0. 7.51879718e-03 7.51879718e-03 0. 0. 0. 0. 0. 0.
      0. 0. 0. 0. 0. 0. 0. 0. 0. 0. 0. 0. 0. 0. 0. 0. 0. 0. 0. 0. 0. 0.
      0. 0. 0. 0. 0. 0. 0. 0. 0. 0. 0. 0. 0. 0. 0. 0. 0. 1.50375944e-02
      7.51879718e-03 0. 0. 0. 0. 0. 0. 0. 0. 0. 0. 0. 0. 0. 0. 0. 0. 0.
      0. 0. 0. 7.51879718e-03 0. 0. 0. 0. 0. 0. 0. 0. 0. 0.
      7.51879718e-03 0. 0. 0. 0. 0. 0. 0. 0. 0. 0. 0. 0. 0. 0. 0. 0. 0.
      0. 7.51879718e-03 0. 0. 0. 1.50375944e-02 0. 0. 0. 0. 0. 0. 0. 0.
      0. 0. 0. 0. 0. 0. 0. 0. 7.51879718e-03 0. 0. 0. 0. 0. 0. 0. 0. 0.
      0. 0. 0. 0. 0. 0. 0. 0. 0. 0. 0. 0. 7.51879718e-03 0. 0. 0. 0. 0.
      0. 0. 0. 0. 0. 0. 0. 0. 0. 0. 0. 0. 0. 0. 0. 7.51879718e-03 0. 0.
      0. 0. 0. 0. 0. 0. 0. 0. 0. 0. 0. 0. 0. 0. 0. 0. 7.51879718e-03 0.
      0. 0. 0. 0. 0. 0. 0. 0. 0. 0. 0. 0. 1.50375944e-02 0. 0. 0. 0. 0.
      0. 0. 7.51879718e-03 0. 0. 0. 0. 0. 0. 0. 0. 0. 0. 0. 0.
      7.51879718e-03 0. 0. 0. 0. 0. 0. 0. 7.51879718e-03 0. 0.
      7.51879718e-03 0. 0. 0. 0. 0. 0. 0. 0. 7.51879718e-03
      1.50375944e-02 0. 0. 0. 0. 0. 0. 0. 0. 0. 0. 0. 0. 0. 0. 0. 0. 0.
      0. 0. 7.51879718e-03 0. 0. 7.51879718e-03 0. 0. 7.51879718e-03 0.
      0. 0. 0. 0. 0. 0. 0. 0. 0. 0. 0. 0. 0. 0. 0. 0. 0. 0.
      7.51879718e-03 0. 7.51879718e-03 0. 7.51879718e-03 7.51879718e-03
      0. 0. 0. 0. 0. 0. 0. 0. 0. 0. 0. 0. 7.51879718e-03 0. 0. 0. 0. 0.
      0. 0. 0. 0. 0. 0. 0. 0. 0. 1.50375944e-02 0. 0. 0. 0. 0. 0.
      1.50375944e-02 0. 0. 0. 0. 0. 0. 0. 0. 0. 0. 0. 0. 0. 0. 0. 0. 0.
      0. 0. 0. 0. 0. 0. 7.51879718e-03 0. 0. 0. 0. 0. 0. 0. 0. 0. 0. 0.
      0. 0. 0. 0. 0. 0. 0. 0. 0. 0. 0. 0. 0. 0. 0. 0. 0. 0. 0. 0. 0.
      7.51879718e-03 0. 0. 0. 0. 0. 0. 0. 0. 0. 0. 0. 1.50375944e-02
      7.51879718e-03 0. 0. 0. 0. 0. 0. 0. 0. 0. 0. 0. 0. 0. 0. 0. 0. 0.
      0. 0. 0. 0. 0. 0. 0. 0. 0. 0. 0. 0. 0. 7.51879718e-03 0. 0. 0.
      1.50375944e-02 0. 0. 0. 0. 0. 7.51879718e-03 0. 0. 0. 0. 0. 0. 0.
      0. 0. 0. 0. 7.51879718e-03 0. 0. 0. 0. 0. 0. 0. 0. 0. 0. 0. 0. 0.
      0. 0. 0. 0. 0. 0. 0. 0. 0. 0. 0. 0. 0. 0. 0. 0. 0. 0. 0. 0. 0.
      1.50375944e-02 0. 0. 0. 0. 0. 7.51879718e-03 0. 0. 0. 0. 0. 0. 0.
      0. 0. 7.51879718e-03 0. 0. 0. 0. 0. 7.51879718e-03 0. 0. 0. 0. 0.
      0. 0. 0. 0. 1.50375944e-02 0. 0. 0. 0. 0. 0. 0. 0. 0. 0. 0. 0. 0.
      0. 0. 0. 0. 0. 0. 0. 0. 0. 0. 0. 7.51879718e-03 0. 0. 0.
      7.51879718e-03 0. 0. 0. 0. 0. 0. 7.51879718e-03 0. 0. 0. 0. 0. 0.
      0. 0. 0. 0. 0. 0. 0. 0. 0. 0. 0. 0. 0. 0. 0. 0. 0. 0. 0. 0. 0. 0.
      0. 0. 0. 0. 0. 0. 0. 0. 0. 0. 0. 7.51879718e-03 0. 0. 0. 0. 0. 0.
      0. 0. 0. 0. 0. 0. 0. 0. 0. 0. 7.51879718e-03 7.51879718e-03 0. 0.
      0. 0. 0. 0. 0. 0. 0. 0. 0. 0. 0. 0. 0. 0. 0. 0. 0. 0. 0. 0. 0. 0.
      0. 0. 0. 0. 7.51879718e-03 0. 0. 0. 0. 0. 0. 0. 0. 0. 0.
      7.51879718e-03 0. 0. 0. 0. 0. 0. 7.51879718e-03 0. 0. 0. 0. 0. 0.
      0. 0. 0. 0. 0. 0. 0. 0. 0. 0. 0. 0. 0. 0. 0. 0. 0. 0. 0. 0. 0. 0.
      7.51879718e-03 0. 0. 0. 0. 0. 0. 0. 0. 0. 0. 0. 0. 0. 0. 0. 0. 0.
      0. 0. 0. 0. 1.50375944e-02 0. 0. 0. 7.51879718e-03 0. 0. 0. 0. 0.
      0. 0. 0. 0. 0. 0. 0. 0. 0. 0. 0. 0. 0. 0. 0. 0. 0. 0. 0. 0. 0. 0.
      0. 0. 0. 0. 0. 0. 0. 0. 0. 0. 0. 0. 0. 0. 0. 0. 0. 0. 0. 0. 0. 0.
      0. 0. 7.51879718e-03 0. 0. 0. 7.51879718e-03 0. 0. 0. 0. 0. 0. 0.
      0. 0. 0. 0. 0. 0. 7.51879718e-03 0. 0. 0. 0. 0. 0. 7.51879718e-03
      7.51879718e-03 7.51879718e-03 0. 0. 7.51879718e-03 0. 0. 0. 0. 0.
      0. 0. 0. 0. 0. 0. 0. 0. 0. 7.51879718e-03 0. 0. 0. 0. 0. 0. 0. 0.
      0. 7.51879718e-03 0. 0. 0. 0. 0. 0. 0. 0. 0. 0. 7.51879718e-03 0.
      0. 1.50375944e-02 0. 7.51879718e-03 0. 1.50375944e-02 0. 0. 0. 0.
      0. 0. 0. 0. 0. 0. 0. 0. 0. 1.50375944e-02 0. 0. 0. 0. 0.
      7.51879718e-03 0. 0. 0. 0. 7.51879718e-03 0. 0. 0. 7.51879718e-03
      0. 0. 0. 0. 0. 0. 0. 0. 7.51879718e-03 7.51879718e-03 0.
      7.51879718e-03 0. 0. 0. 0. 0. 0. 0. 0. 0. 0. 0. 0. 0. 0. 0. 0. 0.
      0. 0. 0. 0. 0. 0. 0. 0. 0. 0. 0. 0. 0. 0. 0. 0. 0. 0. 0. 0. 0. 0.
      0. 0. 0. 0. 0. 0. 0. 0. 0. 7.51879718e-03 0. 0. 0. 0. 0. 0. 0. 0.
      0. 0. 0. 0. 0. 0. 0. 0. 0. 0. 7.51879718e-03 0. 0. 0. 0. 0.
      2.25563906e-02 0. 0. 0. 0. 0. 0. 0. 0. 0. 0. 0. 0. 0. 0. 0. 0. 0.
      0. 0. 0. 0. 7.51879718e-03 0. 0. 0. 0. 0. 0. 0. 0. 0. 0. 0. 0. 0.
      0. 0. 0. 0. 0. 0. 0. 0. 0. 0. 0. 0. 0. 0. 0. 0. 0. 0. 0. 0. 0. 0.
      0. 0. 0. 0. 0. 0. 7.51879718e-03 7.51879718e-03 0. 0. 0. 0. 0. 0.
      0. 0. 0. 0. 0. 0. 0. 0. 0. 0. 0. 0. 0. 0. 0. 0. 0. 7.51879718e-03
      0. 0. 0. 0. 0. 0. 0. 0. 7.51879718e-03 0. 0. 0. 7.51879718e-03 0.
      0. 0. 0. 0. 0. 0. 0. 0. 0. 0. 0. 0. 0. 7.51879718e-03 0. 0. 0. 0.
      0. 0. 0. 0. 0. 0. 0. 0. 0. 0. 0. 0. 0. 0. 0. 0. 0. 0. 0. 0.
      7.51879718e-03 0. 0. 0. 0. 0. 0. 0. 0. 0. 0. 0. 0. 0. 0. 0. 0. 0.
      0. 0. 0. 0. 0. 0. 0. 0. 0. 0. 0. 0. 0. 0. 7.51879718e-03 0. 0. 0.
      0. 0. 0. 0. 0. 7.51879718e-03 0. 0. 0. 0. 0. 0. 0. 0. 0. 0. 0. 0.
      0. 0. 0. 0. 0. 0. 0. 0. 0. 0. 0. 0. 0. 0. 7.51879718e-03 0. 0. 0.
      0. 0. 0. 0. 0. 0. 0. 0. 7.51879718e-03 0. 0. 0. 0. 0. 0. 0. 0. 0.
      0. 0. 0. 0. 0. 0. 0. 0. 0. 7.51879718e-03 0. 0. 1.50375944e-02 0.
      0. 0. 0. 0. 0. 0. 0. 0. 0. 1.50375944e-02 0. 0. 0. 0.
      7.51879718e-03 0. 0. 0. 0. 0. 0. 0. 0. 7.51879718e-03 0. 0. 0. 0.
      0. 0. 0. 0. 0. 0. 7.51879718e-03 0. 0. 0. 0. 0. 0. 0. 0. 0. 0. 0.
      0. 0. 0. 7.51879718e-03 0. 0. 0. 0. 0. 0. 0. 0. 0. 0. 0. 0. 0. 0.
      0. 7.51879718e-03 0. 0. 0. 0. 0. 0. 0. 0. 0. 0. 0. 1.50375944e-02
      7.51879718e-03 0. 0. 0. 0. 0. 0. 0. 0. 0. 0. 0. 0. 0. 0. 0.
      7.51879718e-03 0. 0. 0. 0. 0. 0. 0. 0. 0. 0. 0. 0. 0. 0. 0. 0. 0.
      0. 0. 0. 0. 0. 0. 0. 0. 0. 0. 0. 0. 0. 7.51879718e-03 0. 0. 0. 0.
      0. 0. 0. 0. 0. 0. 0. 0. 0. 0. 0. 0. 0. 0. 0. 0. 0. 0. 0.
      7.51879718e-03 7.51879718e-03 0. 0. 0. 0. 0. 0. 0. 0. 0. 0. 0. 0.
      0. 0. 0. 0. 0. 0. 0. 0. 0. 0. 7.51879718e-03 0. 0. 0. 0. 0. 0. 0.
      0. 0. 0. 7.51879718e-03 0. 0. 0. 0. 0. 0. 0. 0. 0. 0. 0. 0. 0.</_>
    <_>
      0. 0. 0. 0. 0. 0. 0. 1.81818176e-02 0. 0. 0. 0. 0. 0. 0. 0. 0. 0.
      9.09090880e-03 0. 0. 0. 0. 0. 0. 0. 0. 0. 0. 0. 9.09090880e-03 0.
      0. 0. 0. 0. 0. 0. 0. 0. 0. 0. 0. 9.09090880e-03 0. 0. 0. 0. 0. 0.
      0. 0. 0. 0. 0. 0. 0. 0. 0. 0. 0. 0. 0. 0. 0. 0. 0. 0. 0. 0. 0. 0.
      0. 9.09090880e-03 0. 0. 0. 0. 0. 0. 9.09090880e-03 0. 0. 0. 0. 0.
      0. 0. 9.09090880e-03 0. 0. 9.09090880e-03 0. 0. 0. 0. 0. 0. 0. 0.
      0. 0. 0. 0. 0. 0. 0. 0. 9.09090880e-03 0. 0. 0. 0. 0. 0. 0. 0. 0.
      0. 0. 0. 0. 0. 0. 0. 3.63636352e-02 0. 0. 0. 0. 9.09090880e-03 0.
      0. 0. 0. 0. 0. 9.09090880e-03 0. 0. 0. 0. 0. 0. 0. 0. 0. 0. 0. 0.
      0. 0. 0. 0. 0. 0. 0. 0. 0. 0. 0. 0. 9.09090880e-03 0. 0. 0. 0. 0.
      0. 0. 0. 0. 0. 0. 0. 0. 0. 0. 0. 0. 0. 0. 0. 0. 9.09090880e-03 0.
      0. 0. 0. 0. 0. 0. 0. 0. 0. 0. 0. 0. 0. 0. 0. 0. 0. 0. 0. 0. 0. 0.
      0. 9.09090880e-03 0. 0. 0. 0. 0. 9.09090880e-03 0. 0. 0. 0. 0. 0.
      0. 0. 0. 0. 0. 0. 0. 0. 0. 0. 0. 0. 2.72727273e-02 9.09090880e-03
      0. 0. 0. 0. 0. 0. 0. 0. 0. 0. 0. 0. 1.81818176e-02 0. 0. 0. 0. 0.
      0. 9.09090880e-03 0. 0. 0. 0. 0. 0. 0. 0. 0. 0. 0. 0. 0.
      9.09090880e-03 0. 0. 0. 0. 0. 0. 0. 0. 0. 0. 0. 0. 0. 0. 0. 0. 0.
      9.09090880e-03 0. 0. 0. 0. 0. 0. 0. 0. 0. 0. 0. 0. 0. 0. 0. 0. 0.
      0. 9.09090880e-03 0. 0. 0. 0. 0. 0. 0. 0. 0. 0. 0. 0. 0. 0. 0. 0.
      0. 0. 0. 0. 0. 0. 9.09090880e-03 0. 0. 0. 0. 0. 0. 0. 0. 0. 0. 0.
      0. 1.81818176e-02 9.09090880e-03 0. 0. 0. 9.09090880e-03 0. 0. 0.
      0. 9.09090880e-03 0. 0. 0. 0. 0. 0. 0. 0. 0. 0. 0. 1.81818176e-02
      0. 0. 0. 0. 0. 0. 0. 0. 0. 0. 0. 0. 0. 0. 0. 0. 0. 0. 0. 0. 0. 0.
      0. 0. 0. 0. 0. 0. 9.09090880e-03 0. 0. 0. 0. 0. 0. 0. 0. 0. 0. 0.
      0. 0. 0. 0. 0. 0. 0. 0. 0. 0. 0. 0. 0. 0. 0. 0. 0. 0. 0. 0. 0. 0.
      0. 0. 0. 0. 0. 0. 0. 0. 0. 0. 0. 0. 0. 0. 0. 0. 0. 0. 0. 0. 0. 0.
      0. 0. 0. 0. 0. 9.09090880e-03 0. 0. 0. 0. 0. 0. 0. 0. 0. 0. 0. 0.
      0. 0. 0. 0. 0. 0. 0. 0. 0. 0. 0. 0. 0. 0. 0. 0. 0. 3.63636352e-02
      0. 0. 9.09090880e-03 0. 0. 0. 9.09090880e-03 0. 0. 0. 0. 0. 0. 0.
      0. 0. 1.81818176e-02 0. 0. 0. 0. 0. 0. 0. 0. 0. 0. 0. 0. 0. 0. 0.
      0. 0. 0. 0. 0. 0. 0. 0. 0. 0. 0. 0. 0. 9.09090880e-03 0. 0. 0. 0.
      0. 0. 0. 0. 0. 0. 0. 0. 0. 0. 0. 0. 0. 0. 0. 0. 0. 0. 0. 0. 0. 0.
      0. 0. 0. 0. 0. 0. 0. 0. 0. 0. 0. 0. 0. 0. 0. 0. 0. 0. 0. 0. 0. 0.
      0. 0. 0. 0. 0. 0. 0. 2.72727273e-02 0. 0. 9.09090880e-03 0. 0.
      9.09090880e-03 0. 0. 0. 0. 0. 0. 0. 0. 0. 9.09090880e-03 0. 0. 0.
      0. 0. 0. 0. 0. 0. 0. 0. 0. 0. 9.09090880e-03 0. 0. 0. 0. 0. 0. 0.
      0. 0. 0. 0. 0. 0. 0. 0. 0. 0. 0. 0. 0. 0. 0. 0. 0. 0. 0. 0. 0. 0.
      0. 0. 0. 0. 0. 0. 0. 0. 0. 0. 0. 9.09090880e-03 0. 0.
      1.81818176e-02 0. 0. 0. 0. 0. 9.09090880e-03 0. 0. 1.81818176e-02
      0. 0. 0. 0. 0. 9.09090880e-03 0. 0. 0. 0. 0. 0. 0. 0. 0. 0. 0. 0.
      0. 0. 0. 0. 0. 0. 0. 0. 0. 0. 0. 0. 0. 1.81818176e-02 0. 0. 0. 0.
      0. 0. 0. 9.09090880e-03 0. 0. 0. 0. 0. 0. 0. 0. 0. 0. 0. 0. 0. 0.
      0. 0. 0. 0. 0. 0. 0. 0. 0. 0. 0. 0. 0. 0. 0. 0. 0. 0. 0. 0.
      9.09090880e-03 0. 0. 0. 0. 0. 0. 0. 0. 0. 0. 0. 0. 0. 0. 0. 0. 0.
      0. 0. 0. 0. 0. 0. 0. 0. 0. 0. 0. 0. 0. 0. 0. 0. 0. 0. 0. 0. 0. 0.
      1.81818176e-02 0. 0. 0. 0. 0. 0. 0. 0. 0. 0. 0. 0. 1.81818176e-02
      0. 0. 0. 0. 0. 0. 0. 0. 0. 0. 0. 0. 0. 0. 0. 0. 0. 0.
      9.09090880e-03 0. 0. 0. 0. 0. 0. 0. 0. 0. 0. 0. 0. 0. 0. 0. 0. 0.
      0. 0. 0. 0. 0. 0. 0. 0. 0. 0. 0. 0. 0. 0. 0. 0. 0. 0. 0.
      9.09090880e-03 0. 0. 0. 0. 0. 0. 0. 0. 0. 0. 0. 0. 0. 0. 0. 0. 0.
      0. 0. 0. 0. 0. 0. 0. 0. 0. 0. 0. 0. 0. 0. 0. 0. 0. 0. 0. 0. 0. 0.
      0. 0. 0. 0. 0. 0. 0. 0. 0. 0. 0. 0. 0. 0. 0. 0. 0. 0. 0. 0. 0. 0.
      0. 0. 0. 9.09090880e-03 0. 0. 0. 0. 0. 0. 0. 0. 0. 0. 0. 0. 0. 0.
      0. 0. 0. 0. 0. 0. 0. 0. 0. 9.09090880e-03 0. 0. 0. 0. 0. 0. 0. 0.
      0. 0. 0. 0. 0. 0. 9.09090880e-03 0. 0. 0. 0. 0. 0. 0. 0. 0. 0. 0.
      0. 0. 0. 0. 0. 0. 0. 0. 0. 0. 0. 0. 0. 0. 0. 0. 1.81818176e-02 0.
      0. 0. 0. 0. 0. 0. 0. 0. 0. 0. 0. 0. 0. 0. 0. 0. 2.72727273e-02 0.
      0. 0. 0. 0. 0. 0. 0. 0. 0. 0. 0. 0. 0. 0. 0. 0. 0. 0. 0. 0. 0. 0.
      0. 0. 0. 0. 0. 0. 0. 0. 0. 0. 0. 0. 0. 0. 0. 0. 0. 0. 0. 0. 0. 0.
      0. 0. 0. 0. 0. 0. 0. 0. 0. 0. 0. 0. 0. 0. 0. 0. 0. 0. 0. 0. 0. 0.
      0. 0. 0. 0. 0. 0. 0. 0. 0. 0. 0. 0. 0. 0. 0. 0. 0. 0. 0. 0. 0. 0.
      0. 0. 0. 0. 0. 0. 0. 0. 0. 0. 0. 0. 0. 9.09090880e-03 0. 0. 0. 0.
      0. 0. 0. 0. 0. 0. 0. 0. 0. 0. 0. 0. 0. 0. 0. 0. 0. 0. 0. 0.
      9.09090880e-03 0. 0. 0. 0. 0. 0. 0. 0. 0. 0. 0. 0. 0. 0. 0. 0. 0.
      0. 0. 0. 0. 9.09090880e-03 0. 0. 9.09090880e-03 0. 0. 0. 0. 0. 0.
      0. 0. 0. 0. 0. 0. 0. 0. 0. 0. 0. 0. 9.09090880e-03 0. 0. 0. 0. 0.
      0. 9.09090880e-03 0. 0. 0. 0. 0. 0. 0. 0. 0. 0. 0. 0. 0. 0.
      1.81818176e-02 0. 0. 0. 0. 0. 0. 0. 0. 9.09090880e-03 0. 0. 0. 0.
      0. 0. 0. 0. 0. 0. 0. 0. 0. 0. 0. 0. 0. 0. 0. 0. 0. 0. 0. 0. 0. 0.
      0. 0. 0. 0. 9.09090880e-03 0. 0. 0. 0. 0. 0. 0. 0. 0. 0. 0. 0. 0.
      0. 0. 0. 0. 0. 0. 0. 0. 0. 0. 0. 0. 0. 0. 0. 0. 0. 0. 0. 0. 0.
      9.09090880e-03 0. 0. 0. 0. 0. 0. 0. 0. 0. 0. 0. 0. 0. 0. 0. 0.
      1.81818176e-02 0. 0. 0. 0. 9.09090880e-03 0. 0. 9.09090880e-03 0.
      0. 0. 0. 0. 9.09090880e-03 0. 0. 0. 0. 0. 0. 0. 0. 0. 0. 0. 0. 0.
      0. 0. 0. 2.72727273e-02 0. 0. 0. 0. 0. 0. 0. 0. 0. 0. 0. 0. 0. 0.
      0. 0. 0. 0. 0. 9.09090880e-03 0. 0. 0. 9.09090880e-03 0. 0. 0. 0.
      0. 0. 0. 0. 0. 0. 0. 0. 0. 0. 0. 0. 0. 0. 0. 0. 0. 0. 0. 0. 0. 0.
      0. 0. 0. 0. 0. 0. 0. 0. 0. 0. 0. 0. 1.81818176e-02 0. 0. 0. 0. 0.
      0. 0. 0. 0. 9.09090880e-03 0. 0. 0. 0. 0. 0. 0. 0. 0. 0. 0. 0. 0.
      0. 0. 0. 0. 0. 0. 0. 0. 0. 0. 0. 0. 0. 0. 0. 0. 0. 0. 0. 0.
      9.09090880e-03 0. 0. 0. 0. 0. 0. 0. 0. 0. 0. 0. 0. 0. 0. 0. 0. 0.
      0. 0. 0. 0. 0. 0. 0. 0. 0. 0. 0. 0. 0. 0. 0. 0. 0. 0. 0. 0. 0. 0.
      0. 0. 0. 0. 0. 0. 0. 0. 9.09090880e-03 0. 0. 0. 9.09090880e-03 0.
      0. 0. 0. 0. 0. 9.09090880e-03 0. 0. 0. 9.09090880e-03 0. 0. 0. 0.
      0. 0. 0. 0. 0.</_>
    <_>
      0. 0. 0. 0. 0. 0. 0. 0. 0. 7.49063678e-03 3.74531839e-03 0. 0. 0.
      0. 0. 0. 0. 0. 0. 3.74531839e-03 0. 0. 0. 0. 0. 3.74531839e-03 0.
      0. 0. 0. 7.49063678e-03 0. 0. 0. 3.74531839e-03 0. 0. 0.
      1.49812736e-02 0. 3.74531839e-03 0. 0. 0. 0. 0. 0. 0. 0. 0.
      3.74531839e-03 0. 0. 0. 3.74531839e-03 0. 0. 0. 0. 0. 0.
      3.74531839e-03 0. 0. 3.74531839e-03 0. 0. 0. 7.49063678e-03 0. 0.
      0. 7.49063678e-03 0. 0. 0. 3.74531839e-03 0. 0. 0. 0. 0. 0. 0. 0.
      3.74531839e-03 0. 0. 3.74531839e-03 0. 0. 0. 0. 0. 0. 0. 0.
      7.49063678e-03 0. 3.74531839e-03 0. 0. 0. 0. 7.49063678e-03 0. 0.
      0. 3.74531839e-03 0. 1.12359552e-02 0. 0. 0. 3.74531839e-03 0.
      3.74531839e-03 0. 0. 0. 0. 0. 0. 0. 0. 0. 0. 0. 0. 7.49063678e-03
      0. 0. 3.74531839e-03 0. 1.12359552e-02 0. 0. 3.74531839e-03
      7.49063678e-03 0. 0. 0. 0. 0. 0. 0. 0. 0. 0. 0. 0. 0. 0.
      3.74531839e-03 0. 0. 0. 0. 0. 0. 0. 0. 0. 0. 0. 3.74531839e-03 0.
      0. 0. 1.87265910e-02 0. 0. 0. 0. 0. 0. 0. 0. 0. 0. 0. 0. 0. 0. 0.
      0. 0. 0. 3.74531839e-03 0. 0. 0. 0. 0. 0. 0. 0. 0. 0. 0. 0. 0.
      7.49063678e-03 0. 0. 3.74531839e-03 0. 0. 0. 3.74531839e-03 0. 0.
      0. 0. 0. 0. 0. 0. 0. 0. 0. 0. 0. 3.74531839e-03 0. 0. 0. 0. 0. 0.
      0. 0. 0. 0. 0. 0. 0. 0. 0. 0. 0. 0. 0. 0. 0. 0. 0. 3.74531839e-03
      3.74531839e-03 0. 0. 3.74531839e-03 0. 0. 3.74531839e-03 0. 0. 0.
      0. 0. 0. 0. 0. 0. 0. 0. 0. 0. 3.74531839e-03 0. 0. 0. 0. 0. 0. 0.
      0. 0. 0. 3.74531839e-03 0. 3.74531839e-03 3.74531839e-03 0. 0. 0.
      3.74531839e-03 0. 0. 0. 0. 0. 0. 0. 0. 0. 0. 0. 0. 0. 0.
      3.74531839e-03 3.74531839e-03 0. 0. 0. 3.74531839e-03 0. 0. 0. 0.
      1.12359552e-02 0. 0. 0. 0. 0. 0. 0. 0. 0. 0. 0. 3.74531839e-03 0.
      0. 0. 0. 0. 0. 3.74531839e-03 0. 0. 0. 0. 0. 0. 0. 0. 0. 0. 0. 0.
      0. 3.74531839e-03 0. 0. 0. 0. 0. 0. 3.74531839e-03 0. 0. 0. 0. 0.
      0. 0. 0. 0. 3.74531839e-03 0. 3.74531839e-03 0. 0. 0. 0. 0. 0. 0.
      0. 3.74531839e-03 0. 3.74531839e-03 0. 0. 0. 0. 0. 0. 0. 0. 0. 0.
      0. 0. 0. 0. 0. 0. 0. 0. 0. 0. 0. 0. 3.74531839e-03 0.
      3.74531839e-03 3.74531839e-03 0. 0. 0. 0. 0. 0. 0. 0. 0. 0. 0. 0.
      0. 0. 0. 0. 0. 0. 0. 3.74531839e-03 0. 0. 7.49063678e-03 0. 0. 0.
      0. 0. 0. 0. 3.74531839e-03 0. 0. 0. 0. 0. 0. 7.49063678e-03 0. 0.
      3.74531839e-03 0. 0. 0. 0. 0. 0. 0. 0. 0. 0. 0. 0. 0. 0. 0. 0. 0.
      0. 0. 3.74531839e-03 0. 0. 0. 0. 0. 3.74531839e-03 0.
      3.74531839e-03 1.12359552e-02 0. 0. 0. 0. 0. 0. 0. 0. 0. 0. 0. 0.
      0. 0. 0. 0. 0. 0. 0. 0. 0. 0. 0. 0. 0. 3.74531839e-03
      3.74531839e-03 0. 0. 0. 0. 0. 0. 3.74531839e-03 0. 0. 0.
      3.74531839e-03 0. 0. 7.49063678e-03 0. 0. 0. 0. 0. 0.
      7.49063678e-03 0. 0. 0. 3.74531839e-03 0. 0. 0. 3.74531839e-03 0.
      0. 0. 0. 0. 0. 0. 0. 0. 3.74531839e-03 0. 0. 0. 0. 3.74531839e-03
      0. 0. 0. 0. 0. 0. 0. 0. 0. 3.74531839e-03 0. 0. 0. 0. 0. 0. 0. 0.
      0. 7.49063678e-03 0. 0. 0. 7.49063678e-03 0. 0. 3.74531839e-03
      1.87265910e-02 0. 0. 7.49063678e-03 0. 0. 0. 0. 0. 0. 0. 0.
      3.74531839e-03 0. 0. 0. 0. 0. 0. 0. 0. 0. 0. 0. 3.74531839e-03
      3.74531839e-03 0. 0. 0. 0. 0. 0. 0. 0. 3.74531839e-03 0. 0. 0. 0.
      0. 0. 0. 0. 0. 3.74531839e-03 0. 0. 3.74531839e-03 0. 0. 0. 0. 0.
      0. 0. 3.74531839e-03 0. 0. 0. 0. 0. 0. 0. 0. 3.74531839e-03 0. 0.
      3.74531839e-03 0. 0. 0. 0. 0. 0. 0. 0. 0. 0. 0. 3.74531839e-03 0.
      0. 0. 0. 7.49063678e-03 0. 0. 0. 3.74531839e-03 0. 0. 0.
      3.74531839e-03 0. 0. 0. 0. 0. 0. 0. 0. 0. 0. 0. 0. 0. 0. 0.
      7.49063678e-03 7.49063678e-03 0. 0. 0. 0. 0. 0. 0. 0. 0. 0.
      3.74531839e-03 0. 3.74531839e-03 0. 3.74531839e-03 0. 0. 0. 0. 0.
      7.49063678e-03 0. 0. 0. 0. 0. 0. 0. 0. 0. 0. 0. 0. 0. 0.
      3.74531839e-03 0. 0. 0. 0. 0. 0. 3.74531839e-03 0. 0.
      7.49063678e-03 7.49063678e-03 0. 0. 0. 0. 3.74531839e-03 0.
      3.74531839e-03 0. 0. 0. 0. 0. 0. 0. 0. 0. 3.74531839e-03 0. 0. 0.
      0. 0. 0. 3.74531839e-03 0. 0. 3.74531839e-03 0. 0. 0. 0. 0. 0. 0.
      0. 0. 0. 3.74531839e-03 0. 0. 0. 0. 0. 0. 0. 0. 0. 3.74531839e-03
      0. 3.74531839e-03 0. 0. 0. 0. 3.74531839e-03 0. 3.74531839e-03 0.
      0. 0. 0. 3.74531839e-03 0. 0. 0. 0. 0. 3.74531839e-03 0. 0. 0. 0.
      0. 0. 0. 0. 0. 0. 0. 0. 0. 0. 3.74531839e-03 0. 0. 0. 0.
      3.74531839e-03 0. 3.74531839e-03 3.74531839e-03 0. 0. 0.
      3.74531839e-03 0. 0. 0. 0. 0. 0. 0. 0. 0. 0. 0. 0. 0. 0. 0. 0.
      3.74531839e-03 0. 0. 0. 0. 0. 0. 0. 0. 0. 0. 0. 0. 0. 0. 0. 0. 0.
      7.49063678e-03 0. 0. 0. 3.74531839e-03 0. 0. 0. 0. 0. 0. 0. 0. 0.
      0. 0. 0. 0. 0. 0. 0. 0. 3.74531839e-03 0. 0. 0. 0. 0. 0. 0. 0. 0.
      0. 0. 0. 0. 0. 3.74531839e-03 3.74531839e-03 0. 0. 0.
      3.74531839e-03 0. 0. 0. 3.74531839e-03 0. 0. 0. 0. 0. 0.
      3.74531839e-03 0. 0. 0. 0. 0. 0. 0. 0. 0. 3.74531839e-03 0. 0. 0.
      3.74531839e-03 0. 0. 0. 0. 0. 3.74531839e-03 0. 0. 3.74531839e-03
      0. 0. 0. 3.74531839e-03 3.74531839e-03 3.74531839e-03 0.
      7.49063678e-03 0. 0. 0. 0. 0. 0. 0. 0. 0. 0. 7.49063678e-03 0.
      3.74531839e-03 0. 0. 0. 0. 3.74531839e-03 0. 0. 0. 0. 0. 0. 0.
      3.74531839e-03 0. 0. 0. 0. 3.74531839e-03 0. 0. 0. 0. 0. 0. 0. 0.
      0. 0. 0. 0. 0. 0. 0. 0. 0. 0. 3.74531839e-03 0. 0. 0. 0. 0. 0. 0.
      0. 0. 0. 0. 0. 0. 3.74531839e-03 3.74531839e-03 3.74531839e-03 0.
      0. 0. 0. 0. 0. 0. 3.74531839e-03 0. 0. 0. 0. 0. 1.12359552e-02 0.
      0. 3.74531839e-03 0. 3.74531839e-03 0. 3.74531839e-03
      3.74531839e-03 0. 0. 0. 3.74531839e-03 0. 0. 0. 0. 0. 0. 0.
      3.74531839e-03 0. 0. 0. 0. 0. 0. 0. 3.74531839e-03 0. 0. 0. 0. 0.
      0. 0. 0. 0. 3.74531839e-03 0. 0. 0. 0. 0. 3.74531839e-03 0. 0. 0.
      0. 0. 0. 0. 0. 3.74531839e-03 0. 3.74531839e-03 0. 0. 0. 0. 0. 0.
      3.74531839e-03 0. 0. 3.74531839e-03 0. 0. 0. 0. 1.12359552e-02 0.
      0. 0. 0. 0. 3.74531839e-03 0. 0. 0. 0. 0. 0. 0. 0. 0. 0. 0.
      3.74531839e-03 0. 3.74531839e-03 0. 0. 0. 1.49812736e-02 0. 0. 0.
      0. 0. 0. 0. 0. 0. 0. 0. 0. 0. 0. 0. 0. 0. 0. 0. 0. 0. 0.
      7.49063678e-03 0. 0. 0. 0. 0. 0. 0. 0. 0. 0. 3.74531839e-03 0. 0.
      0. 0. 0. 0. 0. 0. 0. 0. 0. 0. 0. 0. 0. 0. 0. 0. 0. 3.74531839e-03
      0. 0. 0. 0. 7.49063678e-03 0. 0. 3.74531839e-03 0. 0. 0. 0. 0.
      3.74531839e-03 0. 0. 0. 0. 0. 0. 0. 0. 0. 0. 3.74531839e-03 0.
      3.74531839e-03 0. 0. 0. 0. 3.74531839e-03 0. 0. 0. 0. 0. 0. 0. 0.
      0. 0. 3.74531839e-03 0. 0. 0. 0. 0. 0. 0. 0. 0. 0. 0. 0. 0. 0. 0.
      0. 0. 0. 0. 0. 3.74531839e-03 0. 0. 0. 0. 0. 0. 0. 0. 0. 0. 0. 0.
      0. 0. 0. 0. 0. 0. 0. 0. 0. 0. 7.49063678e-03 0. 0. 0. 0. 0. 0. 0.
      0. 0. 0. 0. 0. 0. 0. 0. 0. 0. 0. 0. 0. 0. 0. 3.74531839e-03 0. 0.
      0. 0. 0. 0. 0. 0. 0. 0. 0. 0. 0. 0. 0. 0. 0. 0. 0. 0.
      3.74531839e-03 0. 0. 0. 0. 0. 0. 0. 7.49063678e-03 3.74531839e-03
      0. 0. 3.74531839e-03 0. 0. 0. 0. 0. 0. 0. 0. 3.74531839e-03 0. 0.
      0. 0. 0. 0. 0. 0. 0. 0. 0. 0. 0. 0. 0. 0. 0. 0. 0. 0. 0. 0. 0. 0.
      0. 0. 0. 3.74531839e-03 0. 0. 0. 0. 0. 0. 0. 0. 0. 0. 0. 0. 0. 0.
      0. 0. 0. 3.74531839e-03 0. 0. 0. 0. 0. 0. 0. 0. 0. 0. 0.
      7.49063678e-03 0. 0. 0. 3.74531839e-03 0. 0. 0. 0. 0. 0. 0. 0.
      3.74531839e-03 0. 0. 0. 0. 3.74531839e-03 0. 0. 3.74531839e-03 0.
      0. 0. 0. 0. 0. 0. 0. 3.74531839e-03 0. 0. 0. 0. 0. 0. 0. 0. 0. 0.
      3.74531839e-03 0. 0. 0. 0. 0. 0. 3.74531839e-03 0. 0. 0.
      3.74531839e-03 0. 0. 0. 0. 0. 0. 0. 0. 0. 0. 0. 0. 0. 0. 0.
      3.74531839e-03 0. 0. 3.74531839e-03 0. 0. 0. 0. 0. 0. 0. 0. 0. 0.
      0. 3.74531839e-03 0. 0. 3.74531839e-03 0. 0. 0. 3.74531839e-03 0.
      0. 0. 0. 0. 0. 0. 3.74531839e-03 0. 0. 0. 0. 3.74531839e-03
      3.74531839e-03 0. 0. 0. 0. 0. 0. 0. 0. 0. 0. 0. 0. 0.
      3.74531839e-03 0. 3.74531839e-03 0.</_>
    <_>
      0. 0. 0. 0. 0. 0. 0. 0. 0. 0. 0. 0. 0. 0. 0. 1.29032256e-02
      6.45161280e-03 0. 0. 0. 0. 0. 0. 0. 0. 0. 0. 0. 0. 0. 0. 0. 0. 0.
      6.45161280e-03 0. 0. 0. 0. 0. 0. 0. 0. 0. 0. 6.45161280e-03 0. 0.
      0. 0. 0. 0. 0. 0. 6.45161280e-03 0. 0. 0. 0. 0. 0. 0.
      6.45161280e-03 0. 0. 0. 0. 0. 0. 0. 0. 0. 0. 0. 0. 0. 0. 0. 0. 0.
      0. 0. 0. 0. 0. 2.58064512e-02 0. 0. 0. 6.45161280e-03 0. 0. 0. 0.
      6.45161280e-03 0. 6.45161280e-03 0. 0. 0. 0. 0. 0. 0. 0. 0. 0. 0.
      0. 0. 0. 0. 0. 0. 0. 0. 0. 0. 0. 0. 0. 0. 0. 0. 0. 0. 0. 0. 0. 0.
      0. 0. 6.45161280e-03 0. 0. 6.45161280e-03 0. 0. 0. 0. 0. 0. 0. 0.
      0. 6.45161280e-03 0. 0. 0. 0. 0. 0. 0. 0. 0. 6.45161280e-03 0. 0.
      0. 0. 0. 0. 0. 0. 0. 0. 0. 0. 0. 0. 0. 0. 0. 0. 0. 0. 0. 0. 0. 0.
      0. 0. 1.29032256e-02 0. 0. 0. 6.45161280e-03 0. 0. 0.
      1.29032256e-02 0. 0. 0. 0. 0. 0. 0. 0. 0. 0. 0. 0. 0. 0. 0. 0. 0.
      0. 0. 0. 0. 0. 0. 0. 0. 0. 0. 0. 0. 0. 0. 0. 0. 0. 6.45161280e-03
      6.45161280e-03 0. 0. 0. 6.45161280e-03 0. 0. 0. 0. 0. 0. 0. 0. 0.
      0. 0. 0. 0. 0. 0. 0. 0. 0. 0. 0. 0. 0. 0. 0. 0. 6.45161280e-03 0.
      0. 0. 0. 0. 0. 1.29032256e-02 6.45161280e-03 0. 0. 0. 0. 0. 0. 0.
      0. 0. 0. 0. 0. 0. 0. 0. 0. 0. 0. 0. 3.22580636e-02 0. 0. 0. 0. 0.
      0. 6.45161280e-03 0. 0. 0. 0. 0. 0. 0. 0. 6.45161280e-03 0. 0. 0.
      0. 1.29032256e-02 0. 0. 0. 0. 0. 0. 0. 0. 0. 0. 0. 0. 0. 0. 0. 0.
      0. 0. 0. 0. 0. 0. 0. 0. 0. 0. 0. 0. 0. 0. 0. 0. 0. 0. 0.
      6.45161280e-03 0. 0. 1.29032256e-02 0. 0. 0. 6.45161280e-03 0. 0.
      0. 0. 0. 0. 0. 0. 0. 0. 0. 0. 0. 0. 0. 0. 0. 0. 6.45161280e-03 0.
      0. 0. 0. 0. 0. 0. 0. 0. 0. 0. 0. 0. 0. 0. 0. 0. 0. 6.45161280e-03
      2.58064512e-02 0. 0. 1.29032256e-02 0. 6.45161280e-03 0. 0. 0. 0.
      0. 0. 0. 0. 0. 0. 0. 0. 0. 0. 0. 0. 0. 0. 0. 0. 0. 0. 0. 0. 0. 0.
      0. 0. 0. 0. 0. 0. 0. 0. 0. 0. 0. 0. 0. 0. 0. 0. 0. 0.
      6.45161280e-03 0. 0. 0. 0. 1.93548389e-02 0. 0. 0. 0. 0. 0. 0. 0.
      0. 0. 6.45161280e-03 0. 0. 0. 0. 0. 0. 0. 0. 0. 0. 0. 0. 0. 0. 0.
      0. 0. 0. 0. 0. 0. 0. 0. 0. 0. 0. 0. 0. 0. 0. 0. 0. 0. 0. 0. 0. 0.
      0. 0. 0. 0. 0. 0. 0. 0. 6.45161280e-03 0. 0. 0. 0. 0. 0. 0. 0. 0.
      0. 0. 6.45161280e-03 0. 0. 0. 0. 0. 0. 0. 0. 0. 0. 0.
      6.45161280e-03 0. 0. 0. 0. 0. 6.45161280e-03 0. 0. 0. 0.
      6.45161280e-03 1.29032256e-02 6.45161280e-03 0. 0. 0.
      6.45161280e-03 0. 0. 0. 6.45161280e-03 0. 0. 0. 0. 0. 0. 0. 0.
      6.45161280e-03 6.45161280e-03 0. 0. 0. 0. 0. 0. 6.45161280e-03 0.
      0. 0. 0. 0. 0. 0. 0. 0. 0. 0. 0. 0. 0. 0. 0. 0. 0. 0. 0. 0. 0. 0.
      0. 0. 0. 0. 0. 0. 0. 0. 0. 0. 6.45161280e-03 0. 0. 0. 0. 0. 0. 0.
      0. 0. 6.45161280e-03 0. 6.45161280e-03 0. 0. 0. 0. 0. 0. 0. 0.
      6.45161280e-03 0. 0. 0. 0. 6.45161280e-03 0. 0. 0. 0. 0. 0. 0. 0.
      0. 0. 0. 0. 0. 0. 0. 0. 0. 0. 0. 0. 0. 0. 0. 0. 0. 0. 0. 0. 0. 0.
      0. 0. 0. 0. 0. 0. 0. 0. 0. 0. 0. 0. 0. 0. 0. 6.45161280e-03 0. 0.
      0. 0. 0. 0. 0. 0. 0. 0. 0. 0. 0. 0. 0. 0. 0. 0. 0. 0. 0. 0. 0. 0.
      0. 6.45161280e-03 0. 0. 0. 0. 0. 0. 1.93548389e-02 0. 0. 0. 0. 0.
      0. 0. 0. 0. 0. 0. 0. 0. 0. 0. 0. 0. 0. 0. 0. 0. 0. 0. 0. 0. 0. 0.
      0. 0. 0. 0. 0. 0. 0. 0. 6.45161280e-03 0. 0. 0. 0. 0. 0. 0. 0.
      6.45161280e-03 0. 0. 0. 6.45161280e-03 0. 0. 0. 0. 0. 0. 0. 0. 0.
      0. 0. 0. 0. 0. 0. 1.29032256e-02 0. 0. 0. 0. 0. 0. 0. 0. 0. 0. 0.
      0. 0. 0. 0. 0. 0. 6.45161280e-03 0. 0. 0. 0. 0. 0. 0.
      6.45161280e-03 6.45161280e-03 0. 0. 0. 0. 0. 0. 0. 0. 0. 0. 0. 0.
      0. 0. 0. 0. 0. 0. 0. 0. 0. 0. 0. 0. 6.45161280e-03 0. 0. 0.
      6.45161280e-03 0. 0. 0. 0. 0. 0. 0. 0. 0. 0. 0. 0. 0. 0. 0. 0. 0.
      0. 6.45161280e-03 0. 0. 0. 0. 0. 0. 0. 0. 0. 0. 0. 0. 0. 0. 0. 0.
      0. 0. 0. 0. 0. 0. 0. 0. 0. 0. 0. 0. 0. 0. 0. 0. 0. 0. 0. 0. 0. 0.
      0. 0. 0. 0. 0. 0. 6.45161280e-03 0. 0. 0. 0. 0. 6.45161280e-03 0.
      0. 0. 0. 0. 0. 0. 0. 0. 1.29032256e-02 0. 0. 0. 0. 0. 0. 0. 0. 0.
      0. 0. 0. 0. 0. 0. 0. 0. 0. 0. 0. 0. 0. 0. 0. 0. 0. 0. 0. 0. 0. 0.
      0. 0. 0. 0. 0. 0. 0. 0. 6.45161280e-03 0. 0. 0. 0. 0. 0. 0. 0. 0.
      0. 0. 0. 0. 0. 0. 0. 0. 0. 0. 0. 0. 0. 0. 0. 0. 6.45161280e-03 0.
      0. 0. 0. 0. 0. 0. 0. 0. 0. 0. 0. 0. 0. 6.45161280e-03 0.
      1.29032256e-02 0. 0. 0. 0. 0. 0. 0. 0. 0. 0. 0. 0. 0. 0. 0. 0. 0.
      6.45161280e-03 0. 0. 0. 0. 0. 0. 0. 0. 0. 0. 0. 0. 0. 0. 0. 0. 0.
      0. 0. 0. 0. 0. 0. 6.45161280e-03 0. 0. 0. 0. 0. 1.29032256e-02 0.
      0. 0. 0. 0. 0. 0. 0. 0. 0. 0. 0. 0. 0. 0. 0. 0. 0. 0. 0. 0. 0.
      6.45161280e-03 0. 0. 6.45161280e-03 0. 0. 0. 0. 0. 0. 0. 0. 0. 0.
      0. 0. 0. 0. 0. 0. 0. 0. 6.45161280e-03 0. 0. 0. 0. 0. 0.
      6.45161280e-03 0. 0. 0. 0. 0. 0. 0. 0. 0. 0. 0. 6.45161280e-03 0.
      0. 0. 0. 0. 0. 6.45161280e-03 0. 0. 0. 0. 0. 0. 0. 0. 0. 0. 0. 0.
      0. 0. 0. 0. 0. 0. 0. 0. 0. 0. 0. 0. 1.29032256e-02 0. 0. 0. 0. 0.
      0. 6.45161280e-03 0. 0. 0. 0. 0. 0. 0. 0. 0. 0. 0. 0. 0. 0. 0. 0.
      0. 0. 0. 0. 0. 0. 0. 0. 0. 0. 0. 0. 0. 0. 6.45161280e-03 0. 0. 0.
      0. 0. 0. 0. 0. 0. 0. 0. 0. 0. 0. 0. 6.45161280e-03 0. 0.
      6.45161280e-03 0. 0. 0. 0. 6.45161280e-03 0. 0. 0. 0. 0. 0. 0. 0.
      0. 1.29032256e-02 0. 0. 0. 0. 0. 0. 0. 0. 0. 0. 0. 0. 0. 0. 0.
      6.45161280e-03 0. 0. 0. 0. 0. 0. 0. 0. 0. 0. 0. 0. 0. 0. 0.
      1.29032256e-02 0. 0. 0. 0. 0. 0. 0. 0. 0. 0. 0. 0. 0. 0.
      6.45161280e-03 0. 6.45161280e-03 0. 0. 0. 0. 0. 0. 0. 0. 0. 0. 0.
      0. 0. 0. 0. 0. 0. 6.45161280e-03 0. 0. 0. 1.29032256e-02 0. 0.
      1.93548389e-02 0. 0. 0. 0. 0. 0. 0. 0. 0. 0. 0. 0. 0. 0. 0.
      6.45161280e-03 0. 0. 0. 0. 0. 0. 0. 0. 0. 0. 0. 0. 6.45161280e-03
      0. 0. 0. 0. 0. 6.45161280e-03 0. 6.45161280e-03 0. 0. 0. 0. 0. 0.
      0. 0. 0. 0. 0. 0. 0. 0. 0. 0. 0. 0. 0. 0. 0. 0. 0. 0. 0. 0. 0. 0.
      0. 0. 0. 0. 0. 0. 6.45161280e-03 0. 0. 6.45161280e-03 0. 0. 0.
      6.45161280e-03 0. 0. 0. 0. 0. 0. 0. 0. 0. 0. 0. 0. 0. 0. 0. 0. 0.
      0. 0. 0. 0. 0. 0. 0. 0. 1.29032256e-02 0. 0. 0. 0. 0. 0. 0. 0. 0.
      1.93548389e-02 0. 0. 0. 0. 0. 0. 0. 0. 0. 0. 0. 0. 6.45161280e-03
      0. 0. 0. 0. 0. 0. 0. 0. 0. 0. 6.45161280e-03 0. 0. 6.45161280e-03
      0. 1.93548389e-02 0. 6.45161280e-03 0. 0. 0. 0. 0. 0. 0. 0. 0. 0.
      0. 0. 0. 0. 0. 0. 0. 0. 0. 0. 0. 0. 0. 0. 0. 0. 0. 0. 0.
      6.45161280e-03 0. 6.45161280e-03 0. 0. 0. 0. 0. 0. 0. 0. 0. 0. 0.
      0. 0. 0. 0. 0. 0. 0. 0. 0. 0. 0. 0. 0. 0. 0. 0. 0. 0. 0. 0. 0. 0.
      0. 0. 0. 0. 6.45161280e-03 1.29032256e-02 0. 0. 6.45161280e-03 0.
      0. 0. 0. 0.</_>
    <_>
      0. 0. 0. 0. 0. 0. 0. 0. 0. 0. 0. 0. 0. 0. 7.57575780e-03 0. 0. 0.
      0. 0. 0. 0. 0. 0. 0. 0. 0. 0. 0. 0. 7.57575780e-03 0. 0. 0. 0. 0.
      0. 0. 0. 0. 0. 0. 0. 0. 0. 0. 0. 0. 0. 0. 0. 0. 0. 0.
      7.57575780e-03 0. 0. 0. 0. 0. 0. 7.57575780e-03 0. 0. 0. 0. 0. 0.
      0. 0. 0. 0. 0. 2.27272734e-02 0. 0. 0. 0. 0. 0. 0. 0. 0. 0. 0. 0.
      0. 0. 0. 0. 0. 0. 0. 0. 0. 0. 0. 0. 0. 0. 0. 7.57575780e-03 0. 0.
      0. 0. 7.57575780e-03 0. 0. 0. 1.51515156e-02 0. 0. 0.
      1.51515156e-02 0. 0. 0. 0. 0. 0. 0. 0. 0. 0. 0. 7.57575780e-03 0.
      0. 0. 0. 0. 0. 0. 0. 0. 0. 0. 0. 0. 0. 0. 0. 0. 0. 0. 0. 0. 0. 0.
      0. 0. 0. 0. 0. 0. 0. 0. 7.57575780e-03 0. 0. 0. 0. 0. 0. 0. 0. 0.
      0. 0. 0. 0. 0. 0. 0. 0. 0. 0. 0. 0. 0. 0. 0. 0. 0. 0. 0. 0. 0. 0.
      0. 0. 0. 0. 0. 0. 0. 0. 0. 0. 0. 0. 0. 0. 0. 0. 1.51515156e-02 0.
      0. 0. 0. 0. 0. 0. 7.57575780e-03 0. 0. 0. 0. 7.57575780e-03 0. 0.
      7.57575780e-03 0. 0. 0. 0. 0. 0. 0. 0. 0. 0. 0. 0. 0. 0. 0. 0. 0.
      0. 0. 0. 7.57575780e-03 0. 0. 0. 7.57575780e-03 0. 0.
      7.57575780e-03 0. 0. 0. 0. 0. 0. 0. 0. 0. 0. 0. 0. 0. 0. 0. 0. 0.
      1.51515156e-02 0. 0. 0. 0. 0. 0. 0. 1.51515156e-02 0. 0. 0. 0. 0.
      0. 7.57575780e-03 0. 0. 0. 0. 0. 0. 0. 0. 0. 0. 7.57575780e-03 0.
      0. 0. 0. 0. 0. 0. 0. 0. 0. 0. 7.57575780e-03 0. 0. 0. 0. 0. 0. 0.
      0. 0. 0. 0. 0. 0. 0. 0. 0. 0. 7.57575780e-03 0. 0. 0. 0. 0.
      1.51515156e-02 7.57575780e-03 0. 0. 0. 0. 0. 0. 0. 0. 0. 0. 0.
      2.27272734e-02 0. 0. 0. 0. 0. 0. 0. 0. 0. 0. 0. 0. 0. 0. 0. 0. 0.
      0. 0. 0. 0. 0. 0. 0. 0. 0. 0. 0. 0. 0. 0. 7.57575780e-03 0. 0. 0.
      0. 0. 0. 0. 0. 0. 0. 0. 0. 0. 0. 0. 0. 0. 0. 0. 0. 0. 0. 0. 0. 0.
      0. 0. 0. 0. 1.51515156e-02 0. 0. 7.57575780e-03 0. 0. 0. 0. 0. 0.
      0. 0. 0. 0. 7.57575780e-03 0. 0. 0. 0. 0. 0. 0. 0. 0. 0. 0. 0. 0.
      0. 0. 0. 0. 0. 0. 0. 0. 0. 0. 0. 0. 0. 0. 0. 0. 0. 0. 0. 0.
      7.57575780e-03 7.57575780e-03 0. 0. 0. 0. 0. 0. 0. 0. 0.
      7.57575780e-03 0. 0. 0. 0. 0. 7.57575780e-03 0. 0. 0. 0. 0. 0. 0.
      0. 0. 0. 0. 0. 0. 0. 0. 0. 0. 0. 0. 0. 0. 0. 0. 1.51515156e-02 0.
      0. 0. 0. 0. 0. 0. 0. 0. 0. 0. 0. 0. 0. 0. 0. 0. 0. 0. 0. 0. 0. 0.
      0. 1.51515156e-02 0. 0. 0. 0. 0. 0. 0. 0. 0. 0. 0. 0. 0. 0.
      7.57575780e-03 0. 0. 0. 7.57575780e-03 0. 0. 0. 0. 0. 0. 0.
      7.57575780e-03 0. 0. 0. 0. 0. 0. 0. 0. 0. 0. 0. 0. 0. 0. 0. 0. 0.
      0. 0. 0. 0. 0. 7.57575780e-03 0. 0. 0. 0. 7.57575780e-03 0. 0. 0.
      0. 0. 0. 0. 0. 0. 0. 0. 0. 0. 0. 0. 0. 0. 0. 0. 0. 0. 0. 0. 0. 0.
      7.57575780e-03 0. 0. 0. 7.57575780e-03 0. 1.51515156e-02 0. 0. 0.
      0. 0. 0. 0. 0. 0. 0. 0. 0. 0. 0. 0. 0. 0. 0. 0. 0. 0. 0. 0. 0. 0.
      0. 0. 0. 0. 0. 7.57575780e-03 0. 0. 0. 0. 0. 0. 7.57575780e-03 0.
      0. 0. 1.51515156e-02 0. 0. 0. 0. 0. 0. 0. 0. 0. 0. 0. 0. 0. 0. 0.
      0. 0. 0. 0. 0. 0. 0. 0. 0. 0. 0. 0. 0. 0. 0. 0. 0. 0. 0. 0. 0.
      7.57575780e-03 0. 0. 0. 0. 0. 0. 0. 0. 0. 0. 0. 0. 7.57575780e-03
      0. 0. 0. 0. 0. 0. 0. 0. 0. 0. 0. 0. 0. 0. 0. 0. 0. 0. 0. 0. 0. 0.
      0. 0. 0. 0. 0. 0. 0. 0. 0. 0. 0. 0. 0. 0. 0. 0. 0. 0. 0. 0. 0. 0.
      0. 0. 0. 0. 0. 0. 0. 0. 0. 0. 7.57575780e-03 0. 7.57575780e-03 0.
      0. 0. 0. 0. 0. 0. 0. 0. 0. 0. 7.57575780e-03 0. 0. 0. 0. 0.
      7.57575780e-03 0. 0. 0. 0. 0. 0. 0. 0. 0. 0. 0. 0. 0. 0. 0. 0. 0.
      0. 0. 0. 0. 0. 0. 0. 0. 0. 0. 0. 0. 0. 0. 0. 0. 0. 0.
      7.57575780e-03 0. 0. 7.57575780e-03 0. 0. 0. 0. 0. 0. 0. 0. 0. 0.
      0. 0. 0. 0. 0. 0. 0. 0. 0. 0. 0. 0. 0. 0. 0. 0. 0. 0.
      7.57575780e-03 0. 0. 0. 0. 0. 0. 0. 0. 0. 0. 0. 1.51515156e-02 0.
      7.57575780e-03 7.57575780e-03 0. 0. 7.57575780e-03 0. 0. 0. 0. 0.
      0. 0. 0. 0. 0. 0. 0. 0. 0. 0. 0. 0. 0. 7.57575780e-03 0. 0. 0. 0.
      0. 0. 0. 0. 0. 0. 0. 0. 0. 0. 0. 7.57575780e-03 0. 0. 0. 0. 0. 0.
      0. 7.57575780e-03 0. 0. 0. 0. 0. 0. 0. 0. 0. 0. 7.57575780e-03 0.
      0. 0. 0. 0. 0. 0. 0. 0. 0. 0. 0. 0. 0. 0. 0. 0. 0. 0. 0. 0. 0. 0.
      0. 0. 0. 7.57575780e-03 0. 0. 0. 0. 0. 0. 0. 0. 0. 0. 0. 0. 0. 0.
      0. 0. 0. 0. 0. 0. 0. 0. 0. 0. 0. 0. 7.57575780e-03 0. 0. 0. 0.
      7.57575780e-03 0. 0. 7.57575780e-03 0. 0. 0. 0. 0. 0. 0. 0. 0. 0.
      0. 0. 0. 0. 0. 0. 0. 0. 7.57575780e-03 1.51515156e-02 0. 0. 0. 0.
      2.27272734e-02 0. 0. 0. 0. 0. 0. 0. 7.57575780e-03 0. 0. 0. 0. 0.
      0. 0. 0. 0. 0. 0. 0. 0. 0. 0. 0. 0. 0. 0. 0. 0. 0. 0. 0. 0. 0. 0.
      0. 7.57575780e-03 0. 0. 0. 0. 0. 0. 0. 0. 0. 0. 0. 0. 0. 0. 0.
      1.51515156e-02 0. 0. 0. 0. 0. 0. 0. 0. 0. 0. 0. 0. 7.57575780e-03
      0. 0. 0. 0. 0. 0. 0. 0. 1.51515156e-02 0. 0. 0. 0. 0. 0. 0. 0. 0.
      0. 0. 0. 0. 0. 0. 0. 0. 0. 0. 0. 0. 0. 7.57575780e-03 0. 0. 0. 0.
      0. 0. 0. 0. 0. 0. 0. 0. 0. 0. 0. 0. 0. 7.57575780e-03 0. 0. 0. 0.
      0. 0. 0. 0. 0. 0. 0. 0. 0. 7.57575780e-03 0. 0. 0. 0.
      1.51515156e-02 7.57575780e-03 0. 0. 0. 0. 0. 0. 0. 0. 0. 0. 0. 0.
      0. 7.57575780e-03 0. 7.57575780e-03 0. 0. 0. 0. 0. 0. 0. 0. 0. 0.
      0. 0. 7.57575780e-03 0. 0. 0. 0. 0. 0. 0. 0. 0. 0. 0. 0. 0. 0. 0.
      0. 0. 0. 7.57575780e-03 0. 0. 0. 0. 1.51515156e-02 0.
      7.57575780e-03 0. 0. 7.57575780e-03 0. 0. 7.57575780e-03 0. 0. 0.
      0. 0. 0. 7.57575780e-03 0. 0. 0. 0. 0. 0. 0. 0. 0. 0. 0. 0. 0. 0.
      0. 0. 0. 0. 0. 0. 0. 0. 0. 0. 0. 0. 0. 0. 0. 0. 0. 0. 0. 0. 0. 0.
      0. 0. 0. 0. 0. 0. 0. 0. 0. 0. 0. 0. 0. 0. 0. 0. 0. 0.
      1.51515156e-02 0. 0. 0. 0. 0. 0. 0. 0. 0. 0. 0. 0. 0. 0. 0. 0. 0.
      1.51515156e-02 0. 0. 0. 0. 0. 0. 0. 0. 0. 0. 0. 0. 0. 0. 0. 0. 0.
      0. 0. 0. 0. 0. 0. 0. 0. 0. 0. 0. 0. 0. 0. 0. 0. 0. 0. 0.
      7.57575780e-03 0. 7.57575780e-03 0. 0. 0. 0. 0. 0. 0. 0. 0. 0. 0.
      0. 0. 0. 0. 0. 0. 0. 0. 0. 0. 0. 7.57575780e-03 0. 0. 0. 0.
      7.57575780e-03 7.57575780e-03 0. 0. 0. 0. 0. 0. 0. 0. 0. 0. 0. 0.
      0. 0. 0. 0. 0. 7.57575780e-03 0. 0. 0. 0. 0. 0. 0. 0. 0. 0. 0. 0.
      0. 0. 0. 0. 0. 0. 0. 0. 0. 0. 0. 0. 0. 0. 0. 0. 0. 0. 0. 0. 0. 0.
      0. 0. 0. 0. 0. 0. 0. 0. 0. 0. 0. 0. 0. 0. 0. 0. 0. 0. 0. 0. 0. 0.
      0. 0. 0. 0. 0. 0. 0. 0. 0. 0. 0. 0. 0. 0. 0. 0. 0. 0. 0. 0. 0. 0.
      0. 0. 0. 0. 0. 0. 0. 0. 0. 0. 0. 0. 0. 7.57575780e-03 0. 0. 0. 0.
      0. 0. 0. 0. 0. 0. 0. 0. 0. 1.51515156e-02 0. 0. 0. 0.
      1.51515156e-02 0. 0. 0. 0. 0. 0. 0. 0. 0. 0. 0. 0. 7.57575780e-03
      7.57575780e-03 0. 0. 0. 0. 0. 0. 0. 0. 0. 7.57575780e-03 0.</_>
    <_>
      0. 0. 0. 0. 0. 0. 0. 0. 0. 0. 0. 0. 0. 0. 0. 0. 6.71140943e-03 0.
      0. 0. 0. 0. 0. 0. 0. 0. 0. 0. 0. 0. 0. 0. 0. 0. 0. 0. 0. 0. 0. 0.
      0. 0. 0. 0. 0. 0. 0. 0. 0. 6.71140943e-03 0. 0. 0. 6.71140943e-03
      0. 0. 0. 0. 0. 0. 0. 0. 0. 0. 0. 0. 0. 0. 0. 0. 0. 0. 0. 0. 0.
      6.71140943e-03 1.34228189e-02 0. 0. 0. 0. 0. 0. 0. 0. 0. 0. 0. 0.
      0. 0. 0. 0. 0. 0. 6.71140943e-03 0. 0. 0. 0. 0. 0. 0. 0. 0. 0. 0.
      0. 6.71140943e-03 0. 0. 0. 0. 0. 0. 0. 0. 0. 0. 0. 0. 0. 0. 0. 0.
      0. 0. 0. 0. 6.71140943e-03 6.71140943e-03 0. 0. 6.71140943e-03 0.
      0. 6.71140943e-03 0. 0. 6.71140943e-03 0. 0. 0. 0. 0. 0. 0. 0. 0.
      0. 0. 0. 0. 0. 0. 0. 0. 6.71140943e-03 0. 0. 6.71140943e-03 0. 0.
      0. 0. 0. 0. 0. 0. 0. 0. 6.71140943e-03 0. 0. 0. 0. 0. 0.
      6.71140943e-03 0. 0. 0. 0. 0. 0. 0. 0. 0. 6.71140943e-03 0. 0. 0.
      0. 0. 0. 0. 0. 0. 0. 0. 0. 0. 0. 0. 0. 0. 0. 6.71140943e-03 0. 0.
      0. 0. 0. 0. 0. 0. 0. 0. 0. 0. 0. 0. 0. 0. 0. 0. 0. 0. 0. 0.
      6.71140943e-03 0. 0. 0. 0. 0. 0. 0. 0. 0. 6.71140943e-03 0.
      6.71140943e-03 6.71140943e-03 0. 0. 0. 0. 0. 0. 0. 0.
      6.71140943e-03 0. 0. 0. 6.71140943e-03 0. 0. 0. 0. 0. 0. 0. 0. 0.
      0. 0. 0. 0. 0. 0. 0. 6.71140943e-03 0. 0. 1.34228189e-02 0.
      6.71140943e-03 0. 1.34228189e-02 0. 0. 6.71140943e-03 0. 0. 0. 0.
      0. 0. 0. 0. 2.01342292e-02 0. 0. 0. 0. 0. 0. 6.71140943e-03 0. 0.
      0. 6.71140943e-03 6.71140943e-03 0. 0. 0. 0. 0. 0. 0.
      6.71140943e-03 0. 0. 0. 0. 0. 0. 0. 0. 0. 0. 0. 0. 0. 0. 0. 0. 0.
      0. 0. 0. 0. 0. 0. 0. 0. 0. 0. 0. 0. 0. 0. 0. 0. 6.71140943e-03 0.
      0. 0. 0. 0. 0. 0. 0. 0. 0. 0. 0. 0. 0. 0. 0. 0. 6.71140943e-03 0.
      0. 0. 0. 0. 0. 0. 0. 0. 0. 6.71140943e-03 0. 0. 0. 0. 0. 0. 0. 0.
      0. 6.71140943e-03 6.71140943e-03 0. 0. 0. 0. 0. 0. 0. 0. 0.
      1.34228189e-02 6.71140943e-03 0. 0. 0. 0. 0. 0. 0. 0. 0. 0. 0. 0.
      0. 0. 0. 0. 0. 0. 6.71140943e-03 0. 0. 0. 0. 0. 0. 0. 0. 0. 0. 0.
      0. 0. 0. 0. 0. 0. 0. 0. 0. 0. 0. 0. 0. 0. 6.71140943e-03 0. 0. 0.
      0. 0. 0. 0. 0. 0. 6.71140943e-03 0. 0. 0. 0. 0. 0. 0. 0. 0. 0. 0.
      0. 0. 0. 0. 0. 0. 0. 0. 0. 0. 0. 0. 0. 0. 0. 0. 0. 0. 0. 0. 0. 0.
      0. 0. 0. 0. 0. 0. 0. 0. 0. 0. 0. 0. 0. 0. 0. 6.71140943e-03 0. 0.
      0. 0. 0. 0. 0. 0. 6.71140943e-03 6.71140943e-03 0. 0. 0. 0. 0. 0.
      0. 0. 0. 0. 0. 0. 0. 0. 0. 0. 0. 0. 1.34228189e-02 0. 0. 0. 0. 0.
      0. 0. 6.71140943e-03 0. 0. 0. 0. 0. 0. 6.71140943e-03 0. 0. 0. 0.
      0. 0. 0. 6.71140943e-03 6.71140943e-03 0. 0. 0. 0. 0. 0. 0. 0. 0.
      0. 0. 6.71140943e-03 0. 0. 0. 6.71140943e-03 0. 0. 0.
      6.71140943e-03 0. 0. 0. 0. 0. 0. 0. 0. 0. 0. 0. 0. 0. 0. 0. 0. 0.
      0. 0. 0. 0. 0. 0. 0. 0. 0. 0. 0. 0. 0. 0. 0. 0. 0. 0. 0. 0. 0. 0.
      0. 0. 0. 0. 0. 0. 2.01342292e-02 0. 0. 0. 0. 0. 0. 0. 0. 0. 0. 0.
      0. 0. 0. 0. 0. 0. 0. 0. 0. 0. 0. 4.69798669e-02 0. 0. 0. 0. 0. 0.
      0. 0. 0. 0. 0. 0. 0. 6.71140943e-03 6.71140943e-03 0. 0. 0. 0. 0.
      0. 0. 0. 0. 0. 0. 0. 6.71140943e-03 0. 0. 0. 0. 0. 0. 0. 0. 0. 0.
      0. 0. 0. 0. 0. 6.71140943e-03 0. 0. 0. 0. 0. 0. 0. 6.71140943e-03
      6.71140943e-03 0. 6.71140943e-03 0. 0. 0. 0. 0. 0. 0. 0. 0.
      6.71140943e-03 0. 0. 0. 0. 6.71140943e-03 0. 0. 6.71140943e-03 0.
      0. 0. 0. 0. 0. 0. 0. 0. 0. 0. 0. 0. 0. 0. 0. 0. 0. 0. 0. 0. 0. 0.
      0. 0. 0. 0. 0. 0. 0. 0. 0. 0. 0. 0. 0. 1.34228189e-02 0. 0. 0. 0.
      0. 0. 6.71140943e-03 0. 0. 0. 0. 0. 0. 0. 0. 0. 6.71140943e-03 0.
      0. 0. 0. 0. 0. 0. 0. 6.71140943e-03 0. 0. 0. 0. 0. 0. 0. 0. 0. 0.
      0. 0. 0. 0. 0. 0. 0. 6.71140943e-03 0. 0. 0. 0. 6.71140943e-03 0.
      0. 0. 0. 0. 0. 0. 0. 0. 6.71140943e-03 0. 0. 0. 0. 0. 0.
      6.71140943e-03 0. 0. 0. 0. 0. 6.71140943e-03 0. 0. 0. 0. 0. 0. 0.
      0. 0. 0. 0. 0. 0. 0. 0. 0. 0. 0. 0. 0. 0. 0. 0. 0. 0. 0. 0. 0. 0.
      0. 0. 0. 0. 0. 0. 0. 0. 0. 0. 0. 0. 0. 0. 0. 0. 0. 0.
      6.71140943e-03 0. 0. 0. 0. 0. 0. 0. 0. 0. 0. 6.71140943e-03 0. 0.
      0. 0. 0. 0. 0. 0. 0. 6.71140943e-03 0. 0. 0. 0. 0. 0. 0. 0. 0. 0.
      0. 0. 0. 0. 0. 0. 0. 0. 0. 0. 0. 0. 0. 6.71140943e-03 0. 0. 0. 0.
      0. 0. 0. 0. 0. 0. 0. 0. 0. 6.71140943e-03 0. 0. 0. 0.
      6.71140943e-03 0. 0. 0. 0. 0. 0. 0. 0. 0. 0. 0. 0. 0. 0. 0. 0. 0.
      0. 0. 0. 0. 0. 6.71140943e-03 0. 0. 0. 0. 0. 0. 0. 0. 0. 0. 0. 0.
      0. 0. 0. 0. 0. 0. 0. 0. 0. 0. 0. 0. 0. 0. 0. 0. 0. 0. 0. 0. 0. 0.
      0. 0. 0. 1.34228189e-02 0. 0. 6.71140943e-03 0. 0. 6.71140943e-03
      0. 0. 0. 0. 0. 0. 0. 0. 0. 0. 0. 0. 0. 0. 0. 0. 6.71140943e-03
      1.34228189e-02 0. 0. 0. 0. 0. 6.71140943e-03 0. 1.34228189e-02 0.
      0. 0. 0. 0. 0. 0. 0. 0. 0. 0. 6.71140943e-03 0. 0. 0. 0. 0. 0. 0.
      0. 0. 6.71140943e-03 0. 6.71140943e-03 0. 0. 0. 0. 0. 0. 0. 0. 0.
      0. 0. 1.34228189e-02 0. 0. 0. 0. 0. 0. 0. 0. 0. 0. 6.71140943e-03
      0. 0. 0. 0. 0. 0. 0. 0. 0. 0. 0. 6.71140943e-03 0. 0. 0. 0. 0. 0.
      0. 6.71140943e-03 0. 0. 0. 0. 0. 0. 0. 0. 0. 0. 0. 0. 0. 0. 0. 0.
      0. 0. 0. 0. 0. 0. 0. 0. 0. 0. 0. 0. 0. 0. 0. 0. 0. 0. 0. 0. 0. 0.
      0. 0. 6.71140943e-03 0. 0. 0. 0. 0. 0. 0. 0. 0. 0. 0. 0. 0. 0. 0.
      0. 0. 0. 0. 0. 0. 0. 0. 0. 0. 0. 0. 0. 0. 0. 0. 0. 0. 0. 0. 0. 0.
      0. 0. 0. 0. 6.71140943e-03 1.34228189e-02 0. 0. 0. 0. 0. 0. 0. 0.
      0. 0. 0. 0. 0. 0. 0. 6.71140943e-03 0. 0. 0. 0. 0. 0. 0. 0. 0. 0.
      0. 0. 0. 0. 0. 0. 0. 0. 6.71140943e-03 0. 0. 0. 0. 0. 0.
      6.71140943e-03 0. 0. 0. 0. 0. 0. 0. 0. 0. 0. 0. 0. 0. 0. 0. 0. 0.
      0. 0. 0. 0. 0. 0. 0. 0. 0. 0. 6.71140943e-03 0. 0. 0.
      6.71140943e-03 0. 0. 0. 6.71140943e-03 0. 0. 6.71140943e-03 0. 0.
      0. 0. 0. 0. 0. 0. 0. 0. 0. 0. 0. 0. 0. 0. 0. 0. 0. 0. 0. 0. 0. 0.
      0. 0. 0. 0. 0. 6.71140943e-03 0. 0. 0. 0. 0. 0. 0. 0.
      6.71140943e-03 0. 0. 0. 0. 6.71140943e-03 0. 0. 0. 0. 0. 0. 0.
      6.71140943e-03 0. 0. 0. 0. 0. 0. 0. 0. 0. 0. 0. 0. 0. 0. 0. 0. 0.
      0. 0. 0. 0. 0. 0. 0. 0. 0. 0. 0. 0. 0. 0. 6.71140943e-03 0. 0. 0.
      0. 0. 0. 0. 6.71140943e-03 0. 0. 0. 0. 0. 0. 0. 0. 0. 0. 0. 0. 0.
      1.34228189e-02 0. 0. 0. 0. 0. 0. 0. 0. 0. 0. 0. 0. 0. 0. 0. 0. 0.
      0. 0. 0. 6.71140943e-03 0. 0. 0. 0. 0. 6.71140943e-03 0. 0. 0. 0.
      0. 0. 0. 0. 0. 0. 0. 0. 0. 0. 0. 6.71140943e-03 0. 0.
      6.71140943e-03 0. 0. 0. 0. 0. 0. 0. 0. 0. 0. 0. 0. 0. 0. 0. 0. 0.
      0. 0. 0. 0. 0. 0. 0. 6.71140943e-03 0. 0. 0. 0. 0. 0. 0. 0. 0.
      1.34228189e-02 6.71140943e-03 0. 0. 0. 0. 6.71140943e-03 0. 0. 0.
      0. 0. 0. 0. 0. 6.71140943e-03 0. 0. 0. 0. 0. 0. 0. 0. 0. 0. 0. 0.
      6.71140943e-03 0. 0. 0. 0. 6.71140943e-03 0. 0. 0. 0. 0. 0. 0. 0.
      0. 0. 0. 6.71140943e-03 0. 0. 0. 0. 0.</_>
    <_>
      0. 6.82593836e-03 3.41296918e-03 0. 0. 0. 0. 0. 0. 0. 0. 0. 0. 0.
      0. 3.41296918e-03 3.41296918e-03 0. 0. 0. 0. 0. 0. 0.
      3.41296918e-03 0. 0. 0. 0. 0. 0. 0. 0. 0. 0. 0. 0. 0. 0. 0. 0. 0.
      0. 0. 0. 0. 0. 0. 0. 0. 0. 0. 0. 0. 0. 0. 0. 0. 0. 0. 0. 0. 0. 0.
      3.41296918e-03 0. 0. 0. 0. 0. 3.41296918e-03 3.41296918e-03
      3.41296918e-03 0. 0. 0. 0. 0. 0. 0. 0. 0. 0. 0. 0. 1.70648452e-02
      0. 3.41296918e-03 0. 0. 0. 0. 0. 0. 0. 3.41296918e-03 0. 0. 0. 0.
      0. 0. 0. 0. 0. 0. 0. 3.41296918e-03 0. 0. 0. 0. 0. 0. 0. 0. 0. 0.
      0. 0. 3.41296918e-03 0. 0. 0. 0. 0. 0. 0. 3.41296918e-03
      6.82593836e-03 0. 0. 3.41296918e-03 0. 0. 0. 0. 0. 0. 0. 0.
      3.41296918e-03 0. 0. 0. 0. 0. 0. 0. 3.41296918e-03 0. 0. 0. 0. 0.
      0. 0. 0. 0. 0. 0. 0. 0. 0. 0. 0. 0. 0. 0. 0. 0. 0. 0. 0. 0.
      3.41296918e-03 1.02389073e-02 0. 0. 0. 0. 3.41296918e-03 0. 0. 0.
      0. 1.02389073e-02 0. 0. 0. 0. 3.41296918e-03 0. 0. 0. 0. 0. 0. 0.
      0. 0. 0. 3.41296918e-03 0. 0. 0. 0. 6.82593836e-03 0. 0. 0. 0. 0.
      0. 0. 0. 0. 0. 0. 3.41296918e-03 3.41296918e-03 0. 0. 0. 0.
      3.41296918e-03 0. 0. 0. 0. 0. 0. 0. 3.41296918e-03 0. 0. 0. 0. 0.
      0. 0. 3.41296918e-03 0. 0. 0. 0. 0. 0. 0. 0. 0. 0. 0. 0. 0. 0. 0.
      0. 0. 0. 5.11945374e-02 3.41296918e-03 3.41296918e-03
      6.82593836e-03 0. 0. 0. 0. 0. 0. 0. 0. 0. 0. 3.41296918e-03 0. 0.
      0. 0. 0. 0. 0. 0. 3.41296918e-03 0. 0. 0. 0. 0. 0. 0. 0. 0. 0. 0.
      0. 0. 3.41296918e-03 1.02389073e-02 0. 0. 0. 0. 0. 3.41296918e-03
      0. 0. 0. 0. 0. 0. 0. 0. 0. 0. 0. 0. 3.41296918e-03 0. 0. 0. 0.
      3.41296918e-03 0. 0. 0. 0. 0. 0. 0. 0. 0. 0. 0. 0. 3.41296918e-03
      0. 0. 0. 0. 0. 0. 0. 0. 3.41296918e-03 0. 0. 0. 6.82593836e-03 0.
      0. 3.41296918e-03 0. 0. 0. 0. 0. 0. 3.41296918e-03 0. 0. 0. 0. 0.
      0. 0. 3.41296918e-03 0. 0. 0. 0. 0. 0. 0. 0. 3.41296918e-03 0. 0.
      0. 3.41296918e-03 0. 0. 0. 3.41296918e-03 0. 0. 3.41296918e-03 0.
      0. 0. 6.82593836e-03 0. 0. 0. 0. 0. 0. 0. 0. 0. 0. 3.41296918e-03
      0. 0. 0. 0. 0. 0. 0. 0. 0. 0. 3.41296918e-03 3.41296918e-03 0. 0.
      0. 3.41296918e-03 0. 0. 3.41296918e-03 0. 3.41296918e-03 0. 0. 0.
      0. 0. 0. 0. 0. 0. 0. 3.41296918e-03 0. 0. 3.41296918e-03 0. 0. 0.
      0. 0. 6.82593836e-03 0. 1.70648452e-02 3.41296918e-03 0. 0. 0. 0.
      0. 0. 0. 0. 0. 0. 0. 0. 0. 0. 0. 1.02389073e-02 0. 0. 0. 0. 0. 0.
      0. 0. 3.41296918e-03 0. 0. 0. 0. 0. 0. 0. 0. 0. 0. 0. 0. 0.
      6.82593836e-03 0. 0. 0. 0. 6.82593836e-03 0. 0. 0. 0. 0.
      1.02389073e-02 0. 0. 0. 3.41296918e-03 0. 0. 0. 0. 0. 0. 0. 0. 0.
      0. 0. 0. 0. 0. 1.02389073e-02 0. 0. 0. 0. 0. 0. 0. 0. 0. 0. 0.
      3.41296918e-03 0. 0. 3.41296918e-03 3.41296918e-03 3.41296918e-03
      0. 0. 3.41296918e-03 0. 0. 0. 0. 0. 0. 3.41296918e-03
      6.82593836e-03 0. 0. 0. 6.82593836e-03 3.41296918e-03 0.
      3.41296918e-03 0. 3.41296918e-03 0. 3.41296918e-03 0. 0. 0. 0.
      6.82593836e-03 0. 0. 0. 0. 0. 0. 0. 0. 0. 0. 0. 0. 0. 0. 0. 0.
      5.46075068e-02 0. 3.41296918e-03 0. 0. 0. 0. 0. 0. 0. 0. 0. 0. 0.
      0. 0. 0. 0. 0. 0. 0. 0. 0. 0. 0. 3.41296918e-03 0. 0. 0. 0. 0. 0.
      0. 0. 3.41296918e-03 0. 0. 0. 0. 0. 0. 0. 3.41296918e-03 0. 0. 0.
      0. 3.41296918e-03 0. 0. 0. 0. 0. 0. 0. 0. 0. 0. 0. 0. 0. 0. 0. 0.
      0. 3.41296918e-03 6.82593836e-03 0. 0. 0. 0. 0. 0. 0. 0. 0. 0. 0.
      0. 3.41296918e-03 0. 6.82593836e-03 0. 0. 0. 0. 0. 0. 0. 0.
      3.41296918e-03 0. 0. 0. 0. 0. 3.41296918e-03 0. 0. 3.41296918e-03
      0. 0. 0. 0. 0. 0. 0. 0. 0. 0. 0. 0. 6.82593836e-03 0. 0. 0. 0.
      3.41296918e-03 0. 0. 0. 0. 1.02389073e-02 0. 0. 0. 0. 0. 0. 0. 0.
      0. 0. 0. 0. 0. 0. 0. 3.41296918e-03 0. 0. 3.41296918e-03 0. 0. 0.
      0. 0. 0. 6.82593836e-03 0. 0. 0. 0. 0. 0. 0. 0. 3.41296918e-03
      3.41296918e-03 0. 0. 0. 0. 0. 0. 0. 0. 0. 0. 0. 0. 0. 0. 0. 0. 0.
      0. 0. 0. 0. 0. 0. 0. 0. 0. 0. 0. 0. 0. 0. 0. 0. 0. 0. 0. 0. 0. 0.
      0. 3.41296918e-03 0. 0. 0. 0. 0. 0. 0. 0. 0. 3.07167228e-02
      6.82593836e-03 0. 0. 0. 0. 0. 3.41296918e-03 2.04778146e-02 0. 0.
      0. 0. 0. 0. 0. 0. 0. 0. 0. 0. 0. 0. 0. 0. 0. 0. 0. 0. 0. 0. 0. 0.
      0. 3.41296918e-03 3.41296918e-03 0. 3.41296918e-03 0. 0. 0. 0. 0.
      3.41296918e-03 6.82593836e-03 0. 0. 0. 0. 3.41296918e-03
      6.82593836e-03 0. 0. 0. 0. 0. 0. 0. 0. 0. 3.41296918e-03 0. 0. 0.
      0. 0. 3.41296918e-03 0. 0. 0. 3.41296918e-03 0. 0. 6.82593836e-03
      0. 0. 0. 0. 0. 0. 0. 0. 0. 0. 0. 0. 0. 0. 0. 0. 0. 0. 0.
      3.41296918e-03 3.41296918e-03 0. 0. 0. 0. 6.82593836e-03 0. 0. 0.
      0. 0. 0. 0. 0. 0. 0. 3.41296918e-03 0. 3.41296918e-03 0. 0. 0. 0.
      3.41296918e-03 0. 0. 0. 0. 0. 3.41296918e-03 0. 0. 0. 0. 0. 0. 0.
      0. 0. 3.41296918e-03 0. 0. 0. 0. 0. 0. 0. 0. 0. 0. 0. 0. 0. 0. 0.
      0. 0. 0. 0. 0. 0. 0. 6.82593836e-03 0. 0. 0. 0. 0. 0. 0. 0. 0. 0.
      0. 6.82593836e-03 3.41296918e-03 0. 0. 0. 0. 0. 0. 0.
      1.02389073e-02 0. 0. 0. 0. 0. 0. 0. 0. 0. 3.41296918e-03 0. 0. 0.
      0. 0. 0. 0. 0. 0. 0. 0. 0. 6.82593836e-03 3.41296918e-03 0. 0. 0.
      0. 0. 0. 0. 0. 0. 3.41296918e-03 0. 1.02389073e-02 0. 0. 0. 0.
      3.41296918e-03 0. 3.41296918e-03 0. 0. 0. 0. 3.41296918e-03 0. 0.
      0. 0. 0. 0. 0. 0. 0. 0. 0. 0. 0. 0. 0. 0. 0. 0. 0. 0.
      3.41296918e-03 0. 0. 0. 0. 0. 0. 0. 0. 0. 0. 0. 0. 0. 0. 0. 0. 0.
      0. 0. 0. 0. 0. 0. 0. 0. 0. 0. 0. 6.82593836e-03 0. 0. 0. 0. 0. 0.
      0. 0. 0. 0. 6.82593836e-03 0. 0. 0. 0. 0. 0. 6.82593836e-03 0. 0.
      0. 0. 0. 3.41296918e-03 0. 0. 3.41296918e-03 0. 0. 0. 0. 0. 0. 0.
      0. 0. 0. 0. 0. 0. 0. 3.41296918e-03 0. 0. 0. 3.41296918e-03 0. 0.
      0. 0. 0. 0. 0. 0. 0. 0. 0. 0. 0. 0. 0. 0. 0. 0. 0. 0. 0. 0. 0. 0.
      0. 0. 0. 0. 0. 0. 0. 0. 0. 0. 0. 0. 0. 0. 0. 0. 0. 0. 0. 0. 0. 0.
      0. 0. 0. 0. 0. 0. 0. 0. 0. 0. 0. 0. 0. 0. 0. 0. 0. 0.
      3.41296918e-03 0. 0. 0. 3.41296918e-03 0. 0. 0. 0. 0. 0. 0. 0. 0.
      0. 0. 0. 0. 0. 0. 3.41296918e-03 0. 6.82593836e-03 0. 0. 0. 0. 0.
      3.41296918e-03 0. 3.41296918e-03 0. 0. 3.41296918e-03 0. 0. 0. 0.
      0. 0. 0. 0. 0. 0. 0. 0. 0. 0. 0. 0. 0. 0. 0. 0. 0. 0. 0. 0.
      3.41296918e-03 0. 0. 0. 3.41296918e-03 0. 0. 0. 0. 0. 0. 0. 0. 0.
      0. 0. 0. 3.41296918e-03 0. 0. 0. 0. 0. 0. 0. 0. 0. 0.
      6.82593836e-03 0. 0. 0. 0. 0. 0. 0. 0. 0. 0. 3.41296918e-03 0. 0.
      0. 6.82593836e-03 0. 0. 3.41296918e-03 0. 0. 0. 0. 0. 0. 0. 0. 0.
      0. 0. 0. 0. 0. 0. 0. 0. 6.82593836e-03 0. 0. 0. 0. 0. 0. 0. 0.
      3.41296918e-03 3.41296918e-03 0. 0. 0. 0. 0. 0. 0. 0. 0.
      3.41296918e-03 0. 0. 3.41296918e-03 0. 0. 0. 0. 0. 0.
      3.41296918e-03 0. 0. 0. 0. 0. 0. 0. 0. 0. 0. 0. 0. 0. 0. 0. 0. 0.
      0. 0. 0. 0. 0. 0. 0. 0. 0. 0. 0. 0. 0. 0. 0. 0. 0. 0. 0. 0. 0. 0.
      0. 0. 0. 0. 0. 0. 0. 0. 0. 0. 0. 0. 0. 0. 0. 0. 0. 3.41296918e-03
      0. 0. 0. 0. 0. 0. 0. 0. 0. 0. 0. 0. 0. 0. 0. 0. 0. 0. 0. 0.
      6.82593836e-03 3.41296918e-03 0. 0. 3.41296918e-03 0. 0. 0. 0. 0.
      0. 3.41296918e-03 0. 3.41296918e-03 0. 3.41296918e-03 0. 0. 0. 0.
      0. 0. 0. 0. 0. 6.82593836e-03 0. 0. 0. 0. 0. 0. 0. 0. 0. 0. 0. 0.
      0. 0. 0. 0. 0. 0. 0. 0. 0. 0. 0. 0. 0. 0. 1.02389073e-02 0.
      3.41296918e-03 3.41296918e-03 0. 0. 0. 0. 0. 0. 0. 0. 0. 0. 0. 0.
      0. 0. 0. 0. 0. 0. 0. 0. 0. 0. 0. 0. 0. 0. 0. 0. 0. 0.
      1.36518767e-02 0. 0. 0. 0. 1.36518767e-02 0. 0. 0. 0. 0. 0. 0.
      6.82593836e-03</_>
    <_>
      0. 2.77008303e-03 8.31024908e-03 0. 5.54016605e-03 0. 0.
      5.54016605e-03 0. 0. 2.77008303e-03 0. 0. 0. 0. 0. 0. 0. 0.
      2.77008303e-03 0. 0. 2.77008303e-03 0. 0. 0. 0. 0. 0. 0. 0. 0. 0.
      0. 0. 0. 0. 2.77008303e-03 0. 0. 0. 2.77008303e-03 2.77008303e-03
      0. 0. 5.54016605e-03 0. 0. 0. 0. 0. 0. 0. 0. 2.77008303e-03
      2.77008303e-03 5.54016605e-03 0. 0. 0. 0. 0. 0. 0. 0.
      2.77008303e-03 0. 0. 0. 0. 0. 0. 0. 0. 0. 2.77008303e-03 0. 0.
      2.77008303e-03 0. 0. 0. 0. 0. 0. 0. 0. 0. 0. 2.77008303e-03
      2.77008303e-03 5.54016605e-03 0. 0. 0. 5.54016605e-03 0. 0. 0.
      5.54016605e-03 0. 0. 0. 0. 0. 5.54016605e-03 0. 2.77008303e-03 0.
      8.31024908e-03 2.77008303e-03 0. 5.54016605e-03 2.77008303e-03 0.
      0. 0. 0. 5.54016605e-03 0. 0. 0. 0. 0. 0. 0. 0. 0. 2.77008303e-03
      0. 0. 2.77008303e-03 0. 0. 0. 0. 0. 0. 2.77008303e-03
      5.54016605e-03 0. 0. 0. 0. 0. 0. 0. 0. 0. 0. 0. 0. 0. 0. 0. 0. 0.
      0. 0. 0. 0. 0. 0. 5.54016605e-03 0. 0. 0. 0. 0. 1.10803321e-02 0.
      0. 2.77008303e-03 0. 0. 0. 0. 2.77008303e-03 0. 0. 0.
      2.77008303e-03 0. 0. 0. 0. 2.77008303e-03 0. 0. 0. 0. 0. 0. 0. 0.
      0. 0. 0. 0. 0. 2.77008303e-03 0. 0. 2.77008303e-03 0.
      2.77008303e-03 0. 0. 1.10803321e-02 0. 0. 0. 0. 0. 5.54016605e-03
      0. 0. 0. 0. 0. 0. 0. 0. 0. 0. 0. 0. 0. 0. 0. 0. 0. 0. 0.
      2.77008303e-03 0. 0. 2.77008303e-03 0. 0. 0. 0. 0. 0. 0. 0.
      2.77008303e-03 0. 0. 0. 2.77008303e-03 0. 0. 0. 2.77008303e-03 0.
      0. 0. 2.77008303e-03 0. 0. 2.77008303e-03 0. 2.77008303e-03
      8.31024908e-03 0. 0. 0. 0. 0. 0. 2.77008303e-03 0. 0. 0. 0. 0. 0.
      2.77008303e-03 0. 1.38504151e-02 0. 0. 0. 5.54016605e-03 0. 0. 0.
      2.77008303e-03 0. 0. 0. 0. 2.77008303e-03 0. 0. 0. 0. 0.
      2.77008303e-03 2.77008303e-03 5.54016605e-03 0. 0. 0. 0. 0. 0.
      2.77008303e-03 0. 0. 0. 0. 0. 0. 0. 0. 0. 0. 0. 0. 0. 0. 0. 0. 0.
      0. 0. 0. 0. 2.77008303e-03 2.77008303e-03 0. 0. 0. 0. 0. 0. 0.
      2.77008303e-03 0. 0. 0. 2.77008303e-03 2.77008303e-03 0. 0. 0. 0.
      2.77008303e-03 0. 0. 0. 0. 0. 0. 0. 0. 0. 2.77008303e-03 0. 0.
      2.77008303e-03 0. 5.54016605e-03 0. 0. 0. 0. 0. 2.77008303e-03 0.
      0. 0. 0. 0. 0. 0. 0. 0. 0. 0. 0. 0. 0. 0. 0. 0. 0. 0. 0. 0.
      2.77008303e-03 2.77008303e-03 0. 2.77008303e-03 2.77008303e-03 0.
      0. 2.77008303e-03 0. 0. 0. 2.77008303e-03 0. 0. 0. 0. 0. 0. 0. 0.
      0. 0. 0. 0. 0. 0. 0. 0. 2.77008303e-03 0. 0. 0. 0. 2.77008303e-03
      0. 0. 0. 0. 2.77008303e-03 0. 0. 0. 0. 0. 2.77008303e-03 0. 0.
      5.54016605e-03 0. 0. 0. 0. 0. 0. 0. 2.77008303e-03 0. 0.
      2.77008303e-03 0. 2.77008303e-03 0. 0. 0. 0. 0. 0. 0.
      2.77008303e-03 0. 0. 0. 0. 0. 0. 0. 0. 0. 0. 2.77008303e-03 0. 0.
      0. 0. 0. 0. 2.77008303e-03 0. 0. 0. 0. 0. 0. 0. 0. 1.10803321e-02
      0. 0. 0. 2.77008303e-03 2.77008303e-03 0. 0. 0. 0. 0.
      2.77008303e-03 2.77008303e-03 0. 2.77008303e-03 0. 0. 0. 0.
      2.77008303e-03 0. 0. 1.10803321e-02 0. 0. 0. 0. 0. 2.77008303e-03
      0. 0. 0. 0. 2.77008303e-03 0. 0. 0. 0. 0. 0. 0. 0. 0.
      2.77008303e-03 0. 0. 0. 0. 0. 0. 0. 0. 0. 5.54016605e-03 0.
      2.77008303e-03 0. 2.77008303e-03 0. 2.77008303e-03 0. 0. 0. 0. 0.
      0. 0. 0. 2.77008303e-03 2.77008303e-03 0. 0. 0. 0. 2.77008303e-03
      0. 0. 0. 0. 0. 0. 0. 5.54016605e-03 2.77008303e-03 0. 0. 0.
      2.77008303e-03 0. 0. 0. 0. 0. 0. 0. 0. 0. 0. 0. 0. 0. 0. 0.
      2.77008303e-03 0. 0. 0. 0. 0. 0. 0. 0. 0. 0. 0. 0. 0. 0. 0. 0. 0.
      0. 2.77008303e-03 2.77008303e-03 2.77008303e-03 0. 0. 0. 0. 0. 0.
      0. 0. 0. 0. 0. 0. 0. 5.54016605e-03 0. 0. 0. 0. 8.31024908e-03 0.
      0. 0. 0. 0. 0. 2.77008303e-03 0. 0. 0. 0. 0. 8.31024908e-03 0. 0.
      0. 0. 0. 0. 0. 0. 0. 0. 0. 0. 0. 0. 2.77008303e-03 0. 0. 0.
      2.77008303e-03 0. 0. 0. 2.77008303e-03 0. 0. 0. 2.77008303e-03 0.
      0. 2.77008303e-03 0. 0. 0. 0. 2.77008303e-03 2.77008303e-03 0.
      2.77008303e-03 0. 0. 0. 2.77008303e-03 0. 0. 0. 0. 0.
      5.54016605e-03 0. 0. 2.77008303e-03 0. 0. 0. 0. 0. 2.77008303e-03
      0. 0. 0. 0. 0. 0. 0. 0. 0. 0. 0. 0. 0. 0. 0. 0. 0. 0. 0. 0. 0. 0.
      0. 0. 0. 0. 0. 0. 2.77008303e-03 2.77008303e-03 2.77008303e-03 0.
      0. 2.77008303e-03 0. 2.77008303e-03 0. 0. 1.10803321e-02 0. 0. 0.
      2.77008303e-03 0. 0. 2.77008303e-03 0. 0. 0. 2.77008303e-03 0.
      5.54016605e-03 0. 0. 2.77008303e-03 0. 0. 0. 0. 0. 1.10803321e-02
      5.54016605e-03 0. 2.77008303e-03 0. 0. 2.77008303e-03 0.
      2.77008303e-03 0. 0. 0. 0. 0. 0. 0. 0. 0. 0. 0. 0. 0.
      5.54016605e-03 0. 0. 0. 0. 2.77008303e-03 0. 0. 0. 0. 0.
      2.77008303e-03 0. 0. 2.77008303e-03 2.77008303e-03 0. 0. 0. 0. 0.
      0. 0. 2.77008303e-03 0. 2.77008303e-03 0. 0. 2.77008303e-03 0. 0.
      0. 0. 0. 0. 0. 0. 0. 0. 0. 0. 0. 0. 2.77008303e-03 0. 0. 0. 0. 0.
      8.31024908e-03 8.31024908e-03 0. 0. 0. 0. 0. 2.77008303e-03 0. 0.
      0. 0. 0. 0. 0. 2.77008303e-03 0. 2.77008303e-03 0. 0.
      5.54016605e-03 2.77008303e-03 0. 0. 0. 0. 0. 0. 0. 0. 0.
      2.77008303e-03 0. 0. 0. 0. 0. 2.77008303e-03 0. 0. 0.
      2.77008303e-03 0. 0. 0. 0. 2.77008303e-03 0. 0. 0. 0. 0.
      2.77008303e-03 2.77008303e-03 0. 0. 0. 0. 0. 0. 0. 0. 0. 0. 0. 0.
      5.54016605e-03 0. 0. 2.77008303e-03 0. 0. 0. 0. 0. 2.77008303e-03
      0. 0. 0. 0. 0. 2.77008303e-03 0. 0. 0. 0. 0. 0. 0. 0. 0. 0. 0. 0.
      0. 2.77008303e-03 0. 2.77008303e-03 0. 0. 2.77008303e-03 0. 0. 0.
      0. 0. 0. 0. 0. 0. 0. 2.77008303e-03 0. 0. 0. 0. 2.77008303e-03
      2.77008303e-03 0. 2.77008303e-03 0. 0. 0. 5.54016605e-03 0.
      2.77008303e-03 0. 5.54016605e-03 2.77008303e-03 0. 0. 0.
      2.77008303e-03 0. 0. 0. 0. 0. 0. 0. 0. 0. 0. 0. 0. 2.77008303e-03
      0. 2.77008303e-03 0. 0. 0. 2.77008303e-03 0. 0. 0. 0.
      2.77008303e-03 0. 0. 0. 0. 0. 2.77008303e-03 0. 0. 0. 0. 0. 0.
      2.77008303e-03 0. 2.77008303e-03 2.77008303e-03 0. 2.77008303e-03
      0. 0. 2.77008303e-03 0. 0. 2.77008303e-03 0. 0. 0. 0. 0. 0. 0. 0.
      0. 0. 0. 0. 0. 0. 5.54016605e-03 0. 0. 2.77008303e-03 0. 0.
      8.31024908e-03 0. 0. 0. 2.77008303e-03 0. 0. 2.77008303e-03
      5.54016605e-03 0. 0. 0. 0. 0. 0. 0. 0. 0. 0. 5.54016605e-03 0. 0.
      0. 0. 0. 0. 0. 0. 0. 2.77008303e-03 0. 2.77008303e-03 0. 0. 0. 0.
      0. 0. 0. 0. 0. 0. 0. 0. 0. 0. 0. 0. 0. 0. 0. 0. 0. 0. 0. 0. 0. 0.
      0. 0. 0. 2.77008303e-03 0. 0. 0. 0. 5.54016605e-03 0. 0. 0. 0. 0.
      0. 0. 2.77008303e-03 0. 0. 0. 0. 0. 0. 0. 0. 2.77008303e-03 0. 0.
      0. 0. 0. 0. 0. 0. 5.54016605e-03 0. 0. 0. 0. 0. 0. 0. 0. 0. 0. 0.
      0. 0. 0. 0. 0. 0. 0. 0. 2.77008303e-03 0. 0. 0. 0. 0. 0. 0. 0. 0.
      2.77008303e-03 0. 0. 2.77008303e-03 0. 0. 2.77008303e-03 0. 0.
      2.77008303e-03 0. 0. 0. 0. 0. 0. 0. 0. 2.77008303e-03 0. 0. 0. 0.
      0. 0. 0. 0. 0. 0. 0. 0. 2.77008303e-03 0. 2.77008303e-03 0. 0. 0.
      2.77008303e-03 0. 0. 0. 0. 0. 0. 8.31024908e-03 0. 0.
      2.77008303e-03 0. 0. 2.77008303e-03 0. 0. 0. 0. 0. 0. 0. 0.
      2.77008303e-03 0. 0. 2.77008303e-03 0. 0. 5.54016605e-03 0.
      2.77008303e-03 0. 0. 0. 0. 0. 0. 0. 0. 0. 0. 0. 0. 2.77008303e-03
      0. 0. 0. 0. 0. 5.54016605e-03 0. 0. 0. 0. 0. 2.77008303e-03 0. 0.
      0. 0. 0. 0. 0. 5.54016605e-03 0. 0. 0. 0. 0. 5.54016605e-03 0. 0.
      0. 2.77008303e-03 0. 0. 0. 0. 0. 0. 0. 2.77008303e-03 0.
      2.77008303e-03 0. 0. 5.54016605e-03 0. 0. 0. 0. 2.77008303e-03 0.
      0. 0. 5.54016605e-03 0. 0. 0. 0. 0. 5.54016605e-03 0. 0. 0.
      2.77008303e-03 0. 0. 0. 2.77008303e-03 0. 2.77008303e-03 0.
      5.54016605e-03 0. 0. 2.77008303e-03 0. 0. 0. 0. 0. 0. 0. 0. 0. 0.
      0. 0. 0. 0. 0. 0. 2.77008303e-03 0. 0. 0. 0. 0. 0. 2.77008303e-03
      0. 0. 0. 0. 5.54016605e-03 0. 2.77008303e-03 0. 0. 0.
      2.77008303e-03 0. 0. 2.77008303e-03 2.77008303e-03 0. 0. 0.
      2.77008303e-03 0. 2.77008303e-03 0. 0. 0. 0. 0. 0. 2.77008303e-03
      0. 0. 0. 0. 0. 0. 0. 0. 2.77008303e-03 0. 0. 0. 0. 2.77008303e-03
      0. 0. 0. 2.77008303e-03 0. 0. 0. 0. 0. 0. 0. 0. 0. 0. 0. 0.
      2.77008303e-03 0. 0. 2.77008303e-03 0. 0. 0. 0. 2.77008303e-03 0.
      0. 2.77008303e-03 0. 0. 0. 0. 0. 0. 0. 0. 2.77008303e-03 0. 0. 0.
      0. 0. 0. 0. 0. 0. 0. 0. 0. 0. 0. 0. 2.77008303e-03 0.
      2.77008303e-03 0. 0. 0. 0. 0. 2.77008303e-03 0. 0. 0. 0. 0. 0. 0.
      2.77008303e-03 0. 0. 0. 0. 0. 2.77008303e-03 0. 0. 0. 0. 0.
      5.54016605e-03 0. 0. 0. 0. 0. 0. 0. 0. 0. 0. 0. 2.77008303e-03 0.
      0. 0. 8.31024908e-03 0. 8.31024908e-03 0. 0. 0. 0. 0. 0. 0. 0.
      2.77008303e-03 0. 0. 0. 0. 0. 0. 0. 2.77008303e-03 2.77008303e-03
      0. 0. 0. 0. 0. 2.77008303e-03 0. 0.</_>
    <_>
      0. 8.54700897e-03 0. 0. 0. 0. 0. 0. 0. 0. 0. 0. 0. 0. 0. 0. 0. 0.
      0. 0. 0. 0. 0. 0. 0. 0. 0. 0. 0. 0. 0. 0. 0. 8.54700897e-03 0. 0.
      0. 0. 8.54700897e-03 0. 0. 0. 0. 0. 8.54700897e-03 0. 0. 0. 0. 0.
      0. 0. 0. 0. 0. 8.54700897e-03 0. 0. 0. 0. 0. 0. 0. 0. 0. 0. 0. 0.
      0. 0. 0. 0. 0. 0. 0. 0. 0. 0. 0. 0. 0. 0. 0. 0. 0. 0. 0. 0. 0. 0.
      0. 0. 0. 0. 0. 0. 0. 0. 0. 0. 0. 0. 0. 0. 0. 0. 8.54700897e-03 0.
      0. 0. 0. 0. 0. 0. 0. 0. 0. 0. 8.54700897e-03 0. 0. 0. 0. 0. 0. 0.
      0. 0. 0. 0. 0. 0. 0. 0. 0. 0. 0. 0. 0. 0. 0. 0. 0. 0. 0. 0. 0. 0.
      0. 0. 0. 0. 0. 0. 8.54700897e-03 0. 0. 8.54700897e-03
      8.54700897e-03 0. 0. 0. 0. 0. 0. 0. 0. 0. 0. 0. 0. 0.
      8.54700897e-03 0. 0. 0. 0. 8.54700897e-03 0. 0. 2.56410278e-02 0.
      0. 0. 0. 0. 0. 0. 0. 0. 0. 0. 0. 0. 0. 0. 0. 0. 0. 0. 0. 0.
      8.54700897e-03 0. 0. 0. 0. 0. 0. 0. 0. 0. 0. 0. 0. 0. 0. 0. 0. 0.
      0. 0. 0. 0. 0. 0. 0. 0. 0. 0. 0. 0. 0. 0. 0. 0. 0. 0. 0. 0. 0. 0.
      0. 0. 0. 0. 0. 0. 0. 0. 0. 0. 0. 0. 0. 0. 0. 0. 0. 8.54700897e-03
      0. 0. 0. 0. 8.54700897e-03 0. 0. 0. 0. 0. 0. 0. 0. 0. 0.
      1.70940179e-02 0. 0. 0. 0. 0. 0. 0. 0. 0. 0. 0. 0. 0.
      8.54700897e-03 0. 0. 0. 0. 0. 1.70940179e-02 0. 0. 0. 0. 0. 0. 0.
      0. 0. 0. 8.54700897e-03 0. 0. 0. 0. 0. 0. 0. 0. 8.54700897e-03 0.
      0. 0. 0. 8.54700897e-03 0. 0. 8.54700897e-03 0. 0. 0. 0. 0. 0. 0.
      0. 0. 0. 0. 0. 0. 0. 0. 0. 0. 0. 0. 0. 0. 0. 0. 0. 0. 0.
      8.54700897e-03 0. 0. 0. 0. 0. 0. 0. 0. 0. 0. 0. 0. 0. 0. 0. 0. 0.
      0. 0. 0. 0. 0. 0. 0. 0. 0. 0. 0. 0. 0. 0. 0. 0. 8.54700897e-03 0.
      0. 8.54700897e-03 0. 0. 0. 0. 0. 0. 0. 0. 0. 8.54700897e-03 0. 0.
      0. 0. 0. 0. 0. 0. 0. 0. 0. 0. 0. 0. 8.54700897e-03 0. 0. 0. 0. 0.
      0. 0. 0. 0. 0. 0. 0. 0. 0. 0. 0. 0. 0. 0. 0. 0. 0. 0. 0. 0. 0. 0.
      0. 0. 8.54700897e-03 0. 0. 0. 0. 0. 0. 0. 0. 0. 0. 0. 0. 0. 0. 0.
      0. 0. 0. 0. 0. 0. 8.54700897e-03 0. 0. 0. 0. 0. 0. 0. 0. 0. 0. 0.
      0. 0. 0. 0. 0. 0. 0. 0. 0. 0. 0. 0. 0. 0. 0. 0. 0. 0. 0. 0. 0. 0.
      0. 0. 0. 0. 8.54700897e-03 0. 0. 0. 0. 0. 0. 0. 0. 0. 0. 0. 0. 0.
      0. 0. 0. 0. 0. 0. 0. 0. 0. 0. 0. 0. 0. 0. 0. 0. 0. 0. 0. 0. 0. 0.
      0. 0. 0. 0. 0. 0. 0. 0. 0. 0. 0. 0. 8.54700897e-03 0. 0. 0. 0. 0.
      0. 0. 0. 0. 0. 0. 0. 0. 8.54700897e-03 0. 0. 0. 0. 0. 0. 0. 0. 0.
      8.54700897e-03 0. 0. 0. 0. 0. 0. 0. 0. 0. 0. 0. 0. 0. 0. 0. 0. 0.
      0. 0. 0. 0. 0. 0. 0. 0. 0. 0. 0. 0. 0. 0. 0. 0. 0. 0. 0. 0. 0. 0.
      8.54700897e-03 1.70940179e-02 0. 0. 0. 0. 0. 0. 0. 0. 0. 0. 0. 0.
      0. 0. 0. 0. 0. 0. 0. 0. 0. 0. 0. 0. 0. 0. 0. 0. 0. 0. 0. 0. 0. 0.
      0. 0. 0. 0. 0. 8.54700897e-03 0. 0. 0. 8.54700897e-03 0. 0. 0. 0.
      8.54700897e-03 0. 0. 0. 0. 0. 0. 0. 0. 0. 0. 8.54700897e-03 0. 0.
      0. 0. 8.54700897e-03 0. 0. 0. 0. 0. 0. 0. 0. 0. 0. 0.
      1.70940179e-02 0. 0. 0. 0. 0. 0. 0. 0. 0. 0. 0. 0. 0. 0. 0. 0. 0.
      0. 8.54700897e-03 0. 0. 0. 0. 0. 0. 0. 0. 0. 0. 0. 0. 0. 0. 0. 0.
      0. 0. 0. 0. 0. 0. 0. 0. 0. 0. 0. 0. 0. 0. 0. 8.54700897e-03 0. 0.
      0. 0. 0. 0. 8.54700897e-03 0. 0. 0. 0. 0. 0. 0. 0. 0. 0. 0. 0. 0.
      0. 0. 0. 0. 0. 0. 8.54700897e-03 0. 0. 0. 8.54700897e-03 0.
      8.54700897e-03 8.54700897e-03 0. 0. 0. 0. 0. 0. 0. 0. 0. 0. 0. 0.
      0. 0. 0. 0. 0. 0. 0. 0. 0. 0. 0. 0. 8.54700897e-03 0. 0. 0. 0. 0.
      0. 0. 0. 0. 0. 8.54700897e-03 0. 0. 0. 0. 0. 0. 0. 0. 0. 0. 0. 0.
      0. 0. 0. 0. 0. 0. 0. 0. 0. 0. 8.54700897e-03 0. 0. 0. 0. 0. 0. 0.
      0. 0. 0. 0. 0. 0. 0. 0. 0. 0. 0. 0. 0. 1.70940179e-02
      8.54700897e-03 0. 0. 0. 8.54700897e-03 0. 0. 8.54700897e-03 0. 0.
      0. 0. 0. 0. 0. 0. 0. 0. 0. 0. 0. 0. 8.54700897e-03 0. 0. 0. 0. 0.
      8.54700897e-03 0. 0. 0. 0. 0. 0. 0. 0. 0. 0. 0. 0. 0.
      1.70940179e-02 0. 0. 0. 0. 0. 0. 0. 0. 0. 0. 0. 0. 0. 0. 0. 0.
      8.54700897e-03 0. 0. 0. 0. 0. 0. 0. 0. 0. 0. 0. 0. 0. 0. 0. 0. 0.
      0. 0. 0. 0. 0. 0. 0. 0. 0. 0. 0. 0. 0. 8.54700897e-03 0.
      8.54700897e-03 8.54700897e-03 0. 0. 0. 0. 0. 0. 0. 8.54700897e-03
      0. 0. 0. 0. 0. 0. 0. 0. 0. 0. 0. 0. 0. 0. 0. 0. 0. 0. 0. 0. 0. 0.
      0. 0. 0. 0. 0. 0. 0. 0. 0. 0. 0. 0. 0. 0. 0. 0. 0. 0. 0. 0. 0. 0.
      0. 0. 8.54700897e-03 0. 0. 0. 0. 0. 0. 8.54700897e-03 0. 0. 0. 0.
      0. 0. 0. 0. 0. 0. 0. 0. 0. 0. 0. 0. 0. 0. 0. 0. 0. 0. 0. 0.
      8.54700897e-03 0. 0. 0. 0. 0. 0. 0. 0. 0. 0. 0. 0. 0. 0. 0. 0. 0.
      0. 0. 0. 0. 0. 0. 0. 0. 8.54700897e-03 0. 0. 0. 0. 0. 0. 0. 0. 0.
      0. 0. 0. 0. 0. 0. 0. 0. 0. 8.54700897e-03 0. 0. 0. 8.54700897e-03
      0. 0. 0. 0. 0. 0. 0. 0. 0. 0. 0. 0. 0. 0. 0. 0. 0. 0. 0. 0. 0. 0.
      0. 0. 0. 0. 0. 0. 0. 0. 0. 0. 0. 0. 0. 0. 0. 0. 0. 0. 0. 0.
      8.54700897e-03 0. 0. 0. 0. 0. 0. 8.54700897e-03 0. 0. 0. 0. 0. 0.
      0. 0. 0. 0. 0. 0. 0. 0. 0. 0. 8.54700897e-03 0. 0. 0. 0. 0. 0.
      2.56410278e-02 0. 0. 0. 0. 0. 0. 0. 0. 0. 1.70940179e-02 0. 0. 0.
      8.54700897e-03 0. 0. 0. 0. 0. 0. 0. 0. 0. 0. 0. 0. 0. 0.
      8.54700897e-03 0. 0. 0. 0. 0. 0. 0. 0. 0. 0. 0. 0. 0. 0. 0. 0. 0.
      0. 0. 0. 0. 0. 0. 0. 0. 0. 0. 0. 0. 0. 0. 0. 0. 0. 0. 0. 0. 0. 0.
      0. 0. 0. 0. 0. 0. 0. 0. 0. 0. 1.70940179e-02 0. 0. 0. 0.
      8.54700897e-03 0. 8.54700897e-03 0. 0. 0. 0. 8.54700897e-03 0. 0.
      0. 0. 0. 0. 0. 0. 0. 0. 0. 0. 0. 0. 0. 0. 0. 0. 0. 0.
      8.54700897e-03 0. 0. 0. 0. 0. 0. 8.54700897e-03 0. 0.
      8.54700897e-03 0. 0. 0. 0. 0. 0. 0. 0. 0. 0. 0. 0. 0. 0. 0. 0. 0.
      0. 0. 8.54700897e-03 0. 0. 0. 8.54700897e-03 0. 0. 0. 0. 0. 0. 0.
      0. 0. 0. 0. 0. 0. 0. 0. 0. 0. 0. 0. 0. 0. 0. 0. 0. 0. 0. 0. 0. 0.
      0. 0. 0. 0. 8.54700897e-03 0. 0. 0. 0. 0. 0. 0. 0. 0.
      8.54700897e-03 0. 8.54700897e-03 0. 8.54700897e-03 0. 0. 0.
      8.54700897e-03 0. 0. 0. 0. 0. 0. 0. 1.70940179e-02 0. 0. 0. 0. 0.
      0. 0. 0. 0. 0. 0. 0. 0. 0. 8.54700897e-03 0. 0. 0. 0. 0. 0. 0. 0.
      0. 0. 0. 0. 0. 0. 0. 0. 0. 0. 0. 0. 8.54700897e-03 0. 0. 0. 0. 0.
      0. 0. 0. 0. 0. 0. 0. 0. 0. 0. 0. 0. 0. 0. 0. 0. 0. 0. 0. 0. 0. 0.
      0. 0. 0. 0. 0. 0. 0. 0. 0. 8.54700897e-03 8.54700897e-03 0. 0. 0.
      0. 0. 0. 0. 0. 0. 1.70940179e-02 0. 8.54700897e-03 0. 0. 0. 0. 0.
      0. 0. 8.54700897e-03 0. 0. 0. 0. 0. 0. 0. 0. 0. 0. 0. 0.
      8.54700897e-03 0. 1.70940179e-02 0. 0. 0. 0. 0. 0. 0. 0. 0. 0. 0.
      0. 0. 0. 0. 0. 0. 0. 0. 8.54700897e-03 0. 0. 0.</_>
    <_>
      0. 0. 0. 0. 0. 0. 0. 0. 0. 0. 1.80180185e-02 0. 0. 0.
      9.00900923e-03 0. 0. 0. 0. 0. 0. 0. 0. 0. 0. 0. 0. 0. 0. 0. 0. 0.
      0. 0. 0. 0. 0. 0. 0. 0. 0. 0. 0. 9.00900923e-03 0. 0. 0. 0. 0. 0.
      9.00900923e-03 0. 0. 9.00900923e-03 0. 0. 0. 9.00900923e-03 0. 0.
      0. 0. 0. 0. 0. 0. 0. 0. 0. 0. 0. 0. 0. 0. 0. 0. 0. 0. 0.
      1.80180185e-02 0. 0. 0. 0. 0. 0. 9.00900923e-03 0. 0. 0. 0. 0. 0.
      0. 0. 0. 0. 0. 0. 0. 0. 0. 9.00900923e-03 0. 0. 0. 0. 0. 0. 0. 0.
      0. 0. 0. 0. 0. 0. 0. 0. 0. 0. 0. 0. 9.00900923e-03 0.
      9.00900923e-03 0. 0. 0. 0. 0. 0. 0. 0. 0. 0. 0. 0. 0. 0. 0. 0. 0.
      0. 0. 0. 0. 0. 0. 0. 0. 0. 0. 0. 0. 0. 0. 0. 0. 0. 0. 0. 0. 0. 0.
      0. 1.80180185e-02 0. 0. 0. 0. 0. 0. 0. 0. 0. 0. 9.00900923e-03 0.
      0. 0. 1.80180185e-02 0. 0. 0. 0. 0. 0. 0. 0. 0. 9.00900923e-03 0.
      0. 0. 0. 0. 0. 0. 0. 0. 0. 0. 0. 9.00900923e-03 0. 0. 0. 0. 0. 0.
      0. 0. 0. 9.00900923e-03 0. 0. 0. 0. 0. 0. 0. 0. 0. 0. 0. 0.
      9.00900923e-03 0. 0. 0. 0. 0. 0. 0. 9.00900923e-03 0. 0. 0. 0. 0.
      0. 9.00900923e-03 0. 0. 0. 0. 0. 0. 0. 0. 0. 0. 0. 0. 0. 0. 0. 0.
      0. 0. 0. 0. 0. 0. 9.00900923e-03 0. 0. 0. 0. 0. 0. 0. 0. 0. 0. 0.
      0. 9.00900923e-03 0. 0. 0. 0. 0. 0. 0. 0. 9.00900923e-03 0. 0. 0.
      0. 0. 0. 0. 0. 0. 0. 0. 9.00900923e-03 9.00900923e-03
      9.00900923e-03 0. 0. 9.00900923e-03 0. 0. 0. 0. 0. 0. 0. 0. 0. 0.
      0. 0. 0. 0. 0. 0. 0. 0. 0. 0. 0. 0. 0. 0. 0. 0. 0. 0. 0. 0. 0. 0.
      0. 0. 0. 0. 0. 0. 0. 0. 0. 0. 0. 0. 0. 0. 0. 0. 0. 0. 0. 0. 0. 0.
      0. 0. 0. 0. 0. 0. 0. 0. 0. 0. 0. 0. 0. 0. 0. 0. 0. 0. 0. 0. 0. 0.
      0. 0. 0. 0. 0. 0. 0. 0. 0. 0. 0. 0. 0. 0. 0. 9.00900923e-03 0. 0.
      0. 0. 0. 0. 0. 0. 0. 0. 0. 0. 0. 0. 0. 0. 0. 0. 0. 0. 0. 0. 0. 0.
      0. 0. 0. 0. 0. 0. 0. 0. 2.70270277e-02 9.00900923e-03 0. 0. 0. 0.
      0. 0. 0. 0. 0. 0. 0. 0. 0. 0. 0. 0. 0. 0. 0. 0. 0. 0. 0. 0. 0. 0.
      0. 0. 0. 0. 9.00900923e-03 0. 0. 0. 0. 0. 0. 0. 0. 0. 0. 0.
      9.00900923e-03 0. 0. 0. 0. 0. 0. 0. 0. 0. 0. 0. 0. 0. 0. 0. 0. 0.
      0. 0. 0. 0. 0. 0. 0. 0. 0. 0. 0. 0. 0. 0. 0. 0. 0. 0. 0. 0. 0. 0.
      0. 0. 0. 0. 0. 0. 0. 0. 0. 0. 9.00900923e-03 0. 0. 0. 0. 0. 0. 0.
      0. 0. 0. 0. 0. 0. 0. 0. 0. 0. 0. 0. 0. 0. 0. 0. 0. 0. 0. 0. 0. 0.
      0. 0. 0. 9.00900923e-03 0. 0. 0. 0. 1.80180185e-02 0. 0. 0. 0. 0.
      0. 0. 0. 0. 0. 0. 0. 0. 0. 0. 0. 0. 0. 0. 0. 0. 0. 0. 0. 0. 0. 0.
      9.00900923e-03 0. 0. 0. 0. 0. 0. 0. 0. 9.00900923e-03 0. 0. 0. 0.
      0. 0. 0. 0. 0. 1.80180185e-02 0. 0. 0. 0. 0. 0. 0. 0. 0. 0. 0. 0.
      0. 0. 0. 0. 0. 0. 0. 0. 0. 0. 0. 0. 0. 0. 0. 0. 0. 0. 0. 0. 0. 0.
      0. 0. 0. 0. 0. 0. 0. 0. 0. 9.00900923e-03 0. 0. 0. 0. 0. 0. 0. 0.
      0. 0. 0. 0. 0. 0. 0. 0. 0. 0. 0. 0. 0. 0. 0. 0. 0. 0. 0. 0. 0. 0.
      0. 0. 0. 0. 0. 0. 0. 0. 0. 0. 0. 0. 0. 0. 0. 0. 0. 0. 0. 0. 0. 0.
      0. 0. 9.00900923e-03 0. 9.00900923e-03 0. 0. 0. 0. 0. 0. 0. 0. 0.
      0. 0. 0. 0. 0. 0. 0. 0. 0. 0. 0. 0. 0. 0. 0. 0. 0. 0. 0. 0. 0. 0.
      0. 0. 0. 0. 0. 0. 3.60360369e-02 0. 0. 0. 0. 0. 0. 0. 0. 0. 0. 0.
      0. 0. 0. 0. 0. 0. 0. 0. 0. 0. 0. 0. 0. 0. 0. 0. 9.00900923e-03 0.
      0. 0. 0. 0. 0. 0. 9.00900923e-03 0. 0. 0. 0. 0. 0. 0.
      9.00900923e-03 0. 0. 0. 0. 1.80180185e-02 0. 0. 0. 0. 0.
      9.00900923e-03 0. 0. 0. 9.00900923e-03 0. 0. 0. 0. 9.00900923e-03
      0. 0. 0. 0. 0. 0. 0. 0. 0. 0. 0. 0. 0. 0. 0. 0. 0. 0. 0. 0. 0. 0.
      0. 0. 0. 0. 0. 0. 0. 0. 0. 0. 0. 0. 0. 0. 0. 0. 9.00900923e-03 0.
      0. 0. 0. 0. 0. 0. 0. 0. 0. 0. 0. 0. 0. 0. 0. 9.00900923e-03 0.
      9.00900923e-03 0. 0. 0. 0. 0. 0. 0. 0. 9.00900923e-03 0. 0. 0. 0.
      0. 0. 9.00900923e-03 0. 0. 0. 0. 0. 9.00900923e-03 0. 0. 0. 0.
      9.00900923e-03 0. 9.00900923e-03 0. 0. 0. 0. 0. 0. 0. 0. 0. 0. 0.
      0. 9.00900923e-03 0. 0. 0. 0. 0. 0. 9.00900923e-03 0. 0. 0. 0. 0.
      0. 0. 0. 0. 0. 0. 0. 9.00900923e-03 0. 0. 0. 0. 9.00900923e-03 0.
      0. 0. 0. 0. 0. 0. 0. 0. 0. 0. 0. 0. 0. 0. 0. 0. 0. 0. 0. 0. 0. 0.
      0. 0. 0. 0. 0. 9.00900923e-03 0. 0. 0. 0. 0. 0. 0. 0. 0. 0. 0. 0.
      0. 0. 0. 0. 0. 0. 9.00900923e-03 0. 0. 0. 0. 0. 0. 0. 0. 0. 0. 0.
      0. 0. 0. 0. 0. 0. 0. 0. 0. 0. 0. 0. 0. 9.00900923e-03 0. 0. 0. 0.
      0. 0. 0. 0. 0. 0. 0. 0. 0. 0. 0. 0. 0. 9.00900923e-03 0. 0. 0. 0.
      9.00900923e-03 0. 0. 0. 0. 0. 0. 9.00900923e-03 0. 0. 0. 0. 0. 0.
      0. 0. 0. 2.70270277e-02 0. 0. 0. 0. 0. 0. 0. 0. 0. 0. 0. 0. 0. 0.
      0. 0. 0. 0. 0. 0. 0. 0. 0. 0. 0. 9.00900923e-03 0. 0. 0. 0. 0. 0.
      0. 9.00900923e-03 0. 0. 0. 0. 0. 0. 9.00900923e-03 0. 0. 0.
      9.00900923e-03 0. 0. 0. 0. 0. 0. 0. 0. 0. 0. 0. 0. 0. 0. 0. 0. 0.
      0. 0. 0. 0. 0. 0. 0. 0. 0. 0. 0. 0. 0. 0. 0. 9.00900923e-03 0.
      9.00900923e-03 0. 0. 0. 0. 0. 0. 0. 0. 0. 0. 0. 0. 0. 0. 0. 0. 0.
      0. 0. 0. 0. 0. 0. 0. 0. 9.00900923e-03 0. 0. 0. 0. 0. 0. 0. 0. 0.
      0. 0. 9.00900923e-03 0. 0. 0. 0. 0. 0. 0. 0. 0. 0. 0. 0. 0. 0. 0.
      0. 0. 0. 0. 9.00900923e-03 0. 0. 0. 0. 0. 0. 0. 0. 0. 0. 0. 0. 0.
      0. 0. 0. 0. 0. 0. 0. 0. 0. 0. 0. 0. 0. 0. 0. 0. 0. 0. 0. 0. 0.
      9.00900923e-03 9.00900923e-03 0. 0. 0. 0. 0. 0. 0. 0. 0. 0.
      1.80180185e-02 0. 0. 0. 0. 0. 0. 0. 0. 0. 9.00900923e-03 0. 0. 0.
      0. 0. 0. 0. 0. 0. 0. 0. 0. 0. 0. 0. 0. 0. 0. 0. 0. 0. 0. 0. 0. 0.
      0. 9.00900923e-03 0. 0. 0. 0. 0. 0. 0. 0. 0. 0. 0. 0. 0. 0. 0. 0.
      0. 0. 0. 0. 0. 0. 0. 0. 0. 0. 0. 0. 0. 0. 0. 0. 0. 0. 0. 0. 0. 0.
      9.00900923e-03 0. 0. 0. 0. 0. 0. 0. 0. 0. 0. 0. 0. 0. 0. 0. 0. 0.
      0. 0. 0. 0. 0. 0. 0. 0. 0. 0. 0. 0. 0. 0. 0. 0. 0. 0. 0. 0. 0. 0.
      0. 0. 0. 9.00900923e-03 0. 0. 0. 0. 0. 0. 0. 0. 0. 0. 0. 0. 0. 0.
      0. 0. 0. 0. 0. 0. 9.00900923e-03 0. 0. 0. 0. 0. 0. 0. 0. 0. 0. 0.
      0. 0. 0. 0. 0. 0. 0. 0. 0. 0. 0. 0. 0. 0. 0. 0. 0. 0. 0. 0. 0. 0.
      0. 0. 0. 0. 0. 0. 0. 0. 0. 0. 3.60360369e-02 0. 0. 0. 0. 0. 0. 0.
      0. 0. 0. 0. 0. 0. 0. 1.80180185e-02 0. 0. 0. 0. 0. 0. 0. 0. 0. 0.
      0. 0. 0. 0. 0. 0. 0. 0. 0. 0. 0. 0. 0. 0. 0. 0. 0. 1.80180185e-02
      0. 0. 0. 0. 0. 0. 0. 0. 0. 0. 0. 0. 0. 0. 0. 9.00900923e-03
      9.00900923e-03 0. 0. 0. 0. 0. 0. 0. 0. 0. 0. 0. 0. 0. 0. 0.
      9.00900923e-03 0. 0. 0. 0. 0.</_>
    <_>
      0. 0. 0. 0. 0. 0. 0. 0. 0. 0. 0. 0. 0. 0. 0. 0. 0. 0. 0. 0. 0. 0.
      0. 0. 0. 0. 0. 0. 0. 0. 0. 0. 0. 0. 0. 0. 0. 0. 0. 0. 0. 0. 0. 0.
      0. 0. 2.56410260e-02 0. 0. 0. 0. 0. 0. 0. 0. 0. 0. 0. 0. 0. 0. 0.
      0. 0. 0. 0. 0. 0. 0. 0. 0. 0. 0. 0. 0. 0. 0. 0. 0. 0. 0. 0. 0. 0.
      0. 0. 0. 0. 0. 5.12820520e-02 0. 0. 0. 0. 0. 0. 0. 0. 0. 0. 0. 0.
      0. 0. 0. 0. 0. 0. 0. 0. 0. 0. 0. 0. 0. 0. 0. 0. 0. 0. 0. 0. 0. 0.
      0. 5.12820520e-02 0. 0. 0. 0. 0. 0. 0. 0. 0. 0. 0. 2.56410260e-02
      0. 0. 0. 0. 0. 0. 0. 0. 0. 0. 0. 0. 0. 0. 0. 0. 0. 0. 0. 0. 0. 0.
      0. 0. 0. 0. 0. 0. 0. 0. 0. 0. 0. 0. 0. 0. 0. 0. 0. 0. 0. 0. 0. 0.
      0. 0. 0. 2.56410260e-02 0. 0. 0. 0. 0. 0. 0. 0. 0. 0. 0. 0. 0. 0.
      0. 0. 0. 0. 0. 0. 0. 0. 0. 0. 0. 0. 0. 0. 0. 0. 0. 0. 0. 0. 0. 0.
      0. 0. 0. 0. 0. 0. 0. 0. 0. 0. 0. 0. 0. 0. 0. 0. 0. 0. 0. 0. 0. 0.
      0. 0. 0. 0. 0. 0. 0. 0. 0. 0. 0. 0. 0. 0. 0. 0. 0. 0. 0. 0. 0. 0.
      0. 0. 0. 0. 0. 0. 0. 0. 0. 0. 0. 0. 0. 0. 0. 0. 0. 0. 0. 0. 0. 0.
      0. 0. 0. 0. 0. 0. 0. 0. 0. 0. 0. 0. 0. 0. 0. 0. 0. 0. 0. 0. 0. 0.
      0. 0. 0. 0. 0. 0. 0. 0. 0. 0. 0. 0. 0. 0. 0. 0. 0. 0. 0. 0. 0. 0.
      0. 0. 0. 0. 0. 0. 0. 0. 0. 0. 0. 0. 0. 2.56410260e-02 0. 0. 0. 0.
      0. 0. 0. 0. 0. 0. 0. 0. 0. 0. 0. 0. 0. 0. 0. 0. 0. 0. 0. 0. 0. 0.
      0. 0. 0. 0. 0. 0. 0. 0. 0. 0. 0. 0. 0. 0. 0. 0. 0. 0. 0. 0. 0. 0.
      0. 2.56410260e-02 2.56410260e-02 0. 0. 0. 0. 0. 0. 0. 0. 0. 0. 0.
      0. 0. 0. 0. 0. 0. 0. 0. 0. 0. 0. 0. 0. 0. 0. 0. 0. 0. 0. 0. 0. 0.
      0. 0. 0. 0. 0. 0. 0. 0. 0. 0. 0. 0. 0. 0. 0. 0. 0. 2.56410260e-02
      0. 0. 0. 0. 0. 0. 0. 0. 0. 0. 0. 0. 0. 0. 0. 0. 0. 0. 0. 0. 0. 0.
      0. 0. 0. 0. 0. 0. 0. 0. 0. 0. 0. 0. 0. 0. 0. 0. 0. 0. 0. 0. 0. 0.
      0. 0. 0. 0. 0. 0. 0. 0. 0. 0. 0. 0. 0. 0. 0. 0. 0. 0. 0. 0. 0. 0.
      0. 0. 0. 0. 0. 0. 0. 0. 0. 0. 0. 0. 0. 0. 0. 0. 0. 0. 0. 0. 0. 0.
      0. 2.56410260e-02 0. 0. 0. 0. 0. 0. 0. 0. 0. 0. 0. 0. 0. 0. 0. 0.
      0. 0. 0. 0. 0. 0. 0. 0. 0. 0. 0. 0. 0. 0. 0. 0. 0. 2.56410260e-02
      0. 0. 0. 0. 0. 0. 0. 0. 0. 0. 0. 0. 0. 0. 0. 0. 0. 0. 0. 0. 0. 0.
      0. 0. 0. 0. 0. 0. 0. 0. 0. 0. 0. 0. 0. 0. 0. 0. 0. 0. 0. 0. 0. 0.
      0. 0. 0. 0. 0. 0. 0. 0. 0. 0. 0. 0. 0. 0. 0. 0. 0. 0. 0. 0. 0. 0.
      0. 0. 0. 0. 0. 0. 0. 0. 0. 0. 0. 0. 0. 0. 0. 0. 0. 0. 0. 0. 0. 0.
      0. 0. 0. 0. 0. 0. 0. 0. 0. 0. 0. 0. 0. 0. 0. 0. 2.56410260e-02 0.
      0. 0. 0. 0. 0. 0. 0. 0. 0. 0. 0. 0. 0. 0. 0. 0. 0. 0. 0. 0. 0. 0.
      0. 0. 0. 0. 0. 0. 0. 0. 0. 0. 0. 0. 0. 0. 0. 0. 0. 0. 0. 0. 0. 0.
      0. 0. 0. 0. 0. 0. 0. 0. 0. 0. 0. 0. 0. 0. 0. 0. 0. 0. 0. 0. 0. 0.
      0. 0. 0. 0. 0. 0. 0. 0. 0. 0. 0. 0. 0. 0. 0. 0. 0. 0. 0. 0. 0. 0.
      0. 0. 0. 0. 0. 0. 0. 0. 0. 0. 0. 0. 0. 0. 0. 0. 0. 0. 0. 0. 0. 0.
      0. 0. 0. 0. 0. 0. 0. 0. 0. 0. 0. 0. 0. 0. 0. 0. 0. 0. 0. 0. 0.
      2.56410260e-02 0. 0. 0. 0. 0. 0. 0. 0. 0. 0. 0. 0. 0. 0. 0. 0. 0.
      0. 0. 0. 0. 0. 0. 0. 0. 0. 0. 0. 0. 0. 0. 0. 0. 0. 0. 0. 0. 0. 0.
      0. 0. 0. 0. 0. 0. 0. 0. 0. 0. 0. 0. 0. 0. 0. 0. 0. 0. 0. 0. 0. 0.
      0. 0. 0. 0. 0. 0. 0. 0. 0. 0. 0. 0. 0. 0. 0. 0. 0. 0. 0. 0. 0. 0.
