<?xml version="1.0"?>
<opencv_storage>
<my_svm type_id="opencv-ml-svm">
  <svm_type>C_SVC</svm_type>
  <kernel><type>RBF</type>
    <gamma>1.</gamma></kernel>
  <C>1.</C>
  <term_criteria><epsilon>1.1920928955078125e-07</epsilon>
    <iterations>1000</iterations></term_criteria>
  <var_all>1500</var_all>
  <var_count>1500</var_count>
  <class_count>2</class_count>
  <class_labels type_id="opencv-matrix">
    <rows>1</rows>
    <cols>2</cols>
    <dt>i</dt>
    <data>
      0 1</data></class_labels>
  <sv_total>178</sv_total>
  <support_vectors>
    <_>
      0. 0. 1.32890362e-02 0. 0. 0. 0. 0. 0. 0. 0. 3.32225906e-03 0. 0.
      0. 0. 0. 0. 0. 0. 0. 3.32225906e-03 0. 0. 3.32225906e-03 0. 0. 0.
      0. 0. 0. 0. 0. 0. 3.32225906e-03 0. 0. 0. 0. 3.32225906e-03 0. 0.
      0. 0. 0. 0. 3.32225906e-03 0. 3.32225906e-03 0. 0. 0. 0. 0. 0. 0.
      0. 0. 0. 0. 0. 0. 3.32225906e-03 0. 0. 0. 0. 0. 0. 0. 0. 0. 0.
      9.96677764e-03 0. 0. 0. 0. 0. 0. 0. 0. 0. 0. 0. 0. 0.
      3.32225906e-03 0. 0. 3.32225906e-03 3.32225906e-03 0.
      6.64451811e-03 0. 9.96677764e-03 0. 0. 0. 0. 3.32225906e-03 0. 0.
      0. 0. 0. 0. 0. 0. 0. 0. 0. 0. 6.64451811e-03 0. 0. 0.
      3.32225896e-02 0. 0. 3.32225906e-03 3.32225906e-03 0.
      3.32225906e-03 0. 3.32225906e-03 0. 0. 0. 0. 0. 0. 0. 0. 0. 0. 0.
      0. 0. 3.32225906e-03 0. 0. 0. 0. 0. 6.64451811e-03 3.32225906e-03
      0. 0. 0. 0. 6.64451811e-03 0. 0. 0. 0. 0. 0. 0. 0. 0. 0. 0. 0. 0.
      3.32225906e-03 0. 0. 0. 0. 0. 0. 0. 0. 0. 0. 0. 0. 0. 0.
      3.32225906e-03 0. 0. 0. 0. 0. 0. 0. 0. 0. 0. 0. 0. 0. 0. 0. 0. 0.
      0. 3.32225906e-03 0. 0. 0. 0. 0. 0. 0. 0. 3.32225906e-03 0.
      3.32225906e-03 0. 0. 0. 0. 0. 0. 0. 0. 0. 0. 0. 0. 3.32225906e-03
      0. 0. 0. 9.96677764e-03 3.32225906e-03 3.32225906e-03 0. 0. 0. 0.
      0. 0. 0. 0. 0. 3.32225906e-03 0. 6.64451811e-03 0. 0. 0. 0. 0. 0.
      0. 3.32225906e-03 0. 0. 0. 0. 0. 0. 0. 0. 0. 0. 0. 3.32225906e-03
      0. 0. 0. 0. 0. 0. 0. 0. 6.64451811e-03 0. 0. 0. 0. 0. 0.
      3.32225906e-03 0. 0. 0. 0. 0. 0. 0. 3.32225906e-03 0. 0. 0.
      3.32225906e-03 0. 0. 0. 0. 3.32225906e-03 0. 0. 0. 0.
      3.32225906e-03 0. 3.32225906e-03 0. 0. 0. 0. 0. 0. 3.32225906e-03
      0. 0. 0. 0. 0. 0. 0. 3.32225906e-03 0. 0. 0. 0. 0. 0. 0. 0. 0.
      6.64451811e-03 0. 3.32225906e-03 0. 0. 0. 0. 0. 0. 0. 0.
      3.32225906e-03 0. 0. 0. 0. 0. 3.32225906e-03 0. 0. 0. 0. 0. 0. 0.
      0. 3.32225906e-03 0. 0. 3.32225906e-03 0. 0. 0. 0. 0. 0. 0. 0. 0.
      0. 3.32225906e-03 0. 0. 0. 0. 3.32225906e-03 0. 0. 0.
      6.64451811e-03 0. 0. 0. 0. 6.64451811e-03 0. 0. 0. 0. 0. 0. 0. 0.
      0. 0. 0. 6.64451811e-03 0. 0. 0. 0. 0. 0. 0. 0. 0. 0. 0. 0. 0. 0.
      0. 0. 0. 0. 3.32225906e-03 0. 0. 0. 0. 0. 0. 0. 0. 0.
      9.96677764e-03 0. 0. 0. 3.32225906e-03 0. 0. 0. 0. 0. 0. 0. 0. 0.
      0. 0. 0. 0. 0. 3.32225906e-03 0. 0. 0. 0. 0. 0. 0. 0. 0. 0. 0. 0.
      0. 0. 0. 0. 6.64451811e-03 0. 0. 0. 6.64451811e-03 0. 0. 0.
      3.32225906e-03 0. 0. 0. 0. 6.64451811e-03 0. 0. 0. 0.
      6.64451811e-03 0. 0. 0. 6.64451811e-03 0. 0. 0. 0. 3.32225906e-03
      0. 0. 0. 0. 0. 3.32225906e-03 3.32225906e-03 3.32225906e-03 0. 0.
      3.32225906e-03 0. 0. 0. 0. 0. 0. 0. 0. 0. 0. 0. 0. 0.
      3.32225906e-03 0. 0. 0. 9.96677764e-03 0. 0. 0. 0. 0. 0. 0. 0. 0.
      0. 0. 0. 0. 0. 6.64451811e-03 0. 0. 0. 0. 0. 0. 0. 0. 0. 0.
      9.96677764e-03 0. 0. 0. 3.32225906e-03 0. 0. 0. 0. 0. 0. 0. 0. 0.
      0. 6.64451811e-03 9.96677764e-03 0. 0. 6.64451811e-03 0. 0. 0. 0.
      0. 0. 0. 0. 0. 3.32225906e-03 3.32225906e-03 0. 0. 3.32225906e-03
      3.32225906e-03 0. 0. 1.32890362e-02 0. 0. 0. 0. 0. 0. 0.
      3.32225906e-03 3.32225906e-03 0. 3.32225906e-03 0. 0. 0.
      3.32225906e-03 0. 0. 3.32225906e-03 3.32225906e-03 0. 0.
      3.32225906e-03 0. 0. 0. 0. 0. 0. 0. 0. 0. 0. 0. 0. 0. 0. 0. 0. 0.
      0. 0. 0. 0. 0. 0. 0. 0. 0. 0. 0. 0. 0. 0. 0. 0. 0. 0. 0. 0. 0. 0.
      0. 0. 0. 0. 0. 0. 3.32225906e-03 0. 0. 0. 0. 0. 0. 6.64451811e-03
      0. 0. 0. 0. 0. 0. 0. 0. 0. 0. 0. 0. 0. 0. 0. 0. 0. 0. 0. 0. 0.
      9.96677764e-03 3.32225906e-03 0. 0. 0. 0. 0. 0. 3.32225906e-03 0.
      0. 0. 0. 3.32225906e-03 0. 0. 3.32225906e-03 0. 1.66112948e-02 0.
      0. 0. 0. 0. 0. 0. 0. 0. 0. 0. 0. 0. 0. 0. 0. 0. 0. 3.32225906e-03
      0. 0. 0. 0. 0. 1.99335553e-02 0. 3.32225906e-03 0. 0. 0. 0. 0. 0.
      3.32225906e-03 0. 0. 0. 0. 0. 0. 0. 0. 0. 0. 0. 0. 0. 0. 0. 0. 0.
      0. 0. 0. 0. 0. 0. 0. 0. 3.32225906e-03 0. 0. 3.32225906e-03 0.
      3.32225906e-03 0. 3.32225906e-03 0. 0. 0. 0. 0. 0. 3.32225906e-03
      0. 0. 0. 0. 0. 0. 0. 0. 0. 0. 0. 0. 0. 0. 0. 0. 0. 0.
      3.32225906e-03 0. 0. 0. 0. 3.32225906e-03 0. 0. 3.32225906e-03 0.
      9.96677764e-03 0. 0. 9.96677764e-03 3.32225906e-03 0. 0.
      3.32225906e-03 0. 0. 3.32225906e-03 0. 0. 0. 0. 0. 0. 0. 0. 0. 0.
      0. 0. 0. 0. 0. 0. 0. 0. 0. 0. 0. 0. 3.32225906e-03 0. 0. 0. 0. 0.
      0. 0. 0. 0. 0. 0. 0. 0. 0. 0. 0. 0. 0. 0. 0. 0. 0. 0.
      3.32225906e-03 3.32225906e-03 0. 0. 0. 3.32225906e-03 0. 0. 0. 0.
      0. 3.32225906e-03 3.32225906e-03 0. 0. 0. 0. 0. 0. 0. 0. 0. 0. 0.
      3.32225906e-03 3.32225906e-03 0. 0. 3.32225906e-03 0. 0. 0.
      3.32225906e-03 0. 0. 0. 0. 0. 3.32225906e-03 0. 0. 0. 0. 0. 0. 0.
      3.32225906e-03 0. 0. 0. 0. 3.32225906e-03 0. 0. 0. 0.
      3.32225906e-03 3.32225906e-03 0. 0. 0. 0. 0. 0. 0. 0. 0. 0. 0. 0.
      0. 0. 0. 0. 0. 0. 0. 0. 3.32225906e-03 0. 0. 3.32225906e-03 0. 0.
      0. 0. 0. 0. 0. 0. 0. 0. 0. 0. 0. 0. 0. 0. 0. 0. 0. 0. 0. 0. 0. 0.
      0. 0. 0. 0. 6.64451811e-03 0. 0. 0. 0. 0. 0. 0. 0. 0. 0. 0. 0. 0.
      0. 0. 3.32225906e-03 0. 0. 0. 0. 0. 0. 0. 3.32225906e-03 0. 0. 0.
      0. 3.32225906e-03 0. 0. 0. 1.99335553e-02 0. 0. 1.66112948e-02 0.
      0. 0. 0. 0. 0. 0. 0. 0. 0. 3.32225906e-03 0. 0. 3.32225906e-03 0.
      0. 0. 0. 3.32225906e-03 0. 0. 0. 0. 0. 0. 0. 0. 0. 3.32225906e-03
      0. 0. 0. 0. 0. 0. 0. 0. 0. 0. 3.32225906e-03 0. 0. 0. 0. 0.
      3.32225906e-03 0. 0. 0. 0. 3.32225906e-03 0. 0. 0. 0. 0. 0. 0. 0.
      0. 0. 0. 0. 0. 0. 0. 0. 0. 0. 0. 0. 0. 0. 0. 0. 0. 0. 0. 0. 0. 0.
      3.32225906e-03 0. 0. 0. 0. 0. 0. 0. 0. 0. 3.32225906e-03 0. 0. 0.
      0. 3.32225906e-03 0. 0. 0. 0. 0. 0. 0. 0. 3.32225906e-03 0. 0. 0.
      0. 6.64451811e-03 3.32225906e-03 0. 0. 0. 0. 0. 0. 0. 0. 0. 0. 0.
      0. 0. 3.32225906e-03 0. 0. 3.32225906e-03 0. 0. 0. 0. 0. 0. 0. 0.
      0. 0. 6.64451811e-03 0. 0. 0. 0. 0. 6.64451811e-03 0.
      1.99335553e-02 3.32225906e-03 3.32225906e-03 0. 0. 0. 0. 0.
      6.64451811e-03 0. 0. 0. 0. 0. 3.32225906e-03 0. 0. 0. 0. 0. 0. 0.
      0. 9.96677764e-03 0. 0. 0. 0. 0. 0. 0. 0. 0. 0. 3.32225906e-03 0.
      0. 0. 0. 0. 0. 0. 0. 0. 0. 0. 0. 0. 0. 0. 0. 0. 0. 0. 0. 0. 0. 0.
      0. 0. 3.32225906e-03 0. 0. 0. 6.64451811e-03 0. 0. 0. 0. 0.
      3.32225906e-03 3.32225906e-03 0. 3.32225906e-03 0. 0.
      6.64451811e-03 0. 0. 0. 0. 3.32225906e-03 0. 0. 0. 0. 0.
      3.32225906e-03 3.32225906e-03 0. 0. 0. 0. 6.64451811e-03 0. 0. 0.
      0. 0. 0. 0. 0. 0. 0. 0. 0. 3.32225906e-03 0. 0. 0. 0. 0. 0. 0. 0.
      3.32225906e-03 0. 0. 0. 0. 0. 0. 0. 0. 0. 0. 0. 0. 0. 0. 0. 0. 0.
      0. 0. 0. 0. 0. 0. 3.32225906e-03 0. 0. 0. 0. 0. 0. 0.
      6.64451811e-03 0. 0. 6.64451811e-03 0. 0. 0. 3.32225906e-03 0. 0.
      0. 0. 0. 0. 0. 0. 3.32225906e-03 0. 0. 0. 0. 0. 0. 0.
      3.32225906e-03 0. 0. 0. 0. 0. 0. 0. 0. 3.32225906e-03 0.
      3.32225906e-03 0. 3.32225906e-03 0. 0. 0. 3.32225906e-03
      6.64451811e-03 0. 0. 0. 0. 0. 0. 0. 0. 0. 0. 0. 0. 0. 0. 0. 0. 0.
      3.32225906e-03 0. 0. 0. 0. 0. 0. 0. 0. 0. 0. 0. 0. 0. 0.
      3.32225906e-03 0. 0. 0. 3.32225906e-03 0. 3.32225906e-03 0.
      9.96677764e-03 0. 0. 0. 0. 0. 0. 0. 0. 0. 0. 0. 0. 0. 0. 0. 0.
      3.32225906e-03 0. 0. 0. 0. 0. 0. 0. 3.32225906e-03 0. 0. 0. 0. 0.
      0. 0. 0. 0. 0. 0. 0. 3.32225906e-03 0. 3.32225906e-03 0. 0. 0. 0.
      6.64451811e-03 0. 0. 0. 0. 0. 0. 0. 0. 0. 3.32225906e-03 0. 0.
      3.32225906e-03 0. 0. 6.64451811e-03 0. 0. 0. 0. 0. 0. 0. 0. 0. 0.
      0. 0. 0. 0. 0. 0. 0. 0. 0. 3.32225906e-03 0. 0. 0. 0.
      3.32225906e-03 3.32225906e-03 0. 3.32225906e-03 0. 0. 0. 0. 0. 0.
      0. 0. 0. 0. 0. 0. 0. 0. 0. 0. 0. 0. 0. 0. 0. 0. 0. 3.32225906e-03
      0. 0. 0. 0. 0. 0. 0. 0. 0. 0. 0.</_>
    <_>
      0. 0. 0. 0. 0. 0. 6.41025649e-03 0. 0. 0. 0. 0. 0. 0. 0. 0.
      6.41025649e-03 0. 0. 0. 0. 0. 0. 0. 0. 0. 0. 0. 0. 6.41025649e-03
      0. 0. 0. 0. 6.41025649e-03 6.41025649e-03 0. 0. 0. 6.41025649e-03
      0. 0. 0. 0. 0. 0. 0. 0. 0. 6.41025649e-03 0. 0. 0. 6.41025649e-03
      0. 0. 0. 0. 0. 0. 0. 0. 6.41025649e-03 0. 0. 0. 0. 6.41025649e-03
      0. 0. 0. 0. 0. 0. 0. 0. 6.41025649e-03 0. 0. 6.41025649e-03 0. 0.
      0. 0. 0. 0. 0. 0. 0. 0. 0. 0. 0. 0. 0. 0. 0. 0. 0. 0. 0. 0. 0. 0.
      0. 0. 0. 0. 0. 0. 0. 0. 0. 0. 0. 0. 0. 1.28205130e-02 0. 0. 0. 0.
      0. 6.41025649e-03 0. 0. 0. 0. 0. 6.41025649e-03 0. 0. 0. 0. 0. 0.
      0. 0. 0. 0. 0. 0. 0. 0. 0. 0. 0. 0. 0. 0. 6.41025649e-03 0. 0. 0.
      0. 6.41025649e-03 0. 0. 0. 0. 0. 0. 0. 0. 0. 0. 0. 0. 0. 0. 0. 0.
      0. 0. 0. 6.41025649e-03 6.41025649e-03 0. 0. 0. 0. 0. 0. 0. 0. 0.
      0. 0. 0. 0. 0. 0. 0. 0. 0. 0. 6.41025649e-03 0. 0. 6.41025649e-03
      0. 0. 0. 0. 0. 0. 0. 0. 0. 0. 0. 0. 0. 0. 0. 0. 0. 0. 0.
      6.41025649e-03 0. 0. 0. 0. 6.41025649e-03 0. 0. 0. 6.41025649e-03
      0. 0. 0. 0. 1.28205130e-02 0. 0. 0. 0. 0. 0. 0. 0. 0. 0. 0. 0. 0.
      0. 0. 0. 0. 0. 0. 0. 0. 6.41025649e-03 0. 0. 0. 0. 6.41025649e-03
      0. 0. 0. 0. 0. 0. 0. 0. 0. 0. 0. 0. 0. 0. 0. 0. 0. 0. 0. 0. 0. 0.
      0. 0. 0. 0. 0. 0. 0. 0. 0. 0. 0. 6.41025649e-03 0. 0.
      1.28205130e-02 0. 6.41025649e-03 0. 2.56410260e-02 0. 0. 0. 0. 0.
      6.41025649e-03 0. 0. 0. 0. 0. 0. 6.41025649e-03 0. 0. 0. 0. 0. 0.
      0. 0. 0. 0. 0. 0. 0. 0. 0. 0. 0. 0. 0. 0. 0. 1.28205130e-02 0. 0.
      0. 0. 0. 0. 0. 0. 0. 6.41025649e-03 0. 0. 0. 0. 0. 0. 0. 0. 0. 0.
      0. 0. 0. 0. 0. 0. 0. 6.41025649e-03 0. 0. 0. 0. 0. 0. 0. 0. 0. 0.
      0. 0. 0. 0. 0. 0. 0. 0. 0. 0. 0. 6.41025649e-03 0. 0. 0. 0. 0. 0.
      0. 0. 0. 0. 0. 0. 6.41025649e-03 0. 0. 0. 0. 0. 0. 6.41025649e-03
      0. 0. 0. 0. 0. 0. 0. 0. 6.41025649e-03 0. 0. 0. 0. 0. 0. 0. 0. 0.
      0. 0. 0. 0. 0. 0. 0. 0. 0. 0. 0. 0. 0. 0. 0. 0. 0. 0. 0. 0. 0. 0.
      0. 0. 0. 0. 0. 0. 0. 0. 0. 0. 6.41025649e-03 0. 0. 0. 0. 0. 0. 0.
      6.41025649e-03 0. 6.41025649e-03 0. 0. 0. 0. 0. 0. 0. 0. 0. 0. 0.
      0. 6.41025649e-03 0. 0. 0. 0. 0. 0. 0. 0. 0. 0. 0. 0. 0. 0.
      6.41025649e-03 0. 0. 0. 0. 0. 0. 0. 0. 0. 0. 0. 0. 0.
      6.41025649e-03 0. 0. 0. 0. 0. 6.41025649e-03 0. 0. 0. 0. 0. 0. 0.
      0. 0. 0. 0. 0. 0. 0. 6.41025649e-03 0. 0. 0. 0. 0. 0. 0. 0. 0. 0.
      0. 0. 0. 0. 0. 0. 0. 6.41025649e-03 0. 0. 0. 0. 0. 6.41025649e-03
      0. 0. 0. 0. 0. 0. 0. 0. 0. 0. 0. 6.41025649e-03 0. 0. 0. 0. 0. 0.
      0. 0. 6.41025649e-03 0. 0. 0. 0. 0. 0. 0. 0. 0. 0. 0. 0. 0. 0. 0.
      0. 0. 0. 0. 0. 0. 0. 0. 0. 0. 0. 0. 0. 0. 0. 6.41025649e-03
      6.41025649e-03 0. 0. 0. 0. 0. 0. 0. 0. 0. 0. 0. 0. 1.28205130e-02
      1.92307699e-02 0. 1.28205130e-02 0. 6.41025649e-03 0.
      6.41025649e-03 1.28205130e-02 0. 0. 0. 0. 0. 0. 0. 0. 0. 0. 0. 0.
      0. 1.28205130e-02 0. 0. 0. 0. 0. 0. 0. 0. 0. 0. 0. 0. 0. 0. 0. 0.
      0. 0. 0. 0. 0. 0. 0. 0. 0. 0. 0. 0. 0. 0. 0. 0. 0. 0.
      6.41025649e-03 0. 0. 0. 0. 0. 0. 0. 6.41025649e-03 0. 0. 0. 0. 0.
      0. 0. 0. 0. 0. 0. 0. 0. 0. 0. 1.28205130e-02 0. 6.41025649e-03 0.
      0. 0. 0. 0. 0. 6.41025649e-03 6.41025649e-03 0. 0. 0. 0. 0. 0. 0.
      0. 0. 0. 0. 0. 6.41025649e-03 0. 0. 0. 0. 0. 0. 6.41025649e-03 0.
      0. 0. 0. 0. 0. 0. 0. 0. 0. 0. 0. 0. 0. 0. 0. 0. 0. 0. 0. 0.
      1.28205130e-02 0. 0. 1.28205130e-02 0. 0. 0. 0. 0. 0. 0. 0. 0.
      6.41025649e-03 0. 0. 0. 0. 0. 0. 0. 0. 0. 0. 0. 0. 0. 0. 0. 0. 0.
      0. 0. 0. 6.41025649e-03 0. 0. 0. 0. 0. 0. 0. 0. 0. 0. 0. 0. 0. 0.
      0. 0. 0. 0. 0. 0. 0. 0. 6.41025649e-03 0. 0. 0. 0. 0. 0. 0. 0. 0.
      0. 0. 0. 0. 0. 0. 0. 6.41025649e-03 0. 0. 0. 0. 0. 0. 0. 0. 0. 0.
      0. 0. 0. 0. 0. 6.41025649e-03 0. 0. 0. 0. 0. 0. 0. 6.41025649e-03
      6.41025649e-03 1.28205130e-02 0. 0. 0. 0. 0. 0. 0. 0. 0. 0. 0. 0.
      0. 0. 0. 0. 0. 0. 0. 0. 6.41025649e-03 0. 0. 0. 0. 0. 0. 0. 0. 0.
      0. 0. 0. 0. 0. 0. 0. 0. 0. 0. 0. 0. 0. 0. 0. 0. 0. 0. 0. 0.
      6.41025649e-03 0. 0. 0. 0. 0. 0. 0. 0. 0. 0. 0. 0. 0. 0. 0. 0. 0.
      0. 0. 0. 0. 0. 0. 0. 0. 0. 0. 0. 0. 0. 0. 0. 0. 0. 0. 0.
      6.41025649e-03 0. 0. 0. 0. 0. 0. 0. 0. 0. 0. 6.41025649e-03 0. 0.
      0. 0. 0. 6.41025649e-03 0. 0. 0. 0. 0. 0. 6.41025649e-03 0. 0.
      1.28205130e-02 0. 0. 0. 0. 0. 0. 0. 1.28205130e-02 6.41025649e-03
      0. 0. 0. 0. 0. 6.41025649e-03 0. 0. 0. 6.41025649e-03 0. 0. 0. 0.
      6.41025649e-03 0. 0. 0. 0. 0. 0. 0. 0. 0. 0. 0. 0. 0. 0. 0. 0. 0.
      0. 0. 0. 6.41025649e-03 0. 6.41025649e-03 6.41025649e-03 0. 0. 0.
      0. 6.41025649e-03 0. 0. 0. 0. 0. 0. 0. 0. 0. 0. 0. 0. 0.
      6.41025649e-03 0. 0. 0. 0. 0. 0. 0. 0. 0. 0. 0. 0. 0. 0. 0. 0. 0.
      0. 0. 0. 0. 0. 0. 0. 0. 1.28205130e-02 0. 0. 0. 0. 0. 0. 0. 0. 0.
      0. 0. 0. 0. 0. 0. 0. 0. 0. 0. 6.41025649e-03 0. 0. 0. 0. 0. 0. 0.
      6.41025649e-03 0. 0. 0. 0. 0. 0. 0. 0. 0. 0. 0. 0. 0. 0. 0. 0. 0.
      0. 0. 0. 0. 0. 6.41025649e-03 0. 0. 0. 6.41025649e-03 0. 0. 0. 0.
      0. 0. 0. 0. 0. 0. 0. 0. 0. 0. 0. 0. 6.41025649e-03 0.
      6.41025649e-03 0. 0. 0. 0. 0. 0. 0. 0. 0. 0. 0. 0. 0. 0. 0. 0.
      6.41025649e-03 0. 0. 0. 0. 0. 0. 0. 6.41025649e-03 6.41025649e-03
      0. 6.41025649e-03 0. 0. 0. 0. 0. 0. 0. 2.56410260e-02 0. 0. 0. 0.
      0. 0. 0. 0. 0. 0. 0. 0. 6.41025649e-03 0. 0. 0. 0. 0. 0. 0.
      6.41025649e-03 6.41025649e-03 0. 0. 0. 0. 0. 0. 0. 0. 0. 0. 0.
      6.41025649e-03 0. 0. 0. 0. 0. 0. 0. 0. 0. 0. 0. 0. 0. 0. 0. 0. 0.
      0. 0. 0. 0. 0. 0. 0. 0. 6.41025649e-03 0. 0. 0. 0. 0. 0. 0. 0. 0.
      0. 0. 0. 1.28205130e-02 0. 0. 0. 6.41025649e-03 0. 0. 0. 0. 0.
      6.41025649e-03 0. 0. 0. 0. 0. 0. 0. 0. 0. 0. 0. 0. 0. 0. 0. 0. 0.
      0. 0. 0. 0. 0. 0. 0. 0. 0. 0. 0. 0. 0. 0. 0. 0. 0. 0. 0. 0. 0. 0.
      0. 0. 0. 0. 0. 0. 0. 0. 0. 0. 0. 0. 0. 0. 6.41025649e-03 0. 0. 0.
      0. 0. 0. 0. 0. 0. 0. 0. 0. 0. 0. 0. 0. 0. 0. 0. 0. 6.41025649e-03
      0. 1.28205130e-02 0. 6.41025649e-03 0. 0. 0. 0. 0. 0. 0. 0. 0. 0.
      0. 0. 0. 0. 6.41025649e-03 0. 0. 0. 0. 0. 0. 6.41025649e-03 0. 0.
      0. 0. 0. 0. 6.41025649e-03 0. 0. 0. 0. 0. 0. 0. 0. 0. 0. 0. 0. 0.
      0. 0. 0. 0. 0. 0. 0. 0. 0. 0. 0. 0. 0. 0. 0. 0. 0. 0. 0. 0. 0. 0.
      0. 0. 0. 0. 0. 0. 6.41025649e-03 0. 0. 0. 0. 0. 0. 0.
      6.41025649e-03 0. 0. 0. 0. 0. 0. 0. 0. 0. 0. 0. 0. 0. 0. 0. 0. 0.
      0. 0. 0. 0. 0. 0. 0. 0. 0. 0. 0. 0. 0. 0. 0. 0. 0. 6.41025649e-03
      0. 0. 0. 0. 0. 0. 0. 0. 0. 0. 6.41025649e-03 0. 0. 0. 0. 0. 0. 0.
      0. 6.41025649e-03 0. 0. 0. 0. 0. 0. 0. 0. 0. 0. 0. 0. 0. 0. 0.
      6.41025649e-03 0. 0. 6.41025649e-03 0. 6.41025649e-03 0. 0. 0. 0.
      0. 0. 0. 0. 0. 0. 0.</_>
    <_>
      2.46913591e-03 0. 0. 2.46913591e-03 0. 0. 0. 0. 0. 0. 0.
      2.46913591e-03 0. 0. 0. 0. 2.46913591e-03 0. 0. 7.40740774e-03
      2.46913591e-03 7.40740774e-03 0. 1.72839519e-02 0. 0. 0. 0.
      9.87654366e-03 0. 0. 0. 4.93827183e-03 0. 0. 0. 0. 0. 0. 0. 0. 0.
      0. 2.46913591e-03 0. 0. 0. 0. 0. 0. 0. 0. 2.46913591e-03 0. 0. 0.
      0. 0. 0. 2.46913591e-03 0. 0. 0. 0. 0. 0. 0. 0. 0. 0. 0. 0. 0. 0.
      0. 0. 0. 7.40740774e-03 0. 0. 0. 0. 0. 2.46913591e-03 0. 0. 0.
      4.93827183e-03 0. 0. 2.46913591e-03 0. 0. 0. 9.87654366e-03
      2.46913591e-03 0. 0. 0. 0. 0. 0. 0. 0. 2.46913591e-03 0.
      2.46913591e-03 0. 0. 0. 0. 0. 2.46913591e-03 0. 0. 2.46913591e-03
      0. 0. 0. 0. 0. 0. 0. 2.46913591e-03 0. 0. 0. 0. 0. 0. 0. 0.
      2.46913591e-03 2.46913591e-03 2.46913591e-03 0. 0. 0. 0. 0.
      2.46913591e-03 0. 0. 2.46913591e-03 0. 2.46913591e-03 0.
      2.46913591e-03 0. 0. 0. 0. 0. 0. 2.46913591e-03 0. 0. 0. 0. 0. 0.
      0. 0. 0. 0. 0. 0. 0. 0. 0. 0. 0. 0. 4.93827183e-03 0. 0. 0. 0. 0.
      0. 0. 0. 2.46913591e-03 0. 2.46913591e-03 0. 0. 4.93827183e-03 0.
      2.46913591e-03 0. 0. 0. 0. 0. 0. 0. 0. 2.46913591e-03 0. 0. 0. 0.
      4.93827183e-03 0. 2.46913591e-03 2.46913591e-03 0. 0. 0.
      2.46913591e-03 0. 0. 0. 0. 0. 0. 0. 2.46913591e-03 0. 0.
      2.46913591e-03 0. 2.46913591e-03 0. 0. 2.46913591e-03
      2.46913591e-03 0. 0. 4.93827183e-03 0. 0. 0. 0. 0. 0. 0.
      4.93827183e-03 0. 0. 0. 0. 0. 0. 2.46913591e-03 0. 7.40740774e-03
      0. 0. 2.46913591e-03 0. 0. 0. 0. 0. 0. 2.46913591e-03 0. 0. 0. 0.
      0. 0. 0. 0. 0. 0. 2.46913591e-03 4.93827183e-03 0. 2.46913591e-03
      0. 0. 0. 4.93827183e-03 0. 0. 0. 0. 0. 0. 0. 0. 2.46913591e-03 0.
      2.46913591e-03 0. 0. 0. 0. 0. 0. 0. 0. 0. 0. 0. 0. 2.46913591e-03
      0. 0. 0. 0. 0. 0. 0. 0. 2.46913591e-03 0. 0. 0. 0. 0. 0. 0. 0. 0.
      0. 0. 2.46913591e-03 0. 0. 0. 0. 0. 0. 9.87654366e-03 0. 0. 0. 0.
      0. 0. 0. 2.46913591e-03 0. 0. 0. 0. 0. 0. 0. 0. 0. 0. 0. 0.
      4.93827183e-03 0. 0. 0. 0. 0. 2.46913591e-03 0. 0. 0. 0. 0. 0. 0.
      4.93827183e-03 0. 2.46913591e-03 0. 0. 2.46913591e-03
      2.46913591e-03 0. 0. 0. 0. 0. 0. 0. 0. 0. 0. 0. 0. 4.93827183e-03
      0. 0. 0. 0. 0. 0. 0. 0. 0. 0. 0. 0. 0. 0. 0. 0. 0. 0. 0. 0. 0. 0.
      0. 0. 0. 0. 0. 2.46913591e-03 4.93827183e-03 2.46913591e-03 0. 0.
      0. 0. 0. 0. 0. 0. 0. 0. 0. 0. 2.46913591e-03 0. 0. 2.46913591e-03
      0. 0. 0. 0. 2.46913591e-03 0. 0. 0. 0. 0. 0. 0. 2.46913591e-03 0.
      2.46913591e-03 0. 0. 0. 4.93827183e-03 0. 0. 2.46913591e-03 0.
      2.46913591e-03 2.46913591e-03 0. 9.87654366e-03 0. 0. 0. 0. 0. 0.
      0. 4.93827183e-03 0. 2.46913591e-03 0. 0. 0. 0. 0. 0. 0. 0. 0. 0.
      0. 0. 0. 0. 0. 2.46913591e-03 0. 0. 0. 0. 2.46913591e-03 0. 0. 0.
      0. 0. 0. 0. 0. 0. 0. 0. 4.93827183e-03 0. 0. 2.46913591e-03
      2.46913591e-03 0. 0. 0. 0. 0. 0. 0. 0. 0. 0. 2.46913591e-03
      2.46913591e-03 0. 0. 0. 4.93827183e-03 2.46913591e-03 0. 0. 0. 0.
      0. 0. 0. 0. 0. 0. 2.46913591e-03 0. 4.93827183e-03 0. 0. 0. 0. 0.
      0. 0. 0. 0. 0. 0. 0. 0. 0. 0. 0. 0. 2.46913591e-03 0. 0. 0. 0. 0.
      0. 0. 0. 2.46913591e-03 0. 0. 0. 0. 0. 0. 0. 0. 0. 2.46913591e-03
      0. 1.23456791e-02 4.93827183e-03 4.93827183e-03 2.46913591e-03
      2.46913591e-03 0. 0. 0. 0. 0. 0. 0. 2.46913591e-03 0. 0.
      2.46913591e-03 0. 0. 2.46913591e-03 0. 0. 0. 0. 0. 0. 0. 0. 0. 0.
      0. 0. 0. 2.46913591e-03 0. 2.46913591e-03 0. 0. 0. 4.93827183e-03
      0. 0. 0. 0. 0. 0. 0. 0. 0. 0. 0. 0. 0. 0. 0. 0. 0. 0. 0.
      7.40740774e-03 0. 0. 0. 0. 0. 0. 0. 0. 0. 0. 0. 0. 0. 0.
      4.93827183e-03 0. 0. 0. 2.46913591e-03 0. 2.46913591e-03
      2.46913591e-03 0. 0. 0. 0. 2.46913591e-03 9.87654366e-03 0. 0. 0.
      0. 0. 0. 0. 0. 0. 0. 0. 0. 0. 0. 0. 0. 0. 0. 0. 0. 2.46913591e-03
      0. 2.46913591e-03 0. 0. 4.93827183e-03 0. 0. 0. 0. 0. 0. 0. 0. 0.
      2.46913591e-03 4.93827183e-03 2.46913591e-03 0. 0. 0. 0. 0. 0. 0.
      2.46913591e-03 0. 0. 0. 0. 0. 0. 0. 0. 2.46913591e-03 0. 0. 0. 0.
      2.46913591e-03 2.46913591e-03 0. 2.46913591e-03 2.46913591e-03 0.
      0. 0. 0. 0. 0. 0. 0. 0. 2.46913582e-02 0. 0. 0. 2.46913591e-03 0.
      0. 0. 0. 7.40740774e-03 0. 0. 0. 7.40740774e-03 0. 0. 0.
      4.93827183e-03 0. 0. 0. 0. 0. 0. 0. 0. 0. 0. 0. 0. 0. 0. 0. 0. 0.
      4.93827183e-03 0. 2.46913591e-03 0. 0. 0. 0. 4.93827183e-03 0. 0.
      0. 2.46913591e-03 0. 0. 0. 0. 0. 0. 2.46913591e-03 0. 0. 0. 0. 0.
      4.93827183e-03 2.46913591e-03 0. 0. 0. 0. 0. 0. 0. 0. 0. 0. 0. 0.
      0. 0. 2.46913591e-03 0. 0. 0. 0. 2.46913591e-03 0. 0. 0.
      2.46913591e-03 0. 0. 0. 0. 0. 0. 0. 0. 2.46913591e-03 0.
      2.46913591e-03 0. 0. 0. 0. 0. 2.46913591e-03 0. 0. 0. 0.
      2.46913591e-03 0. 0. 0. 0. 0. 0. 0. 4.93827183e-03 0. 0. 0. 0. 0.
      4.93827183e-03 0. 0. 0. 0. 0. 0. 2.46913591e-03 0. 1.48148155e-02
      0. 0. 0. 0. 0. 0. 0. 3.45679037e-02 0. 0. 0. 0. 0. 0. 0. 0.
      2.46913591e-03 0. 0. 0. 0. 0. 0. 0. 0. 0. 0. 0. 0. 0.
      2.46913591e-03 0. 0. 0. 0. 2.46913591e-03 2.46913591e-03 0. 0. 0.
      0. 2.46913591e-03 2.46913591e-03 0. 2.46913591e-03 0.
      4.93827183e-03 0. 0. 2.46913591e-03 0. 0. 0. 0. 0. 0. 0. 0. 0. 0.
      0. 0. 0. 0. 0. 0. 0. 0. 0. 2.46913591e-03 0. 0. 0. 0. 0. 0.
      2.46913591e-03 0. 0. 2.46913591e-03 0. 0. 0. 0. 0. 0.
      2.46913591e-03 0. 2.46913591e-03 0. 0. 0. 0. 2.46913591e-03 0. 0.
      0. 2.46913591e-03 0. 0. 0. 0. 0. 0. 0. 0. 0. 0. 0. 0.
      2.46913591e-03 0. 0. 2.46913591e-03 0. 0. 0. 2.46913591e-03 0. 0.
      0. 0. 2.46913591e-03 4.93827183e-03 0. 0. 0. 0. 0. 0. 0. 0. 0. 0.
      2.46913591e-03 2.46913591e-03 2.46913591e-03 9.87654366e-03 0. 0.
      0. 2.46913591e-03 2.46913591e-03 0. 0. 0. 0. 0. 0. 0. 0. 0. 0. 0.
      4.93827183e-03 2.46913591e-03 0. 0. 0. 0. 0. 0. 0. 0. 0.
      2.46913591e-03 0. 0. 4.93827183e-03 4.93827183e-03 0. 0.
      2.46913591e-03 0. 0. 0. 0. 0. 2.46913591e-03 0. 0. 0. 0. 0. 0.
      2.46913591e-03 0. 0. 0. 0. 2.46913591e-03 0. 2.46913591e-03 0. 0.
      0. 0. 4.93827183e-03 0. 0. 0. 0. 0. 0. 0. 0. 0. 0. 0. 0. 0. 0. 0.
      0. 2.46913591e-03 0. 4.93827183e-03 0. 0. 0. 0. 0. 0. 0. 0. 0. 0.
      2.46913591e-03 0. 0. 0. 0. 0. 0. 0. 0. 0. 2.46913591e-03 0.
      2.46913591e-03 0. 0. 2.46913591e-03 0. 0. 2.46913591e-03 0.
      2.46913591e-03 2.46913591e-03 0. 0. 0. 7.40740774e-03 0. 0. 0. 0.
      0. 0. 0. 0. 4.93827183e-03 0. 0. 0. 0. 2.46913591e-03 0.
      2.46913591e-03 0. 0. 0. 0. 1.23456791e-02 0. 0. 2.46913591e-03 0.
      0. 0. 0. 0. 0. 1.97530873e-02 0. 0. 0. 0. 0. 0. 0. 0. 0. 0. 0. 0.
      0. 0. 0. 4.93827183e-03 0. 4.93827183e-03 0. 0. 0. 0. 0. 0. 0. 0.
      2.46913591e-03 0. 4.93827183e-03 0. 0. 0. 0. 0. 0. 0. 0. 0. 0. 0.
      2.46913591e-03 0. 0. 0. 2.46913591e-03 0. 0. 0. 0. 4.93827183e-03
      0. 0. 0. 0. 0. 2.46913591e-03 0. 0. 0. 0. 0. 0. 0. 2.46913591e-03
      2.46913591e-03 0. 0. 0. 4.93827183e-03 0. 0. 0. 0. 0. 0. 0.
      2.46913591e-03 0. 7.40740774e-03 0. 0. 0. 0. 0. 0. 0. 0. 0. 0. 0.
      0. 0. 0. 0. 2.46913591e-03 0. 0. 0. 0. 0. 2.46913591e-03 0. 0. 0.
      0. 0. 0. 0. 0. 0. 0. 0. 2.46913591e-03 4.93827183e-03 0. 0. 0. 0.
      0. 0. 0. 0. 0. 0. 0. 0. 0. 0. 0. 2.46913591e-03 0. 0. 0. 0. 0.
      9.87654366e-03 2.46913591e-03 0. 0. 0. 0. 0. 0. 0. 0.
      2.46913591e-03 0. 0. 2.46913591e-03 2.46913591e-03 0. 0. 0. 0. 0.
      0. 0. 0. 0. 2.46913591e-03 0. 0. 0. 0. 2.46913591e-03 0. 0. 0. 0.
      0. 0. 0. 2.46913591e-03 0. 0. 0. 0. 0. 0. 2.46913591e-03
      2.46913591e-03 0. 0. 2.46913591e-03 0. 0. 4.93827183e-03 0. 0. 0.
      0. 0. 0. 0. 0. 0. 2.46913591e-03 0. 2.46913591e-03 0. 0. 0. 0. 0.
      0. 0. 0. 0. 0. 7.40740774e-03 0. 7.40740774e-03 0. 0. 0. 0.
      2.46913591e-03 0. 0. 0. 4.93827183e-03 0. 0. 0. 4.93827183e-03 0.
      2.46913591e-03 0. 2.46913591e-03 0. 0. 0. 0. 0. 0. 0. 0. 0. 0. 0.
      0. 0. 0. 0. 0. 0. 0. 0. 0. 0. 0. 0. 0. 0. 0. 0. 0. 4.93827183e-03
      0. 0. 0. 0. 0. 0. 0. 0. 0. 0. 2.46913591e-03 0. 0. 0. 0. 0. 0. 0.
      0. 0. 0. 7.40740774e-03 0. 0. 0. 0. 0. 0. 0. 0. 0. 0. 0. 0. 0. 0.
      0. 0. 0. 0. 0. 2.46913591e-03 0. 0. 0. 0. 0. 0. 0. 0. 0. 0. 0. 0.
      4.93827183e-03 0. 0. 0. 4.93827183e-03 0. 0. 2.46913591e-03
      2.46913591e-03 0. 0. 0. 0. 0. 0. 0. 0. 0. 2.46913591e-03 0. 0. 0.
      0. 2.46913591e-03 0. 2.46913591e-03 0. 0. 0. 0. 0. 0.
      7.40740774e-03 0. 0. 0. 0. 0. 0. 0. 0. 0. 2.46913591e-03 0.</_>
    <_>
      0. 0. 0. 0. 0. 2.60416674e-03 0. 0. 0. 0. 0. 0. 2.60416674e-03 0.
      0. 0. 0. 0. 2.60416674e-03 0. 0. 0. 2.60416674e-03 0. 0. 0. 0. 0.
      0. 0. 0. 0. 2.60416674e-03 0. 0. 5.20833349e-03 0. 0. 0. 0. 0. 0.
      0. 0. 2.60416674e-03 0. 2.60416674e-03 0. 2.60416674e-03 0.
      5.20833349e-03 0. 0. 0. 0. 0. 0. 0. 2.60416674e-03 0. 0. 0. 0.
      2.60416674e-03 0. 0. 0. 0. 7.81250000e-03 0. 2.60416674e-03 0. 0.
      0. 0. 0. 0. 0. 0. 0. 2.60416674e-03 0. 0. 0. 0. 0. 0. 0. 0. 0. 0.
      0. 0. 0. 0. 0. 0. 0. 7.81250000e-03 0. 0. 2.60416674e-03 0. 0. 0.
      0. 2.60416674e-03 0. 0. 0. 0. 0. 0. 0. 0. 0. 0. 7.55208358e-02 0.
      0. 5.20833349e-03 0. 0. 0. 0. 0. 0. 0. 0. 0. 2.60416674e-03
      2.60416674e-03 0. 0. 0. 0. 2.60416674e-03 0. 0. 0. 2.60416674e-03
      0. 0. 0. 0. 0. 5.20833349e-03 0. 0. 0. 0. 0. 0. 0. 0.
      2.60416674e-03 0. 0. 0. 0. 0. 0. 0. 0. 0. 0. 5.20833349e-03 0. 0.
      0. 0. 0. 0. 0. 2.60416674e-03 0. 0. 0. 2.60416674e-03 0. 0. 0. 0.
      0. 0. 0. 0. 0. 0. 0. 0. 0. 5.20833349e-03 0. 0. 0. 0. 0.
      2.60416674e-03 0. 0. 0. 0. 0. 0. 0. 2.60416674e-03 0. 0. 0. 0.
      1.04166670e-02 0. 0. 0. 0. 0. 0. 0. 0. 0. 0. 0. 0. 0.
      5.20833349e-03 0. 0. 0. 0. 0. 0. 0. 0. 2.60416674e-03 0. 0. 0. 0.
      0. 0. 0. 0. 0. 0. 0. 0. 0. 0. 0. 0. 0. 0. 0. 0. 0. 0. 0. 0. 0. 0.
      0. 0. 0. 0. 0. 0. 0. 0. 0. 0. 0. 0. 0. 0. 0. 1.04166670e-02 0.
      2.60416674e-03 5.20833349e-03 0. 0. 0. 0. 0. 5.20833349e-03 0. 0.
      1.82291679e-02 0. 0. 0. 0. 5.20833349e-03 0. 2.60416674e-03 0.
      2.60416674e-03 0. 0. 0. 0. 0. 0. 0. 0. 0. 0. 0. 0. 0.
      2.60416674e-03 2.60416674e-03 0. 2.60416674e-03 2.60416674e-03 0.
      0. 0. 0. 0. 0. 0. 4.68750000e-02 0. 0. 2.60416674e-03
      2.60416674e-03 0. 0. 0. 0. 0. 0. 0. 0. 0. 0. 5.20833349e-03 0. 0.
      0. 0. 0. 0. 0. 0. 0. 0. 0. 2.60416674e-03 0. 0. 0. 0. 0. 0. 0. 0.
      0. 0. 0. 0. 0. 0. 0. 2.60416674e-03 0. 0. 0. 0. 0. 0.
      1.04166670e-02 0. 5.20833349e-03 0. 0. 0. 0. 2.60416674e-03 0. 0.
      2.60416674e-03 0. 0. 0. 0. 0. 0. 0. 0. 0. 2.60416674e-03 0. 0. 0.
      0. 0. 0. 0. 0. 0. 0. 0. 0. 7.81250000e-03 0. 0. 0. 0. 0.
      2.60416674e-03 0. 0. 0. 0. 0. 2.60416674e-03 2.60416674e-03 0. 0.
      0. 0. 0. 0. 0. 0. 2.60416674e-03 0. 0. 0. 2.60416674e-03 0. 0. 0.
      0. 2.60416674e-03 0. 0. 0. 7.81250000e-03 0. 2.60416674e-03 0. 0.
      0. 2.60416674e-03 0. 0. 2.60416674e-03 0. 0. 0. 0. 0.
      2.60416674e-03 0. 0. 0. 0. 0. 0. 2.60416674e-03 0. 0. 0. 0. 0. 0.
      0. 0. 0. 0. 2.60416674e-03 0. 0. 5.20833349e-03 0. 0. 0.
      2.86458340e-02 0. 0. 0. 0. 0. 0. 0. 0. 0. 0. 2.60416674e-03 0. 0.
      2.60416674e-03 2.60416674e-03 0. 0. 0. 0. 2.60416674e-03
      2.60416674e-03 2.60416674e-03 0. 0. 0. 0. 0. 0. 0. 0. 0. 0. 0. 0.
      7.81250000e-03 0. 0. 0. 0. 0. 0. 0. 0. 0. 2.60416674e-03 0. 0. 0.
      0. 0. 0. 0. 0. 0. 0. 0. 5.20833349e-03 0. 0. 0. 0. 0. 0. 0. 0. 0.
      0. 0. 0. 2.60416674e-03 2.60416674e-03 0. 0. 0. 0. 0. 0. 0. 0. 0.
      0. 0. 0. 0. 0. 0. 0. 0. 0. 0. 0. 0. 0. 0. 7.81250000e-03 0.
      2.60416674e-03 0. 0. 2.60416674e-03 0. 0. 0. 0. 0. 0. 0. 0. 0.
      2.60416674e-03 0. 2.60416674e-03 0. 0. 0. 0. 0. 0. 0. 0. 0.
      5.20833349e-03 2.60416674e-03 2.60416674e-03 0. 7.81250000e-03 0.
      0. 0. 0. 0. 0. 2.60416674e-03 0. 0. 0. 0. 0. 0. 1.56250000e-02
      5.20833349e-03 2.60416674e-03 0. 0. 0. 0. 0. 0. 0. 0. 0.
      2.60416674e-03 0. 1.30208340e-02 0. 0. 0. 0. 0. 0. 2.60416674e-03
      0. 2.60416674e-03 0. 0. 0. 0. 0. 0. 7.81250000e-03 0.
      2.60416674e-03 0. 0. 0. 0. 0. 0. 0. 7.81250000e-03 0. 0.
      2.60416674e-03 0. 0. 0. 0. 0. 0. 0. 0. 2.60416674e-03 0. 0.
      5.20833349e-03 0. 0. 0. 0. 0. 0. 0. 0. 0. 0. 0. 0. 0. 0.
      2.60416674e-03 0. 2.60416674e-03 0. 0. 0. 0. 0. 0. 0. 0. 0. 0. 0.
      0. 0. 0. 0. 2.60416674e-03 0. 5.20833349e-03 5.20833349e-03 0.
      2.60416674e-03 0. 0. 0. 0. 0. 0. 5.20833349e-03 2.60416674e-03 0.
      0. 1.04166670e-02 3.90625000e-02 0. 0. 0. 0. 2.60416674e-03 0.
      2.60416674e-03 0. 2.60416674e-03 0. 0. 0. 0. 0. 2.60416674e-03 0.
      0. 0. 2.60416674e-03 2.60416674e-03 0. 0. 0. 0. 0. 0. 0. 0. 0. 0.
      0. 0. 0. 0. 0. 7.81250000e-03 0. 0. 0. 0. 0. 0. 0. 2.60416674e-03
      0. 0. 0. 0. 0. 0. 2.60416674e-03 2.60416674e-03 0. 0. 0. 0. 0. 0.
      0. 0. 2.60416674e-03 0. 0. 0. 0. 0. 0. 0. 0. 0. 0. 0.
      2.60416674e-03 0. 0. 0. 0. 2.60416674e-03 5.20833349e-03 0. 0. 0.
      0. 0. 0. 0. 0. 0. 0. 0. 0. 0. 2.60416674e-03 0. 2.60416674e-03 0.
      0. 2.60416674e-03 0. 0. 2.60416674e-03 0. 2.60416674e-03
      5.20833349e-03 0. 0. 0. 0. 0. 0. 0. 0. 2.60416679e-02
      2.60416674e-03 0. 0. 0. 0. 0. 0. 0. 0. 0. 0. 0. 0. 0. 0. 0. 0. 0.
      0. 0. 0. 0. 0. 0. 0. 0. 0. 0. 0. 0. 0. 0. 2.60416674e-03 0. 0.
      2.60416674e-03 0. 0. 0. 2.60416674e-03 0. 0. 0. 0. 2.60416674e-03
      0. 0. 2.60416674e-03 0. 0. 0. 0. 0. 0. 0. 0. 0. 0. 2.60416674e-03
      0. 0. 0. 0. 0. 0. 0. 0. 0. 0. 0. 2.60416674e-03 0. 0. 0. 0. 0. 0.
      0. 0. 0. 0. 0. 0. 0. 0. 0. 7.81250000e-03 0. 2.60416674e-03
      2.60416674e-03 0. 0. 0. 2.60416674e-03 0. 0. 0. 2.60416674e-03 0.
      0. 0. 0. 0. 0. 0. 0. 0. 0. 0. 0. 0. 0. 0. 0. 0. 0. 0. 0. 0. 0. 0.
      0. 5.20833349e-03 0. 5.20833349e-03 0. 0. 0. 0. 0. 0.
      2.60416674e-03 0. 0. 0. 0. 0. 0. 0. 2.60416674e-03 0. 0.
      2.60416674e-03 0. 0. 0. 0. 0. 0. 0. 2.60416674e-03 0. 0. 0. 0. 0.
      0. 0. 2.60416674e-03 0. 2.60416674e-03 2.60416674e-03 0. 0. 0. 0.
      0. 0. 0. 0. 0. 0. 0. 0. 0. 0. 2.60416674e-03 0. 0. 0. 0. 0. 0. 0.
      0. 0. 0. 2.60416674e-03 0. 0. 0. 0. 0. 0. 0. 0. 0. 2.60416674e-03
      0. 0. 0. 0. 0. 0. 2.60416674e-03 0. 0. 0. 0. 0. 0. 0. 0. 0. 0. 0.
      0. 0. 0. 0. 0. 0. 0. 0. 2.60416674e-03 2.60416674e-03
      2.60416674e-03 0. 0. 0. 0. 2.60416674e-03 0. 2.60416674e-03 0.
      2.60416674e-03 0. 0. 0. 0. 0. 0. 0. 0. 0. 0. 0. 0. 0. 0. 0. 0. 0.
      0. 0. 0. 0. 0. 0. 0. 0. 0. 5.20833349e-03 0. 0. 0. 0. 0. 0. 0. 0.
      0. 0. 0. 0. 0. 0. 0. 0. 5.20833349e-03 0. 0. 0. 0. 0.
      2.60416674e-03 0. 0. 0. 0. 0. 0. 0. 0. 0. 0. 0. 2.60416674e-03 0.
      0. 0. 0. 0. 0. 0. 0. 0. 0. 0. 0. 0. 0. 0. 0. 0. 0. 0.
      2.60416674e-03 5.20833349e-03 0. 0. 0. 0. 0. 0. 0. 0. 0. 0. 0. 0.
      0. 0. 2.60416674e-03 0. 0. 0. 0. 0. 0. 0. 0. 0. 0. 2.60416674e-03
      0. 0. 0. 2.60416674e-03 0. 0. 0. 0. 0. 0. 0. 0. 0. 0. 0. 0. 0. 0.
      2.60416674e-03 0. 0. 0. 0. 0. 0. 0. 0. 0. 0. 0. 0. 0. 0. 0. 0. 0.
      0. 0. 2.60416674e-03 0. 0. 7.81250000e-03 0. 0. 0. 0. 0. 0. 0. 0.
      0. 5.20833349e-03 0. 0. 0. 0. 0. 0. 0. 0. 0. 0. 0. 2.60416674e-03
      0. 0. 0. 7.81250000e-03 0. 0. 0. 0. 0. 0. 0. 0. 0. 0. 0. 0.
      5.20833349e-03 0. 0. 0. 0. 5.20833349e-03 0. 0. 2.60416674e-03
      2.60416674e-03 0. 0. 0. 2.60416674e-03 0. 0. 0. 2.60416674e-03 0.
      0. 0. 0. 0. 0. 0. 0. 0. 0. 0. 5.20833349e-03 0. 0. 0. 0. 0.
      2.60416674e-03 2.60416674e-03 0. 0. 0. 2.60416674e-03
      2.60416674e-03 0. 0. 0. 0. 0. 0. 0. 0. 0. 0. 0. 2.60416674e-03 0.
      0. 2.60416674e-03 0. 0. 0. 0. 0. 0. 0. 2.60416674e-03 0. 0. 0. 0.
      2.60416674e-03 0. 0. 0. 0. 0. 0. 2.60416674e-03 0. 0. 0. 0. 0. 0.
      0. 0. 0. 0. 0. 0. 0. 0. 0. 0. 0. 0. 0. 0. 0. 0. 0. 0. 0. 0. 0. 0.
      0. 0. 0. 0. 0. 2.60416674e-03 0. 0. 0. 0. 0. 0. 0. 0. 0. 0. 0.
      5.20833349e-03 2.60416674e-03 0. 0. 0. 0. 0. 0. 0. 0. 0. 0. 0. 0.
      0. 0. 0. 0. 0. 2.60416674e-03 0. 0. 0. 0. 0. 2.60416674e-03 0. 0.
      0. 0. 0. 0. 0. 0. 0. 0. 0. 0. 0. 0. 0. 0. 0. 2.60416674e-03 0. 0.
      0. 0. 0. 5.20833349e-03 2.60416674e-03 0. 0. 2.60416674e-03 0. 0.
      0. 2.60416674e-03 0. 0. 0. 0. 0. 2.60416674e-03 0. 0. 0. 0. 0.
      2.60416674e-03 0. 0. 0. 0. 0. 0. 0. 0. 0. 0. 0. 0. 0. 0. 0. 0.
      2.60416674e-03 2.60416674e-03 0. 0. 0. 0. 0. 0. 0. 0. 0. 0. 0. 0.
      5.20833349e-03 0. 0. 0. 0. 0. 0. 0. 0. 0. 0. 0. 5.20833349e-03</_>
    <_>
      0. 3.26797389e-03 3.26797389e-03 0. 3.26797389e-03 3.26797389e-03
      0. 0. 0. 0. 0. 0. 0. 3.26797389e-03 0. 0. 3.26797389e-03 0. 0. 0.
      0. 0. 0. 0. 0. 0. 0. 0. 0. 0. 0. 0. 0. 0. 0. 0. 0. 0.
      3.26797389e-03 0. 0. 0. 3.26797389e-03 0. 0. 0. 0. 0. 0. 0. 0. 0.
      0. 0. 3.26797389e-03 0. 0. 0. 0. 0. 0. 0. 0. 0. 3.26797389e-03 0.
      0. 0. 0. 0. 0. 0. 6.53594779e-03 0. 0. 0. 0. 3.26797389e-03 0.
      9.80392192e-03 0. 0. 3.26797389e-03 0. 0. 0. 0. 3.26797389e-03 0.
      0. 0. 0. 0. 6.53594779e-03 0. 0. 0. 0. 0. 0. 0. 0. 0. 0. 0. 0. 0.
      0. 0. 0. 0. 0. 0. 0. 0. 0. 1.96078438e-02 0. 0. 0. 0. 0. 0. 0. 0.
      0. 0. 0. 0. 0. 3.26797389e-03 0. 0. 0. 0. 0. 3.26797389e-03
      3.26797389e-03 0. 0. 0. 0. 0. 0. 0. 0. 3.26797389e-03 0. 0. 0. 0.
      0. 0. 0. 0. 0. 0. 0. 0. 0. 0. 6.53594779e-03 3.26797389e-03 0. 0.
      0. 3.26797389e-03 3.26797389e-03 6.53594779e-03 0. 0.
      3.26797389e-03 3.26797389e-03 0. 0. 0. 3.26797389e-03 0. 0. 0. 0.
      0. 9.80392192e-03 0. 3.26797389e-03 0. 0. 0. 3.26797389e-03 0. 0.
      0. 0. 0. 0. 0. 0. 0. 6.53594779e-03 0. 0. 0. 0. 0. 0. 0. 0. 0. 0.
      0. 0. 0. 0. 0. 0. 3.26797389e-03 0. 0. 0. 0. 0. 0. 0. 0. 0. 0. 0.
      0. 0. 0. 3.26797389e-03 0. 0. 6.53594779e-03 0. 0. 3.26797389e-03
      0. 0. 0. 0. 0. 0. 0. 0. 0. 0. 0. 0. 0. 0. 0. 0. 0. 0. 0. 0. 0.
      3.26797389e-03 9.80392192e-03 0. 0. 0. 0. 0. 0. 0. 0. 0. 0. 0. 0.
      0. 0. 0. 0. 0. 3.26797389e-03 0. 0. 0. 0. 0. 0. 0. 0. 0.
      3.26797389e-03 0. 6.53594779e-03 0. 3.26797389e-03 0. 0. 0. 0. 0.
      3.26797389e-03 0. 3.26797389e-03 0. 0. 0. 0. 0. 0. 0. 0. 0. 0. 0.
      3.26797389e-03 0. 0. 0. 0. 6.53594779e-03 0. 0. 0. 0. 0. 0.
      1.30718956e-02 0. 0. 0. 6.53594779e-03 0. 0. 0. 0. 0.
      3.26797389e-03 0. 0. 0. 0. 0. 0. 0. 3.26797389e-03 0. 0. 0.
      6.53594779e-03 0. 0. 3.26797389e-03 0. 0. 0. 0. 0. 3.26797389e-03
      0. 0. 0. 0. 0. 0. 0. 3.26797389e-03 0. 0. 0. 3.26797389e-03 0. 0.
      0. 0. 0. 0. 0. 3.26797389e-03 0. 0. 0. 0. 0. 0. 0. 0. 0. 0. 0. 0.
      0. 3.26797389e-03 0. 0. 0. 0. 0. 0. 0. 0. 0. 0. 0. 0. 0.
      3.26797389e-03 0. 0. 0. 0. 0. 0. 0. 0. 0. 0. 0. 0. 0. 0. 0. 0. 0.
      0. 3.26797389e-03 0. 0. 0. 0. 3.26797389e-03 0. 0. 0. 0. 0. 0. 0.
      0. 0. 0. 0. 0. 3.26797389e-03 0. 0. 0. 0. 0. 0. 0. 0. 0. 0. 0. 0.
      0. 0. 0. 0. 0. 0. 0. 0. 0. 3.26797389e-03 9.80392192e-03 0. 0. 0.
      0. 0. 0. 0. 1.96078438e-02 0. 0. 0. 0. 3.26797389e-03 0. 0.
      3.26797389e-03 3.26797389e-03 3.26797389e-03 0. 0. 0. 0. 0. 0. 0.
      0. 0. 0. 0. 0. 0. 0. 0. 0. 0. 0. 0. 0. 0. 0. 0. 0. 0. 0. 0. 0.
      3.26797389e-03 0. 0. 0. 0. 0. 0. 0. 0. 0. 0. 0. 0. 0. 0. 0. 0. 0.
      0. 0. 0. 0. 0. 0. 0. 3.26797389e-03 0. 0. 0. 0. 0. 3.26797389e-03
      0. 0. 0. 0. 0. 3.26797389e-03 3.26797389e-03 0. 0. 0.
      3.26797389e-03 0. 0. 6.53594779e-03 3.26797389e-03 0. 0.
      1.63398702e-02 0. 0. 0. 0. 0. 0. 0. 0. 0. 6.53594779e-03 0.
      3.26797389e-03 3.26797389e-03 3.26797389e-03 0. 0. 0. 0.
      6.53594779e-03 0. 3.26797389e-03 0. 0. 0. 0. 0. 0. 0.
      3.26797389e-03 0. 0. 0. 0. 0. 0. 0. 0. 0. 0. 0. 3.26797389e-03 0.
      0. 0. 0. 0. 0. 0. 0. 3.26797389e-03 0. 0. 0. 0. 0. 0. 0. 0. 0. 0.
      0. 0. 3.26797389e-03 0. 0. 0. 0. 0. 0. 0. 0. 0. 0. 0. 0. 0. 0. 0.
      0. 0. 0. 0. 0. 0. 3.26797389e-03 0. 0. 3.26797389e-03 0. 0. 0. 0.
      0. 0. 0. 0. 3.26797389e-03 0. 3.26797389e-03 3.26797389e-03 0. 0.
      0. 0. 0. 0. 0. 0. 3.26797389e-03 0. 0. 0. 0. 0. 6.53594779e-03 0.
      0. 0. 0. 0. 0. 0. 3.26797389e-03 0. 0. 3.26797389e-03
      3.26797389e-03 0. 3.26797389e-03 0. 0. 0. 3.26797389e-03
      3.26797389e-03 0. 0. 0. 0. 0. 0. 0. 0. 0. 0. 0. 3.26797389e-03 0.
      0. 0. 0. 0. 0. 0. 0. 3.26797389e-03 0. 0. 0. 0. 0. 0. 0. 0. 0. 0.
      3.26797389e-03 0. 0. 3.26797389e-03 0. 0. 0. 0. 3.26797389e-03 0.
      0. 0. 3.26797389e-03 6.53594779e-03 0. 0. 3.26797389e-03 0. 0. 0.
      0. 0. 0. 0. 0. 0. 3.26797389e-03 0. 0. 3.26797389e-03 0. 0.
      6.53594779e-03 0. 0. 3.26797389e-03 0. 0. 0. 0. 0. 3.26797389e-03
      0. 0. 3.26797389e-03 3.26797389e-03 0. 0. 0. 0. 0. 0. 0. 0. 0. 0.
      0. 0. 0. 3.26797389e-03 0. 0. 0. 0. 0. 0. 0. 9.80392192e-03 0. 0.
      0. 0. 3.26797389e-03 0. 0. 0. 0. 3.26797389e-03 0. 0. 0.
      3.26797389e-03 3.26797389e-03 0. 0. 6.53594779e-03 0. 0. 0. 0. 0.
      0. 3.26797389e-03 3.26797389e-03 0. 0. 0. 0. 0. 0. 0. 0. 0. 0. 0.
      0. 0. 0. 0. 0. 3.26797389e-03 0. 0. 0. 3.26797389e-03 0. 0. 0. 0.
      0. 0. 0. 0. 0. 0. 0. 0. 0. 0. 0. 0. 0. 0. 0. 0. 6.53594779e-03 0.
      0. 0. 0. 0. 0. 0. 6.53594779e-03 0. 0. 0. 0. 0. 0. 0. 0. 0. 0. 0.
      0. 0. 0. 0. 0. 3.26797389e-03 0. 0. 0. 0. 0. 0. 0. 0. 0. 0. 0. 0.
      6.53594779e-03 0. 0. 0. 0. 3.26797389e-03 0. 0. 0. 0. 0.
      3.26797389e-03 0. 0. 0. 0. 0. 0. 0. 0. 0. 0. 0. 0. 0. 0. 0. 0. 0.
      0. 0. 0. 0. 0. 3.26797389e-03 3.26797389e-03 3.26797389e-03 0. 0.
      0. 0. 0. 3.26797389e-03 0. 0. 0. 3.26797389e-03 0. 0. 0.
      3.26797389e-03 0. 0. 0. 0. 6.53594779e-03 0. 0. 0. 0. 0. 0. 0. 0.
      0. 0. 0. 0. 0. 0. 0. 0. 0. 0. 0. 0. 3.26797389e-03 0.
      3.26797389e-03 0. 0. 6.53594779e-03 0. 3.26797389e-03 0. 0. 0. 0.
      0. 0. 6.53594779e-03 0. 0. 9.80392192e-03 3.26797389e-03 0. 0. 0.
      0. 3.26797389e-03 0. 0. 0. 0. 0. 0. 0. 0. 0. 0. 0. 0. 0. 0. 0. 0.
      0. 0. 0. 0. 3.26797389e-03 6.53594779e-03 0. 0. 0. 0.
      3.26797389e-03 0. 0. 0. 0. 0. 0. 0. 0. 3.26797389e-03 0. 0. 0. 0.
      0. 0. 0. 0. 0. 0. 3.26797389e-03 0. 0. 0. 3.26797389e-03 0.
      3.26797389e-03 0. 0. 0. 6.53594779e-03 0. 3.26797389e-03 0. 0. 0.
      0. 0. 0. 0. 0. 9.80392192e-03 0. 0. 0. 0. 0. 0. 0. 0.
      3.26797389e-03 0. 0. 0. 6.53594779e-03 0. 0. 0. 3.26797389e-03 0.
      0. 0. 6.53594779e-03 0. 0. 0. 3.26797389e-03 0. 0. 0. 0.
      2.61437912e-02 0. 0. 0. 0. 3.26797389e-03 0. 0. 0. 3.26797389e-03
      0. 0. 0. 0. 0. 0. 0. 0. 0. 0. 3.26797389e-03 0. 0. 0.
      3.26797389e-03 0. 0. 0. 0. 0. 0. 0. 0. 0. 0. 0. 0. 0. 0.
      3.26797389e-03 0. 0. 0. 0. 0. 0. 0. 0. 0. 1.63398702e-02 0. 0.
      3.26797389e-03 0. 0. 0. 0. 0. 0. 3.26797389e-03 0. 0. 0. 0. 0. 0.
      0. 0. 0. 0. 0. 0. 0. 0. 0. 0. 3.26797389e-03 0. 0. 0. 0. 0. 0. 0.
      0. 0. 0. 0. 0. 0. 1.96078438e-02 0. 0. 0. 0. 0. 0. 0. 0. 0. 0. 0.
      0. 0. 0. 0. 0. 0. 0. 0. 0. 0. 0. 0. 0. 0. 0. 0. 0. 0. 0. 0. 0. 0.
      3.26797389e-03 0. 3.26797389e-03 0. 0. 0. 0. 0. 0. 0. 0. 0. 0. 0.
      6.53594779e-03 0. 0. 0. 0. 0. 0. 0. 0. 0. 0. 0. 0. 0. 0.
      3.26797389e-03 0. 0. 3.26797389e-03 3.26797389e-03 0. 0.
      3.26797389e-03 0. 3.26797389e-03 0. 0. 0. 0. 0. 0. 3.26797389e-03
      0. 0. 0. 0. 0. 0. 0. 0. 0. 0. 0. 0. 0. 0. 0. 0. 0. 0. 0.
      9.80392192e-03 0. 0. 0. 0. 0. 6.53594779e-03 0. 3.26797389e-03 0.
      0. 0. 0. 3.26797389e-03 0. 0. 0. 0. 0. 0. 0. 0. 0. 3.26797389e-03
      0. 3.26797389e-03 0. 0. 0. 0. 0. 0. 0. 0. 0. 0. 0. 0. 0. 0. 0. 0.
      0. 0. 0. 3.26797389e-03 0. 0. 0. 3.26797389e-03 0. 3.26797389e-03
      0. 0. 0. 3.26797389e-03 0. 0. 0. 0. 0. 0. 0. 0. 0. 0. 0.
      3.26797389e-03 3.26797389e-03 0. 0. 0. 0. 0. 0. 0. 0. 0. 0. 0. 0.
      0. 0. 3.26797389e-03 0. 0. 0. 0. 0. 9.80392192e-03 0. 0. 0. 0.
      3.26797389e-03 0. 3.26797389e-03 0. 0. 0. 0. 0. 3.26797389e-03 0.
      0. 0. 0. 0. 0. 0. 0. 3.26797389e-03 0. 0. 0. 0. 0. 0. 0. 0. 0. 0.
      3.26797389e-03 0. 0. 0. 0. 3.26797389e-03 0. 0. 6.53594779e-03 0.
      3.26797389e-03 0. 0. 0. 0. 0. 0. 0. 0. 0. 0. 3.26797389e-03 0. 0.
      9.80392192e-03 0. 0. 0. 0. 0. 0. 0. 0. 3.26797389e-03 0. 0.
      3.26797389e-03 0. 0. 0. 3.26797389e-03 0. 0. 0. 0. 0. 0. 0. 0. 0.
      3.26797389e-03 0. 0. 0. 0. 6.53594779e-03 0. 0. 0. 0. 0.
      6.53594779e-03 0. 0. 0. 0. 0. 0. 0. 0. 0. 0. 0. 3.26797389e-03 0.
      0. 6.53594779e-03 0. 0. 6.53594779e-03 0. 0. 0. 0. 3.26797389e-03
      0. 3.26797389e-03 0. 0. 0. 0. 0. 0. 3.26797389e-03 0.</_>
    <_>
      0. 0. 0. 0. 0. 0. 0. 0. 0. 0. 1.91938574e-03 1.91938574e-03 0. 0.
      0. 1.91938574e-03 0. 0. 0. 1.91938574e-03 0. 0. 0. 0.
      1.91938574e-03 0. 1.91938574e-03 1.91938574e-03 0. 0. 0. 0. 0. 0.
      0. 0. 0. 0. 1.91938574e-03 0. 0. 0. 0. 0. 0. 0. 0. 0. 0.
      1.91938574e-03 0. 0. 0. 0. 0. 0. 1.91938574e-03 1.91938574e-03 0.
      3.83877149e-03 0. 0. 1.91938574e-03 0. 0. 0. 0. 0. 0.
      7.67754298e-03 0. 1.91938574e-03 0. 0. 1.91938574e-03 0. 0. 0. 0.
      0. 1.91938574e-03 0. 0. 1.91938574e-03 0. 3.83877149e-03
      7.67754298e-03 0. 1.91938574e-03 0. 0. 0. 0. 1.91938574e-03 0. 0.
      0. 1.91938574e-03 0. 0. 0. 0. 0. 1.91938574e-03 0. 0. 0. 0. 0. 0.
      0. 0. 0. 3.83877149e-03 5.75815700e-03 0. 3.83877149e-03 0. 0.
      1.91938574e-03 0. 0. 0. 1.91938574e-03 0. 0. 0. 1.91938574e-03
      3.83877149e-03 0. 0. 0. 0. 0. 0. 0. 0. 0. 0. 0. 1.91938574e-03 0.
      0. 0. 0. 3.83877149e-03 0. 1.91938574e-03 0. 0. 0. 0. 0. 0.
      1.91938574e-03 0. 0. 3.83877149e-03 0. 0. 0. 0. 0. 0. 0.
      3.83877149e-03 0. 0. 0. 0. 0. 0. 0. 1.91938574e-03 1.91938574e-03
      0. 0. 0. 0. 0. 1.91938574e-03 0. 0. 0. 1.91938574e-03 0. 0. 0. 0.
      0. 3.83877149e-03 0. 0. 3.83877149e-03 3.83877149e-03
      1.91938574e-03 0. 3.83877149e-03 0. 0. 0. 0. 0. 0. 1.91938574e-03
      0. 0. 0. 0. 0. 0. 7.67754298e-03 0. 0. 1.91938574e-03 0. 0. 0. 0.
      0. 0. 0. 0. 0. 1.91938574e-03 5.75815700e-03 0. 0. 0. 0. 0.
      1.91938574e-03 0. 0. 0. 0. 0. 0. 0. 0. 0. 0. 0. 1.91938574e-03 0.
      0. 0. 5.75815700e-03 0. 1.91938574e-03 0. 3.83877149e-03 0. 0. 0.
      0. 0. 0. 0. 0. 0. 1.91938574e-03 1.91938574e-03 1.91938574e-03
      1.15163140e-02 0. 0. 0. 0. 0. 7.67754298e-03 5.75815700e-03
      1.91938574e-03 5.75815700e-03 0. 1.91938574e-03 0. 0. 0. 0. 0. 0.
      5.75815700e-03 0. 0. 0. 0. 1.91938574e-03 9.59692895e-03 0.
      5.75815700e-03 0. 2.11132430e-02 0. 0. 5.75815700e-03 0. 0. 0. 0.
      0. 0. 0. 0. 0. 0. 0. 0. 0. 0. 0. 0. 3.83877149e-03 0. 0. 0. 0. 0.
      0. 0. 0. 1.91938574e-03 0. 0. 0. 0. 0. 1.91938574e-03 0. 0. 0. 0.
      0. 7.67754298e-03 0. 0. 0. 1.91938574e-03 0. 0. 1.91938574e-03 0.
      0. 1.91938574e-03 0. 0. 0. 0. 0. 0. 0. 1.91938574e-03 0. 0. 0. 0.
      0. 0. 0. 0. 0. 0. 0. 0. 0. 0. 1.91938574e-03 0. 1.91938574e-03 0.
      1.91938574e-03 0. 0. 0. 1.91938574e-03 0. 0. 0. 0. 0. 0. 0. 0. 0.
      0. 0. 1.91938574e-03 0. 1.91938574e-03 0. 0. 0. 0. 0. 0. 0.
      1.91938574e-03 0. 0. 0. 0. 0. 0. 0. 1.91938574e-03 0. 0.
      1.91938574e-03 0. 0. 1.91938574e-03 1.91938574e-03 0.
      1.91938574e-03 5.75815700e-03 0. 0. 0. 0. 0. 0. 0. 0. 0. 0.
      1.91938574e-03 0. 0. 0. 1.91938574e-03 0. 0. 0. 0. 0. 0.
      3.83877149e-03 0. 0. 0. 0. 0. 0. 0. 1.91938574e-03 0. 0. 0. 0. 0.
      0. 5.75815700e-03 0. 0. 0. 0. 0. 0. 0. 1.91938574e-03 0. 0. 0. 0.
      0. 0. 0. 0. 0. 1.91938574e-03 1.91938574e-03 0. 0. 0. 0. 0. 0. 0.
      0. 0. 0. 0. 0. 3.83877149e-03 0. 0. 0. 0. 1.15163140e-02 0. 0. 0.
      1.91938574e-03 0. 0. 0. 0. 1.91938574e-03 0. 1.91938574e-03 0.
      3.83877149e-03 1.91938574e-03 0. 1.91938574e-03 1.91938574e-03
      5.75815700e-03 0. 0. 0. 0. 0. 0. 3.83877149e-03 0. 0. 0. 0.
      1.91938574e-03 5.75815700e-03 3.83877149e-03 0. 1.91938574e-03 0.
      0. 0. 1.91938574e-03 0. 0. 0. 0. 1.91938574e-03 0. 0. 0. 0. 0. 0.
      0. 3.83877149e-03 0. 0. 0. 0. 0. 0. 0. 1.91938574e-03 0. 0. 0. 0.
      0. 0. 0. 0. 0. 0. 0. 0. 0. 3.83877149e-03 0. 0. 0. 0. 0. 0. 0.
      1.91938574e-03 0. 0. 1.91938574e-03 0. 3.83877149e-03 0. 0. 0. 0.
      0. 0. 0. 0. 0. 0. 0. 0. 0. 0. 0. 0. 0. 0. 0. 0. 0. 0. 0.
      3.83877149e-03 0. 0. 0. 1.91938574e-03 0. 0. 0. 0. 0. 0. 0. 0. 0.
      0. 1.91938574e-03 1.91938574e-03 1.91938574e-03 0. 0. 0. 0. 0. 0.
      0. 0. 0. 0. 0. 1.91938574e-03 0. 0. 0. 1.91938574e-03 0. 0. 0.
      5.75815700e-03 0. 1.91938574e-03 5.75815700e-03 0. 0. 0. 0. 0. 0.
      0. 0. 0. 0. 0. 0. 0. 0. 1.91938574e-03 0. 0. 0. 0. 0. 0. 0. 0. 0.
      0. 0. 3.83877149e-03 0. 3.83877149e-03 3.83877149e-03
      1.91938574e-03 1.91938574e-03 0. 0. 0. 0. 0. 1.91938574e-03 0. 0.
      0. 0. 0. 0. 0. 0. 1.91938574e-03 0. 7.67754298e-03 0. 0.
      1.91938574e-03 0. 0. 0. 0. 0. 0. 0. 0. 0. 0. 0. 0. 0.
      1.91938574e-03 0. 0. 0. 0. 0. 0. 0. 0. 0. 5.75815700e-03 0.
      1.91938574e-03 0. 0. 0. 0. 0. 0. 0. 0. 0. 0. 0. 0. 0.
      1.91938574e-03 0. 9.59692895e-03 0. 1.91938574e-03 7.67754298e-03
      0. 1.91938574e-03 1.91938574e-03 0. 1.91938574e-03 1.91938574e-03
      0. 0. 0. 0. 0. 1.91938574e-03 5.75815700e-03 3.83877149e-03 0. 0.
      0. 0. 0. 0. 0. 0. 0. 1.91938574e-03 0. 0. 0. 0. 0. 1.91938574e-03
      0. 0. 0. 3.83877149e-03 3.83877149e-03 3.83877149e-03 0. 0.
      5.75815700e-03 3.83877149e-03 1.91938574e-03 0. 0. 0. 0. 0. 0. 0.
      0. 1.91938574e-03 0. 0. 0. 0. 0. 0. 0. 1.91938574e-03 0. 0.
      1.91938574e-03 0. 0. 1.91938574e-03 0. 0. 0. 0. 0. 0. 0. 0. 0. 0.
      0. 0. 0. 0. 0. 0. 0. 0. 0. 0. 0. 0. 1.91938574e-03 0. 0.
      1.91938574e-03 0. 0. 0. 1.91938574e-03 0. 1.91938574e-03 0.
      3.83877149e-03 0. 0. 0. 0. 1.91938574e-03 0. 0. 0. 0.
      1.91938574e-03 0. 0. 0. 0. 0. 1.91938574e-03 0. 0. 0.
      3.83877149e-03 0. 0. 0. 1.91938574e-03 0. 0. 1.91938574e-03 0. 0.
      3.83877149e-03 1.91938574e-03 0. 0. 0. 0. 0. 0. 0. 0. 0. 0. 0. 0.
      0. 0. 0. 0. 3.83877149e-03 1.91938574e-03 0. 0. 2.11132430e-02 0.
      0. 0. 0. 0. 0. 0. 1.91938574e-03 0. 0. 0. 0. 1.91938574e-03 0. 0.
      5.75815700e-03 0. 1.91938574e-03 0. 0. 0. 0. 0. 0. 0. 0.
      3.83877149e-03 0. 0. 0. 0. 0. 0. 0. 0. 0. 1.91938574e-03 0. 0. 0.
      0. 0. 0. 3.83877149e-03 0. 0. 1.91938574e-03 0. 0. 1.91938574e-03
      3.83877149e-03 0. 0. 0. 0. 0. 1.91938574e-03 0. 0. 0.
      3.83877149e-03 0. 0. 0. 0. 0. 0. 0. 0. 0. 0. 0. 0. 0. 0. 0.
      1.91938574e-03 1.91938574e-03 0. 0. 0. 0. 1.91938574e-03 0. 0. 0.
      0. 0. 1.91938574e-03 0. 0. 5.75815700e-03 0. 0. 0. 5.75815700e-03
      0. 0. 1.91938574e-03 1.91938574e-03 0. 1.91938574e-03 0. 0.
      3.83877149e-03 0. 0. 1.91938574e-03 3.83877149e-03 0. 0.
      1.91938574e-03 1.91938574e-03 0. 0. 0. 1.91938574e-03 0. 0. 0. 0.
      0. 0. 0. 0. 0. 0. 0. 0. 0. 0. 0. 1.91938574e-03 0. 1.91938574e-03
      0. 0. 0. 0. 0. 0. 0. 0. 0. 0. 0. 1.91938574e-03 0. 0.
      3.83877149e-03 0. 0. 0. 0. 0. 0. 0. 3.83877149e-03 1.91938574e-03
      0. 0. 1.91938574e-03 0. 0. 3.83877149e-03 1.91938574e-03 0.
      1.91938574e-03 0. 1.91938574e-03 0. 1.91938574e-03 1.91938574e-03
      0. 0. 0. 0. 0. 0. 0. 1.91938574e-03 1.91938574e-03 0.
      1.91938574e-03 0. 0. 0. 0. 0. 0. 0. 1.91938574e-03 1.91938574e-03
      0. 0. 0. 0. 7.67754298e-03 1.91938574e-03 0. 0. 0. 0.
      7.67754298e-03 3.83877149e-03 1.91938574e-03 0. 0. 0. 0. 0. 0. 0.
      3.83877149e-03 0. 5.75815700e-03 0. 0. 0. 0. 3.83877149e-03 0. 0.
      0. 0. 0. 1.91938574e-03 0. 0. 0. 0. 0. 0. 0. 0. 0. 0. 0.
      1.91938574e-03 1.91938574e-03 0. 0. 1.91938574e-03 0. 0. 0.
      1.91938574e-03 0. 0. 0. 1.91938574e-03 0. 3.83877149e-03 0. 0. 0.
      0. 2.87907869e-02 0. 0. 0. 0. 0. 1.91938574e-03 1.91938574e-03
      1.91938574e-03 0. 0. 0. 0. 0. 0. 0. 0. 0. 0. 0. 0. 0. 0. 0. 0. 0.
      0. 0. 1.91938574e-03 0. 0. 0. 1.91938574e-03 3.83877149e-03
      1.91938574e-03 0. 0. 1.91938574e-03 0. 0. 0. 0. 0. 0. 0.
      3.83877149e-03 0. 0. 0. 0. 0. 0. 0. 0. 0. 0. 0. 0. 0. 0.
      5.75815700e-03 0. 1.91938574e-03 0. 0. 0. 0. 0. 0. 3.83877149e-03
      0. 0. 0. 0. 0. 1.91938574e-03 0. 0. 0. 0. 0. 0. 3.83877149e-03 0.
      1.91938574e-03 0. 0. 1.91938574e-03 0. 0. 0. 0. 0. 0. 0. 0.
      1.91938574e-03 1.91938574e-03 0. 1.34357000e-02 1.91938574e-03 0.
      0. 0. 0. 1.91938574e-03 0. 1.91938574e-03 0. 1.91938574e-03
      1.91938574e-03 0. 0. 0. 0. 0. 0. 1.91938574e-03 1.91938574e-03 0.
      1.91938574e-03 0. 0. 0. 0. 3.83877149e-03 0. 0. 0. 0.
      1.91938574e-03 0. 1.91938574e-03 0. 0. 0. 0. 3.83877149e-03 0. 0.
      0. 0. 0. 0. 0. 0. 0. 0. 0. 0. 0. 0. 0. 1.91938574e-03 0. 0. 0. 0.
      1.91938574e-03 0. 0. 0. 0. 0. 1.91938574e-03 0. 0. 0. 0. 0.
      1.91938574e-03 0. 0. 0. 0. 0. 0. 0. 0. 0. 0. 0. 0. 0. 0. 0. 0. 0.
      0. 0. 5.75815700e-03 1.91938574e-03 0. 0. 0. 3.83877149e-03 0.
      1.91938574e-03 0. 1.91938574e-03 0. 1.91938574e-03 0. 0. 0.
      1.91938574e-03 0. 0. 0. 0. 0. 0. 0. 0. 3.83877149e-03 0. 0. 0.
      1.91938574e-03 0. 0. 0. 0. 0. 0. 1.91938574e-03 1.91938574e-03
      1.91938574e-03 0. 0. 0. 0. 0. 0. 3.83877149e-03 1.91938574e-03
      1.91938574e-03 0. 1.91938574e-03 0. 0. 0. 1.91938574e-03
      1.91938574e-03 0. 0. 0. 0. 0. 0. 0. 0. 3.83877149e-03
      1.91938574e-03 0. 0. 1.91938574e-03 1.91938574e-03 0. 0.
      1.91938574e-03 0. 0. 0. 0. 0. 0. 3.83877149e-03 0. 0. 0. 0. 0. 0.
      0. 0. 1.91938574e-03 0. 0. 0. 0. 0. 0. 0. 0. 0. 1.91938574e-03
      1.91938574e-03 0. 1.91938574e-03 0. 1.91938574e-03 0. 0. 0. 0. 0.
      0. 0. 0. 0. 0. 0. 0. 0. 3.83877149e-03 0. 0. 0. 0. 0. 0. 0. 0. 0.
      0. 1.91938574e-03 0. 0. 0. 1.91938574e-03 0. 1.91938574e-03 0. 0.
      0. 1.91938574e-03 0. 0. 0. 0. 0. 3.83877149e-03 1.34357000e-02 0.
      0. 0. 0. 0. 5.75815700e-03 0. 0. 1.91938574e-03 0. 1.91938574e-03
      0. 0. 0. 0. 0. 1.91938574e-03 0. 0. 0. 0. 0. 0.</_>
    <_>
      1.69204734e-03 0. 0. 0. 1.69204734e-03 1.69204734e-03 0. 0. 0. 0.
      1.69204734e-03 0. 0. 3.38409469e-03 0. 0. 8.46023671e-03 0. 0.
      1.69204734e-03 3.38409469e-03 1.69204734e-03 1.69204734e-03 0. 0.
      1.69204734e-03 0. 0. 1.69204734e-03 0. 0. 1.69204734e-03 0. 0.
      3.38409469e-03 0. 0. 0. 0. 0. 1.69204734e-03 0. 0. 3.38409469e-03
      0. 0. 0. 0. 0. 0. 0. 0. 0. 0. 1.69204734e-03 0. 0. 0. 0. 0. 0.
      3.38409469e-03 0. 0. 1.69204734e-03 0. 0. 0. 0. 0. 0.
      1.69204734e-03 0. 1.69204734e-03 0. 1.69204734e-03 1.69204734e-03
      1.69204734e-03 0. 1.69204734e-03 0. 0. 5.07614203e-03
      1.69204734e-03 0. 0. 0. 3.38409469e-03 1.69204734e-03 0.
      1.69204734e-03 1.69204734e-03 1.69204734e-03 3.38409469e-03 0. 0.
      0. 0. 0. 0. 1.69204734e-03 0. 0. 3.38409469e-03 0. 3.38409469e-03
      0. 3.38409469e-03 1.69204734e-03 1.69204734e-03 0. 0. 0. 0. 0. 0.
      0. 0. 0. 1.69204734e-03 0. 0. 0. 0. 0. 0. 5.07614203e-03 0. 0.
      3.38409469e-03 0. 0. 3.38409469e-03 0. 3.38409469e-03 0. 0. 0. 0.
      1.69204734e-03 5.07614203e-03 0. 1.69204734e-03 0. 0. 0. 0.
      1.69204734e-03 0. 0. 0. 0. 0. 0. 1.69204734e-03 0. 0. 0. 0. 0. 0.
      0. 0. 0. 0. 1.69204734e-03 0. 0. 1.69204734e-03 0. 1.69204734e-03
      0. 0. 0. 0. 1.69204734e-03 0. 3.38409469e-03 0. 1.69204734e-03 0.
      0. 0. 6.76818937e-03 0. 0. 0. 0. 3.38409469e-03 0. 1.69204734e-03
      0. 0. 1.69204734e-03 1.69204734e-03 3.38409469e-03 0. 0.
      5.07614203e-03 0. 1.69204734e-03 0. 1.69204734e-03 1.69204734e-03
      0. 0. 0. 0. 0. 0. 0. 3.38409469e-03 0. 0. 1.69204734e-03 0.
      1.69204734e-03 0. 0. 0. 0. 0. 0. 5.07614203e-03 1.69204734e-03 0.
      0. 0. 0. 0. 0. 0. 1.69204734e-03 0. 3.38409469e-03 0.
      1.69204734e-03 0. 0. 0. 0. 0. 0. 0. 1.69204734e-03 0. 0.
      3.38409469e-03 0. 1.69204734e-03 5.07614203e-03 0. 0. 0. 0. 0. 0.
      0. 0. 0. 1.69204734e-03 3.38409469e-03 3.38409469e-03
      1.69204734e-03 0. 0. 0. 0. 0. 0. 0. 0. 3.38409469e-03
      1.69204734e-03 1.69204734e-03 0. 1.69204734e-03 0. 0. 0. 0. 0. 0.
      0. 0. 0. 0. 0. 0. 0. 1.69204734e-03 0. 0. 0. 1.69204734e-03 0. 0.
      1.69204734e-03 0. 0. 0. 0. 0. 0. 0. 0. 0. 0. 0. 3.38409469e-03
      1.69204734e-03 3.38409469e-03 0. 3.38409469e-03 1.69204734e-03 0.
      0. 1.69204734e-03 0. 0. 1.69204734e-03 5.07614203e-03 0. 0. 0.
      1.69204734e-03 0. 0. 0. 0. 0. 0. 0. 1.69204734e-03 0. 0. 0. 0. 0.
      0. 0. 0. 0. 0. 0. 0. 1.69204734e-03 0. 1.69204734e-03
      1.69204734e-03 1.69204734e-03 1.69204734e-03 0. 0. 3.38409469e-03
      0. 0. 0. 0. 0. 0. 0. 3.38409469e-03 0. 1.69204734e-03 0.
      1.69204734e-03 0. 0. 1.69204734e-03 0. 0. 0. 0. 0. 0. 0. 0. 0.
      5.07614203e-03 0. 0. 0. 0. 0. 0. 0. 1.69204734e-03 0. 0. 0. 0.
      1.69204734e-03 0. 0. 0. 0. 0. 0. 0. 0. 0. 0. 0. 3.38409469e-03 0.
      0. 3.38409469e-03 0. 1.69204734e-03 1.69204734e-03 0. 0. 0. 0. 0.
      0. 0. 0. 0. 0. 0. 0. 0. 1.69204734e-03 1.69204734e-03 0. 0.
      1.69204734e-03 0. 0. 1.69204734e-03 0. 0. 0. 3.38409469e-03 0.
      1.69204734e-03 3.38409469e-03 3.38409469e-03 1.69204734e-03 0. 0.
      0. 0. 0. 1.69204734e-03 1.69204734e-03 1.69204734e-03 0. 0. 0. 0.
      0. 0. 1.69204734e-03 0. 0. 0. 6.76818937e-03 1.69204734e-03
      1.69204734e-03 6.76818937e-03 0. 0. 0. 3.38409469e-03 0.
      8.46023671e-03 0. 0. 0. 0. 0. 3.38409469e-03 0. 1.69204734e-03 0.
      0. 0. 0. 0. 0. 1.69204734e-03 0. 0. 0. 0. 1.69204734e-03 0. 0. 0.
      0. 1.69204734e-03 0. 3.38409469e-03 0. 0. 0. 0. 0. 0. 0. 0. 0. 0.
      0. 0. 0. 0. 0. 0. 0. 1.69204734e-03 1.69204734e-03 1.69204734e-03
      0. 0. 0. 1.69204734e-03 0. 0. 1.69204734e-03 0. 0. 0. 0. 0. 0. 0.
      0. 5.07614203e-03 0. 0. 0. 0. 0. 0. 0. 0. 1.18443314e-02 0. 0.
      1.69204734e-03 0. 0. 0. 0. 0. 0. 0. 0. 1.69204734e-03 0.
      5.07614203e-03 1.69204734e-03 0. 1.69204734e-03 0. 0. 0. 0. 0. 0.
      0. 0. 0. 1.69204734e-03 3.38409469e-03 0. 5.07614203e-03
      1.69204734e-03 0. 0. 0. 1.69204734e-03 0. 0. 1.69204734e-03 0. 0.
      0. 0. 1.69204734e-03 0. 0. 0. 0. 0. 0. 0. 0. 0. 0. 0. 0. 0. 0. 0.
      0. 1.69204734e-03 0. 0. 0. 3.38409469e-03 0. 1.69204734e-03
      1.69204734e-03 0. 0. 0. 3.38409469e-03 0. 1.69204734e-03 0. 0. 0.
      0. 0. 0. 1.69204734e-03 0. 0. 0. 0. 0. 0. 1.69204734e-03 0. 0.
      1.69204734e-03 8.46023671e-03 0. 0. 0. 0. 0. 6.76818937e-03 0. 0.
      1.69204734e-03 0. 0. 0. 0. 0. 1.69204734e-03 5.07614203e-03
      1.69204734e-03 3.38409469e-03 0. 0. 0. 0. 0. 0. 1.69204734e-03 0.
      0. 1.69204734e-03 0. 0. 0. 1.69204734e-03 1.69204734e-03
      3.38409469e-03 0. 0. 0. 0. 0. 0. 0. 0. 0. 1.69204734e-03 0. 0. 0.
      0. 0. 0. 1.69204734e-03 0. 0. 0. 0. 0. 0. 3.38409469e-03 0. 0.
      1.69204734e-02 0. 6.76818937e-03 0. 0. 1.69204734e-03 0. 0. 0.
      1.69204734e-03 1.69204734e-03 1.69204734e-03 0. 0. 0. 0. 0. 0. 0.
      0. 0. 0. 0. 0. 0. 0. 0. 0. 1.69204734e-03 0. 0. 0. 1.01522841e-02
      0. 0. 0. 0. 0. 1.69204734e-03 0. 0. 0. 1.69204734e-03 0. 0. 0. 0.
      0. 0. 1.69204734e-03 0. 3.38409469e-03 0. 0. 0. 1.69204734e-03 0.
      0. 0. 5.07614203e-03 1.69204734e-03 0. 0. 0. 0. 1.69204734e-03 0.
      0. 1.69204734e-03 0. 0. 0. 0. 0. 1.69204734e-03 0. 0.
      1.69204734e-03 1.69204734e-03 1.69204734e-03 0. 0. 0. 0. 0.
      1.69204734e-03 0. 0. 0. 0. 0. 1.69204734e-03 0. 0. 0. 0. 0.
      3.38409469e-03 0. 0. 0. 0. 0. 0. 0. 0. 0. 0. 0. 0. 0. 0. 0.
      1.69204734e-03 1.69204734e-03 0. 0. 0. 5.07614203e-03 0. 0. 0. 0.
      3.38409469e-03 0. 0. 0. 0. 0. 0. 0. 1.69204734e-03 0. 0. 0.
      1.69204734e-03 0. 0. 1.69204734e-03 0. 0. 0. 1.69204734e-03 0. 0.
      0. 1.69204734e-03 0. 1.69204734e-03 5.07614203e-03 0. 0. 0. 0. 0.
      1.69204734e-03 3.38409469e-03 0. 5.07614203e-03 0. 1.69204734e-03
      0. 6.76818937e-03 3.38409469e-03 0. 3.38409469e-03 1.69204734e-03
      1.18443314e-02 0. 0. 0. 0. 0. 0. 0. 0. 3.38409469e-03 0. 0. 0. 0.
      3.38409469e-03 0. 0. 0. 0. 5.07614203e-03 0. 0. 5.07614203e-03 0.
      0. 1.69204734e-03 1.69204734e-03 3.38409469e-03 0. 3.38409469e-03
      0. 0. 1.69204734e-03 0. 0. 0. 1.69204734e-03 0. 1.69204734e-03 0.
      1.69204734e-03 0. 0. 0. 0. 0. 0. 1.69204734e-03 0. 0. 0. 0.
      1.69204734e-03 1.69204734e-03 0. 1.69204734e-03 0. 0.
      1.69204734e-03 0. 0. 0. 0. 1.69204734e-03 0. 0. 0. 0. 0. 0.
      1.69204734e-03 3.38409469e-03 0. 0. 0. 1.69204734e-03 0.
      3.38409469e-03 5.07614203e-03 0. 1.69204734e-03 0. 0. 0. 0. 0.
      1.69204734e-03 0. 0. 0. 1.69204734e-03 1.69204734e-03 0. 0.
      1.69204734e-03 0. 1.69204734e-03 0. 1.69204734e-03 1.69204734e-03
      1.69204734e-03 0. 0. 0. 1.69204734e-03 0. 0. 0. 0. 1.69204734e-03
      0. 0. 0. 1.69204734e-03 0. 1.69204734e-03 0. 0. 0. 0. 0. 0.
      1.69204734e-03 0. 0. 0. 0. 3.38409469e-03 0. 0. 0. 0.
      1.69204734e-03 0. 0. 0. 0. 1.69204734e-03 0. 0. 0. 0. 0.
      5.07614203e-03 0. 0. 1.69204734e-03 1.69204734e-03 0. 0. 0. 0. 0.
      0. 0. 0. 0. 0. 0. 1.69204734e-03 1.69204734e-03 0. 0. 0. 0. 0. 0.
      0. 0. 0. 3.38409469e-03 0. 0. 1.69204734e-03 0. 0. 1.69204734e-03
      0. 1.69204734e-03 0. 0. 0. 0. 3.38409469e-03 1.69204734e-03 0. 0.
      0. 1.69204734e-03 0. 1.69204734e-03 1.18443314e-02 1.69204734e-03
      0. 0. 1.69204734e-03 1.69204734e-03 0. 3.38409469e-03
      1.69204734e-03 0. 0. 1.69204734e-03 0. 0. 3.38409469e-03 0.
      3.38409469e-03 0. 0. 0. 3.38409469e-03 0. 0. 0. 0. 0. 0. 0. 0. 0.
      0. 0. 0. 1.69204734e-03 0. 1.69204734e-03 1.69204734e-03 0. 0. 0.
      0. 0. 0. 0. 0. 0. 0. 1.69204734e-03 0. 5.07614203e-03 0. 0. 0.
      8.46023671e-03 1.69204734e-03 1.69204734e-03 1.69204734e-03 0. 0.
      0. 0. 0. 0. 0. 1.69204734e-03 0. 0. 0. 0. 0. 0. 0. 1.69204734e-03
      0. 1.69204734e-03 1.69204734e-03 0. 0. 3.38409469e-03 0. 0. 0.
      1.69204734e-03 0. 5.07614203e-03 0. 0. 0. 1.69204734e-03
      1.69204734e-03 0. 0. 0. 1.69204734e-03 0. 0. 0. 0. 0. 0. 0. 0. 0.
      0. 1.69204734e-03 0. 0. 0. 0. 0. 0. 0. 0. 0. 1.69204734e-03 0. 0.
      3.38409469e-03 0. 1.69204734e-03 0. 0. 0. 0. 0. 0. 0. 0. 0. 0.
      8.46023671e-03 0. 0. 0. 1.69204734e-03 0. 0. 0. 5.07614203e-03 0.
      1.69204734e-03 0. 1.69204734e-03 0. 0. 0. 0. 1.69204734e-03 0. 0.
      0. 0. 0. 0. 0. 3.38409469e-03 0. 0. 1.69204734e-03 0. 0. 0.
      1.69204734e-03 0. 0. 1.69204734e-03 1.69204734e-03 0.
      1.69204734e-03 0. 0. 0. 0. 0. 0. 0. 0. 1.69204734e-03 0.
      1.69204734e-03 0. 0. 3.38409469e-03 1.69204734e-03 0. 0. 0. 0. 0.
      0. 0. 0. 0. 0. 0. 0. 0. 0. 1.69204734e-03 0. 0. 0. 0. 0. 0. 0. 0.
      0. 1.69204734e-03 0. 3.38409469e-03 0. 0. 0. 5.07614203e-03 0. 0.
      3.38409469e-03 0. 0. 0. 1.69204734e-03 0. 0. 0. 0. 0. 0. 0. 0.
      1.69204734e-03 0. 0. 0. 0. 0. 0. 0. 0. 1.69204734e-03 0. 0. 0. 0.
      0. 0. 0. 0. 0. 0. 1.69204734e-03 0. 0. 0. 0. 0. 0. 0.
      1.69204734e-03 0. 0. 0. 0. 0. 0. 1.69204734e-03 0. 0. 0. 0.
      3.38409469e-03 0. 0. 0. 0. 1.69204734e-03 0. 0. 0. 0.
      3.38409469e-03 0. 0. 0. 0. 0. 3.38409469e-03 0. 1.18443314e-02 0.
      0. 0. 3.38409469e-03 0. 0. 1.69204734e-03 0. 0. 0. 0. 0. 0. 0. 0.
      0. 0. 0. 1.69204734e-03 0. 3.38409469e-03 0. 0. 0. 0. 0. 0. 0. 0.
      0. 0. 0. 1.69204734e-03 0. 1.69204734e-03 1.69204734e-03
      1.69204734e-03 0. 0. 0. 0. 0. 0. 0. 0. 0. 0. 0. 3.38409469e-03
      1.69204734e-03 0. 0. 0. 1.69204734e-03 0. 1.69204734e-03 0. 0. 0.
      0. 0. 0. 1.69204734e-03 0. 1.69204734e-03 1.69204734e-03 0. 0.
      1.69204734e-03 0. 1.69204734e-03 3.38409469e-03 0. 1.69204734e-03
      0. 0. 0. 0. 1.69204734e-03 0. 0. 0. 0. 0. 0. 0. 0. 1.69204734e-03
      1.69204734e-03 1.69204734e-03 0. 0. 1.69204734e-03 0. 0. 0. 0. 0.
      1.69204734e-03 0. 1.69204734e-03 0. 1.69204734e-03 0. 0. 0. 0.
      1.69204734e-03 0. 3.38409469e-03 0. 0. 0. 0. 0. 0. 0. 0. 0. 0.
      1.69204734e-03 0. 1.69204734e-03 1.69204734e-03 1.69204734e-03 0.
      0. 0. 0. 0. 0. 3.38409469e-03 0. 0. 0. 0. 1.69204734e-03 0. 0.
      1.69204734e-03 0. 0. 5.07614203e-03 0. 1.69204734e-03
      1.69204734e-03 0. 0. 0. 0. 0. 0. 0. 3.38409469e-03 0.
      3.38409469e-03 0. 1.69204734e-03 1.69204734e-03 0. 0.</_>
    <_>
      0. 1.75438600e-03 0. 0. 1.75438600e-03 0. 0. 0. 0. 0.
      1.75438600e-03 3.50877200e-03 0. 0. 0. 0. 0. 0. 0. 0. 0. 0. 0.
      1.75438600e-03 0. 1.75438600e-03 3.50877200e-03 1.75438600e-03 0.
      0. 0. 0. 5.26315812e-03 0. 1.75438600e-03 0. 0. 0. 0. 0. 0.
      1.75438600e-03 0. 0. 1.75438600e-03 1.75438600e-03 0. 0. 0. 0. 0.
      0. 0. 0. 0. 1.75438600e-03 0. 1.75438600e-03 0. 0. 0.
      1.75438600e-03 0. 1.75438600e-03 5.26315812e-03 0. 0. 0. 0. 0. 0.
      1.75438600e-03 0. 0. 1.75438600e-03 0. 0. 0. 1.75438600e-03 0. 0.
      0. 0. 1.75438600e-03 0. 1.75438600e-03 1.75438600e-03 0. 0. 0. 0.
      1.75438600e-03 1.75438600e-03 0. 0. 0. 0. 0. 0. 0. 0. 0. 0. 0. 0.
      1.75438600e-03 5.26315812e-03 0. 0. 0. 0. 0. 0. 0. 3.50877200e-03
      0. 0. 0. 0. 1.75438600e-03 0. 0. 0. 0. 0. 1.75438600e-03 0. 0.
      3.50877200e-03 0. 0. 0. 0. 0. 0. 0. 0. 1.75438600e-03 0.
      1.75438600e-03 0. 0. 1.75438600e-03 1.75438600e-03 0. 0.
      3.50877200e-03 0. 0. 0. 0. 0. 0. 1.75438600e-03 0. 1.75438600e-03
      0. 1.75438600e-03 0. 0. 1.75438600e-03 0. 1.75438600e-03
      1.75438600e-03 0. 0. 0. 0. 0. 1.75438600e-03 0. 0. 0.
      3.50877200e-03 5.26315812e-03 1.75438600e-03 1.75438600e-03
      1.75438600e-03 1.75438600e-03 0. 1.75438600e-03 1.75438600e-03 0.
      1.75438600e-03 0. 0. 1.75438600e-03 3.50877200e-03 3.50877200e-03
      0. 0. 1.75438600e-03 0. 3.50877200e-03 1.75438600e-03 0. 0.
      3.50877200e-03 0. 0. 1.75438600e-03 0. 1.75438600e-03 0. 0. 0. 0.
      0. 0. 0. 0. 0. 0. 0. 0. 1.75438600e-03 0. 0. 0. 0. 1.75438600e-03
      0. 0. 0. 0. 0. 3.50877200e-03 1.75438600e-03 0. 0. 1.75438600e-03
      0. 1.75438600e-03 0. 0. 0. 0. 0. 3.50877196e-02 0. 0.
      7.01754401e-03 0. 0. 0. 1.75438600e-03 0. 3.50877200e-03 0. 0. 0.
      0. 0. 0. 0. 0. 0. 0. 0. 0. 0. 0. 0. 1.75438600e-03 0. 0. 0. 0. 0.
      0. 7.01754401e-03 0. 0. 1.75438600e-03 1.75438600e-03
      1.75438600e-03 0. 1.75438600e-03 0. 0. 0. 0. 0. 0. 0. 0. 0.
      1.75438600e-03 0. 0. 0. 0. 0. 0. 0. 0. 0. 0. 0. 0. 0. 0. 0.
      1.75438600e-03 0. 0. 1.75438600e-03 0. 1.75438600e-03 0. 0.
      1.75438600e-03 0. 1.75438600e-03 0. 0. 3.50877200e-03
      1.75438600e-03 0. 0. 0. 0. 0. 0. 0. 0. 0. 0. 0. 0. 0. 0. 0. 0. 0.
      0. 0. 3.50877200e-03 0. 0. 0. 0. 1.75438600e-03 0. 0.
      1.75438600e-03 1.75438600e-03 0. 0. 0. 1.75438600e-03 0. 0.
      1.75438600e-03 0. 0. 0. 0. 1.75438600e-03 0. 1.75438600e-03 0.
      1.75438600e-03 0. 1.75438600e-03 0. 0. 1.75438600e-03
      1.75438600e-03 0. 0. 0. 0. 1.75438600e-03 0. 0. 0. 1.75438600e-03
      0. 0. 0. 0. 5.26315812e-03 0. 0. 0. 0. 0. 1.75438600e-03 0. 0. 0.
      0. 0. 0. 0. 3.50877200e-03 0. 0. 0. 0. 0. 0. 0. 0. 0. 0. 0. 0. 0.
      0. 0. 0. 0. 0. 1.75438600e-03 0. 0. 0. 0. 0. 7.01754401e-03 0. 0.
      0. 0. 0. 0. 0. 0. 3.50877200e-03 0. 0. 0. 1.75438600e-03
      1.75438600e-03 0. 0. 3.50877200e-03 0. 0. 0. 0. 0. 0. 0.
      1.75438600e-03 0. 0. 1.75438600e-03 0. 0. 0. 0. 0. 0. 0. 0.
      1.75438600e-03 0. 0. 0. 0. 3.50877200e-03 0. 5.26315812e-03 0. 0.
      0. 0. 0. 0. 0. 0. 1.75438600e-03 3.50877200e-03 0. 0. 0. 0.
      7.01754401e-03 0. 0. 0. 0. 3.50877200e-03 0. 0. 1.75438600e-03 0.
      0. 0. 0. 0. 0. 0. 0. 0. 1.75438600e-03 1.75438600e-03 0. 0. 0.
      3.50877200e-03 1.75438600e-03 1.75438600e-03 0. 0. 0. 0.
      5.26315812e-03 0. 0. 0. 0. 1.75438600e-03 0. 0. 5.26315812e-03
      1.75438600e-03 0. 0. 1.75438600e-03 0. 0. 0. 1.75438600e-03 0. 0.
      0. 0. 0. 0. 0. 0. 0. 0. 0. 0. 0. 5.26315812e-03 3.50877200e-03 0.
      0. 0. 0. 0. 0. 3.50877200e-03 5.26315812e-03 0. 1.75438600e-03
      1.75438600e-03 0. 0. 0. 0. 0. 0. 0. 1.75438600e-03 1.75438600e-03
      0. 1.05263162e-02 0. 0. 0. 1.75438600e-03 0. 1.75438600e-03 0.
      3.50877200e-03 0. 0. 1.75438600e-03 0. 0. 0. 0. 0. 0.
      1.75438600e-03 0. 3.50877200e-03 0. 0. 0. 0. 0. 0. 0. 0. 0. 0.
      1.75438600e-03 0. 0. 0. 0. 0. 0. 0. 0. 0. 1.75438600e-03 0. 0.
      1.75438600e-03 0. 0. 0. 5.26315812e-03 0. 0. 0. 0. 0.
      7.01754401e-03 1.75438600e-03 0. 0. 0. 0. 1.75438600e-03 0. 0.
      1.75438600e-03 0. 0. 0. 0. 1.75438600e-03 0. 0. 1.75438600e-03 0.
      0. 0. 0. 0. 0. 0. 0. 1.75438600e-03 0. 0. 0. 0. 3.50877200e-03 0.
      0. 0. 3.50877200e-03 0. 0. 1.75438600e-03 0. 0. 0. 1.75438600e-03
      0. 0. 0. 0. 0. 0. 0. 0. 0. 0. 0. 0. 1.75438600e-03 0. 0. 0. 0. 0.
      0. 0. 0. 0. 1.75438600e-03 0. 0. 0. 0. 0. 0. 0. 0. 0.
      2.45614033e-02 0. 0. 0. 0. 0. 0. 7.01754401e-03 0. 1.40350880e-02
      0. 0. 8.77192989e-03 0. 0. 3.50877200e-03 0. 0. 0. 0. 0. 0. 0. 0.
      0. 0. 0. 0. 0. 0. 0. 0. 1.75438600e-03 1.75438600e-03 0.
      1.75438600e-03 0. 0. 0. 0. 3.50877200e-03 1.75438600e-03 0. 0. 0.
      0. 0. 0. 0. 5.26315812e-03 0. 0. 1.75438600e-03 0. 0. 0. 0. 0. 0.
      0. 0. 0. 0. 0. 0. 0. 0. 0. 1.75438600e-03 0. 0. 0. 0. 0.
      1.75438600e-03 1.75438600e-03 0. 0. 5.26315812e-03 0. 0. 0. 0. 0.
      1.75438600e-03 0. 0. 0. 0. 0. 0. 3.50877200e-03 1.75438600e-03 0.
      5.26315812e-03 0. 0. 0. 0. 0. 0. 1.75438600e-03 0. 0. 0. 0. 0. 0.
      0. 0. 3.50877200e-03 0. 7.01754401e-03 0. 7.01754401e-03 0. 0. 0.
      0. 0. 0. 0. 1.75438600e-03 3.50877200e-03 3.50877200e-03 0. 0.
      1.75438600e-03 1.75438600e-03 0. 1.75438600e-03 1.75438600e-03 0.
      0. 0. 0. 0. 0. 0. 1.75438600e-03 1.75438600e-03 0. 0. 0. 0. 0. 0.
      0. 0. 0. 3.50877200e-03 0. 0. 0. 0. 1.75438600e-03 0. 0. 0.
      1.75438600e-03 0. 1.75438600e-03 0. 0. 0. 0. 0. 1.75438600e-03 0.
      1.75438600e-03 0. 8.77192989e-03 0. 0. 0. 0. 0. 0. 3.50877200e-03
      0. 0. 1.75438600e-03 1.75438600e-03 0. 0. 0. 5.26315812e-03
      5.26315812e-03 0. 3.50877200e-03 0. 0. 0. 0. 0. 0. 1.75438600e-03
      0. 0. 0. 0. 0. 0. 0. 0. 3.50877200e-03 0. 0. 0. 0. 0.
      3.50877200e-03 1.75438600e-03 0. 1.75438600e-03 0. 1.75438600e-03
      0. 7.01754401e-03 5.26315812e-03 0. 0. 0. 0. 0. 1.75438600e-03 0.
      0. 0. 0. 0. 0. 3.50877200e-03 1.75438600e-03 0. 0. 5.26315812e-03
      0. 3.50877200e-03 0. 1.75438600e-03 0. 0. 1.75438600e-03 0. 0. 0.
      0. 0. 0. 0. 0. 0. 0. 1.75438600e-03 0. 0. 3.50877200e-03 0. 0.
      1.75438600e-03 0. 0. 0. 0. 0. 0. 1.75438600e-03 0. 3.50877200e-03
      1.75438600e-03 0. 0. 0. 1.75438600e-03 0. 0. 0. 0. 0. 0. 0. 0.
      1.75438600e-03 0. 1.75438600e-03 0. 0. 5.26315812e-03 0. 0. 0. 0.
      3.50877200e-03 0. 0. 0. 0. 0. 0. 0. 0. 0. 0. 3.50877200e-03 0. 0.
      0. 0. 0. 0. 0. 0. 1.75438600e-03 0. 0. 0. 0. 1.75438600e-03
      1.75438600e-03 0. 0. 0. 0. 3.50877200e-03 0. 0. 0. 0. 0. 0. 0. 0.
      0. 0. 1.75438600e-03 0. 0. 0. 1.75438600e-03 1.75438600e-03
      1.75438600e-03 0. 0. 0. 1.75438600e-03 0. 0. 0. 0. 1.75438600e-03
      0. 0. 0. 1.75438600e-03 1.75438600e-03 0. 0. 3.50877200e-03
      1.75438600e-03 0. 7.01754401e-03 0. 0. 0. 1.75438600e-03
      1.75438600e-03 0. 0. 0. 0. 0. 0. 0. 1.75438600e-03 5.26315812e-03
      0. 0. 0. 0. 5.26315812e-03 0. 0. 0. 0. 0. 0. 0. 0. 0. 0. 0.
      1.75438600e-03 0. 0. 1.75438600e-03 0. 1.75438600e-03 0. 0. 0. 0.
      0. 0. 0. 0. 0. 3.50877200e-03 0. 0. 0. 3.50877200e-03 0.
      1.75438600e-03 1.75438600e-03 0. 1.75438600e-03 0. 1.75438600e-03
      0. 0. 1.75438600e-03 0. 0. 0. 0. 0. 0. 0. 0. 0. 0. 0.
      7.01754401e-03 0. 0. 1.75438600e-03 1.75438600e-03 0.
      1.75438600e-03 0. 0. 0. 0. 0. 0. 3.50877200e-03 0. 0. 0. 0. 0. 0.
      0. 0. 0. 0. 0. 1.75438600e-03 1.75438600e-03 1.75438600e-03 0. 0.
      0. 0. 0. 0. 0. 0. 0. 0. 0. 5.26315812e-03 0. 0. 0. 0. 0. 0. 0. 0.
      0. 0. 0. 3.50877200e-03 1.75438600e-03 0. 1.75438600e-03 0. 0. 0.
      0. 1.75438600e-03 3.50877200e-03 0. 0. 1.75438600e-03 0. 0. 0. 0.
      0. 0. 0. 0. 0. 0. 0. 0. 0. 1.75438600e-03 0. 1.75438600e-03 0. 0.
      0. 3.50877200e-03 0. 1.75438600e-03 1.75438600e-03 7.01754401e-03
      0. 0. 1.75438600e-03 0. 0. 0. 0. 1.05263162e-02 0. 1.40350880e-02
      0. 1.75438600e-03 8.77192989e-03 0. 1.75438600e-03 0. 0. 0. 0. 0.
      0. 0. 0. 0. 0. 0. 0. 0. 1.75438600e-03 1.75438600e-03 0. 0. 0. 0.
      0. 0. 0. 0. 0. 0. 1.75438600e-03 1.75438600e-03 0. 1.75438600e-03
      0. 0. 0. 0. 0. 0. 0. 0. 0. 0. 0. 0. 0. 0. 0. 0. 1.75438600e-03
      1.75438600e-03 0. 0. 0. 5.26315812e-03 3.50877200e-03 0. 0. 0. 0.
      0. 1.75438600e-03 0. 0. 0. 0. 0. 0. 0. 5.26315812e-03 0.
      1.75438600e-03 0. 0. 0. 0. 0. 0. 0. 0. 0. 0. 0. 0. 0.
      1.75438600e-03 0. 0. 0. 0. 5.26315812e-03 0. 0. 0. 0. 0. 0. 0. 0.
      0. 0. 3.50877200e-03 0. 0. 1.75438600e-03 0. 0. 1.75438600e-03 0.
      0. 1.75438600e-03 0. 0. 0. 0. 0. 0. 0. 1.75438600e-03 0.
      3.50877200e-03 0. 0. 0. 1.75438600e-03 1.75438600e-03 0.
      1.75438600e-03 0. 0. 1.75438600e-03 1.75438600e-03 0.
      3.50877200e-03 0. 0. 0. 0. 0. 3.50877200e-03 0. 3.50877200e-03 0.
      0. 0. 3.50877200e-03 0. 1.75438600e-03 3.50877200e-03 0.
      1.75438600e-03 0. 0. 0. 0. 0. 0. 0. 0. 0. 0. 0. 0. 0. 0. 0. 0. 0.
      0. 1.75438600e-03 0. 3.50877200e-03 0. 0. 0. 0. 0. 1.75438600e-03
      0. 0. 0. 0. 0. 0. 0. 1.75438600e-03 1.75438600e-03 0.
      3.50877200e-03 0. 0. 0. 0. 0. 0. 5.26315812e-03 0. 1.75438600e-03
      0. 0. 0. 0. 0. 0. 0. 0. 0. 5.26315812e-03 3.50877200e-03
      1.75438600e-03 0. 0. 1.75438600e-03 1.75438600e-03 0. 0.
      1.75438600e-03 0. 0. 0. 0. 0. 0. 0. 3.50877200e-03 0.
      1.75438600e-03 0. 0. 0. 0. 0. 0. 3.50877200e-03 0. 0. 0.
      1.75438600e-03 0. 0. 1.75438600e-03 0. 0. 0. 0. 1.75438600e-03
      1.75438600e-03 0. 0. 0. 0. 0. 0. 0. 0. 1.75438600e-03 0. 0. 0. 0.
      0. 0. 0. 0. 0. 0. 0. 0. 0. 1.75438600e-03 0. 0. 0. 0. 0. 0.</_>
    <_>
      0. 0. 0. 0. 0. 6.15384616e-03 0. 0. 0. 0. 0. 3.07692308e-03 0. 0.
      0. 0. 6.15384616e-03 0. 0. 0. 0. 0. 0. 0. 0. 0. 0. 0. 0. 0. 0.
      9.23076924e-03 3.07692308e-03 0. 0. 0. 0. 0. 0. 0. 0.
      3.07692308e-03 0. 3.07692308e-03 0. 0. 0. 0. 0. 0. 0. 0. 0.
      3.07692308e-03 0. 0. 0. 0. 0. 0. 0. 0. 0. 3.07692308e-03 0. 0. 0.
      0. 0. 3.07692308e-03 0. 0. 0. 0. 0. 0. 0. 0. 0. 0. 0. 0. 0. 0. 0.
      0. 0. 0. 0. 0. 0. 0. 0. 0. 0. 0. 0. 0. 0. 0. 3.07692308e-03 0. 0.
      0. 3.07692308e-03 0. 0. 0. 0. 0. 0. 0. 0. 3.07692308e-03 0. 0.
      3.07692308e-03 3.07692308e-03 0. 0. 0. 0. 0. 0. 0. 0. 0. 0. 0. 0.
      0. 0. 3.07692308e-03 0. 0. 3.07692308e-03 0. 0. 0. 0. 0. 0. 0. 0.
      3.07692308e-03 1.23076923e-02 0. 6.15384616e-03 0. 0. 0.
      3.07692308e-03 0. 0. 0. 0. 0. 0. 0. 0. 0. 0. 0. 0. 0. 0. 0. 0. 0.
      0. 0. 0. 0. 6.15384616e-03 3.07692308e-03 0. 0. 0. 0. 0. 0. 0. 0.
      3.07692308e-03 3.07692308e-03 0. 0. 0. 3.07692308e-03 0.
      1.23076923e-02 0. 3.07692308e-03 0. 0. 0. 3.07692308e-03 0. 0.
      3.07692308e-03 0. 0. 0. 3.07692308e-03 0. 3.07692308e-03 0. 0. 0.
      0. 0. 0. 0. 0. 0. 0. 0. 0. 0. 6.15384616e-03 0. 0. 0. 0. 0. 0.
      6.15384616e-03 0. 0. 0. 0. 0. 0. 0. 0. 0. 0. 0. 3.07692308e-03 0.
      0. 0. 0. 0. 3.07692308e-03 0. 0. 0. 0. 0. 3.07692308e-03 0. 0. 0.
      0. 0. 0. 0. 0. 0. 0. 0. 0. 0. 0. 0. 0. 0. 0. 0. 0. 0. 0. 0. 0. 0.
      3.07692308e-03 3.07692308e-03 0. 0. 0. 0. 0. 0. 0. 0. 0.
      6.15384616e-03 3.07692308e-03 0. 6.15384616e-03 0. 0. 0.
      3.07692308e-03 0. 0. 3.07692308e-03 0. 0. 0. 3.07692308e-03 0. 0.
      0. 0. 0. 0. 0. 0. 0. 0. 0. 0. 0. 0. 0. 0. 0. 0. 0. 3.07692308e-03
      0. 0. 0. 0. 0. 0. 0. 0. 0. 0. 0. 0. 0. 0. 3.07692308e-03 0.
      6.15384616e-03 0. 0. 3.07692308e-03 0. 0. 0. 0. 0. 0. 0. 0. 0. 0.
      0. 0. 0. 0. 0. 0. 0. 3.07692308e-03 0. 3.07692308e-03 0. 0.
      3.07692308e-03 0. 0. 0. 9.23076924e-03 0. 0. 0. 3.07692308e-03 0.
      0. 8.30769241e-02 0. 0. 0. 0. 0. 0. 0. 9.23076924e-03
      3.07692308e-03 0. 0. 0. 3.07692308e-03 0. 0. 0. 0. 0. 0. 0. 0. 0.
      0. 0. 0. 0. 0. 0. 0. 0. 0. 3.07692308e-03 0. 0. 3.07692308e-03
      3.07692308e-03 0. 0. 0. 0. 0. 0. 3.07692308e-03 0. 0. 0. 0. 0.
      9.23076924e-03 0. 3.07692308e-03 3.07692308e-03 0. 0. 0. 0. 0. 0.
      0. 0. 0. 0. 0. 0. 0. 0. 0. 0. 0. 0. 0. 0. 0. 0. 0. 9.23076924e-03
      3.07692308e-03 0. 0. 0. 0. 3.07692308e-03 0. 0. 0. 0. 0. 0. 0. 0.
      0. 3.07692308e-03 0. 6.15384616e-03 0. 0. 6.15384616e-03 0. 0. 0.
      0. 0. 0. 0. 0. 0. 0. 0. 3.07692308e-03 0. 0. 0. 0. 3.07692308e-03
      0. 3.07692308e-03 0. 0. 0. 6.15384616e-03 0. 0. 0. 0.
      6.15384616e-03 0. 0. 0. 0. 0. 0. 0. 0. 0. 0. 0. 0. 0. 0.
      3.07692308e-03 0. 0. 0. 0. 0. 0. 0. 0. 0. 0. 0. 0. 0. 0. 0.
      3.07692308e-03 0. 0. 0. 0. 0. 0. 0. 0. 0. 9.23076924e-03 0. 0. 0.
      0. 0. 0. 0. 0. 0. 0. 0. 0. 0. 6.15384616e-03 0. 0. 3.07692308e-03
      0. 0. 0. 0. 0. 0. 0. 0. 3.07692308e-03 0. 0. 0. 6.15384616e-03 0.
      0. 3.07692308e-03 0. 0. 0. 0. 3.07692308e-03 0. 0. 0. 0. 0. 0.
      3.07692308e-03 0. 0. 0. 0. 0. 0. 0. 0. 3.07692308e-03 0. 0. 0. 0.
      0. 0. 0. 3.07692308e-03 0. 9.23076924e-03 0. 0. 0. 3.07692308e-03
      0. 0. 0. 0. 0. 0. 0. 0. 0. 0. 0. 0. 3.07692308e-03 0. 0. 0. 0. 0.
      0. 0. 0. 0. 0. 0. 0. 0. 0. 0. 0. 0. 6.15384616e-03 0. 0. 0. 0. 0.
      0. 9.23076924e-03 3.07692308e-03 0. 0. 0. 0. 3.07692308e-03 0. 0.
      0. 0. 0. 0. 0. 3.07692308e-03 0. 0. 0. 6.15384616e-03 0. 0.
      3.07692308e-03 0. 0. 0. 0. 0. 0. 3.07692308e-03 0. 0. 0. 0. 0. 0.
      0. 0. 0. 3.07692308e-03 0. 0. 0. 0. 3.07692308e-03 0. 0.
      6.15384616e-03 0. 0. 3.07692308e-03 0. 0. 0. 0. 0. 0. 0. 0. 0. 0.
      0. 0. 0. 0. 0. 0. 0. 0. 0. 0. 0. 0. 0. 0. 0. 0. 0. 0. 0. 0. 0. 0.
      0. 0. 0. 0. 0. 0. 0. 0. 0. 0. 0. 0. 0. 0. 0. 3.07692308e-03 0. 0.
      0. 0. 0. 3.07692308e-03 1.23076923e-02 0. 3.07692308e-03 0. 0. 0.
      0. 0. 0. 0. 0. 0. 0. 0. 0. 0. 0. 0. 0. 0. 0. 0. 0. 3.07692308e-03
      0. 0. 0. 0. 0. 0. 0. 0. 6.15384616e-03 0. 0. 0. 0. 0. 0. 0. 0. 0.
      0. 0. 0. 0. 0. 0. 0. 0. 9.23076924e-03 0. 0. 0. 0. 0. 0.
      3.07692308e-03 0. 0. 0. 0. 0. 0. 0. 0. 0. 0. 6.15384616e-03 0. 0.
      0. 0. 0. 0. 0. 0. 0. 0. 0. 0. 0. 0. 0. 0. 3.07692308e-03 0. 0. 0.
      0. 0. 0. 0. 6.15384616e-03 0. 0. 0. 6.15384616e-03 3.07692308e-03
      3.07692308e-03 0. 0. 0. 0. 0. 0. 6.15384616e-03 0. 0. 0. 0. 0. 0.
      0. 3.07692308e-03 0. 0. 0. 0. 0. 0. 0. 0. 0. 0. 0. 0. 0. 0. 0. 0.
      0. 0. 0. 0. 6.15384616e-03 0. 0. 0. 0. 0. 0. 0. 0. 0. 0.
      3.07692308e-03 0. 0. 0. 0. 0. 3.07692308e-03 0. 0. 0. 0. 0. 0. 0.
      0. 0. 0. 0. 0. 0. 6.15384616e-03 0. 9.23076924e-03 0. 0. 0. 0. 0.
      0. 0. 0. 0. 0. 3.07692308e-03 0. 0. 0. 0. 0. 0. 0. 0. 0. 0. 0. 0.
      0. 0. 9.23076924e-03 0. 0. 0. 0. 0. 0. 0. 0. 0. 0. 0. 0. 0. 0. 0.
      0. 3.07692308e-03 0. 3.07692308e-03 0. 0. 0. 0. 0. 3.07692308e-03
      0. 0. 0. 0. 0. 0. 3.07692308e-03 3.07692308e-03 0. 0.
      3.07692308e-03 0. 0. 0. 0. 0. 0. 0. 0. 0. 0. 0. 0. 0. 0. 0.
      1.53846154e-02 0. 0. 0. 0. 0. 0. 0. 0. 0. 0. 0. 0. 0. 0. 0. 0. 0.
      0. 1.23076923e-02 0. 0. 0. 0. 0. 0. 0. 3.07692308e-03 0. 0. 0. 0.
      0. 0. 0. 0. 0. 0. 0. 3.07692308e-03 0. 0. 0. 0. 0. 0. 0. 0. 0. 0.
      0. 0. 0. 3.07692308e-03 0. 0. 0. 0. 0. 0. 0. 0. 0. 0. 0. 0. 0. 0.
      0. 0. 0. 0. 0. 3.07692308e-03 0. 3.07692308e-03 0. 0. 0. 0. 0. 0.
      3.07692308e-03 0. 0. 0. 0. 0. 0. 0. 3.07692308e-03 0. 0. 0. 0. 0.
      0. 0. 0. 0. 3.07692308e-03 0. 0. 0. 0. 0. 0. 0. 0. 0. 0. 0. 0. 0.
      0. 0. 0. 0. 3.07692308e-03 0. 0. 0. 0. 0. 0. 3.07692308e-03 0. 0.
      0. 0. 0. 0. 0. 0. 0. 0. 6.15384616e-03 0. 0. 0. 0. 0. 0. 0. 0. 0.
      0. 0. 0. 0. 0. 0. 0. 0. 0. 0. 0. 0. 0. 0. 3.07692308e-03 0. 0. 0.
      0. 0. 0. 0. 3.07692308e-03 0. 0. 0. 0. 6.15384616e-03
      2.46153846e-02 0. 0. 0. 3.07692308e-03 0. 0. 0. 0. 0. 0.
      3.07692308e-03 3.07692308e-02 0. 0. 6.15384616e-03 0. 0. 0. 0. 0.
      3.07692308e-03 0. 0. 0. 0. 0. 0. 0. 0. 0. 0. 0. 3.07692308e-03
      3.07692308e-03 0. 0. 6.15384616e-03 0. 0. 0. 0. 0. 0. 0. 0. 0.
      3.07692308e-03 0. 0. 0. 9.23076924e-03 0. 3.07692308e-03 0. 0. 0.
      0. 0. 0. 0. 0. 0. 0. 0. 0. 0. 0. 3.07692308e-03 0. 0. 0. 0. 0. 0.
      0. 0. 0. 0. 0. 0. 0. 3.07692308e-03 0. 0. 0. 0. 3.07692308e-03 0.
      0. 0. 0. 0. 0. 0. 0. 0. 0. 0. 0. 0. 0. 0. 0. 0. 0. 0. 0. 0. 0. 0.
      0. 0. 0. 3.07692308e-03 0. 0. 0. 3.07692308e-03 0. 0. 0. 0. 0.
      3.07692308e-03 0. 0. 0. 0. 0. 0. 0. 0. 0. 0. 0. 6.15384616e-03 0.
      0. 0. 0. 0. 0. 0. 0. 0. 0. 0. 0. 1.53846154e-02 0. 0. 0. 0. 0. 0.
      0. 0. 3.07692308e-03 0. 0. 0. 0. 1.53846154e-02 3.07692308e-03 0.
      0. 6.15384616e-03 0. 0. 0. 0. 0. 0. 6.15384616e-03 0. 0. 0. 0. 0.
      3.07692308e-03 0. 0. 0. 0. 0. 0. 0. 3.07692308e-03 0. 0. 0. 0. 0.
      0. 0. 0. 3.07692308e-03 0. 0. 0. 0. 0. 0. 2.15384625e-02
      3.07692308e-03 0. 0. 3.07692308e-03 0. 0. 0. 0. 0. 0.
      3.07692308e-03 0. 0. 0. 0. 0. 0. 0. 0. 0. 6.15384616e-03 0. 0. 0.
      0. 0. 0. 0. 0. 0. 9.23076924e-03 0. 0. 0. 0. 0. 0. 0. 0.
      3.07692308e-03 0. 0. 0. 0. 3.07692308e-03 0. 0. 0. 0.
      3.07692308e-03 0. 0. 0. 0. 0. 0. 0. 3.07692308e-03 0. 0. 0. 0. 0.
      0. 0. 0. 0. 0. 0. 0. 3.07692308e-03 0. 0. 0. 0. 0. 0. 0. 0.
      3.07692308e-03 0. 0. 0. 0. 0. 0. 0. 0. 3.07692308e-03 0. 0. 0. 0.
      0. 3.07692308e-03 0. 0. 0. 0. 0. 0. 0. 0. 0. 0. 3.07692308e-03 0.
      0. 0. 0. 0. 0. 0. 0. 0. 0. 0. 0. 0. 6.15384616e-03 0. 0. 0.
      3.07692308e-03</_>
    <_>
      0. 2.49376567e-03 0. 0. 2.49376567e-03 0. 0. 0. 0. 0.
      2.49376567e-03 0. 0. 0. 0. 2.49376567e-03 0. 0. 0. 0. 0.
      2.49376567e-03 2.49376567e-03 0. 0. 0. 0. 2.49376567e-03 0. 0. 0.
      0. 0. 0. 0. 0. 0. 2.49376567e-03 0. 0. 2.49376567e-03 0. 0. 0.
      4.98753134e-03 0. 4.98753134e-03 0. 2.49376567e-03 0. 0.
      2.49376567e-03 0. 0. 0. 2.49376567e-03 0. 0. 0. 0. 2.49376567e-03
      0. 0. 0. 0. 2.49376567e-03 0. 0. 0. 0. 0. 0. 0. 0. 0. 0.
      2.49376567e-03 0. 0. 0. 0. 0. 0. 0. 0. 0. 0. 0. 2.49376567e-03 0.
      0. 2.49376567e-03 0. 0. 0. 0. 0. 0. 0. 2.49376567e-03
      2.49376567e-03 0. 0. 2.49376567e-03 0. 0. 0. 0. 2.49376567e-03 0.
      0. 0. 0. 0. 0. 2.49376567e-03 0. 0. 4.98753134e-03 2.49376567e-03
      0. 0. 0. 2.49376567e-03 0. 0. 0. 0. 0. 0. 0. 0. 0. 2.49376567e-03
      0. 0. 2.49376567e-03 0. 0. 0. 0. 0. 0. 0. 0. 0. 0. 0. 0. 0. 0. 0.
      0. 4.98753134e-03 4.98753134e-03 7.48129701e-03 0. 0. 0. 0.
      2.49376567e-03 0. 0. 0. 7.48129701e-03 2.49376567e-03 0. 0. 0. 0.
      0. 0. 0. 0. 7.48129701e-03 0. 0. 2.49376567e-03 0. 0.
      4.98753134e-03 4.98753134e-03 0. 0. 0. 0. 0. 0. 0. 0.
      9.97506268e-03 0. 0. 0. 0. 0. 0. 0. 0. 0. 2.49376567e-03 0.
      2.49376567e-03 4.98753134e-03 0. 2.49376567e-03 0. 0. 0. 0. 0. 0.
      2.49376567e-03 0. 0. 0. 2.49376567e-03 2.49376567e-03 0. 0. 0.
      2.49376567e-03 0. 0. 2.49376567e-03 0. 2.49376567e-03
      7.48129701e-03 0. 0. 0. 0. 0. 0. 0. 0. 0. 0. 0. 0. 0. 0.
      2.49376567e-03 0. 0. 4.98753134e-03 0. 0. 0. 0. 0. 0. 0. 0. 0. 0.
      0. 0. 0. 0. 2.49376567e-03 2.49376567e-03 4.98753134e-03 0. 0. 0.
      0. 0. 0. 0. 0. 0. 0. 4.98753134e-03 0. 2.49376567e-03 0. 0. 0. 0.
      0. 0. 0. 0. 0. 0. 0. 0. 0. 2.49376567e-03 0. 0. 0. 0. 0. 0. 0.
      4.98753134e-03 2.49376567e-03 0. 0. 0. 0. 0. 0. 0. 0. 0.
      2.49376567e-03 0. 0. 0. 2.49376567e-03 0. 0. 0. 0. 4.98753134e-03
      2.49376567e-03 0. 4.98753134e-03 2.49376567e-03 0. 0. 0. 0. 0. 0.
      0. 0. 0. 0. 0. 2.49376567e-03 0. 0. 0. 0. 0. 0. 0. 0. 0.
      2.49376567e-03 0. 0. 2.49376567e-03 0. 0. 2.49376567e-03 0. 0. 0.
      0. 0. 0. 0. 0. 0. 2.49376567e-03 0. 0. 0. 0. 0. 0. 0.
      2.49376567e-03 2.49376567e-03 0. 0. 0. 0. 0. 0. 0. 0. 0. 0.
      2.49376567e-03 2.49376567e-03 0. 0. 0. 0. 2.49376567e-03 0. 0. 0.
      0. 0. 0. 0. 0. 0. 0. 0. 2.49376567e-03 0. 0. 0. 0. 7.48129701e-03
      0. 0. 0. 0. 0. 0. 0. 0. 0. 0. 9.97506268e-03 0. 0. 0. 0. 0. 0. 0.
      0. 2.49376567e-03 2.49376567e-03 0. 0. 0. 0. 0. 2.49376567e-03
      7.48129701e-03 0. 0. 2.49376567e-03 0. 7.48129701e-03 0. 0. 0. 0.
      0. 0. 0. 2.49376567e-03 0. 0. 0. 0. 0. 7.48129701e-03 0. 0. 0. 0.
      0. 0. 0. 0. 0. 0. 2.49376567e-03 2.49376567e-03 0. 0.
      4.98753134e-03 0. 0. 2.49376567e-03 0. 0. 0. 0. 4.98753134e-03 0.
      0. 0. 0. 0. 0. 0. 0. 0. 0. 0. 0. 0. 0. 0. 0. 0. 0. 0. 0.
      4.98753134e-03 0. 0. 0. 0. 0. 0. 0. 2.49376567e-03 0. 0. 0. 0. 0.
      0. 0. 0. 0. 2.49376567e-03 0. 0. 2.49376567e-03 0. 0.
      2.49376567e-03 4.98753134e-03 0. 0. 0. 0. 0. 0. 0. 0. 0. 0. 0. 0.
      0. 0. 0. 0. 0. 0. 0. 0. 0. 2.49376567e-03 0. 0. 0. 0. 0. 0. 0. 0.
      0. 0. 0. 0. 0. 0. 0. 0. 0. 0. 0. 0. 0. 0. 2.49376567e-03 0. 0. 0.
      2.49376567e-03 0. 2.49376567e-03 0. 0. 0. 0. 4.98753134e-03 0. 0.
      0. 0. 0. 0. 0. 0. 0. 0. 0. 2.49376567e-03 0. 0. 7.48129701e-03 0.
      0. 0. 0. 0. 0. 0. 0. 0. 0. 0. 2.49376567e-03 0. 0. 0.
      2.49376567e-03 0. 0. 0. 0. 0. 7.48129701e-03 0. 0. 2.49376567e-03
      0. 4.98753134e-03 0. 2.49376567e-03 0. 2.49376567e-03 0. 0. 0. 0.
      0. 4.98753134e-03 0. 0. 2.49376567e-03 0. 0. 0. 0. 0. 0. 0. 0.
      2.49376567e-03 0. 0. 0. 0. 0. 0. 0. 0. 0. 0. 0. 0. 0. 0. 0. 0.
      2.49376567e-03 0. 0. 0. 0. 0. 0. 2.49376567e-03 2.49376567e-03 0.
      0. 0. 0. 0. 0. 0. 0. 0. 0. 0. 0. 0. 2.49376567e-03 2.49376567e-03
      0. 0. 0. 2.49376567e-03 0. 0. 0. 0. 0. 0. 0. 0. 4.98753134e-03 0.
      0. 2.49376567e-03 0. 0. 2.49376567e-03 0. 0. 0. 4.98753134e-03
      2.49376567e-03 0. 0. 0. 0. 0. 0. 0. 0. 0. 0. 0. 0. 0. 0. 0. 0. 0.
      2.49376567e-03 2.49376567e-03 0. 0. 0. 0. 0. 0. 0. 0. 0. 0. 0. 0.
      0. 0. 0. 0. 2.49376567e-03 2.49376567e-03 0. 0. 4.98753134e-03 0.
      0. 0. 0. 0. 0. 2.49376567e-03 0. 0. 0. 0. 0. 0. 0. 0. 0. 0.
      2.49376567e-03 0. 0. 0. 0. 2.49376567e-03 0. 0. 0. 4.98753134e-03
      0. 0. 0. 0. 0. 2.49376567e-03 0. 0. 0. 2.49376567e-03 0. 0. 0. 0.
      0. 0. 0. 0. 0. 0. 0. 2.49376567e-03 2.49376567e-03 2.49376567e-03
      2.49376567e-03 7.48129701e-03 0. 0. 0. 0. 0. 0. 0. 0. 0. 0. 0. 0.
      0. 0. 0. 0. 0. 2.49376567e-03 2.49376567e-03 0. 0. 0. 0. 0.
      2.49376567e-03 0. 0. 0. 0. 0. 0. 0. 0. 0. 0. 0. 0. 0. 0. 0.
      2.49376567e-03 2.49376567e-03 0. 0. 9.97506268e-03 0.
      2.49376567e-03 2.49376567e-03 0. 4.98753134e-03 0. 2.49376567e-03
      0. 2.49376567e-03 0. 0. 0. 0. 2.49376567e-03 2.49376567e-03
      2.49376567e-03 0. 7.48129701e-03 0. 0. 2.49376567e-03 0. 0. 0. 0.
      4.98753134e-03 0. 0. 0. 2.49376567e-03 0. 0. 0. 0. 0. 0.
      2.49376567e-03 0. 0. 0. 0. 0. 2.49376567e-03 7.48129701e-03 0.
      2.49376567e-03 0. 0. 0. 0. 0. 4.98753134e-03 0. 0. 0. 0. 0. 0. 0.
      2.49376567e-03 0. 0. 0. 2.49376567e-03 2.49376567e-03
      2.49376567e-03 0. 4.98753134e-03 0. 0. 2.49376567e-03 0. 0. 0. 0.
      0. 2.49376567e-03 0. 0. 2.49376567e-03 9.97506268e-03 0. 0. 0. 0.
      0. 0. 0. 0. 0. 0. 0. 0. 2.49376567e-03 0. 2.49376567e-03 0. 0. 0.
      0. 0. 0. 0. 0. 0. 0. 0. 2.49376567e-03 0. 0. 2.49376567e-03
      4.98753134e-03 0. 0. 0. 0. 0. 0. 0. 0. 0. 0. 2.49376567e-03 0.
      2.49376567e-03 0. 0. 0. 0. 0. 0. 0. 2.49376567e-03 0. 0. 0.
      2.49376567e-03 0. 0. 0. 0. 0. 0. 0. 0. 0. 2.49376567e-03 0. 0. 0.
      0. 2.49376567e-03 0. 0. 0. 2.49376567e-03 0. 0. 0. 0. 0. 0. 0. 0.
      2.49376567e-03 0. 0. 0. 2.49376567e-03 0. 0. 0. 0. 0. 0. 0. 0. 0.
      0. 0. 0. 0. 0. 0. 0. 0. 4.98753134e-03 2.49376567e-03
      2.49376567e-03 7.48129701e-03 0. 0. 0. 0. 0. 0. 1.24688279e-02 0.
      0. 2.49376567e-03 0. 0. 2.49376567e-03 0. 0. 4.98753134e-03
      2.49376567e-03 0. 0. 0. 0. 2.49376567e-03 4.98753134e-03 0. 0.
      2.49376567e-03 0. 2.49376567e-03 0. 2.49376567e-03 4.98753134e-03
      0. 0. 0. 0. 0. 0. 2.49376567e-03 0. 0. 0. 0. 0. 0. 0. 0. 0. 0. 0.
      0. 0. 0. 0. 0. 2.49376567e-03 0. 7.48129701e-03 0. 0. 0. 0.
      2.49376567e-03 2.49376567e-03 0. 0. 0. 0. 0. 0. 0. 0. 0. 0. 0. 0.
      4.98753134e-03 0. 2.49376567e-03 0. 7.48129701e-03 2.49376567e-03
      0. 0. 0. 0. 0. 0. 2.49376567e-03 0. 0. 0. 0. 0. 0. 0. 0. 0. 0. 0.
      0. 0. 0. 0. 0. 0. 2.49376567e-03 0. 0. 0. 2.49376567e-03
      2.49376567e-03 2.49376567e-03 0. 0. 0. 0. 0. 0. 0. 0. 0. 0. 0. 0.
      0. 0. 0. 2.49376567e-03 0. 0. 0. 2.49376567e-03 0. 0. 0. 0. 0. 0.
      0. 0. 0. 0. 0. 0. 0. 0. 0. 0. 2.49376567e-03 0. 0. 2.49376567e-03
      4.98753134e-03 2.49376567e-03 2.49376567e-03 0. 0. 0. 0. 0. 0. 0.
      2.49376567e-03 0. 0. 0. 0. 0. 2.49376567e-03 0. 0. 0. 0. 0. 0. 0.
      0. 0. 2.49376567e-03 0. 2.49376567e-03 0. 0. 0. 0. 0. 0. 0.
      2.49376567e-03 0. 0. 0. 0. 0. 4.98753134e-03 0. 0. 2.49376567e-03
      2.49376567e-03 0. 0. 0. 7.48129701e-03 9.97506268e-03 0. 0. 0. 0.
      0. 0. 0. 0. 4.98753134e-03 0. 0. 0. 0. 0. 2.49376567e-03 0. 0. 0.
      4.98753134e-03 0. 0. 0. 0. 2.49376567e-03 2.49376567e-03 0. 0. 0.
      0. 0. 0. 0. 0. 0. 0. 0. 2.49376567e-03 0. 4.98753134e-03 0.
      2.49376567e-03 0. 0. 0. 0. 0. 2.49376567e-03 0. 0. 0. 0. 0. 0. 0.
      0. 0. 0. 0. 0. 0. 9.97506268e-03 2.49376567e-03 0. 0. 0. 0. 0. 0.
      0. 0. 2.49376567e-03 2.49376567e-03 0. 0. 4.98753134e-03 0. 0. 0.
      0. 0. 0. 0. 0. 0. 0. 0. 0. 0. 2.49376567e-03 4.98753134e-03 0. 0.
      0. 0. 0. 0. 0. 0. 0. 0. 0. 0. 0. 0. 2.49376567e-03 0. 0.
      2.49376567e-03 0. 4.98753134e-03 2.49376567e-03 0. 0. 0. 0. 0.
      9.97506268e-03 0. 0. 0. 2.49376567e-03 0. 2.49376567e-03 0. 0. 0.
      0. 2.49376567e-03 0. 0. 2.49376567e-03 0. 2.49376567e-03 0. 0. 0.
      0. 2.49376567e-03 0. 0. 0. 0. 2.49376567e-03 0. 4.98753134e-03 0.
      1.49625940e-02 2.49376567e-03 0. 0. 0. 0. 0. 0. 0. 0. 0. 0. 0.
      2.49376567e-03 0. 2.49376567e-03 0. 0. 4.98753134e-03 0. 0. 0. 0.
      4.98753134e-03 0. 0. 0. 0. 0. 0. 0. 7.48129701e-03 0. 0. 0. 0. 0.
      0. 2.49376567e-03 0. 0. 0. 0. 0. 0. 0. 2.49376567e-03 0. 0. 0.
      4.98753134e-03 2.49376567e-03 0. 4.98753134e-03 0. 0. 0. 0. 0. 0.
      0. 0. 0. 0. 0. 0. 0. 0. 7.48129701e-03 0. 0. 0. 0. 0. 0.
      2.49376567e-03 0. 0. 0. 0. 0. 0. 0. 4.98753134e-03 0. 0. 0. 0. 0.
      2.49376567e-03 0. 4.98753134e-03 0. 0. 0. 0. 2.49376567e-03 0. 0.
      0. 0. 0. 0. 0. 0. 0. 0. 0. 2.49376567e-03 0. 0. 0. 0. 0. 0. 0. 0.
      0. 0.</_>
    <_>
      0. 0. 0. 2.87356321e-03 0. 0. 0. 0. 0. 0. 0. 0. 0. 0.
      1.43678160e-03 0. 0. 0. 0. 5.74712642e-03 0. 2.87356321e-03 0. 0.
      0. 1.43678160e-03 0. 0. 0. 1.43678160e-03 0. 0. 0. 0. 0. 0. 0. 0.
      0. 7.18390802e-03 0. 0. 0. 1.43678160e-03 0. 1.43678160e-03 0. 0.
      1.43678160e-03 0. 0. 1.43678160e-03 0. 1.43678160e-03 0. 0. 0. 0.
      2.87356321e-03 1.43678160e-03 0. 0. 0. 2.87356321e-03 0. 0. 0. 0.
      0. 4.31034481e-03 0. 0. 0. 0. 0. 2.87356321e-03 0. 0. 0. 0. 0. 0.
      0. 1.43678160e-03 0. 0. 0. 0. 4.31034481e-03 1.43678160e-03
      2.87356321e-03 1.43678160e-03 0. 0. 0. 0. 0. 0. 0. 1.43678160e-03
      0. 0. 0. 0. 0. 0. 1.43678160e-03 0. 0. 0. 5.74712642e-03 0. 0.
      1.43678160e-03 7.18390802e-03 2.87356321e-03 1.43678160e-03 0. 0.
      0. 0. 0. 0. 0. 1.43678160e-03 0. 0. 0. 0. 0. 1.43678160e-03 0.
      2.87356321e-03 0. 0. 1.43678160e-03 0. 0. 0. 1.43678160e-03 0. 0.
      0. 1.43678160e-03 0. 0. 1.43678160e-03 1.43678160e-03
      2.87356321e-03 0. 0. 0. 0. 4.31034481e-03 1.43678160e-03
      1.43678160e-03 0. 0. 0. 0. 1.43678160e-03 0. 0. 0. 2.87356321e-03
      0. 0. 1.43678160e-03 0. 0. 0. 1.43678160e-03 0. 0. 0. 0. 0. 0. 0.
      0. 4.31034481e-03 0. 0. 1.43678160e-03 8.62068962e-03 0. 0.
      1.43678160e-03 0. 0. 0. 0. 0. 0. 0. 4.31034481e-03 0. 0.
      2.87356321e-03 1.43678160e-03 0. 0. 4.31034481e-03 0. 0. 0.
      1.43678160e-03 1.43678160e-03 0. 1.43678160e-03 0. 0. 0. 0. 0. 0.
      1.43678160e-03 0. 0. 1.43678160e-03 0. 0. 0. 2.87356321e-03
      2.87356321e-03 0. 0. 5.74712642e-03 0. 0. 0. 0. 1.43678160e-03 0.
      0. 0. 0. 2.87356321e-03 5.74712642e-03 0. 1.43678160e-03 0. 0. 0.
      5.74712642e-03 1.43678160e-03 0. 4.31034481e-03 4.31034481e-03 0.
      0. 0. 0. 0. 5.74712642e-03 0. 0. 0. 0. 1.43678160e-03
      1.43678160e-03 0. 0. 0. 0. 0. 0. 0. 0. 1.43678160e-03 0.
      2.87356321e-03 0. 0. 1.43678160e-03 2.87356321e-03 0.
      1.43678160e-03 2.87356321e-03 0. 0. 0. 0. 1.43678160e-03
      4.31034481e-03 0. 0. 0. 0. 0. 0. 0. 0. 0. 0. 1.43678160e-03
      1.43678160e-03 0. 1.43678160e-03 0. 0. 0. 0. 0. 0. 0. 0. 0.
      1.43678160e-03 7.18390802e-03 0. 0. 1.43678160e-03 0. 0. 0.
      1.43678160e-03 1.43678160e-03 0. 4.31034481e-03 0. 1.43678160e-03
      0. 0. 0. 0. 0. 1.43678160e-03 0. 0. 0. 0. 1.43678160e-03 0.
      1.43678160e-03 1.43678160e-03 0. 0. 0. 2.87356321e-03 0. 0.
      1.43678160e-03 1.43678160e-03 2.87356321e-03 0. 0. 0. 0. 0.
      1.43678160e-03 0. 0. 0. 0. 0. 0. 0. 1.43678160e-03 0. 0. 0. 0. 0.
      0. 0. 1.43678160e-03 1.43678160e-03 0. 4.31034481e-03
      1.43678160e-03 0. 0. 0. 0. 0. 0. 0. 1.43678160e-03 0.
      2.87356321e-03 0. 1.43678160e-03 0. 0. 0. 0. 0. 0. 0. 0. 0. 0.
      1.43678160e-03 1.43678160e-03 0. 0. 0. 0. 4.31034481e-03 0. 0. 0.
      2.87356321e-03 4.31034481e-03 0. 0. 0. 0. 1.43678160e-03
      5.74712642e-03 0. 1.43678160e-03 0. 0. 4.31034481e-03 0. 0.
      1.43678160e-03 0. 5.74712642e-03 1.43678160e-03 0. 1.43678160e-03
      0. 1.43678160e-03 1.43678160e-03 0. 0. 0. 0. 0. 0. 0. 0. 0. 0.
      4.31034481e-03 1.43678160e-03 0. 0. 0. 0. 1.43678160e-03 0.
      2.87356321e-03 1.43678160e-03 0. 0. 1.43678160e-03 0. 0. 0. 0. 0.
      1.43678160e-03 0. 0. 0. 4.31034481e-03 2.87356321e-03 0.
      1.43678160e-03 0. 0. 0. 1.43678160e-03 0. 0. 2.87356321e-03 0. 0.
      0. 0. 0. 1.43678160e-03 1.43678160e-03 0. 0. 0. 0. 0. 0. 0.
      1.43678160e-03 0. 0. 0. 0. 0. 0. 0. 0. 4.31034481e-03 0. 0. 0. 0.
      4.31034481e-03 0. 0. 7.18390802e-03 0. 1.43678160e-03
      2.87356321e-03 1.43678160e-03 2.87356321e-03 0. 0. 0. 0. 0. 0.
      2.87356321e-03 1.43678160e-03 0. 0. 0. 0. 0. 0. 1.43678160e-03
      1.43678160e-03 0. 0. 2.87356321e-03 0. 0. 0. 0. 0. 0.
      1.43678160e-03 0. 0. 0. 0. 0. 0. 1.43678160e-03 0. 0. 0. 0.
      1.43678160e-03 0. 0. 0. 0. 0. 0. 0. 0. 0. 0. 4.31034481e-03 0.
      1.43678160e-03 0. 0. 7.18390802e-03 0. 0. 0. 0. 0. 0.
      4.31034481e-03 0. 2.87356321e-03 1.43678160e-03 0. 0. 0. 0. 0. 0.
      0. 0. 1.43678160e-03 0. 0. 1.43678160e-03 1.43678160e-03 0. 0. 0.
      0. 0. 0. 0. 0. 0. 2.87356321e-03 0. 0. 0. 0. 0. 0. 1.14942528e-02
      2.87356321e-03 0. 0. 0. 0. 2.87356321e-03 0. 1.43678160e-03 0.
      1.43678160e-03 0. 1.43678160e-03 0. 0. 1.43678160e-03 0. 0. 0. 0.
      0. 0. 0. 0. 0. 0. 4.31034481e-03 0. 1.43678160e-03 0. 0.
      1.43678160e-03 0. 0. 0. 0. 1.43678160e-03 0. 0. 0. 1.43678160e-03
      0. 0. 0. 5.74712642e-03 1.43678160e-03 1.43678160e-03
      1.43678160e-03 0. 1.43678160e-03 0. 0. 0. 1.43678160e-03 0.
      1.43678160e-03 0. 0. 0. 0. 0. 0. 2.87356321e-03 2.87356321e-03 0.
      0. 0. 0. 0. 0. 0. 1.43678160e-03 0. 2.87356321e-03 0.
      4.31034481e-03 0. 1.43678160e-03 5.74712642e-03 0. 0. 0.
      2.87356321e-03 0. 1.43678160e-03 0. 0. 0. 0. 1.43678160e-03 0. 0.
      0. 0. 0. 0. 0. 1.43678160e-03 0. 1.43678160e-03 0. 1.43678160e-03
      0. 0. 1.43678160e-03 0. 0. 0. 0. 0. 2.87356321e-03 0. 0. 0. 0. 0.
      0. 0. 0. 0. 1.43678160e-03 0. 0. 1.43678160e-03 0. 0. 0.
      1.43678160e-03 0. 1.43678160e-03 2.87356321e-03 0. 0.
      1.43678160e-03 0. 0. 4.31034481e-03 0. 0. 0. 0. 0. 0. 0. 0. 0.
      1.43678160e-03 4.31034481e-03 0. 4.31034481e-03 0. 0. 0. 0.
      1.43678160e-03 0. 0. 0. 0. 0. 0. 0. 0. 0. 0. 1.43678160e-03 0. 0.
      0. 0. 4.31034481e-03 0. 5.74712642e-03 0. 0. 0. 0. 2.87356321e-03
      0. 0. 0. 0. 0. 0. 1.43678160e-03 0. 5.74712642e-03 0. 0. 0. 0.
      4.31034481e-03 0. 0. 0. 0. 0. 1.43678160e-03 2.87356321e-03
      4.31034481e-03 0. 0. 0. 0. 0. 0. 1.43678160e-03 0. 1.43678160e-03
      0. 0. 0. 0. 0. 0. 4.31034481e-03 0. 0. 0. 0. 0. 0. 0. 0. 0.
      1.43678160e-03 0. 0. 1.43678160e-03 0. 0. 0. 0. 0. 0. 0. 0. 0.
      1.43678160e-03 0. 0. 0. 1.43678160e-03 0. 0. 0. 0. 0. 0.
      4.31034481e-03 0. 0. 1.43678160e-03 0. 0. 0. 5.74712642e-03 0. 0.
      0. 0. 2.87356321e-03 0. 0. 0. 0. 0. 0. 4.31034481e-03
      1.43678160e-03 0. 0. 0. 0. 0. 0. 0. 0. 0. 1.43678160e-03
      5.74712642e-03 1.43678160e-03 0. 0. 2.87356321e-03 0. 0. 0. 0. 0.
      0. 0. 0. 1.43678160e-03 0. 0. 0. 1.43678160e-03 0. 0. 0.
      1.43678160e-03 1.43678160e-03 0. 0. 1.43678160e-03 0. 0. 0. 0. 0.
      0. 0. 0. 1.43678160e-03 0. 0. 0. 0. 0. 0. 0. 0. 0. 0.
      1.43678160e-03 0. 1.43678160e-03 1.43678160e-03 0. 1.43678160e-03
      0. 1.43678160e-03 0. 0. 0. 1.43678160e-03 0. 0. 0. 0. 0.
      2.87356321e-03 0. 0. 0. 2.87356321e-03 1.43678160e-03 0.
      2.87356321e-03 1.43678160e-03 0. 0. 1.43678160e-03 0.
      2.87356321e-03 0. 0. 0. 1.14942528e-02 0. 0. 0. 2.87356321e-03 0.
      4.31034481e-03 0. 1.43678160e-03 0. 0. 0. 1.43678160e-03 0.
      1.43678160e-03 4.31034481e-03 1.43678160e-03 0. 1.43678160e-03 0.
      0. 0. 0. 0. 0. 0. 0. 5.74712642e-03 1.43678160e-03 0. 0. 0. 0. 0.
      0. 1.43678160e-03 0. 0. 0. 0. 0. 0. 2.87356321e-03 0. 0. 0. 0. 0.
      0. 0. 0. 1.43678160e-03 1.43678160e-03 0. 0. 1.43678160e-03
      1.43678160e-03 1.43678160e-03 0. 0. 0. 0. 0. 0. 0. 0. 0.
      2.87356321e-03 0. 0. 0. 1.43678160e-03 0. 1.43678160e-03 0.
      1.43678160e-03 0. 0. 1.43678160e-03 0. 0. 0. 0. 2.87356321e-03
      5.74712642e-03 0. 0. 0. 0. 0. 0. 0. 5.74712642e-03 0. 0. 0.
      2.87356321e-03 0. 1.43678160e-03 0. 4.31034481e-03 1.43678160e-03
      0. 0. 1.43678160e-03 0. 0. 0. 8.62068962e-03 0. 0. 0. 0.
      1.43678160e-03 0. 0. 1.43678160e-03 0. 0. 0. 0. 0. 0. 0. 0. 0. 0.
      0. 0. 4.31034481e-03 1.43678160e-03 0. 1.43678160e-03 0. 0. 0. 0.
      0. 0. 0. 2.87356321e-03 0. 5.74712642e-03 0. 0. 0. 0. 0. 0. 0.
      1.43678160e-03 0. 5.74712642e-03 2.87356321e-03 0. 0.
      5.74712642e-03 1.43678160e-03 0. 0. 1.43678160e-03 0. 0.
      1.43678160e-03 0. 1.43678160e-03 0. 1.43678160e-03 0. 0. 0. 0.
      1.43678160e-03 1.43678160e-03 0. 0. 0. 0. 0. 1.43678160e-03
      1.43678160e-03 0. 1.43678160e-03 0. 0. 4.31034481e-03 0. 0. 0. 0.
      0. 1.43678160e-03 1.43678160e-03 0. 1.43678160e-03 0. 0. 0. 0. 0.
      0. 0. 4.31034481e-03 0. 0. 0. 0. 0. 0. 8.62068962e-03 0.
      1.00574717e-02 0. 1.43678160e-03 1.43678160e-03 0. 0.
      1.43678160e-03 1.43678160e-03 0. 0. 0. 0. 0. 0. 0. 0. 0. 0. 0. 0.
      0. 0. 0. 0. 0. 0. 0. 2.87356321e-03 0. 0. 0. 0. 1.43678160e-03 0.
      0. 0. 1.43678160e-03 0. 1.14942528e-02 0. 0. 0. 4.31034481e-03 0.
      0. 4.31034481e-03 1.43678160e-03 1.43678160e-03 0. 2.87356321e-03
      0. 0. 1.43678160e-03 0. 0. 0. 0. 0. 0. 0. 0. 0. 0. 1.43678160e-03
      0. 0. 0. 0. 0. 1.43678160e-03 0. 0. 0. 0. 0. 0. 0. 2.87356321e-03
      2.87356321e-03 0. 0. 1.43678160e-03 0. 0. 1.43678160e-03 0. 0. 0.
      0. 2.87356321e-03 2.87356321e-03 0. 0. 0. 0. 0. 0. 1.43678160e-03
      0. 0. 0. 0. 0. 0. 0. 1.43678160e-03 0. 1.43678160e-03 0.
      8.62068962e-03 1.43678160e-03 1.43678160e-03 0. 0. 0. 0. 0.
      1.43678160e-03 1.43678160e-03 1.43678160e-03 0. 0. 2.87356321e-03
      0. 0. 1.43678160e-03 0. 0. 0. 0. 1.43678160e-03 0. 1.43678160e-03
      0. 1.43678160e-03 0. 0. 0. 0. 0. 1.43678160e-03 0. 1.43678160e-03
      0. 2.87356321e-03 0. 0. 0. 0. 0. 2.87356321e-03 0. 0.
      4.31034481e-03 0. 2.87356321e-03 0. 0. 0. 0. 0. 0. 2.87356321e-03
      1.43678160e-03 1.43678160e-03 0. 0. 0. 0. 0. 0. 0. 0. 0. 0. 0. 0.
      0. 1.43678160e-03 0. 0. 0. 2.87356321e-03 0. 0. 0. 0. 0. 0. 0.
      1.43678160e-03 0. 2.87356321e-03 0. 0. 5.74712642e-03 0. 0. 0.
      1.43678160e-03 0. 2.87356321e-03 0. 4.31034481e-03 0. 0.
      2.87356321e-03 1.43678160e-03 0. 0. 1.43678160e-03 1.43678160e-03
      0. 1.43678160e-03 1.43678160e-03 0. 0. 0. 0. 0. 5.74712642e-03 0.
      0. 0. 0. 0. 0. 0. 0. 1.43678160e-03 1.43678160e-03 0. 0. 0. 0. 0.
      0. 4.31034481e-03 0. 0. 0. 0. 2.87356321e-03 0. 0. 0. 0. 0. 0. 0.
      0. 0. 1.43678160e-03 2.87356321e-03 0. 1.43678160e-03
      1.43678160e-03 1.43678160e-03 1.43678160e-03 1.43678160e-03
      2.87356321e-03 2.87356321e-03 0. 0. 0. 2.87356321e-03 0. 0.
      1.43678160e-03 0. 0. 0. 0. 1.43678160e-03 0. 1.43678160e-03
      2.87356321e-03 1.43678160e-03 0. 0. 0. 0. 0. 0. 0. 0. 0. 0. 0. 0.
      0. 0. 2.87356321e-03 0. 0. 0. 0. 4.31034481e-03 0. 1.43678160e-03
      0. 1.43678160e-03 0. 0. 0. 0. 1.43678160e-03 1.43678160e-03
      1.43678160e-03 0. 0. 0. 0. 2.87356321e-03 0. 0. 0. 0. 0. 0. 0. 0.
      0. 0. 0. 0. 0. 0. 1.43678160e-03 0.</_>
    <_>
      6.04838692e-03 0. 0. 0. 0. 2.01612897e-03 0. 2.01612897e-03 0. 0.
      0. 0. 2.01612897e-03 0. 0. 0. 0. 0. 0. 0. 0. 0. 0. 0. 0. 0.
      2.01612897e-03 0. 0. 2.01612897e-03 0. 2.01612897e-03 0.
      2.01612897e-03 2.01612897e-03 0. 2.01612897e-03 0. 0.
      2.01612897e-03 4.03225794e-03 0. 0. 0. 0. 6.04838692e-03 0. 0. 0.
      0. 2.01612897e-03 0. 0. 0. 0. 0. 2.01612897e-03 0. 0.
      4.03225794e-03 0. 2.01612897e-03 2.01612897e-03 0. 0. 0. 0. 0.
      4.03225794e-03 0. 0. 0. 0. 0. 2.01612897e-03 6.04838692e-03 0. 0.
      2.01612897e-03 0. 8.06451589e-03 0. 4.03225794e-03 6.04838692e-03
      0. 4.03225794e-03 0. 0. 0. 0. 0. 8.06451589e-03 0. 2.01612897e-03
      0. 0. 0. 0. 0. 0. 2.01612897e-03 0. 2.01612897e-03 0. 0. 0. 0. 0.
      2.01612897e-03 2.01612897e-03 0. 2.01612897e-03 0. 0. 0. 0. 0.
      1.81451607e-02 0. 4.03225794e-03 0. 2.01612897e-03 0. 0. 0. 0.
      2.01612897e-03 0. 2.01612897e-03 0. 0. 2.01612897e-03 0. 0. 0. 0.
      0. 0. 0. 0. 0. 6.04838692e-03 0. 0. 0. 0. 1.00806449e-02 0. 0. 0.
      0. 4.03225794e-03 0. 0. 0. 0. 0. 0. 0. 0. 2.01612897e-03 0. 0. 0.
      0. 0. 2.01612897e-03 2.01612897e-03 0. 0. 0. 0. 4.03225794e-03 0.
      0. 0. 0. 2.01612897e-03 4.03225794e-03 0. 0. 0. 0. 2.01612897e-03
      0. 0. 4.03225794e-03 0. 0. 0. 0. 0. 8.06451589e-03 2.01612897e-03
      0. 0. 2.01612897e-03 6.04838692e-03 2.01612897e-03 2.01612897e-03
      0. 0. 0. 2.01612897e-03 0. 0. 0. 0. 2.01612897e-03 0. 0.
      1.20967738e-02 2.01612897e-03 0. 0. 0. 0. 2.01612897e-03 0. 0. 0.
      0. 0. 2.01612897e-03 0. 2.01612897e-03 2.01612897e-03 0. 0. 0. 0.
      4.03225794e-03 2.01612897e-03 0. 0. 0. 0. 0. 0. 0. 0. 0. 0.
      2.01612897e-03 4.03225794e-03 0. 0. 0. 0. 0. 0. 0. 0.
      2.01612897e-03 0. 0. 0. 0. 0. 0. 0. 0. 0. 0. 0. 2.01612897e-03 0.
      0. 0. 0. 2.01612897e-03 2.01612897e-03 0. 0. 0. 0. 2.01612897e-03
      0. 0. 6.04838692e-03 2.01612897e-03 0. 0. 0. 0. 0. 2.01612897e-03
      0. 0. 0. 0. 0. 0. 0. 0. 0. 0. 0. 0. 0. 0. 0. 0. 0. 0.
      2.01612897e-03 0. 0. 0. 0. 4.03225794e-03 0. 0. 0. 0. 0. 0. 0. 0.
      0. 0. 0. 0. 2.41935477e-02 0. 0. 0. 0. 0. 0. 0. 0. 0. 0. 0. 0. 0.
      0. 0. 0. 0. 0. 0. 0. 0. 0. 2.01612897e-03 0. 0. 0. 2.01612897e-03
      0. 0. 0. 0. 0. 0. 0. 0. 2.01612897e-03 0. 0. 0. 0. 0. 0. 0. 0. 0.
      0. 0. 0. 0. 2.01612897e-03 0. 2.01612897e-03 0. 0. 0. 0. 0. 0.
      4.03225794e-03 0. 0. 0. 0. 0. 0. 0. 2.01612897e-03 0.
      2.01612897e-03 0. 0. 0. 0. 2.01612897e-03 0. 0. 0. 0.
      8.06451589e-03 2.01612897e-03 0. 0. 0. 0. 0. 2.01612897e-03 0. 0.
      0. 0. 0. 0. 0. 2.01612897e-03 0. 0. 2.01612897e-03 0. 0. 0. 0.
      2.01612897e-03 0. 2.01612897e-03 0. 0. 0. 2.01612897e-03 0. 0.
      2.01612897e-03 0. 2.01612897e-03 0. 0. 0. 0. 0. 0. 0. 0. 0. 0. 0.
      2.01612897e-03 0. 0. 0. 0. 0. 0. 0. 0. 0. 0. 0. 4.03225794e-03 0.
      0. 2.01612897e-03 0. 1.00806449e-02 0. 0. 2.01612897e-03
      2.01612897e-03 0. 2.01612897e-03 0. 2.01612897e-03 0. 0. 0.
      2.01612897e-03 0. 0. 0. 2.01612897e-03 0. 2.01612897e-03 0. 0. 0.
      0. 2.01612897e-03 0. 0. 0. 0. 2.01612897e-03 0. 0. 0. 0.
      4.03225794e-03 0. 0. 0. 2.01612897e-03 6.04838692e-03
      4.03225794e-03 2.01612897e-03 0. 0. 0. 0. 2.01612897e-03 0.
      4.03225794e-03 0. 0. 6.04838692e-03 0. 0. 2.01612897e-03
      2.01612897e-03 0. 0. 0. 0. 0. 0. 0. 0. 0. 0. 0. 0. 0. 0. 0. 0. 0.
      0. 0. 0. 2.01612897e-03 0. 0. 0. 0. 2.01612897e-03 0. 0.
      2.01612897e-03 0. 4.03225794e-03 0. 0. 0. 0. 0. 0. 0.
      2.01612897e-03 0. 0. 0. 0. 0. 0. 0. 0. 0. 0. 0. 0. 0. 0. 0. 0. 0.
      0. 2.01612897e-03 0. 0. 0. 0. 4.03225794e-03 4.03225794e-03 0.
      4.03225794e-03 0. 0. 0. 0. 0. 0. 0. 0. 0. 0. 0. 0. 0. 0. 0. 0. 0.
      4.03225794e-03 2.01612897e-03 0. 0. 1.00806449e-02 0. 0. 0. 0. 0.
      0. 0. 0. 2.01612897e-03 0. 0. 0. 0. 8.06451589e-03 0. 0. 0. 0. 0.
      0. 0. 0. 0. 0. 0. 8.06451589e-03 2.01612897e-03 4.03225794e-03
      4.03225794e-03 0. 0. 2.01612897e-03 4.03225794e-03 0. 0.
      8.06451589e-03 2.01612897e-03 0. 0. 0. 2.01612897e-03 0.
      4.03225794e-03 0. 0. 0. 1.00806449e-02 0. 0. 2.01612897e-03 0. 0.
      0. 0. 0. 0. 2.01612897e-03 8.06451589e-03 0. 0. 0. 0. 0. 0. 0. 0.
      0. 0. 0. 0. 0. 0. 0. 0. 0. 0. 0. 0. 0. 0. 0. 0. 0. 0.
      1.00806449e-02 2.01612897e-03 0. 2.01612897e-03 0. 0. 0. 0. 0. 0.
      0. 2.01612897e-03 0. 0. 0. 0. 0. 0. 2.01612897e-03 0.
      2.01612897e-03 0. 0. 0. 0. 0. 0. 0. 0. 0. 0. 0. 0. 2.01612897e-03
      6.04838692e-03 4.03225794e-03 0. 0. 0. 2.01612897e-03 0.
      2.01612897e-03 0. 0. 0. 2.01612897e-03 0. 0. 0. 2.01612897e-03 0.
      0. 0. 0. 6.04838692e-03 0. 0. 2.01612897e-03 0. 0. 0. 0. 0. 0. 0.
      0. 0. 0. 0. 0. 2.01612897e-03 2.01612897e-03 0. 0. 6.04838692e-03
      0. 0. 0. 0. 0. 0. 0. 0. 0. 0. 0. 2.01612897e-03 0. 0. 0. 0. 0.
      4.03225794e-03 0. 0. 0. 0. 0. 0. 0. 0. 0. 0. 0. 0. 2.01612897e-03
      0. 0. 0. 0. 0. 0. 2.01612897e-03 2.01612897e-03 0. 0. 0. 0.
      6.04838692e-03 0. 0. 0. 0. 0. 0. 0. 0. 0. 0. 0. 0. 2.01612897e-03
      0. 0. 0. 2.01612897e-03 0. 0. 0. 0. 0. 2.01612897e-03 0. 0. 0. 0.
      0. 8.06451589e-03 0. 0. 0. 0. 0. 0. 0. 0. 0. 0. 2.01612897e-03 0.
      0. 0. 0. 0. 0. 0. 0. 4.03225794e-03 0. 0. 0. 0. 0. 4.43548374e-02
      0. 0. 2.01612897e-03 0. 0. 8.06451589e-03 0. 0. 0. 2.01612897e-03
      0. 0. 0. 8.06451589e-03 2.01612897e-03 0. 0. 0. 0. 0. 0. 0. 0. 0.
      0. 0. 0. 0. 0. 0. 0. 0. 0. 0. 0. 0. 0. 0. 0. 0. 0. 0. 0. 0. 0. 0.
      0. 0. 0. 0. 0. 0. 0. 0. 0. 0. 0. 0. 0. 0. 0. 0. 0. 0. 0. 0. 0.
      2.01612897e-03 2.01612897e-03 2.01612897e-03 0. 2.01612897e-03 0.
      0. 0. 2.01612897e-03 0. 0. 0. 0. 0. 2.01612897e-03 0.
      2.01612897e-03 0. 2.01612897e-03 0. 0. 0. 0. 0. 0. 2.01612897e-03
      2.01612897e-03 0. 0. 2.01612897e-03 0. 0. 0. 0. 0. 2.01612897e-03
      0. 0. 0. 0. 0. 0. 0. 0. 0. 4.03225794e-03 2.01612897e-03 0.
      4.03225794e-03 0. 2.01612897e-03 0. 0. 0. 0. 0. 0. 0. 0. 0. 0. 0.
      0. 0. 0. 0. 0. 0. 2.01612897e-03 0. 0. 0. 0. 2.01612897e-03 0.
