<?xml version="1.0"?>
<opencv_storage>
<my_svm type_id="opencv-ml-svm">
  <svm_type>C_SVC</svm_type>
  <kernel><type>RBF</type>
    <gamma>1.</gamma></kernel>
  <C>1.</C>
  <term_criteria><epsilon>1.1920928955078125e-07</epsilon>
    <iterations>1000</iterations></term_criteria>
  <var_all>1500</var_all>
  <var_count>1500</var_count>
  <class_count>2</class_count>
  <class_labels type_id="opencv-matrix">
    <rows>1</rows>
    <cols>2</cols>
    <dt>i</dt>
    <data>
      0 1</data></class_labels>
  <sv_total>264</sv_total>
  <support_vectors>
    <_>
      0. 0. 5.61797759e-03 0. 5.61797759e-03 0. 0. 0. 5.61797759e-03 0.
      0. 0. 0. 0. 0. 0. 0. 0. 0. 0. 0. 0. 0. 0. 0. 0. 0. 5.61797759e-03
      0. 0. 0. 0. 0. 0. 0. 0. 0. 0. 0. 0. 0. 0. 0. 0. 0. 0. 0.
      5.61797759e-03 0. 0. 0. 0. 0. 0. 0. 0. 0. 0. 0. 0. 0. 0. 0. 0. 0.
      0. 0. 0. 5.61797759e-03 0. 0. 0. 0. 0. 0. 0. 0. 0. 0. 0. 0. 0. 0.
      0. 0. 0. 1.12359552e-02 0. 5.61797759e-03 0. 0. 0. 0. 0.
      5.61797759e-03 0. 0. 5.61797759e-03 0. 0. 0. 0. 0. 0. 0.
      5.61797759e-03 0. 0. 0. 5.61797759e-03 0. 0. 0. 0. 0. 0. 0. 0. 0.
      0. 0. 0. 0. 0. 0. 5.61797759e-03 0. 0. 0. 0. 0. 0. 0. 0. 0. 0. 0.
      0. 0. 0. 0. 0. 0. 0. 0. 0. 1.12359552e-02 0. 0. 5.61797759e-03 0.
      0. 0. 0. 0. 0. 0. 0. 0. 0. 0. 0. 0. 0. 0. 1.12359552e-02 0. 0. 0.
      0. 0. 0. 0. 0. 0. 0. 0. 0. 0. 0. 5.61797759e-03 0. 0. 0. 0. 0. 0.
      0. 0. 0. 0. 0. 0. 0. 0. 0. 0. 0. 0. 0. 0. 0. 0. 0. 0. 0. 0. 0. 0.
      0. 0. 0. 0. 0. 0. 0. 0. 0. 0. 0. 0. 0. 0. 0. 0. 0. 0. 0. 0. 0. 0.
      0. 0. 0. 0. 0. 0. 0. 0. 0. 0. 0. 0. 0. 0. 0. 0. 0. 5.61797759e-03
      0. 0. 0. 0. 0. 0. 0. 0. 0. 0. 0. 5.61797759e-03 0. 0. 0. 0. 0. 0.
      0. 0. 0. 5.61797759e-03 0. 0. 0. 0. 0. 0. 0. 5.61797759e-03 0. 0.
      0. 0. 0. 0. 0. 0. 0. 0. 5.61797759e-03 0. 0. 0. 0. 0. 0. 0. 0. 0.
      0. 0. 0. 0. 0. 0. 0. 0. 0. 0. 0. 0. 0. 0. 0. 0. 0. 5.61797759e-03
      5.61797759e-03 0. 1.68539323e-02 0. 0. 0. 0. 0. 0. 0. 0. 0. 0. 0.
      0. 0. 0. 0. 0. 0. 0. 5.61797759e-03 0. 0. 0. 0. 0. 0.
      5.61797759e-03 0. 0. 0. 0. 0. 0. 0. 0. 0. 0. 0. 0. 0. 0. 0. 0. 0.
      0. 0. 0. 0. 0. 0. 0. 0. 0. 0. 0. 0. 0. 0. 0. 0. 0. 0. 0. 0. 0.
      5.61797759e-03 0. 0. 0. 0. 0. 0. 0. 0. 0. 0. 0. 0. 0. 0. 0. 0. 0.
      0. 0. 0. 0. 0. 0. 0. 5.61797759e-03 0. 0. 0. 0. 5.61797759e-03 0.
      0. 0. 0. 0. 0. 0. 0. 0. 0. 0. 0. 0. 5.61797759e-03 0. 0. 0. 0. 0.
      0. 0. 0. 0. 5.61797759e-03 0. 0. 0. 5.61797759e-03 0. 0. 0. 0. 0.
      0. 0. 0. 0. 0. 0. 0. 0. 5.61797759e-03 0. 0. 0. 0. 0. 0. 0. 0. 0.
      0. 0. 0. 0. 0. 5.61797759e-03 0. 0. 0. 0. 0. 0. 0. 0.
      5.61797759e-03 0. 0. 0. 0. 0. 0. 0. 0. 0. 0. 0. 5.61797759e-03 0.
      0. 5.61797759e-03 0. 0. 0. 0. 0. 0. 5.61797759e-03 0. 0. 0. 0. 0.
      0. 0. 0. 0. 0. 0. 0. 0. 0. 0. 0. 0. 0. 0. 0. 0. 0. 0.
      5.61797759e-03 0. 5.61797759e-03 0. 0. 5.61797759e-03 0. 0. 0.
      5.61797759e-03 5.61797759e-03 0. 0. 0. 0. 0. 0. 0. 0.
      5.61797759e-03 0. 0. 0. 0. 0. 0. 0. 0. 0. 0. 0. 0. 0. 0. 0. 0. 0.
      0. 0. 0. 0. 0. 0. 0. 0. 0. 0. 0. 0. 0. 0. 0. 0. 0. 0. 0. 0. 0. 0.
      1.12359552e-02 0. 5.61797759e-03 0. 0. 0. 0. 0. 0. 0. 0. 0. 0. 0.
      0. 0. 0. 0. 0. 0. 0. 0. 5.61797759e-03 0. 0. 0. 0. 0. 0. 0. 0. 0.
      0. 0. 0. 0. 0. 0. 0. 5.61797759e-03 0. 0. 0. 0. 0. 0. 0. 0. 0. 0.
      5.61797759e-03 0. 5.61797759e-03 5.61797759e-03 0. 5.61797759e-03
      0. 0. 0. 0. 5.61797759e-03 0. 0. 0. 0. 0. 0. 0. 0. 0. 0.
      5.61797759e-03 0. 0. 0. 0. 0. 0. 0. 0. 1.68539323e-02 0. 0. 0. 0.
      0. 0. 1.12359552e-02 0. 0. 0. 0. 0. 0. 0. 0. 0. 0. 5.61797759e-03
      5.61797759e-03 0. 0. 0. 0. 0. 0. 0. 0. 0. 0. 0. 0. 0. 0. 0. 0. 0.
      0. 0. 0. 0. 0. 0. 0. 0. 0. 0. 5.61797759e-03 0. 0. 0. 0. 0. 0. 0.
      0. 0. 0. 0. 0. 0. 0. 0. 0. 0. 2.24719103e-02 0. 0. 0. 0. 0. 0.
      5.61797759e-03 0. 5.61797759e-03 0. 0. 0. 0. 0. 0. 5.61797759e-03
      0. 0. 0. 0. 0. 0. 0. 0. 0. 0. 0. 0. 0. 0. 0. 0. 0. 0.
      5.61797759e-03 0. 0. 0. 0. 0. 5.61797759e-03 0. 0. 0. 0. 0.
      5.61797759e-03 0. 1.68539323e-02 0. 0. 1.12359552e-02 0. 0. 0.
      5.61797759e-03 0. 0. 0. 0. 0. 0. 5.61797759e-03 0. 0. 0. 0. 0. 0.
      0. 0. 0. 1.12359552e-02 0. 0. 0. 0. 0. 0. 0. 0. 5.61797759e-03 0.
      0. 0. 0. 0. 0. 1.68539323e-02 0. 0. 0. 0. 0. 0. 0. 0. 0. 0. 0. 0.
      0. 0. 0. 5.61797759e-03 0. 0. 0. 0. 0. 0. 0. 0. 0. 0. 0. 0. 0. 0.
      0. 0. 0. 0. 0. 0. 0. 0. 0. 0. 0. 0. 0. 0. 0. 0. 0. 0.
      5.61797759e-03 0. 0. 0. 0. 1.12359552e-02 0. 0. 0. 0. 0. 0. 0. 0.
      0. 0. 0. 0. 0. 0. 0. 1.12359552e-02 0. 0. 0. 0. 1.12359552e-02 0.
      0. 5.61797759e-03 0. 0. 0. 0. 5.61797759e-03 0. 0. 0. 0. 0. 0. 0.
      5.61797759e-03 0. 5.61797759e-03 0. 0. 0. 0. 0. 0. 0.
      5.61797759e-03 0. 0. 0. 0. 0. 0. 0. 0. 0. 0. 0. 0. 0. 0. 0. 0. 0.
      0. 0. 0. 1.12359552e-02 0. 0. 5.61797759e-03 0. 0. 0. 0. 0. 0. 0.
      0. 0. 0. 0. 0. 0. 0. 0. 0. 5.61797759e-03 5.61797759e-03
      5.61797759e-03 0. 0. 0. 0. 0. 0. 5.61797759e-03 0. 0. 0. 0. 0. 0.
      0. 0. 0. 0. 0. 0. 0. 0. 0. 0. 0. 5.61797759e-03 0. 0. 0. 0. 0.
      5.61797759e-03 0. 0. 0. 5.61797759e-03 0. 0. 0. 0. 0. 0. 0. 0. 0.
      0. 0. 0. 0. 0. 0. 0. 0. 0. 0. 0. 0. 0. 0. 0. 0. 0. 0.
      5.61797759e-03 0. 0. 0. 0. 0. 0. 0. 0. 0. 0. 0. 5.61797759e-03 0.
      0. 0. 5.61797759e-03 0. 0. 0. 0. 0. 0. 0. 0. 0. 0. 0. 0. 0. 0. 0.
      0. 0. 0. 0. 1.68539323e-02 0. 0. 0. 0. 0. 0. 0. 0. 0. 0.
      1.12359552e-02 0. 0. 0. 0. 0. 0. 0. 0. 3.37078646e-02 0.
      1.12359552e-02 0. 0. 0. 5.61797759e-03 0. 0. 0. 0. 0. 0. 0. 0. 0.
      0. 0. 0. 0. 0. 0. 0. 0. 0. 0. 0. 0. 5.61797759e-03 0. 0. 0. 0. 0.
      5.61797759e-03 0. 0. 0. 0. 5.61797759e-03 0. 0. 0. 0. 0. 0. 0. 0.
      0. 0. 0. 0. 0. 0. 0. 0. 0. 0. 0. 0. 5.61797759e-03 0. 0. 0. 0. 0.
      0. 0. 0. 0. 0. 0. 0. 0. 5.61797759e-03 0. 0. 0. 0. 0. 0. 0. 0. 0.
      0. 0. 0. 0. 0. 0. 0. 0. 0. 0. 0. 0. 0. 0. 0. 0. 0. 0. 0. 0. 0.
      1.68539323e-02 0. 0. 0. 5.61797759e-03 0. 0. 0. 0. 0.
      5.61797759e-03 0. 0. 0. 0. 5.61797759e-03 0. 5.61797759e-03 0. 0.
      0. 0. 0. 0. 0. 5.61797759e-03 0. 0. 0. 0. 0. 0. 0. 0. 0. 0. 0. 0.
      0. 0. 0. 0. 0. 0. 0. 0. 0. 5.61797759e-03 0. 0. 0. 0. 0. 0. 0. 0.
      0. 0. 0. 5.61797759e-03 5.61797759e-03 0. 0. 0. 0. 0. 0. 0. 0. 0.
      0. 0. 0. 0. 0. 0. 0. 0. 0. 5.61797759e-03 0. 0. 0. 0. 0. 0. 0.
      1.12359552e-02 0. 0. 0. 0. 0. 0. 0. 1.12359552e-02 0. 0. 0. 0. 0.
      0. 0. 0. 0. 1.68539323e-02 0. 0. 0. 0. 5.61797759e-03 0. 0. 0. 0.
      5.61797759e-03 0. 0. 0. 0. 0. 0. 0. 0. 0. 0. 0. 0. 0.
      5.61797759e-03 0. 0. 0. 0. 0. 0. 5.61797759e-03 0. 0. 0. 0. 0. 0.
      0. 0. 0. 0. 0. 0. 5.61797759e-03 0. 0. 0. 0. 0. 5.61797759e-03 0.
      0. 0. 0. 0. 0. 0. 0. 0. 0. 0. 0. 0. 5.61797759e-03 0. 0. 0. 0.
      5.61797759e-03 0. 0. 0. 0. 0. 0. 0. 0. 0. 0. 0. 0. 0. 0.
      5.61797759e-03 0. 0. 0. 0. 0. 0. 0. 0. 0. 0. 0. 0. 0.
      5.61797759e-03 0. 0. 0. 0. 0. 0. 0. 5.61797759e-03 0. 0. 0. 0. 0.
      0. 0. 0. 0. 0. 0. 0. 0. 0. 0. 0. 0. 0. 0. 0. 0. 0. 0. 0. 0. 0. 0.
      0. 0. 0. 0. 0. 0. 0. 0. 0. 0. 0. 5.61797759e-03 0. 5.61797759e-03
      0. 0. 0. 0. 0. 0. 0. 0. 5.61797759e-03 0. 5.61797759e-03 0. 0. 0.
      0. 0. 0. 0. 0. 0. 5.61797759e-03 0. 0. 0. 0. 0. 5.61797759e-03
      5.61797759e-03 0. 0. 5.61797759e-03 0. 5.61797759e-03 0. 0. 0. 0.
      0. 0. 5.61797759e-03 0. 5.61797759e-03 0. 0. 0. 0. 0. 0. 0. 0. 0.
      0. 0. 0. 0. 0. 0. 0. 0. 0.</_>
    <_>
      0. 0. 1.51515156e-02 0. 0. 0. 0. 0. 7.57575780e-03 0. 0. 0. 0. 0.
      0. 0. 0. 7.57575780e-03 0. 7.57575780e-03 0. 0. 0. 0. 0. 0.
      7.57575780e-03 0. 0. 0. 0. 0. 0. 0. 0. 0. 0. 0. 0. 7.57575780e-03
      7.57575780e-03 0. 0. 0. 0. 0. 0. 0. 0. 0. 0. 0. 0. 0. 0. 0. 0. 0.
      0. 0. 7.57575780e-03 0. 0. 0. 0. 0. 7.57575780e-03 0. 0. 0. 0. 0.
      0. 0. 0. 0. 0. 0. 0. 0. 0. 0. 1.51515156e-02 0. 0. 0. 0.
      1.51515156e-02 0. 0. 0. 7.57575780e-03 0. 0. 0. 0. 7.57575780e-03
      0. 0. 0. 0. 0. 0. 0. 0. 0. 0. 0. 0. 0. 0. 0. 0. 0. 0. 0. 0. 0. 0.
      0. 0. 7.57575780e-03 0. 0. 0. 0. 0. 0. 0. 0. 0. 0. 0. 0. 0. 0. 0.
      0. 0. 0. 0. 0. 0. 7.57575780e-03 0. 0. 0. 7.57575780e-03 0. 0. 0.
      0. 0. 7.57575780e-03 0. 0. 0. 0. 7.57575780e-03 0. 0. 0. 0. 0. 0.
      0. 0. 0. 0. 0. 0. 0. 0. 0. 0. 0. 0. 0. 0. 0. 0. 1.51515156e-02 0.
      0. 0. 0. 0. 0. 0. 0. 0. 0. 0. 0. 0. 0. 0. 0. 0. 0. 0. 0. 0. 0. 0.
      0. 0. 0. 0. 0. 0. 0. 0. 0. 0. 0. 0. 0. 0. 0. 0. 0. 0. 0. 0. 0. 0.
      0. 0. 0. 7.57575780e-03 0. 0. 0. 0. 0. 3.03030312e-02 0. 0.
      1.51515156e-02 0. 0. 7.57575780e-03 0. 0. 0. 0. 0. 0. 0. 0. 0. 0.
      0. 0. 0. 0. 0. 0. 0. 0. 0. 0. 0. 0. 0. 0. 0. 0. 0. 0. 0. 0. 0. 0.
      0. 0. 0. 0. 0. 0. 7.57575780e-03 0. 0. 0. 0. 1.51515156e-02 0. 0.
      0. 0. 0. 0. 0. 0. 0. 0. 7.57575780e-03 0. 0. 0. 0. 0. 0. 0. 0. 0.
      0. 0. 0. 0. 0. 0. 0. 0. 0. 0. 0. 0. 0. 0. 0. 0. 0. 0. 0. 0. 0. 0.
      0. 0. 0. 0. 0. 0. 0. 0. 0. 0. 0. 0. 0. 0. 0. 7.57575780e-03 0. 0.
      0. 0. 0. 0. 0. 7.57575780e-03 0. 0. 0. 0. 0. 0. 0. 7.57575780e-03
      0. 0. 0. 0. 0. 0. 0. 0. 0. 0. 0. 7.57575780e-03 0. 0. 0. 0. 0.
      7.57575780e-03 0. 0. 0. 7.57575780e-03 0. 0. 0. 0. 0. 0. 0. 0.
      7.57575780e-03 0. 0. 0. 0. 0. 0. 0. 0. 0. 0. 7.57575780e-03 0. 0.
      0. 0. 0. 0. 0. 0. 0. 0. 7.57575780e-03 7.57575780e-03 0. 0. 0. 0.
      0. 0. 0. 0. 0. 0. 0. 0. 0. 1.51515156e-02 0. 0. 0. 0. 0. 0. 0. 0.
      0. 0. 0. 0. 0. 0. 1.51515156e-02 0. 0. 0. 0. 0. 0. 0. 0. 0. 0. 0.
      7.57575780e-03 0. 0. 0. 0. 0. 0. 0. 0. 0. 0. 0. 0. 0. 0. 0. 0. 0.
      0. 0. 0. 7.57575780e-03 0. 7.57575780e-03 0. 0. 0. 0. 0.
      7.57575780e-03 7.57575780e-03 0. 0. 0. 0. 0. 0. 0. 0. 0. 0. 0. 0.
      0. 0. 0. 0. 0. 0. 0. 0. 0. 7.57575780e-03 0. 0. 7.57575780e-03 0.
      0. 0. 0. 0. 0. 0. 0. 0. 0. 0. 0. 0. 0. 0. 0. 0. 0. 0. 0. 0. 0. 0.
      0. 0. 0. 0. 0. 0. 0. 0. 0. 1.51515156e-02 0. 0. 0. 0. 0. 0. 0. 0.
      0. 0. 0. 0. 0. 0. 0. 0. 0. 0. 0. 0. 0. 0. 0. 0. 0. 0. 0.
      7.57575780e-03 0. 0. 0. 0. 0. 0. 0. 0. 0. 0. 0. 0. 0. 0. 0. 0. 0.
      0. 0. 0. 0. 0. 0. 0. 0. 0. 0. 0. 3.03030312e-02 0. 0. 0. 0. 0. 0.
      0. 0. 0. 0. 0. 0. 0. 0. 0. 0. 0. 0. 0. 0. 0. 0. 0. 0. 0. 0. 0. 0.
      0. 0. 0. 0. 0. 0. 0. 0. 0. 0. 0. 0. 0. 0. 0. 0. 0. 0. 0. 0. 0. 0.
      0. 0. 0. 0. 0. 0. 0. 0. 0. 0. 0. 7.57575780e-03 0. 0. 0. 0.
      7.57575780e-03 0. 0. 0. 0. 0. 0. 0. 0. 0. 0. 0. 0. 0. 0. 0. 0. 0.
      0. 0. 0. 0. 0. 0. 0. 0. 0. 0. 0. 0. 0. 0. 0. 0. 7.57575780e-03 0.
      0. 0. 0. 7.57575780e-03 0. 0. 0. 0. 0. 0. 0. 7.57575780e-03 0. 0.
      0. 0. 0. 0. 0. 0. 0. 0. 0. 7.57575780e-03 0. 0. 0. 0. 0. 0. 0. 0.
      0. 0. 0. 1.51515156e-02 0. 7.57575780e-03 0. 0. 0. 0. 0. 0. 0. 0.
      0. 0. 0. 0. 0. 0. 0. 0. 0. 7.57575780e-03 0. 0. 0. 0. 0. 0. 0. 0.
      0. 0. 0. 0. 0. 0. 0. 0. 0. 0. 0. 0. 0. 0. 0. 0. 0. 0. 0. 0.
      1.51515156e-02 0. 0. 0. 0. 0. 0. 0. 7.57575780e-03 0. 0.
      7.57575780e-03 0. 0. 7.57575780e-03 0. 0. 7.57575780e-03 0. 0. 0.
      0. 0. 0. 0. 7.57575780e-03 0. 0. 0. 0. 0. 0. 0. 0. 7.57575780e-03
      0. 0. 0. 0. 0. 1.51515156e-02 0. 0. 0. 0. 7.57575780e-03 0. 0. 0.
      0. 0. 0. 0. 0. 0. 0. 0. 0. 0. 0. 0. 0. 0. 0. 0. 0. 0. 0. 0. 0. 0.
      0. 0. 0. 0. 0. 0. 0. 0. 0. 7.57575780e-03 0. 0. 0. 0. 0. 0. 0. 0.
      0. 0. 0. 0. 0. 0. 0. 0. 0. 0. 0. 0. 0. 0. 0. 0. 0. 0. 0. 0. 0. 0.
      0. 0. 0. 0. 0. 0. 0. 0. 0. 0. 0. 0. 0. 0. 0. 0. 0. 0. 0. 0. 0. 0.
      0. 0. 0. 1.51515156e-02 0. 0. 0. 0. 0. 0. 0. 0. 0. 7.57575780e-03
      0. 0. 0. 0. 0. 7.57575780e-03 0. 0. 0. 0. 0. 0. 0. 0. 0. 0. 0. 0.
      0. 0. 0. 0. 0. 7.57575780e-03 7.57575780e-03 0. 0. 0. 0. 0. 0. 0.
      0. 0. 0. 0. 0. 0. 0. 0. 0. 0. 0. 7.57575780e-03 0. 0. 0. 0. 0. 0.
      0. 0. 0. 0. 0. 0. 0. 0. 0. 0. 0. 0. 0. 0. 0. 0. 0. 0. 0. 0. 0. 0.
      0. 0. 0. 0. 0. 0. 0. 0. 0. 0. 0. 0. 0. 0. 0. 0. 0. 0. 0. 0. 0. 0.
      7.57575780e-03 0. 0. 0. 0. 0. 0. 0. 0. 0. 0. 0. 0. 0. 0. 0. 0. 0.
      0. 0. 0. 0. 0. 0. 0. 0. 0. 0. 0. 0. 0. 7.57575780e-03 0. 0. 0. 0.
      0. 0. 0. 0. 0. 0. 0. 0. 0. 0. 0. 0. 0. 0. 0. 0. 0. 0. 0. 0. 0. 0.
      0. 0. 0. 0. 0. 0. 1.51515156e-02 0. 0. 0. 0. 0. 0. 0. 0. 0. 0. 0.
      0. 0. 0. 0. 0. 7.57575780e-03 0. 0. 0. 0. 0. 1.51515156e-02 0. 0.
      1.51515156e-02 0. 0. 0. 0. 0. 0. 0. 0. 0. 0. 0. 0. 0. 0. 0. 0. 0.
      0. 0. 0. 0. 0. 0. 0. 0. 0. 0. 0. 0. 0. 0. 0. 0. 0. 7.57575780e-03
      0. 0. 0. 0. 0. 0. 0. 0. 0. 0. 0. 0. 0. 0. 0. 0. 0. 0. 0. 0.
      7.57575780e-03 0. 0. 0. 0. 0. 0. 7.57575780e-03 0. 0. 0. 0. 0. 0.
      0. 0. 7.57575780e-03 0. 7.57575780e-03 0. 0. 0. 0. 0.
      1.51515156e-02 0. 0. 0. 0. 0. 0. 0. 0. 0. 0. 0. 0. 0. 0. 0. 0. 0.
      0. 0. 0. 0. 0. 0. 7.57575780e-03 0. 0. 0. 0. 0. 0. 0. 0. 0. 0. 0.
      3.03030312e-02 0. 0. 0. 0. 0. 0. 0. 0. 0. 0. 0. 0. 0. 0. 0. 0. 0.
      0. 0. 0. 0. 0. 0. 0. 0. 7.57575780e-03 0. 0. 0. 0. 0. 0. 0. 0. 0.
      0. 0. 0. 0. 0. 0. 0. 0. 0. 0. 0. 0. 0. 0. 0. 0. 0. 0. 0. 0. 0. 0.
      0. 0. 0. 0. 7.57575780e-03 0. 0. 0. 0. 0. 0. 0. 0. 0. 0. 0.
      7.57575780e-03 0. 0. 0. 0. 0. 0. 0. 7.57575780e-03 0. 0. 0. 0.
      7.57575780e-03 0. 0. 1.51515156e-02 0. 7.57575780e-03 0. 0. 0. 0.
      7.57575780e-03 0. 0. 0. 0. 0. 0. 0. 7.57575780e-03 0. 0. 0. 0. 0.
      0. 7.57575780e-03 0. 0. 7.57575780e-03 0. 0. 0. 0. 0. 0. 0. 0. 0.
      0. 0. 0. 0. 0. 0. 0. 0. 0. 0. 0. 0. 0. 0. 7.57575780e-03 0. 0. 0.
      7.57575780e-03 0. 0. 1.51515156e-02 7.57575780e-03 0. 0. 0. 0. 0.
      0. 0. 0. 0. 0. 0. 0. 0. 7.57575780e-03 0. 0. 0. 0. 0. 0. 0. 0. 0.
      0. 0. 0. 0. 0. 0. 0. 0. 0. 0. 0. 0. 0. 0. 0. 0. 0. 0. 0. 0. 0. 0.
      0. 0. 0. 0. 0. 0. 0. 0. 0. 0. 0. 0. 0. 0. 0. 0. 0. 0. 0. 0. 0. 0.
      0. 0. 0. 0. 0. 0. 7.57575780e-03 0. 0. 0. 0. 0. 0. 0. 0. 0. 0. 0.
      0. 0. 0. 0. 0. 0. 0. 0. 0. 0. 0. 0. 0. 0. 0. 0. 0. 0. 0. 0. 0. 0.
      0. 0. 0. 0. 0. 0. 0. 0. 0. 0. 0.</_>
    <_>
      0. 0. 0. 0. 9.25925933e-03 0. 0. 0. 0. 0. 0. 0. 0. 0. 0. 0. 0. 0.
      0. 0. 0. 0. 0. 0. 0. 0. 0. 9.25925933e-03 0. 0. 0. 0. 0. 0. 0. 0.
      0. 0. 0. 0. 0. 0. 0. 0. 0. 0. 0. 0. 0. 0. 0. 0. 0. 0. 0.
      9.25925933e-03 0. 0. 9.25925933e-03 0. 9.25925933e-03 0. 0. 0. 0.
      0. 0. 1.85185187e-02 0. 0. 0. 0. 0. 2.77777780e-02 9.25925933e-03
      0. 0. 0. 0. 0. 9.25925933e-03 0. 0. 0. 9.25925933e-03 0. 0. 0. 0.
      0. 0. 0. 0. 0. 9.25925933e-03 0. 0. 0. 0. 0. 0. 0. 0. 0. 0. 0. 0.
      0. 0. 0. 0. 0. 0. 0. 0. 0. 0. 0. 0. 0. 0. 0. 0. 0. 0. 0. 0. 0. 0.
      0. 0. 0. 0. 0. 0. 0. 0. 0. 0. 0. 0. 0. 0. 0. 0. 0. 0. 0. 0. 0. 0.
      0. 0. 9.25925933e-03 0. 9.25925933e-03 0. 0. 1.85185187e-02 0. 0.
      0. 0. 0. 0. 0. 0. 0. 0. 0. 0. 0. 0. 9.25925933e-03 0. 0. 0. 0.
      9.25925933e-03 0. 9.25925933e-03 0. 0. 0. 0. 0. 0. 9.25925933e-03
      0. 0. 0. 0. 0. 0. 0. 0. 0. 0. 0. 0. 0. 0. 0. 0. 0. 0. 0. 0. 0. 0.
      0. 0. 0. 0. 0. 0. 0. 0. 0. 9.25925933e-03 0. 0. 0. 0. 0. 0. 0. 0.
      0. 0. 0. 0. 0. 0. 0. 0. 9.25925933e-03 0. 0. 0. 0. 0. 0. 0. 0. 0.
      0. 0. 0. 0. 0. 0. 0. 0. 0. 0. 0. 0. 0. 0. 0. 0. 0. 0. 0. 0. 0. 0.
      0. 0. 0. 0. 0. 0. 0. 0. 0. 0. 0. 0. 0. 0. 0. 0. 0. 0.
      1.85185187e-02 0. 0. 0. 0. 0. 0. 0. 0. 0. 0. 0. 0. 0. 0. 0. 0. 0.
      0. 0. 0. 0. 0. 0. 0. 0. 0. 9.25925933e-03 0. 0. 0. 0. 0. 0. 0. 0.
      0. 0. 0. 0. 0. 0. 0. 0. 0. 0. 0. 0. 0. 0. 0. 9.25925933e-03 0. 0.
      0. 0. 0. 0. 0. 0. 0. 0. 0. 0. 0. 0. 0. 0. 0. 0. 0. 0. 0. 0.
      9.25925933e-03 0. 0. 9.25925933e-03 0. 0. 0. 0. 0. 0. 0. 0. 0. 0.
      0. 0. 0. 0. 9.25925933e-03 0. 0. 0. 0. 0. 0. 9.25925933e-03 0. 0.
      0. 0. 0. 0. 0. 0. 0. 0. 0. 0. 0. 0. 0. 0. 0. 0. 0. 0. 0. 0. 0. 0.
      0. 0. 0. 0. 0. 0. 0. 1.85185187e-02 0. 0. 0. 0. 0. 0. 0. 0. 0. 0.
      0. 0. 0. 0. 0. 0. 0. 0. 0. 0. 0. 0. 0. 0. 0. 9.25925933e-03
      9.25925933e-03 0. 0. 0. 0. 0. 0. 0. 0. 9.25925933e-03 0. 0. 0. 0.
      3.70370373e-02 0. 0. 0. 0. 0. 0. 0. 0. 0. 0. 0. 0. 0. 0. 0. 0. 0.
      1.85185187e-02 0. 0. 0. 0. 0. 0. 0. 0. 0. 0. 0. 0. 0. 0. 0. 0. 0.
      0. 0. 0. 0. 0. 0. 0. 9.25925933e-03 0. 0. 0. 0. 0. 0. 0.
      1.85185187e-02 0. 0. 0. 0. 9.25925933e-03 0. 0. 0. 0. 0. 0. 0.
      9.25925933e-03 0. 0. 0. 0. 0. 9.25925933e-03 0. 0. 0. 0.
      9.25925933e-03 0. 0. 0. 0. 2.77777780e-02 0. 0. 0. 0.
      9.25925933e-03 0. 0. 0. 0. 0. 9.25925933e-03 0. 0. 0. 0. 0. 0. 0.
      0. 0. 0. 0. 0. 0. 0. 0. 0. 0. 0. 0. 9.25925933e-03 0.
      9.25925933e-03 0. 0. 0. 0. 0. 0. 0. 0. 0. 0. 0. 0. 0. 0. 0. 0. 0.
      0. 0. 0. 0. 0. 0. 9.25925933e-03 0. 0. 0. 0. 9.25925933e-03 0. 0.
      0. 0. 0. 0. 0. 0. 0. 0. 0. 0. 0. 0. 0. 0. 0. 0. 0. 0. 0. 0. 0. 0.
      0. 0. 0. 0. 0. 0. 0. 0. 9.25925933e-03 0. 0. 0. 0. 0. 0. 0. 0. 0.
      0. 0. 0. 0. 0. 0. 0. 0. 1.85185187e-02 0. 0. 0. 0. 0. 0. 0. 0. 0.
      9.25925933e-03 0. 0. 0. 0. 0. 0. 0. 0. 0. 9.25925933e-03 0. 0. 0.
      0. 0. 9.25925933e-03 0. 0. 0. 0. 0. 0. 0. 0. 9.25925933e-03 0. 0.
      0. 0. 0. 0. 0. 0. 0. 0. 0. 0. 0. 0. 0. 0. 0. 0. 0. 0. 0. 0. 0. 0.
      0. 0. 0. 0. 0. 0. 0. 0. 0. 0. 0. 0. 0. 0. 0. 0. 0. 0. 0. 0. 0. 0.
      0. 9.25925933e-03 0. 0. 0. 0. 0. 0. 0. 0. 0. 0. 0. 0. 0. 0. 0. 0.
      0. 0. 0. 0. 0. 0. 0. 0. 0. 0. 0. 0. 0. 0. 0. 0. 2.77777780e-02 0.
      0. 0. 0. 0. 0. 0. 0. 0. 0. 0. 0. 0. 0. 0. 0. 0. 0. 0.
      9.25925933e-03 0. 0. 0. 0. 0. 0. 0. 0. 0. 0. 0. 0. 0.
      9.25925933e-03 0. 0. 9.25925933e-03 0. 0. 0. 0. 0. 0. 0. 0. 0. 0.
      0. 0. 0. 0. 0. 0. 0. 0. 0. 0. 0. 9.25925933e-03 0. 0. 0. 0. 0. 0.
      0. 0. 0. 0. 0. 0. 0. 0. 0. 0. 9.25925933e-03 0. 0. 0. 0. 0. 0. 0.
      0. 0. 0. 0. 0. 0. 0. 0. 0. 0. 0. 0. 0. 0. 0. 0. 0. 0. 0. 0. 0. 0.
      0. 0. 0. 9.25925933e-03 0. 0. 0. 0. 0. 0. 9.25925933e-03 0. 0. 0.
      0. 0. 0. 0. 0. 0. 0. 0. 0. 0. 0. 0. 0. 0. 0. 0. 0. 0.
      9.25925933e-03 0. 0. 0. 9.25925933e-03 9.25925933e-03 0. 0. 0. 0.
      0. 0. 0. 0. 0. 0. 0. 0. 0. 0. 0. 0. 0. 0. 0. 0. 0. 0. 0. 0. 0. 0.
      0. 0. 0. 0. 0. 0. 0. 0. 0. 0. 0. 0. 0. 0. 0. 1.85185187e-02 0. 0.
      0. 0. 0. 0. 0. 0. 0. 0. 0. 0. 0. 0. 0. 0. 0. 0. 0. 0. 0.
      9.25925933e-03 0. 0. 0. 0. 0. 0. 0. 0. 0. 0. 0. 0. 0. 0. 0. 0. 0.
      0. 0. 0. 0. 0. 9.25925933e-03 0. 0. 0. 9.25925933e-03 0. 0. 0. 0.
      0. 9.25925933e-03 0. 0. 0. 0. 0. 0. 0. 0. 0. 0. 0. 0. 0. 0. 0. 0.
      0. 0. 0. 0. 0. 0. 0. 0. 0. 0. 0. 0. 9.25925933e-03 0. 0. 0. 0. 0.
      0. 9.25925933e-03 0. 0. 0. 0. 0. 0. 0. 0. 0. 0. 0. 0. 0. 0. 0.
      9.25925933e-03 0. 0. 0. 0. 0. 0. 0. 0. 0. 0. 9.25925933e-03 0.
      9.25925933e-03 0. 0. 0. 0. 0. 0. 0. 0. 0. 0. 0. 9.25925933e-03 0.
      0. 0. 0. 0. 0. 0. 0. 0. 0. 0. 0. 0. 0. 0. 0. 0. 0. 0. 0. 0. 0. 0.
      0. 0. 0. 0. 0. 0. 0. 0. 0. 0. 0. 0. 0. 0. 0. 0. 0. 0. 0. 0. 0. 0.
      0. 0. 0. 0. 0. 0. 0. 0. 0. 0. 0. 0. 0. 0. 0. 0. 0. 0. 0. 0. 0. 0.
      0. 0. 0. 0. 0. 0. 0. 0. 0. 0. 0. 0. 0. 0. 0. 0. 0. 0. 0. 0.
      9.25925933e-03 0. 0. 0. 0. 0. 0. 0. 9.25925933e-03 0. 0. 0. 0. 0.
      9.25925933e-03 0. 0. 0. 0. 0. 0. 0. 0. 0. 0. 0. 0. 0. 0. 0. 0. 0.
      0. 0. 0. 0. 0. 0. 0. 0. 0. 0. 0. 0. 0. 0. 0. 0. 0. 0. 0. 0. 0. 0.
      0. 0. 0. 0. 0. 0. 0. 0. 0. 0. 0. 0. 1.85185187e-02 0. 0. 0. 0. 0.
      0. 0. 0. 0. 0. 0. 0. 0. 0. 0. 0. 0. 0. 0. 0. 0. 0. 0. 0. 0. 0. 0.
      0. 0. 9.25925933e-03 9.25925933e-03 0. 9.25925933e-03 0. 0. 0. 0.
      0. 0. 0. 0. 0. 0. 0. 0. 0. 0. 0. 0. 0. 0. 0. 0. 0. 0. 0. 0. 0. 0.
      0. 0. 0. 0. 0. 0. 0. 0. 0. 0. 0. 0. 0. 0. 0. 0. 0. 0. 0. 0. 0. 0.
      0. 9.25925933e-03 0. 0. 0. 0. 0. 0. 0. 0. 0. 9.25925933e-03 0. 0.
      0. 0. 0. 0. 0. 9.25925933e-03 0. 0. 0. 0. 9.25925933e-03 0. 0. 0.
      0. 0. 0. 0. 0. 0. 0. 0. 0. 0. 0. 0. 0. 0. 0. 0. 0. 0. 0. 0. 0. 0.
      0. 0. 0. 0. 0. 0. 0. 0. 0. 0. 0. 9.25925933e-03 0. 0. 0. 0. 0. 0.
      0. 0. 0. 0. 0. 0. 0. 0. 0. 0. 0. 0. 0. 0. 0. 0. 0. 0. 0. 0. 0. 0.
      0. 0. 0. 0. 0. 0. 0. 0. 0. 0. 0. 0. 0. 0. 0. 0. 0. 0. 0. 0. 0. 0.
      0. 0. 0. 0. 0. 0. 0. 0. 0. 0. 0. 0. 0. 0. 0. 0. 0. 0. 0. 0. 0. 0.
      0. 0. 0. 0. 0. 0. 0. 9.25925933e-03 0. 0. 0. 0. 0. 0. 0. 0. 0. 0.
      0. 0. 0. 0. 0. 0. 0. 0. 0. 0. 0. 0. 0. 0. 0. 0. 0. 0. 0. 0. 0. 0.
      0. 0. 1.85185187e-02 0. 0. 0.</_>
    <_>
      0. 3.09597515e-03 0. 0. 0. 9.28792544e-03 0. 0. 0. 0. 0. 0. 0. 0.
      0. 0. 0. 0. 3.09597515e-03 0. 0. 0. 0. 0. 3.09597515e-03 0. 0. 0.
      0. 0. 3.09597515e-03 0. 0. 0. 0. 0. 0. 0. 0. 0. 0. 0. 0. 0. 0. 0.
      0. 0. 0. 3.09597515e-03 0. 0. 0. 0. 0. 0. 0. 0. 0. 3.09597515e-03
      0. 0. 0. 0. 0. 0. 0. 0. 0. 3.09597515e-03 0. 3.09597515e-03 0. 0.
      0. 0. 0. 0. 3.09597515e-03 0. 0. 0. 0. 0. 0. 0. 0. 0. 0. 0.
      3.09597515e-03 0. 0. 0. 0. 0. 0. 0. 0. 0. 3.09597515e-03
      3.09597515e-03 3.09597515e-03 0. 0. 0. 0. 0. 0. 0. 0. 0. 0. 0.
      3.09597515e-03 6.19195029e-03 0. 0. 0. 0. 3.09597515e-03 0. 0.
      3.09597515e-03 0. 9.28792544e-03 0. 0. 0. 0. 3.09597515e-03 0. 0.
      0. 0. 0. 0. 0. 0. 0. 3.09597515e-03 6.19195029e-03 0. 0. 0. 0.
      3.09597515e-03 0. 0. 1.23839006e-02 0. 0. 0. 0. 0. 0.
      3.09597515e-03 0. 0. 0. 0. 0. 0. 3.09597515e-03 0. 0. 0. 0. 0. 0.
      0. 0. 0. 0. 3.09597515e-03 3.09597515e-03 0. 0. 0. 0. 0. 0. 0. 0.
      0. 3.09597515e-03 0. 0. 0. 0. 0. 0. 0. 0. 0. 0. 3.09597515e-03 0.
      0. 0. 0. 0. 0. 0. 3.09597515e-03 0. 0. 0. 3.09597515e-03 0. 0. 0.
      0. 0. 0. 0. 0. 0. 0. 0. 0. 0. 0. 0. 0. 0. 3.09597515e-03 0. 0. 0.
      0. 0. 0. 3.09597515e-03 0. 0. 0. 0. 0. 0. 0. 0. 0. 0.
      3.09597515e-03 0. 0. 3.09597515e-03 0. 0. 0. 0. 0. 3.09597515e-03
      0. 0. 0. 0. 0. 0. 3.09597515e-03 0. 3.09597515e-03 0. 0. 0. 0. 0.
      3.09597515e-03 0. 0. 0. 0. 9.28792544e-03 0. 0. 0. 0. 0. 0. 0. 0.
      0. 0. 0. 0. 0. 3.09597515e-03 0. 3.09597515e-03 3.09597515e-03
      3.09597515e-03 0. 3.09597515e-03 0. 0. 0. 3.09597515e-03 0. 0. 0.
      0. 0. 0. 3.09597515e-03 0. 0. 0. 0. 0. 3.09597515e-03 0.
      3.09597515e-03 0. 6.19195029e-03 0. 0. 0. 0. 0. 0. 3.09597515e-03
      3.09597515e-03 0. 0. 0. 6.19195029e-03 0. 6.19195029e-03 0.
      3.09597515e-03 0. 0. 0. 0. 0. 0. 0. 0. 0. 3.09597515e-03 0. 0. 0.
      0. 3.09597515e-03 0. 0. 3.09597515e-03 0. 0. 0. 0. 0. 0. 0. 0. 0.
      0. 3.09597515e-03 0. 0. 3.09597515e-03 0. 0. 0. 0. 0. 0. 0. 0.
      3.09597515e-03 0. 0. 0. 0. 0. 3.09597515e-03 0. 3.09597515e-03 0.
      0. 0. 0. 0. 3.09597515e-03 0. 0. 0. 0. 3.09597515e-03 0. 0. 0. 0.
      0. 0. 0. 6.19195029e-03 0. 0. 0. 0. 3.09597515e-03 0.
      3.09597515e-03 0. 0. 0. 0. 0. 0. 0. 0. 0. 0. 0. 0. 0. 0. 0. 0. 0.
      0. 0. 0. 0. 0. 0. 0. 3.09597515e-03 3.09597515e-03 0. 0. 0. 0.
      3.09597515e-03 3.09597515e-03 0. 0. 0. 0. 0. 3.09597515e-03 0. 0.
      0. 0. 3.09597515e-03 0. 0. 0. 0. 3.09597515e-03 0. 0. 0. 0. 0.
      3.09597515e-03 0. 0. 0. 0. 0. 0. 0. 0. 3.09597515e-03 0. 0.
      6.19195029e-03 0. 0. 3.09597515e-03 0. 0. 0. 0. 0. 0.
      3.09597515e-03 0. 0. 0. 3.09597515e-03 0. 0. 0. 0. 0.
      3.09597515e-03 3.09597515e-03 3.09597515e-03 0. 3.09597515e-03 0.
      0. 3.09597515e-03 0. 0. 0. 3.09597515e-03 0. 0. 3.09597515e-03 0.
      0. 0. 0. 0. 0. 0. 0. 0. 0. 0. 6.19195029e-03 0. 0. 0. 0. 0.
      3.09597515e-03 3.09597515e-03 0. 0. 0. 0. 0. 0. 0. 0. 0. 0. 0. 0.
      0. 0. 0. 3.09597515e-03 0. 3.09597515e-03 0. 0. 6.19195029e-03
      6.19195029e-03 0. 0. 0. 0. 0. 0. 0. 0. 0. 0. 3.09597515e-03 0. 0.
      0. 0. 0. 0. 0. 3.09597515e-03 0. 0. 0. 0. 0. 0. 0. 3.09597515e-03
      0. 0. 3.09597515e-03 0. 0. 0. 0. 0. 0. 3.09597515e-03 0.
      1.23839006e-02 0. 3.09597515e-03 0. 0. 0. 0. 0. 0. 0. 0. 0. 0. 0.
      0. 0. 0. 0. 0. 0. 0. 0. 0. 0. 0. 0. 0. 0. 0. 0. 3.09597515e-03
      3.09597515e-03 1.23839006e-02 0. 0. 0. 0. 0. 0. 0. 3.09597515e-03
      0. 0. 0. 3.09597515e-03 0. 0. 0. 3.09597515e-03 0. 3.09597515e-03
      0. 3.09597515e-03 0. 0. 3.09597515e-03 0. 0. 0. 0. 3.09597515e-03
      0. 6.19195029e-03 0. 0. 0. 0. 0. 0. 0. 3.09597515e-03
      3.09597515e-03 0. 3.09597515e-03 0. 0. 0. 0. 6.19195029e-03
      6.19195029e-03 3.09597515e-03 0. 0. 0. 0. 6.19195029e-03 0. 0. 0.
      0. 0. 0. 0. 0. 0. 0. 0. 0. 0. 3.09597515e-03 3.09597515e-03 0. 0.
      3.09597515e-03 0. 0. 6.19195029e-03 0. 0. 0. 0. 3.09597515e-03 0.
      0. 0. 6.19195029e-03 0. 3.09597515e-03 0. 0. 0. 0. 0. 0. 0. 0. 0.
      0. 0. 0. 0. 0. 0. 0. 0. 0. 0. 3.09597515e-03 0. 0. 0. 0. 0. 0. 0.
      0. 0. 0. 0. 9.28792544e-03 0. 0. 6.19195029e-03 0. 3.09597515e-03
      0. 0. 3.09597515e-03 0. 0. 0. 0. 0. 0. 0. 0. 0. 0. 3.09597515e-03
      0. 0. 0. 0. 0. 0. 1.85758509e-02 0. 0. 0. 0. 0. 0. 0. 0. 0.
      3.09597515e-03 0. 3.09597515e-03 3.09597515e-03 0. 6.19195029e-03
      0. 0. 0. 0. 0. 0. 0. 0. 0. 0. 0. 0. 0. 0. 3.09597515e-03 0.
      3.09597515e-03 0. 0. 0. 3.09597515e-03 0. 0. 3.09597515e-03 0. 0.
      0. 0. 0. 0. 0. 3.09597515e-03 0. 0. 0. 0. 0. 0. 0. 0. 0. 0. 0.
      1.23839006e-02 0. 0. 3.09597515e-03 0. 0. 0. 0. 0. 3.09597515e-03
      0. 0. 0. 3.09597515e-03 3.09597515e-03 0. 0. 0. 0. 3.09597515e-03
      0. 0. 0. 9.28792544e-03 0. 0. 0. 0. 0. 3.09597515e-03 0. 0.
      6.19195029e-03 0. 0. 0. 0. 0. 0. 0. 0. 0. 0. 0. 0. 0. 0. 0. 0. 0.
      0. 3.09597515e-03 0. 0. 0. 0. 3.09597515e-03 0. 0. 0. 0. 0. 0. 0.
      0. 0. 0. 0. 3.09597515e-03 0. 6.19195029e-03 0. 3.09597515e-03 0.
      0. 0. 0. 0. 0. 0. 0. 0. 0. 9.28792544e-03 0. 0. 3.09597515e-03 0.
      0. 0. 0. 0. 0. 6.19195029e-03 0. 1.23839006e-02 0. 0. 0. 0. 0. 0.
      0. 0. 0. 0. 0. 0. 0. 0. 0. 0. 0. 6.19195029e-03 0. 0. 0. 0. 0. 0.
      0. 0. 0. 0. 0. 6.19195029e-03 0. 0. 3.09597515e-03 0. 0. 0. 0. 0.
      0. 0. 0. 0. 0. 0. 0. 0. 0. 0. 3.09597515e-03 0. 3.09597515e-03
      3.09597515e-03 0. 0. 0. 0. 0. 0. 0. 0. 0. 0. 0. 0. 0. 0. 0. 0. 0.
      3.09597515e-03 0. 0. 0. 0. 0. 0. 0. 0. 0. 0. 3.09597515e-03 0. 0.
      0. 0. 0. 0. 0. 0. 0. 0. 0. 0. 0. 0. 0. 0. 0. 0. 0. 3.09597515e-03
      0. 0. 0. 0. 0. 6.19195029e-03 0. 0. 0. 0. 0. 0. 0. 0. 0. 0. 0. 0.
      0. 0. 0. 0. 3.09597515e-03 0. 6.19195029e-03 0. 0. 0. 0. 0. 0.
      3.09597515e-03 0. 0. 0. 0. 0. 0. 0. 0. 0. 0. 0. 0. 0. 0. 0. 0. 0.
      0. 0. 0. 0. 0. 6.19195029e-03 0. 0. 0. 0. 3.09597515e-03 0. 0. 0.
      0. 3.09597515e-03 0. 0. 0. 0. 6.19195029e-03 0. 0. 0. 0. 0.
      9.28792544e-03 3.09597515e-03 0. 0. 0. 0. 0. 6.19195029e-03 0. 0.
      0. 0. 0. 0. 0. 0. 0. 0. 0. 0. 0. 0. 0. 0. 0. 0. 0. 0. 0. 0. 0. 0.
      0. 0. 0. 0. 0. 0. 0. 0. 0. 1.23839006e-02 0. 0. 0. 0. 0. 0. 0. 0.
      0. 0. 0. 3.09597515e-03 3.09597515e-03 0. 0. 0. 0. 6.19195029e-03
      6.19195029e-03 0. 0. 3.09597515e-03 0. 0. 0. 0. 0. 0. 0. 0. 0. 0.
      0. 0. 0. 0. 0. 0. 0. 0. 0. 6.19195029e-03 0. 0. 6.19195029e-03 0.
      0. 0. 0. 0. 0. 0. 0. 0. 0. 0. 0. 0. 0. 0. 3.09597515e-03 0. 0. 0.
      0. 0. 0. 3.09597515e-03 3.09597515e-03 0. 0. 0. 6.19195029e-03 0.
      0. 0. 3.09597515e-03 0. 0. 0. 0. 6.19195029e-03 0. 0. 0. 0. 0. 0.
      0. 0. 0. 3.09597515e-03 9.28792544e-03 0. 0. 3.09597515e-03 0. 0.
      0. 6.19195029e-03 0. 0. 3.09597515e-03 0. 0. 0. 0. 3.09597515e-03
      0. 0. 0. 0. 3.09597515e-03 0. 0. 0. 0. 0. 0. 0. 0. 3.09597515e-03
      0. 0. 0. 0. 0. 0. 0. 0. 0. 0. 0. 0. 0. 0. 0. 0. 0. 0. 0. 0. 0. 0.
      0. 0. 0. 0. 0. 6.19195029e-03 6.19195029e-03 3.09597515e-03 0. 0.
      0. 0. 0. 0. 3.09597515e-03 3.09597515e-03 0. 0. 0. 0. 0. 0. 0. 0.
      0. 0. 0. 0. 0. 0. 9.28792544e-03 0. 0. 0. 0. 0. 0. 0. 0. 0. 0. 0.
      0. 0. 0. 3.09597515e-03 0. 0. 0. 0. 0. 0. 0. 0. 0. 0. 0. 0. 0. 0.
      0. 0. 0. 0. 0. 0. 0. 3.09597515e-03 0. 0. 0. 3.09597515e-03 0. 0.
      0. 0. 0. 9.28792544e-03 3.09597515e-03 3.09597515e-03 0. 0. 0. 0.
      0. 0. 0. 0. 0. 0. 0. 0. 0. 0. 0. 0. 0. 3.09597515e-03 0. 0. 0. 0.
      0. 0. 0. 0. 0. 0. 0. 0. 0. 0. 0. 0. 0. 0. 0. 0. 0. 0. 0.
      6.19195029e-03 0. 0. 0. 9.28792544e-03 0. 0. 0. 0. 0.
      6.19195029e-03 0. 0. 0. 6.19195029e-03 0. 3.09597515e-03 0. 0. 0.
      3.09597515e-03 0. 3.09597515e-03 0. 0. 6.19195029e-03 0. 0. 0. 0.
      0. 0. 0. 6.19195029e-03 3.09597515e-03 0. 0. 0. 0. 0. 0. 0.
      3.09597515e-03 0. 0. 0. 0. 0. 0. 0. 0. 0. 0. 0. 3.09597515e-03 0.
      0. 0. 3.09597515e-03 3.09597515e-03 0. 0. 0. 0. 0. 0. 0.
      3.09597515e-03 3.09597515e-03 0. 0. 0. 6.19195029e-03 0. 0. 0. 0.
      0. 0. 0. 0. 0. 0. 0. 0. 0. 0. 0. 0. 0. 0. 0. 0. 3.09597515e-03 0.
      0. 0. 0. 0. 0. 0. 0.</_>
    <_>
      0. 0. 0. 0. 0. 0. 0. 5.84795326e-03 0. 0. 2.92397663e-03 0. 0. 0.
      0. 0. 0. 0. 0. 2.92397663e-03 0. 0. 0. 5.84795326e-03 0. 0. 0. 0.
      0. 2.92397663e-03 2.92397663e-03 0. 0. 0. 0. 0. 0. 0.
      2.92397663e-03 0. 0. 0. 0. 0. 0. 0. 2.92397663e-03 0. 0. 0. 0. 0.
      0. 0. 0. 0. 0. 0. 0. 2.92397663e-03 0. 0. 1.16959065e-02 0. 0. 0.
      2.92397663e-03 2.92397663e-03 0. 0. 2.92397663e-03 2.92397663e-03
      0. 0. 0. 0. 0. 0. 0. 0. 2.92397663e-03 0. 0. 0. 0. 0. 0.
      2.92397663e-03 0. 0. 0. 2.92397663e-03 0. 0. 0. 0. 0. 0. 0. 0.
      2.92397663e-03 0. 0. 0. 0. 0. 2.92397663e-03 0. 0. 0. 0. 0. 0. 0.
      0. 0. 0. 0. 0. 0. 0. 0. 0. 0. 0. 0. 0. 0. 0. 0. 0. 0. 0. 0. 0. 0.
      0. 0. 0. 0. 0. 0. 0. 0. 0. 0. 0. 0. 5.84795326e-03 0.
      5.84795326e-03 0. 0. 0. 0. 0. 0. 8.77192989e-03 0. 0.
      2.92397663e-03 0. 0. 0. 0. 0. 0. 0. 2.92397663e-03 0. 0. 0. 0.
      2.92397663e-03 2.92397663e-03 0. 0. 0. 2.92397663e-03 0. 0. 0. 0.
      0. 0. 0. 0. 0. 0. 0. 0. 0. 0. 0. 0. 0. 0. 0. 0. 0. 0. 0. 0. 0. 0.
      0. 0. 0. 0. 0. 0. 0. 5.84795326e-03 0. 0. 0. 0. 0. 0.
      2.92397663e-03 0. 0. 0. 0. 0. 0. 2.92397663e-03 0. 0. 0. 0. 0. 0.
      0. 0. 2.92397663e-03 0. 0. 0. 2.92397663e-03 0. 0. 0. 0. 0. 0.
      5.84795326e-03 0. 1.46198831e-02 0. 0. 0. 0. 0. 0. 0.
      2.92397663e-03 0. 0. 2.92397663e-03 0. 0. 0. 5.84795326e-03 0. 0.
      5.84795326e-03 5.84795326e-03 0. 0. 0. 0. 0. 0. 0. 0. 0. 0. 0. 0.
      0. 0. 0. 0. 0. 0. 0. 2.92397663e-03 0. 0. 2.92397663e-03 0. 0. 0.
      0. 2.92397663e-03 2.92397663e-03 0. 0. 0. 0. 0. 0. 2.92397663e-03
      0. 0. 0. 0. 0. 0. 0. 2.92397663e-03 0. 0. 0. 2.92397663e-03 0.
      2.92397663e-03 0. 0. 0. 0. 2.92397663e-03 0. 0. 0. 0. 0. 0. 0.
      5.84795326e-03 0. 0. 0. 0. 5.84795326e-03 0. 0. 0. 0. 0. 0. 0. 0.
      0. 0. 0. 0. 0. 2.92397663e-03 0. 0. 0. 2.92397663e-03 0. 0. 0. 0.
      0. 0. 0. 0. 2.92397663e-03 0. 0. 0. 0. 2.92397663e-03 0. 0. 0. 0.
      2.92397663e-03 0. 0. 0. 0. 0. 0. 0. 2.92397663e-03 0. 0. 0. 0. 0.
      0. 0. 0. 0. 0. 0. 0. 0. 2.92397663e-03 0. 2.92397663e-03 0. 0. 0.
      0. 0. 0. 0. 0. 2.92397663e-03 0. 0. 0. 0. 0. 0. 0. 0. 0.
      2.92397663e-03 0. 0. 0. 0. 0. 2.92397663e-03 0. 0. 0. 0. 0. 0. 0.
      0. 0. 0. 0. 2.92397663e-03 0. 0. 0. 0. 0. 0. 0. 0. 2.92397663e-03
      0. 0. 0. 0. 0. 0. 0. 0. 0. 2.92397663e-03 0. 0. 2.92397663e-03
      2.92397663e-03 0. 0. 0. 0. 0. 2.92397663e-03 0. 0. 0.
      2.92397663e-03 5.84795326e-03 2.92397663e-03 0. 0. 0. 0. 0. 0. 0.
      2.92397663e-03 0. 0. 0. 0. 0. 2.92397663e-03 8.77192989e-03 0. 0.
      0. 0. 0. 0. 0. 0. 2.92397663e-03 5.84795326e-03 0. 0.
      2.92397663e-03 0. 0. 0. 0. 0. 0. 2.92397663e-03 0. 2.92397663e-03
      0. 0. 0. 0. 0. 0. 0. 5.84795326e-03 0. 0. 0. 0. 2.92397663e-03 0.
      0. 0. 0. 0. 2.92397663e-03 0. 2.92397663e-03 0. 0. 0. 0.
      2.92397663e-03 0. 0. 0. 2.92397663e-03 0. 0. 0. 0. 5.84795326e-03
      0. 0. 0. 0. 0. 2.92397663e-03 0. 0. 0. 0. 0. 0. 0. 0. 0. 0. 0. 0.
      0. 0. 0. 2.92397663e-03 2.92397663e-03 0. 0. 0. 0. 0. 0. 0. 0.
      5.84795326e-03 0. 0. 0. 0. 2.92397663e-03 0. 0. 0. 0. 0. 0. 0. 0.
      0. 0. 0. 0. 0. 0. 0. 0. 0. 0. 0. 0. 0. 5.84795326e-03 0. 0. 0.
      8.77192989e-03 2.92397663e-03 0. 0. 0. 0. 0. 0. 0. 0. 0. 0. 0. 0.
      1.16959065e-02 0. 0. 2.92397663e-03 0. 0. 5.84795326e-03 0. 0. 0.
      2.92397663e-03 0. 2.92397663e-03 0. 0. 0. 0. 0. 0. 0. 0. 0. 0. 0.
      0. 0. 0. 0. 0. 0. 0. 0. 0. 0. 0. 2.92397663e-03 0. 0.
      2.92397663e-03 0. 0. 0. 2.92397663e-03 0. 0. 0. 2.92397663e-03 0.
      0. 0. 0. 0. 0. 0. 0. 0. 0. 0. 0. 0. 0. 0. 2.92397663e-03
      2.92397663e-03 0. 0. 2.92397663e-03 0. 0. 0. 0. 0. 0. 0. 0. 0. 0.
      0. 0. 2.92397663e-03 0. 2.92397663e-03 0. 0. 1.16959065e-02 0.
      2.92397663e-03 0. 0. 0. 0. 0. 0. 2.92397663e-03 0. 0.
      2.92397663e-03 0. 0. 0. 0. 0. 0. 0. 0. 0. 0. 2.92397663e-03 0. 0.
      0. 0. 0. 0. 0. 0. 0. 0. 0. 2.92397663e-03 2.92397663e-03 0. 0. 0.
      0. 2.92397663e-03 0. 0. 2.92397663e-03 0. 0. 0. 0. 0. 0. 0. 0. 0.
      0. 2.92397663e-03 2.92397663e-03 2.92397663e-03 0. 0. 0. 0. 0. 0.
      0. 2.92397663e-03 0. 0. 2.92397663e-03 2.92397663e-03 0. 0.
      2.92397663e-03 0. 0. 0. 0. 0. 0. 0. 0. 0. 2.92397663e-03 0. 0. 0.
      2.92397663e-03 0. 2.92397663e-03 0. 0. 5.84795326e-03 0. 0. 0. 0.
      0. 0. 0. 0. 0. 0. 0. 0. 0. 0. 0. 0. 2.92397663e-03 0. 0. 0. 0. 0.
      0. 0. 0. 0. 0. 5.84795326e-03 0. 0. 0. 0. 0. 0. 2.92397663e-03 0.
      0. 2.92397663e-03 0. 0. 0. 0. 0. 0. 0. 0. 0. 0. 0. 0. 0. 0. 0. 0.
      0. 0. 0. 0. 0. 0. 2.92397663e-03 2.92397663e-03 0. 0. 0.
      2.92397663e-03 0. 0. 0. 0. 2.92397663e-03 0. 0. 0. 0. 0. 0. 0.
      2.92397663e-03 0. 2.92397663e-03 2.92397663e-03 0. 0. 0. 0. 0. 0.
      0. 0. 0. 0. 0. 0. 0. 0. 0. 0. 5.84795326e-03 0. 0. 0. 0.
      5.84795326e-03 0. 0. 2.92397663e-03 0. 0. 0. 0. 0. 0. 0. 0. 0. 0.
      0. 0. 0. 0. 0. 0. 0. 0. 0. 0. 0. 0. 0. 0. 0. 0. 2.92397663e-03 0.
      5.84795326e-03 0. 0. 0. 0. 0. 0. 0. 0. 0. 0. 0. 0. 0. 0. 0. 0.
      2.92397663e-03 0. 0. 0. 0. 0. 0. 0. 0. 0. 2.92397663e-03 0.
      5.84795326e-03 0. 0. 5.84795326e-03 0. 0. 0. 0. 2.92397663e-03 0.
      0. 0. 0. 2.92397663e-03 0. 0. 2.92397663e-03 2.92397663e-03 0. 0.
      0. 0. 0. 0. 0. 0. 0. 0. 0. 0. 0. 0. 0. 0. 0. 0. 0. 0. 0. 0. 0. 0.
      2.92397663e-03 0. 0. 0. 0. 0. 2.92397663e-03 0. 0. 0. 0. 0.
      2.92397663e-03 0. 8.77192989e-03 0. 0. 1.16959065e-02 0. 0. 0. 0.
      0. 0. 0. 0. 0. 0. 0. 0. 2.92397663e-03 0. 0. 0. 2.92397663e-03 0.
      0. 0. 0. 0. 5.84795326e-03 0. 2.92397663e-03 0. 0. 0. 0. 0. 0. 0.
      5.84795326e-03 2.92397663e-03 0. 0. 0. 0. 0. 0. 0. 0. 0. 0. 0. 0.
      2.92397663e-03 0. 0. 1.16959065e-02 0. 0. 0. 2.92397663e-03 0. 0.
      0. 0. 0. 0. 0. 0. 0. 0. 0. 0. 0. 0. 0. 2.92397663e-03
      2.92397663e-03 0. 0. 0. 0. 0. 0. 0. 0. 2.92397663e-03
      2.92397663e-03 0. 0. 0. 0. 5.84795326e-03 0. 2.92397663e-03 0. 0.
      0. 0. 0. 8.77192989e-03 0. 0. 0. 2.92397663e-03 0. 0.
      5.84795326e-03 2.92397663e-03 0. 2.92397663e-03 0. 0. 0. 0.
      5.84795326e-03 2.92397663e-03 5.84795326e-03 0. 0. 0. 0. 0. 0. 0.
      0. 2.92397663e-03 2.92397663e-03 0. 5.84795326e-03 0. 0. 0. 0. 0.
      5.84795326e-03 0. 0. 0. 0. 0. 0. 0. 0. 0. 0. 0. 2.92397663e-03 0.
      0. 0. 0. 2.92397663e-03 0. 0. 2.92397663e-03 5.84795326e-03 0. 0.
      0. 0. 0. 0. 0. 0. 0. 0. 0. 0. 0. 0. 0. 5.84795326e-03 0.
      2.92397663e-03 0. 2.92397663e-03 0. 0. 0. 5.84795326e-03 0.
      8.77192989e-03 0. 0. 0. 0. 0. 0. 0. 0. 0. 0. 0. 0. 0.
      2.92397663e-03 0. 2.92397663e-03 1.46198831e-02 0. 0. 0. 0. 0. 0.
      5.84795326e-03 2.92397663e-03 0. 0. 0. 0. 0. 0. 0. 2.92397663e-03
      0. 0. 8.77192989e-03 0. 0. 0. 0. 0. 0. 0. 0. 2.92397663e-03
      5.84795326e-03 0. 0. 0. 0. 2.92397663e-03 0. 0. 0. 0. 0. 0. 0. 0.
      0. 0. 0. 0. 0. 0. 0. 0. 2.92397663e-03 0. 0. 0. 0. 0. 0. 0. 0. 0.
      0. 0. 5.84795326e-03 0. 0. 0. 0. 0. 0. 0. 2.92397663e-03
      2.92397663e-03 0. 0. 5.84795326e-03 0. 0. 0. 0. 0. 0. 0. 0. 0. 0.
      2.92397663e-03 0. 0. 8.77192989e-03 0. 0. 0. 0. 0. 0. 0. 0. 0. 0.
      0. 0. 2.92397663e-03 0. 5.84795326e-03 0. 0. 0. 0. 0. 0. 0. 0.
      5.84795326e-03 0. 0. 0. 0. 0. 0. 5.84795326e-03 0. 0. 0. 0. 0. 0.
      0. 0. 0. 0. 0. 0. 0. 2.92397663e-03 0. 0. 0. 0. 0. 8.77192989e-03
      0. 0. 1.16959065e-02 0. 0. 0. 0. 0. 2.92397663e-03 0.
      2.92397663e-03 2.92397663e-03 0. 0. 0. 0. 0. 2.92397663e-03 0.
      2.92397663e-03 0. 2.92397663e-03 0. 0. 0. 0. 0. 0. 0. 0.
      2.92397663e-03 2.92397663e-03 0. 2.92397663e-03 0. 0. 0. 0.
      2.92397663e-03 0. 0. 0. 2.92397663e-03 0. 0. 0. 0. 0. 0. 0. 0. 0.
      0. 0. 0. 5.84795326e-03 0. 0. 0. 0. 0. 0. 2.92397663e-03 0. 0.
      2.92397663e-03 2.92397663e-03 0. 2.92397663e-03 0. 0. 0. 0. 0. 0.
      0. 0. 0. 0. 0. 0. 0. 2.92397663e-03 0. 0. 0. 0. 0. 0. 0. 0.
      2.92397663e-03 0. 0. 0. 0. 0. 0. 2.92397663e-03 0. 0.
      2.92397663e-03 0. 2.92397663e-03 2.92397663e-03 0. 2.92397663e-03
      0. 0. 0. 2.92397663e-03 2.92397663e-03 0. 0. 0. 0. 0. 0. 0. 0. 0.
      0. 0. 2.92397663e-03 0. 0. 0. 0. 0. 2.92397663e-03 0. 0.
      2.92397663e-03 0. 2.92397663e-03 2.92397663e-03 0. 0. 0.
      5.84795326e-03 0. 1.75438598e-02 0. 0. 0. 0. 0. 0. 0. 0.</_>
    <_>
      0. 0. 0. 0. 0. 0. 5.91715984e-03 0. 0. 0. 0. 0. 0. 0. 0. 0. 0. 0.
      0. 0. 0. 5.91715984e-03 0. 0. 5.91715984e-03 0. 0. 0. 0. 0. 0. 0.
      0. 0. 0. 0. 0. 0. 0. 0. 0. 0. 1.18343197e-02 0. 0. 0. 0. 0. 0. 0.
      0. 1.18343197e-02 0. 0. 0. 0. 5.91715984e-03 0. 0. 0. 0. 0. 0.
      1.77514795e-02 0. 0. 0. 0. 0. 1.18343197e-02 0. 0. 0. 0. 0.
      5.91715984e-03 0. 0. 0. 0. 0. 0. 1.18343197e-02 0. 0. 0. 0.
      5.91715984e-03 0. 0. 0. 0. 0. 0. 0. 0. 0. 0. 0. 0. 0.
      5.91715984e-03 0. 0. 0. 0. 0. 0. 1.18343197e-02 0. 0. 0. 0. 0. 0.
      0. 0. 0. 0. 0. 0. 0. 5.91715984e-03 0. 0. 0. 0. 5.91715984e-03 0.
      0. 0. 0. 0. 0. 0. 0. 0. 0. 0. 1.18343197e-02 0. 2.95857992e-02 0.
      0. 0. 0. 0. 0. 0. 1.18343197e-02 0. 0. 0. 0. 0. 0. 0. 0. 0. 0. 0.
      0. 0. 0. 0. 0. 0. 0. 0. 0. 0. 0. 0. 0. 0. 0. 0. 0. 0. 0. 0. 0. 0.
      5.91715984e-03 0. 0. 5.91715984e-03 0. 0. 0. 0. 0. 0. 0. 0. 0.
      5.91715984e-03 0. 0. 0. 1.18343197e-02 0. 0. 0. 0. 0. 0.
      5.91715984e-03 0. 0. 0. 0. 0. 0. 0. 0. 0. 0. 0. 0. 0. 0. 0. 0. 0.
      0. 0. 0. 0. 0. 5.91715984e-03 0. 0. 0. 0. 0. 0. 0. 0. 0. 0. 0. 0.
      0. 0. 0. 0. 0. 0. 0. 0. 0. 0. 0. 0. 0. 0. 0. 0. 0. 0. 0. 0. 0. 0.
      0. 0. 0. 0. 0. 0. 0. 0. 0. 0. 0. 0. 0. 0. 0. 0. 0. 0.
      5.91715984e-03 0. 5.91715984e-03 0. 0. 0. 0. 0. 0. 0. 0. 0. 0. 0.
      0. 0. 0. 0. 0. 0. 0. 0. 0. 0. 0. 0. 0. 0. 0. 0. 0. 0. 0. 0. 0. 0.
      0. 0. 0. 0. 0. 0. 0. 0. 0. 0. 0. 0. 0. 0. 0. 0. 0. 0. 0.
      5.91715984e-03 0. 0. 0. 0. 0. 0. 0. 0. 0. 0. 0. 0. 0. 0. 0. 0. 0.
      0. 0. 0. 0. 0. 0. 0. 0. 0. 0. 0. 0. 0. 0. 0. 0. 0. 0. 0. 0. 0. 0.
      0. 5.91715984e-03 0. 0. 0. 0. 0. 0. 0. 0. 0. 0. 0. 0. 0. 0. 0. 0.
      0. 0. 0. 0. 0. 0. 0. 0. 0. 0. 0. 0. 0. 0. 0. 0. 0. 0. 0. 0. 0. 0.
      0. 0. 0. 0. 0. 0. 0. 0. 0. 0. 0. 0. 0. 5.91715984e-03 0. 0. 0. 0.
      0. 0. 0. 0. 0. 0. 0. 0. 0. 0. 0. 0. 0. 5.91715984e-03 0. 0. 0. 0.
      0. 0. 0. 5.91715984e-03 0. 0. 0. 0. 0. 5.91715984e-03 0. 0. 0. 0.
      0. 0. 0. 0. 0. 0. 0. 5.91715984e-03 0. 0. 0. 0. 0. 5.91715984e-03
      0. 0. 0. 0. 0. 0. 0. 0. 5.91715984e-03 0. 0. 0. 0. 0. 0.
      1.18343197e-02 5.91715984e-03 0. 0. 0. 5.91715984e-03 0.
      1.77514795e-02 0. 0. 0. 0. 0. 0. 0. 0. 0. 0. 0. 0. 0. 0. 0. 0. 0.
      5.91715984e-03 5.91715984e-03 5.91715984e-03 2.95857992e-02 0. 0.
      0. 0. 0. 0. 0. 0. 0. 0. 0. 0. 0. 0. 0. 0. 0. 0. 5.91715984e-03 0.
      0. 0. 0. 0. 0. 0. 0. 0. 5.91715984e-03 0. 0. 0. 0. 5.91715984e-03
      0. 0. 0. 0. 0. 0. 0. 0. 0. 0. 0. 0. 0. 0. 0. 0. 0. 0.
      5.91715984e-03 0. 0. 0. 0. 0. 5.91715984e-03 0. 0. 1.18343197e-02
      0. 0. 0. 0. 0. 0. 0. 0. 0. 0. 0. 0. 0. 0. 0. 0. 0. 0.
      1.18343197e-02 0. 0. 0. 5.91715984e-03 0. 0. 0. 0. 5.91715984e-03
      0. 0. 0. 0. 0. 0. 0. 0. 0. 5.91715984e-03 0. 0. 0. 0. 0. 0. 0. 0.
      0. 0. 0. 0. 0. 0. 0. 0. 0. 0. 0. 0. 5.91715984e-03 5.91715984e-03
      0. 0. 0. 0. 0. 0. 0. 0. 0. 0. 0. 0. 1.77514795e-02 0. 0. 0. 0.
      5.91715984e-03 5.91715984e-03 0. 0. 0. 0. 0. 0. 0. 0. 0. 0. 0. 0.
      0. 0. 0. 0. 0. 0. 1.18343197e-02 0. 0. 0. 0. 0. 5.91715984e-03 0.
      0. 0. 0. 0. 0. 0. 0. 0. 0. 0. 0. 0. 0. 0. 0. 5.91715984e-03 0. 0.
      0. 5.91715984e-03 0. 0. 0. 0. 0. 0. 0. 5.91715984e-03 0.
      5.91715984e-03 0. 0. 1.18343197e-02 0. 0. 5.91715984e-03 0. 0. 0.
      0. 0. 0. 0. 0. 0. 0. 0. 0. 5.91715984e-03 0. 0. 0. 0. 0. 0. 0. 0.
      0. 0. 0. 0. 0. 0. 0. 0. 0. 0. 0. 0. 0. 0. 0. 1.18343197e-02 0. 0.
      0. 0. 0. 0. 0. 0. 1.77514795e-02 0. 0. 1.18343197e-02 0. 0. 0. 0.
      0. 0. 0. 0. 0. 0. 0. 0. 5.91715984e-03 0. 0. 0. 0. 0. 0. 0. 0. 0.
      0. 0. 0. 0. 0. 0. 0. 0. 0. 0. 0. 0. 0. 0. 0. 0. 0. 0. 0. 0. 0. 0.
      0. 0. 0. 0. 0. 0. 0. 5.91715984e-03 0. 0. 0. 0. 5.91715984e-03 0.
      0. 0. 0. 0. 0. 0. 0. 0. 0. 0. 1.18343197e-02 0. 0. 0. 0. 0.
      1.18343197e-02 0. 1.18343197e-02 0. 0. 0. 0. 0. 0. 0. 0. 0. 0. 0.
      0. 0. 0. 0. 0. 0. 0. 0. 0. 0. 0. 0. 0. 0. 0. 0. 5.91715984e-03 0.
      0. 1.18343197e-02 0. 5.91715984e-03 0. 0. 0. 0. 0. 0. 0. 0.
      1.18343197e-02 0. 0. 0. 0. 0. 0. 0. 0. 0. 0. 0. 0. 0. 0. 0. 0. 0.
      0. 0. 0. 0. 0. 0. 0. 0. 0. 0. 0. 0. 0. 0. 0. 0. 0. 0. 0. 0. 0. 0.
      0. 0. 0. 0. 0. 0. 0. 0. 0. 0. 0. 0. 0. 0. 0. 0. 0. 5.91715984e-03
      0. 0. 0. 0. 0. 0. 0. 0. 0. 0. 0. 0. 0. 0. 0. 0. 0. 0. 0. 0. 0. 0.
      0. 0. 0. 0. 0. 0. 0. 0. 0. 0. 0. 0. 0. 0. 0. 0. 5.91715984e-03 0.
      0. 0. 0. 0. 5.91715984e-03 1.18343197e-02 0. 0. 0. 0. 0. 0. 0. 0.
      0. 0. 0. 0. 0. 0. 0. 0. 0. 0. 0. 0. 0. 5.91715984e-03 0. 0. 0. 0.
      0. 0. 0. 0. 0. 0. 0. 0. 0. 0. 5.91715984e-03 0. 0. 0. 0. 0.
      5.91715984e-03 0. 0. 0. 0. 0. 0. 0. 0. 0. 5.91715984e-03 0. 0. 0.
      0. 0. 5.91715984e-03 0. 0. 0. 0. 0. 0. 0. 0. 0. 5.91715984e-03 0.
      0. 0. 0. 0. 0. 0. 0. 0. 5.91715984e-03 0. 0. 0. 0. 0. 0.
      5.91715984e-03 0. 0. 0. 0. 0. 0. 0. 1.77514795e-02 0. 0. 0. 0.
      5.91715984e-03 0. 0. 1.18343197e-02 0. 1.77514795e-02 0. 0. 0. 0.
      0. 0. 0. 0. 0. 0. 0. 0. 0. 0. 0. 0. 0. 5.91715984e-03 0. 0. 0. 0.
      0. 0. 1.18343197e-02 0. 0. 0. 0. 0. 0. 0. 0. 0. 0. 0. 0. 0. 0. 0.
      0. 0. 0. 0. 0. 0. 0. 0. 0. 0. 0. 0. 0. 0. 0. 0. 0. 0. 0. 0. 0.
      5.91715984e-03 0. 0. 0. 0. 0. 0. 0. 0. 0. 0. 0. 0. 0.
      5.91715984e-03 0. 0. 0. 0. 0. 0. 0. 0. 0. 1.18343197e-02 0. 0. 0.
      0. 0. 0. 0. 0. 0. 0. 0. 0. 5.91715984e-03 0. 5.91715984e-03 0. 0.
      0. 0. 0. 0. 0. 0. 0. 0. 0. 0. 0. 0. 0. 0. 0. 0. 0. 0. 0. 0. 0. 0.
      0. 0. 0. 0. 0. 0. 0. 0. 0. 0. 0. 5.91715984e-03 0. 0. 0.
      5.91715984e-03 0. 0. 0. 0. 0. 0. 0. 0. 0. 0. 0. 0. 0. 0. 0. 0. 0.
      0. 0. 0. 0. 0. 0. 0. 0. 0. 5.91715984e-03 0. 0. 0. 0. 0. 0. 0. 0.
      0. 0. 0. 0. 0. 0. 0. 0. 0. 0. 0. 0. 0. 0. 1.18343197e-02 0. 0. 0.
      0. 0. 0. 0. 0. 0. 0. 0. 0. 0. 0. 0. 0. 0. 0. 5.91715984e-03 0. 0.
      0. 0. 0. 0. 0. 0. 0. 0. 0. 0. 0. 0. 0. 0. 5.91715984e-03 0.
      5.91715984e-03 0. 0. 5.91715984e-03 0. 0. 0. 0. 0. 0. 0. 0. 0. 0.
      0. 0. 0. 0. 0. 0. 0. 0. 0. 0. 0. 0. 0. 5.91715984e-03 0. 0. 0. 0.
      0. 0. 0. 0. 0. 0. 0. 0. 0. 0. 0. 0. 0. 0. 0. 0. 0. 0. 0. 0. 0. 0.
      0. 0. 0. 0. 0. 0. 0. 0. 0. 0. 0. 1.18343197e-02 0. 0. 0. 0. 0. 0.
      0. 0. 0. 0. 0. 0. 0. 0. 0. 0. 0. 0. 0. 0. 0. 0. 0. 0. 0. 0. 0. 0.
      0. 0. 0. 0. 5.91715984e-03 0. 0. 0. 0. 0. 0. 0. 0. 0. 0. 0. 0. 0.
      0. 5.91715984e-03 0. 0. 0. 0. 5.91715984e-03 0. 5.91715984e-03 0.
      0. 1.18343197e-02 0. 0. 0. 0. 0. 0. 0. 0. 0. 0. 0. 0. 0. 0. 0. 0.
      0. 0. 0. 1.77514795e-02 0. 0. 0. 0. 0. 0. 0. 0. 0. 0. 0. 0. 0. 0.
      0. 0. 0. 0. 0. 5.91715984e-03 0. 0. 0. 0.</_>
    <_>
      0. 0. 0. 0. 0. 0. 0. 1.48148146e-02 0. 0. 0. 0. 0. 0. 0. 0. 0.
      7.40740728e-03 0. 0. 0. 0. 0. 0. 0. 0. 0. 0. 0. 0. 0. 0. 0. 0. 0.
      0. 0. 0. 0. 0. 0. 0. 0. 0. 0. 0. 0. 7.40740728e-03 0. 0. 0. 0. 0.
      0. 0. 0. 0. 2.22222209e-02 0. 0. 0. 0. 0. 0. 0. 0. 0. 0. 0. 0. 0.
      0. 0. 0. 0. 0. 0. 0. 0. 0. 0. 0. 0. 0. 0. 0. 0. 0. 0. 0. 0. 0. 0.
      0. 0. 0. 0. 0. 0. 0. 0. 0. 0. 0. 0. 0. 0. 0. 7.40740728e-03 0. 0.
      0. 0. 0. 0. 0. 0. 0. 0. 0. 0. 0. 0. 0. 0. 0. 0. 0. 0. 0. 0. 0. 0.
      0. 0. 7.40740728e-03 0. 0. 0. 0. 0. 0. 0. 0. 0. 0. 0. 0. 0. 0. 0.
      0. 0. 0. 0. 0. 0. 0. 0. 0. 0. 0. 0. 0. 0. 0. 0. 7.40740728e-03
      1.48148146e-02 0. 0. 0. 0. 0. 0. 0. 0. 0. 0. 0. 0. 0. 0. 0. 0. 0.
      0. 0. 0. 0. 0. 0. 0. 1.48148146e-02 0. 0. 0. 0. 0. 0. 0. 0. 0. 0.
      0. 0. 0. 0. 0. 7.40740728e-03 0. 0. 0. 0. 0. 0. 0. 0. 0. 0. 0. 0.
      0. 0. 0. 0. 0. 0. 7.40740728e-03 0. 0. 0. 0. 0. 0. 0. 0. 0. 0. 0.
      0. 0. 7.40740728e-03 0. 0. 0. 0. 0. 0. 0. 0. 7.40740728e-03 0. 0.
      0. 0. 0. 7.40740728e-03 0. 0. 0. 0. 7.40740728e-03 0. 0. 0. 0. 0.
      7.40740728e-03 0. 7.40740728e-03 0. 0. 0. 0. 0. 0. 0. 0. 0.
      7.40740728e-03 0. 0. 1.48148146e-02 0. 1.48148146e-02 0. 0.
      1.48148146e-02 0. 0. 0. 0. 0. 0. 0. 7.40740728e-03 0. 0. 0. 0.
      1.48148146e-02 0. 0. 0. 0. 0. 0. 0. 0. 0. 0. 0. 0. 0. 0. 0. 0. 0.
      0. 0. 0. 0. 0. 0. 0. 0. 0. 0. 0. 0. 0. 0. 0. 1.48148146e-02 0. 0.
      0. 0. 0. 0. 0. 7.40740728e-03 0. 0. 0. 0. 0. 0. 0. 0. 0. 0. 0. 0.
      0. 0. 0. 0. 0. 0. 0. 0. 0. 0. 0. 0. 0. 0. 0. 0. 7.40740728e-03
      7.40740728e-03 0. 0. 0. 0. 7.40740728e-03 0. 0. 0. 0. 0.
      7.40740728e-03 0. 0. 0. 0. 0. 0. 0. 0. 0. 0. 0. 0. 0. 0. 0. 0. 0.
      0. 7.40740728e-03 7.40740728e-03 0. 0. 0. 0. 0. 0. 7.40740728e-03
      0. 0. 0. 0. 7.40740728e-03 0. 0. 0. 0. 0. 1.48148146e-02 0. 0. 0.
      0. 0. 0. 0. 0. 0. 0. 0. 0. 2.22222209e-02 7.40740728e-03 0. 0.
      7.40740728e-03 0. 0. 0. 0. 0. 0. 0. 0. 0. 0. 0. 0. 0. 0. 0. 0. 0.
      0. 0. 0. 0. 0. 0. 0. 0. 0. 0. 0. 0. 0. 0. 0. 0. 0. 0. 0. 0. 0. 0.
      0. 0. 0. 0. 0. 0. 0. 0. 0. 0. 0. 0. 0. 0. 0. 0. 7.40740728e-03 0.
      0. 0. 0. 0. 0. 0. 0. 0. 0. 0. 0. 7.40740728e-03 0. 0. 0. 0. 0. 0.
      0. 0. 7.40740728e-03 0. 0. 7.40740728e-03 0. 0. 0. 0. 0. 0. 0. 0.
      0. 0. 0. 0. 0. 0. 0. 0. 0. 0. 0. 0. 0. 0. 7.40740728e-03 0. 0. 0.
      0. 0. 0. 0. 0. 0. 0. 7.40740728e-03 0. 0. 0. 0. 0. 0. 0.
      7.40740728e-03 0. 0. 0. 0. 0. 0. 0. 0. 0. 0. 0. 0. 0. 0. 0. 0. 0.
      0. 0. 0. 0. 0. 0. 0. 7.40740728e-03 0. 0. 0. 0. 0. 0. 0. 0. 0. 0.
      0. 0. 0. 0. 0. 0. 0. 0. 0. 0. 0. 0. 0. 0. 0. 7.40740728e-03 0. 0.
      0. 0. 0. 0. 0. 0. 0. 0. 0. 0. 0. 0. 0. 0. 0. 0. 1.48148146e-02 0.
      0. 0. 7.40740728e-03 0. 0. 0. 0. 0. 0. 7.40740728e-03 0. 0. 0. 0.
      0. 0. 0. 0. 0. 0. 7.40740728e-03 0. 0. 0. 0. 0. 0. 0. 0. 0. 0. 0.
      0. 0. 0. 0. 0. 0. 0. 0. 0. 0. 0. 0. 0. 0. 0. 0. 0. 0. 0. 0. 0. 0.
      0. 0. 0. 0. 0. 0. 0. 0. 0. 0. 0. 0. 0. 0. 0. 0. 0. 0. 0. 0. 0. 0.
      0. 0. 0. 0. 0. 0. 0. 0. 0. 0. 0. 7.40740728e-03 0. 0.
      7.40740728e-03 0. 0. 0. 0. 0. 0. 0. 0. 0. 0. 0. 0. 0. 0. 0.
      7.40740728e-03 0. 0. 0. 0. 0. 0. 0. 0. 0. 0. 0. 0. 0. 0. 0. 0. 0.
      0. 0. 0. 0. 0. 7.40740728e-03 7.40740728e-03 0. 0. 0. 0. 0. 0. 0.
      0. 0. 0. 0. 0. 0. 0. 0. 0. 0. 0. 0. 0. 0. 0. 0. 0. 0. 0. 0. 0. 0.
      0. 0. 0. 0. 0. 0. 0. 0. 7.40740728e-03 0. 0. 0. 0. 0. 0. 0. 0. 0.
      0. 0. 0. 0. 7.40740728e-03 0. 0. 0. 0. 0. 7.40740728e-03
      7.40740728e-03 0. 0. 0. 7.40740728e-03 0. 0. 0. 0. 0. 0.
      7.40740728e-03 0. 0. 0. 0. 0. 0. 0. 0. 0. 0. 0. 0. 0. 0.
      7.40740728e-03 0. 0. 0. 0. 0. 0. 0. 0. 7.40740728e-03 0. 0.
      7.40740728e-03 0. 0. 0. 0. 0. 0. 0. 0. 0. 0. 0. 0. 1.48148146e-02
      0. 7.40740728e-03 7.40740728e-03 0. 0. 0. 0. 0. 0. 0. 0. 0. 0.
      7.40740728e-03 0. 0. 0. 0. 0. 0. 0. 0. 0. 0. 0. 0. 0. 0. 0. 0. 0.
      0. 0. 7.40740728e-03 7.40740728e-03 0. 0. 0. 0. 0. 0. 0. 0. 0. 0.
      0. 0. 0. 0. 0. 0. 0. 0. 0. 0. 0. 0. 0. 0. 0. 0. 0. 0. 0. 0.
      7.40740728e-03 0. 0. 0. 0. 0. 0. 0. 0. 0. 0. 0. 0. 0. 0. 0. 0. 0.
      0. 0. 0. 0. 0. 0. 0. 0. 0. 0. 0. 0. 1.48148146e-02 0. 0.
      7.40740728e-03 0. 7.40740728e-03 0. 0. 0. 0. 0. 0. 0. 0. 0.
      7.40740728e-03 7.40740728e-03 0. 0. 0. 0. 0. 0. 0. 7.40740728e-03
      7.40740728e-03 0. 0. 0. 0. 0. 0. 0. 0. 0. 0. 0. 0. 0. 0. 0. 0. 0.
      0. 0. 0. 0. 0. 0. 0. 0. 0. 0. 0. 0. 0. 0. 0. 0. 0. 0.
      7.40740728e-03 0. 0. 0. 0. 0. 0. 0. 0. 0. 0. 0. 0. 0. 0. 0. 0. 0.
      0. 0. 0. 0. 0. 0. 0. 0. 7.40740728e-03 0. 0. 0. 0. 0. 0. 0. 0. 0.
      0. 0. 0. 0. 0. 0. 0. 0. 0. 0. 0. 0. 0. 0. 0. 0. 0. 0. 0. 0. 0. 0.
      0. 0. 0. 0. 0. 0. 0. 0. 0. 0. 0. 0. 0. 0. 0. 0. 0. 0.
      7.40740728e-03 0. 0. 0. 0. 0. 0. 0. 0. 0. 0. 0. 0. 0. 0. 0. 0. 0.
      0. 0. 0. 0. 0. 0. 7.40740728e-03 0. 0. 0. 0. 0. 0. 0. 0. 0. 0. 0.
      0. 0. 0. 0. 0. 0. 0. 0. 7.40740728e-03 0. 0. 0. 0. 0. 0. 0. 0. 0.
      0. 0. 0. 7.40740728e-03 0. 0. 0. 0. 0. 0. 0. 0. 0. 0. 0. 0. 0. 0.
      0. 0. 0. 0. 0. 0. 0. 0. 0. 0. 0. 0. 0. 0. 0. 0. 0. 0. 0. 0. 0. 0.
      0. 0. 0. 0. 0. 0. 0. 0. 7.40740728e-03 0. 0. 0. 0. 0. 0. 0. 0. 0.
      0. 0. 0. 0. 0. 0. 0. 0. 0. 0. 0. 0. 0. 0. 7.40740728e-03 0. 0. 0.
      0. 7.40740728e-03 0. 0. 0. 0. 0. 0. 7.40740728e-03 7.40740728e-03
      7.40740728e-03 0. 0. 0. 0. 7.40740728e-03 0. 0. 0. 0. 0. 0.
      2.22222209e-02 0. 7.40740728e-03 0. 0. 0. 0. 0. 0. 0. 0. 0. 0. 0.
      0. 0. 0. 0. 0. 1.48148146e-02 0. 0. 0. 1.48148146e-02 0. 0. 0.
      7.40740728e-03 0. 0. 0. 0. 0. 0. 0. 0. 0. 0. 0. 0. 0. 0. 0.
      7.40740728e-03 0. 0. 7.40740728e-03 0. 0. 0. 0. 0. 0. 0. 0. 0. 0.
      0. 0. 0. 0. 0. 0. 0. 0. 0. 0. 0. 0. 0. 0. 0. 0. 7.40740728e-03 0.
      0. 0. 0. 0. 0. 0. 0. 0. 0. 0. 0. 0. 7.40740728e-03 0.
      7.40740728e-03 0. 0. 0. 0. 0. 0. 0. 0. 0. 0. 0. 0. 0. 0. 0. 0. 0.
      0. 0. 0. 0. 0. 0. 0. 0. 0. 0. 0. 0. 0. 7.40740728e-03 0. 0. 0. 0.
      0. 0. 0. 0. 0. 0. 0. 0. 0. 0. 0. 0. 0. 0. 7.40740728e-03 0. 0. 0.
      0. 0. 0. 0. 0. 0. 7.40740728e-03 0. 0. 0. 0. 0. 0. 1.48148146e-02
      0. 0. 0. 2.22222209e-02 0. 0. 0. 0. 0. 0. 0. 0. 0. 0. 0. 0. 0. 0.
      0. 0. 0. 0. 0. 0. 0. 7.40740728e-03 0. 0. 0. 0. 0. 0. 0. 0. 0. 0.
      0. 0. 0. 0. 0. 0. 0. 0. 0. 0. 0. 0. 0. 0. 0. 0. 0. 7.40740728e-03
      0. 0. 0. 0. 7.40740728e-03 0. 0. 0. 0. 0. 0. 0. 0. 0. 0. 0. 0. 0.
      0. 0. 0. 7.40740728e-03 0. 0. 0. 0. 0. 0. 0. 1.48148146e-02 0.</_>
    <_>
      0. 0. 0. 0. 0. 0. 0. 0. 0. 0. 0. 0. 0. 6.92041544e-03
      3.46020772e-03 0. 0. 0. 0. 0. 3.46020772e-03 0. 0. 0. 0. 0. 0. 0.
      0. 1.03806229e-02 3.46020772e-03 0. 3.46020772e-03 3.46020772e-03
      3.46020772e-03 0. 0. 0. 0. 0. 0. 0. 0. 0. 0. 0. 0. 0. 0. 0.
      3.46020772e-03 0. 0. 0. 0. 0. 0. 0. 0. 0. 0. 0. 0. 0. 0.
      3.46020772e-03 0. 0. 0. 0. 0. 0. 0. 0. 0. 0. 0. 0. 0. 0. 0. 0. 0.
      0. 0. 0. 0. 0. 3.46020772e-03 0. 0. 6.92041544e-03 0. 0. 0.
      3.46020772e-03 0. 0. 0. 0. 0. 0. 0. 0. 0. 0. 0. 0. 0. 0. 0. 0.
      3.46020772e-03 0. 0. 0. 0. 0. 0. 0. 0. 0. 0. 0. 0. 0. 0. 0.
      3.46020772e-03 0. 0. 6.92041544e-03 0. 0. 0. 0. 3.46020772e-03 0.
      0. 0. 0. 6.92041544e-03 3.46020772e-03 0. 0. 0. 0. 0. 0. 0. 0. 0.
      0. 0. 0. 0. 3.46020772e-03 0. 0. 0. 0. 0. 0. 0. 0. 6.92041544e-03
      0. 0. 0. 0. 0. 0. 6.92041544e-03 0. 0. 0. 0. 0. 0. 0. 0. 0. 0. 0.
      0. 0. 0. 0. 3.46020772e-03 0. 0. 0. 3.46020772e-03 0. 0. 0. 0. 0.
      0. 0. 0. 0. 0. 0. 0. 0. 0. 3.46020772e-03 6.92041544e-03
      3.46020772e-03 3.46020772e-03 0. 0. 0. 0. 0. 0. 0. 0. 0. 0. 0. 0.
      0. 0. 0. 3.46020772e-03 0. 0. 0. 0. 0. 0. 0. 0. 0. 0. 0. 0. 0. 0.
      3.46020772e-03 0. 0. 3.46020772e-03 0. 3.46020772e-03 0. 0. 0. 0.
      3.46020772e-03 0. 6.92041544e-03 0. 0. 3.46020772e-03 0. 0. 0. 0.
      0. 3.46020772e-03 3.46020772e-03 0. 0. 0. 0. 0. 0. 0. 0. 0. 0. 0.
      0. 0. 0. 0. 0. 3.46020772e-03 3.46020772e-03 0. 0. 0.
      3.46020772e-03 3.46020772e-03 0. 0. 0. 0. 0. 0. 0. 0. 0. 0. 0. 0.
      0. 0. 0. 0. 0. 0. 0. 3.46020772e-03 0. 0. 0. 0. 0. 0. 0. 0. 0. 0.
      0. 3.46020772e-03 0. 0. 3.46020772e-03 0. 0. 6.92041544e-03 0. 0.
      0. 0. 0. 3.46020772e-03 0. 0. 0. 3.46020772e-03 0. 0. 0. 0. 0.
      3.46020772e-03 3.46020772e-03 0. 0. 0. 0. 0. 3.46020772e-03 0. 0.
      0. 0. 0. 0. 0. 0. 0. 0. 3.46020772e-03 0. 0. 0. 0. 0. 0. 0. 0. 0.
      3.46020772e-03 0. 0. 0. 0. 0. 0. 0. 0. 6.92041544e-03 0. 0. 0. 0.
      0. 3.46020772e-03 0. 0. 3.46020772e-03 0. 0. 0. 0. 0.
      3.46020772e-03 3.46020772e-03 0. 3.46020772e-03 0. 0. 0. 0. 0. 0.
      3.46020772e-03 0. 6.92041544e-03 0. 0. 0. 0. 0. 0. 0. 0. 0. 0. 0.
      3.46020772e-03 0. 0. 0. 0. 0. 0. 6.92041544e-03 0. 0. 0. 0. 0. 0.
      0. 6.92041544e-03 0. 0. 0. 0. 0. 3.46020772e-03 6.92041544e-03 0.
      0. 0. 3.46020772e-03 0. 0. 0. 0. 0. 0. 0. 0. 0. 0. 0. 0. 0. 0. 0.
      0. 0. 0. 0. 0. 0. 0. 0. 0. 0. 0. 1.38408309e-02 0. 3.46020772e-03
      0. 0. 0. 0. 0. 0. 0. 0. 0. 0. 0. 0. 0. 0. 3.46020772e-03 0. 0. 0.
      0. 0. 3.46020772e-03 0. 3.46020772e-03 6.92041544e-03 0.
      3.46020772e-03 0. 3.46020772e-03 0. 0. 0. 6.92041544e-03 0. 0. 0.
      0. 0. 0. 0. 0. 0. 0. 0. 0. 0. 0. 0. 0. 3.46020772e-03 0. 0. 0. 0.
      0. 0. 0. 0. 0. 0. 0. 0. 0. 6.92041544e-03 0. 0. 0. 0.
      3.46020772e-03 0. 0. 0. 0. 0. 3.46020772e-03 0. 0. 0. 0. 0. 0. 0.
      3.46020772e-03 6.92041544e-03 0. 3.46020772e-03 6.92041544e-03 0.
      0. 0. 0. 0. 0. 0. 0. 0. 0. 0. 0. 0. 0. 0. 0. 0. 0. 0. 0. 0. 0. 0.
      3.46020772e-03 0. 0. 0. 0. 0. 0. 0. 0. 3.46020772e-03 0.
      6.92041544e-03 0. 0. 0. 0. 0. 0. 0. 3.46020772e-03 0.
      3.46020772e-03 0. 0. 0. 0. 0. 0. 0. 6.92041544e-03 0. 0.
      1.73010379e-02 0. 0. 0. 0. 0. 0. 0. 0. 0. 0. 0. 3.46020772e-03
      3.46020772e-03 0. 0. 0. 0. 0. 0. 0. 0. 0. 3.46020772e-03 0. 0. 0.
      3.46020772e-03 3.46020772e-03 0. 0. 0. 0. 0. 1.03806229e-02 0. 0.
      0. 0. 0. 3.46020772e-03 3.46020772e-03 0. 3.46020772e-03 0. 0.
      3.46020772e-03 3.46020772e-03 0. 0. 0. 0. 0. 0. 0. 0. 0. 0. 0.
      3.46020772e-03 0. 0. 0. 0. 0. 0. 0. 3.46020772e-03 0. 0. 0. 0. 0.
      3.46020772e-03 0. 0. 0. 0. 0. 0. 1.03806229e-02 0. 0.
      3.46020772e-03 0. 3.46020772e-03 0. 0. 0. 3.46020772e-03 0. 0. 0.
      0. 0. 0. 0. 0. 3.46020772e-03 0. 0. 0. 0. 0. 3.46020772e-03 0. 0.
      0. 0. 0. 3.46020772e-03 0. 0. 0. 0. 0. 6.92041544e-03 0. 0. 0. 0.
      0. 0. 0. 0. 3.46020772e-03 0. 3.46020772e-03 0. 3.46020772e-03 0.
      0. 0. 3.46020772e-03 0. 0. 0. 0. 0. 0. 0. 0. 0. 0. 3.46020772e-03
      0. 1.03806229e-02 0. 0. 0. 0. 0. 0. 0. 0. 0. 3.46020772e-03 0. 0.
      0. 0. 3.46020772e-03 0. 0. 0. 0. 0. 0. 0. 0. 6.92041544e-03 0. 0.
      0. 0. 0. 0. 0. 0. 0. 0. 0. 3.46020772e-03 0. 0. 0. 0. 0. 0. 0. 0.
      0. 3.46020772e-03 1.73010379e-02 3.46020772e-03 0. 3.46020772e-03
      1.03806229e-02 0. 0. 0. 0. 0. 3.46020772e-03 0. 0. 0.
      6.92041544e-03 0. 0. 0. 0. 0. 0. 0. 0. 0. 0. 0. 0. 0. 0. 0. 0.
      3.46020772e-03 0. 0. 0. 0. 0. 0. 0. 0. 0. 0. 3.46020772e-03 0.
      3.46020772e-03 0. 3.46020772e-03 0. 0. 0. 0. 0. 0. 0. 0. 0. 0.
      3.46020772e-03 3.46020772e-03 0. 0. 0. 0. 0. 0. 6.92041544e-03 0.
      0. 0. 0. 0. 0. 0. 0. 0. 0. 0. 0. 0. 3.46020772e-03 0. 0. 0.
      3.46020772e-03 0. 0. 6.92041544e-03 0. 0. 0. 0. 6.92041544e-03 0.
      6.92041544e-03 0. 0. 0. 0. 0. 0. 3.46020772e-03 0. 0. 0. 0.
      3.46020772e-03 0. 0. 0. 0. 0. 0. 0. 0. 0. 0. 0. 0. 3.46020772e-03
      0. 0. 0. 3.46020772e-03 0. 0. 0. 0. 0. 0. 0. 0. 0. 0. 0. 0. 0. 0.
      0. 0. 0. 0. 0. 3.46020772e-03 3.46020772e-03 0. 0. 0. 0.
      3.46020772e-03 0. 0. 0. 0. 0. 0. 0. 0. 0. 0. 0. 3.46020772e-03 0.
      0. 0. 0. 0. 0. 3.46020772e-03 0. 0. 0. 0. 0. 0. 0. 3.46020772e-03
      0. 3.46020772e-03 6.92041544e-03 3.46020772e-03 0. 0. 0. 0. 0. 0.
      0. 3.46020772e-03 0. 0. 0. 0. 0. 0. 3.46020772e-03 0. 0. 0.
      3.46020772e-03 0. 3.46020772e-03 0. 0. 0. 0. 0. 0. 0. 0. 0. 0. 0.
      3.46020772e-03 0. 0. 3.46020772e-03 3.46020772e-03 0. 0. 0. 0. 0.
      0. 0. 1.03806229e-02 3.46020772e-03 0. 0. 0. 0. 0. 0. 0. 0. 0. 0.
      0. 0. 0. 0. 0. 0. 6.92041544e-03 0. 3.46020772e-03 0. 0. 0. 0. 0.
      0. 0. 0. 0. 0. 0. 0. 0. 0. 0. 0. 0. 3.46020772e-03 0.
      3.46020772e-03 0. 0. 3.46020772e-03 0. 0. 0. 0. 0. 0. 0. 0. 0. 0.
      0. 3.46020772e-03 0. 0. 0. 0. 0. 0. 0. 0. 3.46020772e-03 0.
      3.46020772e-03 0. 0. 0. 0. 3.46020772e-03 0. 0. 0. 0. 0.
      3.46020772e-03 3.46020772e-03 0. 0. 0. 0. 0. 0. 0. 0.
      6.92041544e-03 0. 0. 0. 0. 0. 0. 0. 0. 0. 0. 0. 0. 0. 0.
      3.46020772e-03 0. 0. 0. 0. 0. 0. 0. 6.92041544e-03 0. 0. 0. 0. 0.
      0. 0. 0. 0. 0. 0. 0. 0. 0. 0. 0. 0. 0. 0. 0. 0. 0. 0. 0.
      3.46020772e-03 0. 0. 0. 0. 0. 0. 0. 3.46020772e-03 0. 0. 0. 0. 0.
      0. 0. 0. 0. 0. 0. 0. 0. 0. 0. 0. 0. 3.46020772e-03 0. 0. 0.
      3.46020772e-03 0. 0. 0. 0. 0. 3.46020772e-03 0. 0. 0. 0. 0. 0. 0.
      0. 3.46020772e-03 3.46020772e-03 0. 0. 0. 0. 0. 0. 0.
      6.92041544e-03 0. 0. 3.46020772e-03 0. 0. 0. 0. 6.92041544e-03
      6.92041544e-03 0. 0. 0. 0. 0. 0. 0. 0. 0. 0. 0. 0. 0. 0. 0. 0. 0.
      0. 3.46020772e-03 0. 0. 0. 3.46020772e-03 0. 0. 0. 0. 0.
      6.92041544e-03 0. 0. 3.46020772e-03 0. 0. 0. 0. 0. 0. 0.
      3.46020772e-03 0. 0. 0. 0. 0. 0. 3.46020772e-03 0. 0. 0. 0. 0. 0.
      0. 0. 0. 0. 3.46020772e-03 0. 0. 3.46020772e-03 0. 6.92041544e-03
      0. 0. 3.46020772e-03 0. 0. 0. 3.46020772e-03 6.92041544e-03
      3.46020772e-03 0. 0. 0. 0. 0. 0. 0. 0. 0. 0. 0. 0. 0. 0. 0. 0. 0.
      0. 0. 0. 0. 0. 0. 0. 0. 0. 0. 0. 0. 0. 0. 0. 0. 0. 6.92041544e-03
      0. 0. 0. 3.46020772e-03 0. 0. 0. 0. 0. 0. 0. 3.46020772e-03 0.
      3.46020772e-03 0. 0. 0. 3.46020772e-03 0. 0. 3.46020772e-03 0.
      3.46020772e-03 0. 0. 0. 0. 0. 0. 0. 0. 0. 0. 0. 0. 0. 0. 0. 0. 0.
      0. 0. 0. 0. 3.46020772e-03 0. 0. 6.92041544e-03 0. 0. 0. 0. 0. 0.
      0. 0. 0. 0. 0. 0. 0. 0. 0. 0. 0. 0. 0. 0. 0. 0. 0. 3.46020772e-03
      0. 0. 3.46020772e-03 0. 3.46020772e-03 0. 0. 0. 0. 0. 0.
      3.46020772e-03 0. 0. 0. 0. 0. 3.46020772e-03 6.92041544e-03 0.
      3.46020772e-03 0. 0. 0. 0. 0. 0. 0. 0. 0. 0. 0. 0. 3.46020772e-03
      0. 0. 0. 0. 0. 0. 0. 0. 0. 0. 0. 0. 0. 0. 0. 0. 0. 0. 0. 0. 0. 0.
      3.46020772e-03 0. 0. 0. 0. 3.46020772e-03 0. 3.46020772e-03 0. 0.
      0. 0. 3.46020772e-03 3.46020772e-03 0. 0. 0. 0. 0. 0. 0. 0. 0. 0.
      0. 0. 0. 3.46020772e-03 0. 0. 0. 0. 3.46020772e-03 0. 0. 0.</_>
    <_>
      0. 0. 0. 0. 0. 0. 0. 0. 6.13496918e-03 0. 0. 0. 0. 0. 0.
      6.13496918e-03 0. 0. 0. 0. 0. 0. 0. 0. 0. 0. 0. 0. 0. 0. 0. 0. 0.
      0. 0. 0. 0. 0. 0. 0. 0. 0. 0. 0. 0. 0. 0. 0. 0. 0. 0. 0. 0. 0. 0.
      0. 0. 0. 0. 0. 0. 0. 6.13496918e-03 0. 0. 0. 0. 0. 0. 0. 0. 0. 0.
      0. 0. 0. 0. 0. 0. 0. 0. 0. 0. 0. 0. 0. 0. 0. 0. 0. 0. 0. 0. 0. 0.
      0. 0. 0. 0. 0. 0. 0. 0. 0. 0. 0. 0. 0. 0. 0. 0. 0. 0. 0. 0. 0. 0.
      0. 0. 6.13496918e-03 0. 0. 0. 0. 0. 0. 0. 6.13496918e-03 0. 0. 0.
      0. 0. 0. 0. 0. 1.22699384e-02 0. 0. 0. 0. 0. 0. 0. 0. 0. 0. 0. 0.
      0. 0. 0. 0. 0. 0. 0. 0. 0. 0. 0. 0. 0. 0. 1.22699384e-02
      6.13496918e-03 6.13496918e-03 6.13496918e-03 0. 0. 0. 0. 0. 0. 0.
      0. 6.13496918e-03 0. 0. 6.13496918e-03 0. 0. 0. 0. 0. 0. 0. 0. 0.
      0. 0. 0. 0. 0. 0. 0. 0. 0. 6.13496918e-03 0. 1.22699384e-02 0. 0.
      1.22699384e-02 6.13496918e-03 0. 0. 0. 0. 0. 0. 6.13496918e-03 0.
      0. 0. 2.45398767e-02 0. 0. 0. 0. 0. 0. 0. 0. 0. 0. 0. 0.
      6.13496918e-03 0. 0. 0. 0. 0. 6.13496918e-03 0. 0. 0.
      1.22699384e-02 0. 0. 6.13496918e-03 0. 0. 0. 6.13496918e-03 0. 0.
      0. 0. 0. 0. 0. 0. 0. 0. 0. 0. 0. 0. 0. 6.13496918e-03
      6.13496918e-03 0. 0. 0. 0. 0. 0. 0. 0. 0. 0. 0. 0. 0. 0. 0. 0. 0.
      0. 0. 0. 0. 6.13496918e-03 1.22699384e-02 0. 0. 0. 0. 0. 0. 0. 0.
      0. 0. 0. 0. 0. 0. 0. 0. 0. 0. 0. 0. 0. 0. 0. 0. 0. 0. 0. 0. 0. 0.
      0. 0. 6.13496918e-03 0. 0. 0. 0. 0. 0. 0. 6.13496918e-03 0. 0. 0.
      0. 0. 0. 0. 0. 0. 0. 0. 6.13496918e-03 0. 6.13496918e-03 0. 0. 0.
      0. 0. 0. 0. 0. 0. 0. 6.13496918e-03 0. 0. 0. 0. 0. 0. 0. 0. 0. 0.
      0. 0. 0. 0. 0. 0. 0. 0. 6.13496918e-03 0. 0. 0. 0. 0. 0. 0. 0. 0.
      0. 0. 0. 0. 0. 0. 0. 0. 0. 1.84049085e-02 0. 0. 0. 0. 0. 0. 0. 0.
      0. 0. 0. 0. 0. 0. 0. 0. 0. 0. 0. 0. 0. 0. 0. 0. 0. 0. 0. 0. 0. 0.
      0. 0. 0. 0. 0. 0. 0. 6.13496918e-03 0. 0. 0. 0. 0. 0. 0. 0. 0.
      6.13496918e-03 0. 0. 0. 0. 0. 6.13496918e-03 0. 6.13496918e-03 0.
      6.13496918e-03 0. 0. 0. 0. 0. 0. 0. 0. 0. 0. 0. 1.84049085e-02 0.
      0. 0. 0. 0. 0. 0. 2.45398767e-02 0. 0. 0. 0. 0. 0. 6.13496918e-03
      0. 0. 6.13496918e-03 0. 0. 0. 0. 0. 0. 0. 0. 0. 1.22699384e-02 0.
      0. 6.13496918e-03 0. 0. 0. 0. 0. 0. 0. 0. 0. 0. 0. 6.13496918e-03
      0. 0. 0. 0. 0. 0. 0. 6.13496918e-03 0. 0. 0. 0. 0. 0. 0. 0. 0.
      6.13496918e-03 0. 0. 0. 0. 0. 0. 0. 0. 0. 0. 0. 0. 0. 0. 0. 0. 0.
      0. 0. 1.22699384e-02 0. 0. 0. 0. 6.13496918e-03 6.13496918e-03 0.
      0. 0. 0. 0. 0. 0. 0. 0. 0. 0. 0. 0. 0. 6.13496918e-03 0. 0. 0. 0.
      6.13496918e-03 0. 0. 0. 0. 0. 0. 0. 0. 0. 0. 0. 0. 0. 0. 0. 0. 0.
      6.13496918e-03 0. 0. 0. 0. 0. 0. 0. 0. 0. 0. 0. 0. 0. 0. 0. 0. 0.
      0. 0. 0. 0. 0. 0. 1.22699384e-02 0. 0. 0. 0. 0. 0. 0. 0. 0. 0. 0.
      0. 6.13496918e-03 0. 0. 0. 0. 0. 0. 0. 0. 0. 0. 0. 0. 0. 0. 0. 0.
      0. 0. 0. 0. 0. 0. 0. 1.22699384e-02 0. 0. 0. 0. 0. 0. 0. 0. 0. 0.
      0. 0. 0. 0. 0. 0. 0. 0. 0. 0. 0. 0. 0. 0. 0. 0. 6.13496918e-03 0.
      0. 0. 0. 0. 0. 0. 0. 0. 0. 0. 0. 0. 0. 6.13496918e-03 0. 0. 0. 0.
      0. 0. 0. 0. 0. 0. 0. 0. 0. 0. 0. 0. 0. 0. 0. 0. 6.13496918e-03 0.
      0. 0. 6.13496918e-03 0. 6.13496918e-03 6.13496918e-03 0. 0. 0. 0.
      0. 0. 0. 0. 0. 0. 0. 0. 6.13496918e-03 0. 0. 0. 0. 0. 0. 0. 0. 0.
      0. 0. 0. 0. 0. 0. 0. 0. 0. 0. 0. 0. 0. 0. 0. 0. 0. 0. 0. 0. 0. 0.
      0. 0. 6.13496918e-03 0. 0. 0. 0. 0. 0. 0. 0. 0. 0. 0. 0. 0. 0. 0.
      0. 0. 0. 0. 0. 0. 0. 0. 0. 0. 0. 0. 0. 0. 0. 0. 0. 0. 0. 0. 0. 0.
      0. 0. 0. 0. 6.13496918e-03 0. 0. 0. 0. 0. 0. 0. 0. 0. 0. 0. 0.
      6.13496918e-03 0. 0. 0. 0. 0. 0. 0. 0. 6.13496918e-03 0. 0. 0. 0.
      0. 0. 1.22699384e-02 0. 0. 0. 0. 6.13496918e-03 0. 0. 0. 0. 0.
      6.13496918e-03 0. 0. 0. 0. 0. 0. 0. 0. 0. 0. 0. 0. 0. 0. 0. 0.
      6.13496918e-03 0. 0. 0. 0. 0. 0. 0. 0. 0. 0. 0. 0. 0. 0. 0. 0. 0.
      0. 0. 0. 0. 0. 0. 0. 0. 0. 0. 0. 0. 0. 0. 0. 0. 0. 0. 0. 0. 0. 0.
      1.22699384e-02 0. 0. 0. 0. 0. 0. 0. 0. 0. 0. 0. 0. 0. 0. 0. 0. 0.
      0. 0. 0. 0. 0. 0. 0. 0. 0. 0. 0. 0. 0. 0. 0. 0. 0. 6.13496918e-03
      0. 0. 0. 0. 0. 0. 0. 0. 0. 1.84049085e-02 0. 0. 0. 0. 0. 0. 0. 0.
      0. 0. 0. 0. 0. 0. 0. 0. 0. 0. 0. 0. 0. 0. 0. 0. 0. 0. 0. 0. 0. 0.
      0. 0. 0. 0. 0. 0. 0. 0. 0. 0. 0. 0. 0. 0. 0. 0. 0. 0. 0. 0. 0. 0.
      0. 0. 0. 6.13496918e-03 0. 0. 0. 0. 0. 0. 3.68098170e-02 0. 0. 0.
      0. 0. 0. 0. 0. 0. 0. 0. 0. 0. 6.13496918e-03 0. 0. 0. 0. 0. 0. 0.
      0. 6.13496918e-03 0. 0. 6.13496918e-03 0. 0. 0. 6.13496918e-03 0.
      0. 0. 0. 0. 0. 0. 0. 6.13496918e-03 0. 0. 0. 0. 0. 0.
      6.13496918e-03 0. 0. 0. 0. 0. 0. 0. 0. 0. 0. 0. 0. 0. 0. 0. 0. 0.
      0. 0. 0. 0. 0. 0. 0. 0. 0. 0. 0. 1.22699384e-02 6.13496918e-03 0.
      6.13496918e-03 0. 0. 6.13496918e-03 0. 0. 0. 0. 0. 0. 0. 0. 0. 0.
      0. 0. 6.13496918e-03 0. 0. 0. 0. 0. 0. 0. 0. 0. 0. 6.13496918e-03
      0. 0. 0. 0. 0. 0. 0. 0. 6.13496918e-03 6.13496918e-03 0. 0. 0. 0.
      0. 0. 0. 0. 0. 0. 6.13496918e-03 6.13496918e-03 0. 0. 0. 0.
      6.13496918e-03 1.22699384e-02 6.13496918e-03 0. 0. 0. 0. 0. 0. 0.
      0. 6.13496918e-03 0. 0. 0. 0. 0. 0. 0. 0. 0. 0. 0. 0. 0. 0. 0. 0.
      0. 0. 0. 0. 0. 0. 0. 0. 0. 0. 0. 0. 0. 0. 0. 0. 0. 6.13496918e-03
      0. 0. 0. 0. 6.13496918e-03 0. 0. 0. 0. 0. 0. 0. 1.22699384e-02 0.
      0. 0. 0. 3.68098170e-02 0. 0. 0. 6.13496918e-03 0. 0. 0. 0. 0. 0.
      0. 0. 0. 0. 0. 0. 0. 0. 0. 0. 0. 0. 0. 0. 0. 0. 0. 0. 0. 0. 0. 0.
      0. 0. 0. 0. 0. 0. 0. 0. 0. 0. 0. 0. 0. 0. 0. 0. 0. 0. 0. 0. 0. 0.
      0. 0. 0. 6.13496918e-03 0. 0. 0. 0. 0. 0. 0. 1.22699384e-02 0. 0.
      0. 0. 0. 0. 0. 0. 0. 0. 0. 0. 0. 0. 0. 0. 6.13496918e-03 0. 0. 0.
      0. 0. 0. 0. 0. 0. 1.22699384e-02 0. 0. 0. 0. 6.13496918e-03 0. 0.
      0. 0. 6.13496918e-03 0. 0. 6.13496918e-03 0. 0. 0. 0. 0. 0. 0. 0.
      0. 0. 0. 0. 0. 0. 0. 0. 0. 0. 0. 0. 0. 6.13496918e-03 0. 0.
      6.13496918e-03 0. 0. 0. 0. 0. 0. 0. 0. 0. 6.13496918e-03 0. 0. 0.
      0. 0. 0. 0. 0. 0. 0. 0. 0. 0. 6.13496918e-03 0. 0. 0. 0. 0. 0. 0.
      0. 1.22699384e-02 0. 0. 0. 0. 0. 1.84049085e-02 0. 0. 0. 0. 0. 0.
      0. 6.13496918e-03 0. 0. 0. 0. 0. 0. 0. 0. 0. 0. 0. 0. 0. 0. 0. 0.
      0. 0. 0. 0. 0. 0. 0. 0. 0. 0. 0. 0. 0. 0. 0. 0. 0. 6.13496918e-03
      0. 0. 0. 0. 0. 0. 0. 0. 0. 0. 0. 0. 0. 0. 0. 0. 0. 0. 0. 0. 0. 0.
      0. 0. 0. 0. 0. 0. 0. 0. 0. 6.13496918e-03 0. 0. 0. 0. 0. 0. 0. 0.
      0. 0. 0. 0. 0. 0. 0. 0. 0. 0. 0. 0. 0. 0. 1.22699384e-02 0. 0. 0.
      0. 0. 6.13496918e-03 0. 0. 0. 0. 0. 0. 0. 0. 0. 0. 0. 0. 0. 0. 0.
      0. 0. 0. 0. 0. 0. 0. 0.</_>
    <_>
      0. 0. 0. 0. 0. 0. 0. 0. 0. 0. 0. 0. 0. 0. 0. 0. 0. 0.
      7.57575780e-03 0. 0. 0. 0. 7.57575780e-03 0. 0. 0. 0. 0. 0. 0. 0.
      0. 0. 0. 0. 0. 0. 0. 0. 0. 0. 0. 0. 0. 0. 0. 0. 0. 0. 0. 0. 0. 0.
      0. 0. 0. 0. 0. 0. 0. 0. 0. 0. 0. 7.57575780e-03 0. 0. 0. 0. 0. 0.
      0. 0. 0. 0. 0. 0. 0. 0. 0. 0. 0. 0. 0. 0. 0. 0. 0. 0.
      7.57575780e-03 0. 0. 0. 0. 7.57575780e-03 0. 0. 0. 0. 0. 0. 0. 0.
      0. 0. 0. 0. 0. 0. 1.51515156e-02 0. 7.57575780e-03 0. 0. 0. 0. 0.
      0. 0. 0. 0. 0. 0. 0. 7.57575780e-03 0. 0. 0. 0. 0. 0. 0. 0. 0.
      7.57575780e-03 0. 0. 0. 0. 0. 0. 7.57575780e-03 7.57575780e-03 0.
      0. 0. 0. 0. 0. 0. 0. 0. 0. 0. 0. 0. 0. 0. 0. 0. 0. 0. 0. 0. 0. 0.
      0. 0. 0. 0. 0. 0. 0. 0. 0. 0. 0. 0. 0. 0. 0. 0. 0. 0. 0. 0. 0. 0.
      0. 0. 0. 0. 0. 0. 0. 0. 0. 0. 0. 0. 7.57575780e-03 0. 0. 0. 0. 0.
      0. 0. 0. 0. 0. 0. 0. 0. 0. 0. 0. 7.57575780e-03 0. 0.
      7.57575780e-03 0. 0. 0. 0. 0. 0. 0. 7.57575780e-03 0. 0. 0. 0. 0.
      0. 0. 0. 0. 0. 7.57575780e-03 0. 0. 0. 0. 0. 0. 1.51515156e-02 0.
      0. 0. 0. 0. 7.57575780e-03 0. 0. 0. 0. 0. 0. 0. 7.57575780e-03 0.
      0. 0. 0. 0. 0. 0. 0. 0. 0. 0. 0. 0. 0. 7.57575780e-03 0. 0. 0. 0.
      7.57575780e-03 0. 0. 0. 0. 0. 0. 0. 0. 0. 0. 0. 0. 0. 0. 0.
      7.57575780e-03 0. 0. 0. 0. 0. 0. 0. 0. 0. 0. 0. 0. 0. 0. 0. 0.
      7.57575780e-03 7.57575780e-03 0. 0. 0. 0. 0. 0. 0. 0. 0. 0. 0. 0.
      0. 0. 0. 0. 7.57575780e-03 0. 0. 0. 0. 0. 0. 0. 7.57575780e-03 0.
      0. 0. 0. 0. 0. 0. 0. 0. 0. 0. 0. 0. 0. 0. 7.57575780e-03 0. 0. 0.
      0. 0. 0. 0. 0. 1.51515156e-02 0. 0. 0. 0. 0. 0. 0. 0. 0. 0. 0. 0.
      7.57575780e-03 0. 0. 0. 0. 7.57575780e-03 0. 7.57575780e-03 0. 0.
      0. 0. 0. 0. 0. 0. 0. 2.27272734e-02 0. 0. 0. 0. 0. 0. 0.
      7.57575780e-03 0. 0. 0. 0. 7.57575780e-03 0. 0. 0. 0. 0. 0. 0. 0.
      0. 0. 0. 0. 0. 0. 7.57575780e-03 0. 0. 0. 0. 0. 0. 0. 0. 0. 0. 0.
      0. 0. 0. 0. 0. 0. 0. 0. 1.51515156e-02 0. 0. 0. 0. 0. 0. 0. 0. 0.
      0. 0. 0. 0. 0. 0. 7.57575780e-03 0. 0. 0. 0. 0. 0. 0. 0. 0. 0. 0.
      0. 0. 0. 0. 0. 0. 0. 0. 7.57575780e-03 7.57575780e-03 0. 0. 0. 0.
      0. 0. 0. 0. 0. 0. 0. 0. 0. 0. 7.57575780e-03 0. 0. 0. 0. 0. 0. 0.
      0. 0. 0. 0. 7.57575780e-03 0. 0. 0. 0. 0. 0. 0. 0. 0. 0. 0. 0. 0.
      0. 0. 0. 0. 0. 0. 0. 0. 0. 0. 0. 0. 0. 0. 0. 7.57575780e-03 0. 0.
      7.57575780e-03 0. 0. 0. 0. 0. 0. 7.57575780e-03 7.57575780e-03 0.
      0. 0. 0. 0. 0. 0. 0. 0. 0. 0. 0. 0. 0. 0. 0. 1.51515156e-02 0. 0.
      0. 0. 7.57575780e-03 0. 0. 7.57575780e-03 0. 0. 0. 0. 0. 0. 0. 0.
      0. 0. 0. 0. 0. 0. 0. 0. 0. 0. 0. 0. 0. 0. 0. 7.57575780e-03
      7.57575780e-03 1.51515156e-02 0. 0. 0. 0. 0. 0. 0. 7.57575780e-03
      0. 0. 0. 0. 0. 0. 0. 0. 0. 0. 0. 0. 0. 0. 0. 0. 0. 0. 0. 0. 0. 0.
      0. 7.57575780e-03 0. 0. 0. 0. 0. 0. 0. 0. 0. 0. 0. 7.57575780e-03
      7.57575780e-03 0. 0. 0. 1.51515156e-02 0. 0. 0. 0. 0. 0. 0. 0. 0.
      0. 0. 0. 0. 0. 0. 0. 0. 0. 0. 0. 0. 0. 0. 7.57575780e-03 0. 0. 0.
      0. 0. 0. 0. 0. 0. 0. 0. 0. 0. 0. 0. 0. 0. 7.57575780e-03 0. 0.
      7.57575780e-03 0. 7.57575780e-03 0. 0. 0. 0. 0. 0. 0. 0. 0. 0. 0.
      0. 0. 0. 0. 0. 0. 0. 0. 0. 0. 0. 0. 0. 0. 0. 0. 7.57575780e-03 0.
      0. 0. 0. 0. 0. 0. 0. 0. 0. 0. 0. 0. 0. 0. 0. 0. 0. 0. 0. 0.
      7.57575780e-03 0. 0. 0. 0. 0. 0. 0. 0. 0. 0. 0. 0. 0. 0. 0. 0. 0.
      0. 7.57575780e-03 0. 0. 0. 0. 0. 0. 0. 0. 0. 0. 0. 0. 0. 0.
      7.57575780e-03 0. 0. 0. 0. 0. 0. 0. 0. 0. 0. 0. 0. 7.57575780e-03
      7.57575780e-03 0. 0. 0. 2.27272734e-02 0. 0. 0. 0. 0. 0. 0. 0. 0.
      0. 0. 7.57575780e-03 0. 0. 0. 0. 0. 0. 0. 0. 0. 0. 0. 0. 0. 0. 0.
      0. 0. 7.57575780e-03 0. 0. 0. 0. 0. 0. 0. 0. 0. 0. 0. 0. 0. 0. 0.
      0. 0. 1.51515156e-02 0. 0. 0. 0. 0. 0. 7.57575780e-03 0. 0. 0. 0.
      0. 0. 0. 0. 0. 0. 0. 0. 0. 0. 0. 0. 0. 0. 0. 0. 0. 0. 0. 0. 0. 0.
      0. 0. 0. 0. 0. 7.57575780e-03 0. 0. 7.57575780e-03 0. 0. 0. 0. 0.
      0. 0. 0. 0. 0. 0. 0. 0. 0. 0. 0. 0. 0. 0. 0. 0. 7.57575780e-03 0.
      0. 0. 7.57575780e-03 0. 7.57575780e-03 0. 0. 0. 7.57575780e-03 0.
      0. 0. 0. 0. 0. 0. 0. 0. 0. 0. 0. 0. 0. 0. 1.51515156e-02 0. 0. 0.
      0. 0. 0. 0. 0. 0. 7.57575780e-03 0. 0. 0. 0. 0. 0. 0. 0. 0. 0. 0.
      0. 0. 0. 0. 0. 0. 0. 0. 0. 0. 0. 0. 0. 0. 0. 0. 0. 0. 0.
      7.57575780e-03 0. 0. 0. 0. 0. 0. 0. 0. 7.57575780e-03 0. 0. 0. 0.
      0. 0. 7.57575780e-03 0. 0. 0. 0. 0. 0. 0. 0. 0. 0. 0. 0. 0. 0. 0.
      0. 0. 0. 0. 0. 0. 0. 1.51515156e-02 0. 0. 0. 0. 0. 7.57575780e-03
      0. 0. 0. 0. 0. 0. 0. 0. 0. 0. 0. 0. 0. 0. 7.57575780e-03 0. 0. 0.
      0. 0. 0. 0. 0. 0. 0. 0. 0. 0. 0. 0. 0. 0. 0. 0. 0. 0. 0. 0. 0. 0.
      0. 0. 0. 0. 0. 0. 0. 0. 0. 0. 0. 0. 0. 0. 0. 0. 0. 0. 0. 0. 0. 0.
      0. 0. 0. 0. 0. 0. 0. 0. 0. 0. 0. 0. 0. 7.57575780e-03 0. 0. 0. 0.
      0. 0. 0. 0. 0. 0. 0. 0. 0. 0. 0. 0. 0. 0. 0. 0. 0. 0. 0. 0. 0. 0.
      0. 0. 0. 0. 0. 0. 0. 0. 0. 0. 0. 0. 0. 0. 0. 0. 0. 0. 0. 0. 0.
      7.57575780e-03 0. 0. 0. 0. 0. 0. 0. 0. 0. 0. 0. 0. 0. 0. 0. 0. 0.
      0. 7.57575780e-03 0. 0. 7.57575780e-03 7.57575780e-03 0.
      1.51515156e-02 0. 0. 0. 0. 0. 0. 1.51515156e-02 0. 0. 0. 0. 0. 0.
      0. 0. 0. 0. 0. 0. 0. 0. 7.57575780e-03 0. 0. 0. 0. 0. 0. 0. 0.
      7.57575780e-03 0. 0. 0. 7.57575780e-03 0. 0. 0. 0. 0. 0. 0. 0. 0.
      0. 0. 0. 0. 0. 0. 0. 0. 0. 0. 0. 0. 0. 0. 0. 0. 0. 0. 0. 0. 0. 0.
      0. 0. 0. 0. 0. 0. 0. 0. 0. 0. 0. 0. 0. 0. 0. 0. 0. 0. 0. 0. 0. 0.
      0. 0. 0. 0. 0. 0. 0. 0. 0. 0. 0. 0. 0. 0. 0. 0. 7.57575780e-03 0.
      0. 0. 0. 0. 0. 3.03030312e-02 0. 0. 0. 0. 0. 0. 0. 0. 0. 0. 0. 0.
      0. 0. 0. 0. 0. 0. 0. 0. 0. 0. 0. 7.57575780e-03 0. 0. 0. 0. 0. 0.
      0. 0. 0. 0. 0. 0. 0. 0. 0. 0. 0. 0. 0. 0. 0. 0. 7.57575780e-03 0.
      0. 0. 0. 0. 0. 0. 0. 0. 0. 0. 0. 0. 0. 0. 0. 7.57575780e-03 0. 0.
      0. 0. 0. 0. 0. 0. 7.57575780e-03 0. 0. 0. 0. 0. 0. 0. 0. 0. 0. 0.
      0. 0. 0. 0. 0. 1.51515156e-02 0. 1.51515156e-02 0. 0. 0. 0. 0. 0.
      0. 0. 0. 0. 0. 0. 0. 0. 7.57575780e-03 0. 0. 0. 0. 0. 0. 0. 0. 0.
      0. 0. 0. 0. 0. 0. 0. 7.57575780e-03 0. 0. 0. 0. 0. 0. 0. 0. 0. 0.
      0. 0. 0. 0. 0. 0. 0. 0. 0. 0. 7.57575780e-03 0. 0. 0. 0. 0. 0. 0.
      0. 0. 0. 0. 0. 0. 0. 0. 0. 0. 0. 0. 0. 0. 0. 0. 0. 0.
      1.51515156e-02 0. 0. 0. 0. 0. 0. 0. 0. 0. 0. 0. 0. 0. 0. 0. 0. 0.
      0. 0. 0. 0. 7.57575780e-03 0. 0. 0. 0. 0. 0. 0. 0. 0. 0. 0. 0.
      7.57575780e-03 0. 0. 0. 0. 0. 0. 7.57575780e-03 0. 0. 0. 0. 0.</_>
    <_>
      0. 0. 0. 0. 0. 0. 0. 6.62251655e-03 0. 0. 0. 6.62251655e-03 0. 0.
      0. 0. 0. 0. 6.62251655e-03 0. 1.32450331e-02 0. 0. 0. 0. 0. 0. 0.
      0. 0. 0. 0. 0. 0. 0. 0. 0. 0. 0. 0. 0. 0. 0. 0. 0. 0. 0. 0. 0. 0.
      0. 0. 0. 0. 0. 0. 0. 0. 0. 0. 6.62251655e-03 0. 0. 0. 0. 0. 0. 0.
      0. 0. 0. 0. 0. 0. 6.62251655e-03 6.62251655e-03 0. 6.62251655e-03
      6.62251655e-03 0. 0. 0. 6.62251655e-03 0. 0. 6.62251655e-03 0. 0.
      6.62251655e-03 0. 0. 6.62251655e-03 0. 0. 0. 0. 0. 0. 0. 0. 0. 0.
      0. 0. 6.62251655e-03 0. 0. 0. 0. 0. 0. 0. 0. 0. 0. 0. 0. 0. 0. 0.
      0. 0. 0. 0. 0. 0. 0. 0. 0. 0. 0. 0. 0. 0. 0. 0. 6.62251655e-03 0.
      0. 6.62251655e-03 0. 6.62251655e-03 0. 0. 0. 0. 0. 0. 0. 0. 0. 0.
      0. 0. 0. 0. 0. 6.62251655e-03 0. 0. 6.62251655e-03 0. 0. 0. 0. 0.
      0. 0. 0. 0. 0. 0. 0. 0. 0. 0. 0. 0. 0. 0. 0. 0. 0. 0. 0. 0.
      6.62251655e-03 0. 0. 0. 0. 0. 0. 0. 0. 0. 0. 0. 0. 0. 0. 0. 0. 0.
      0. 0. 0. 6.62251655e-03 0. 0. 0. 0. 0. 0. 0. 0. 0. 0. 0. 0. 0. 0.
      1.32450331e-02 0. 0. 0. 0. 0. 0. 0. 0. 0. 0. 0. 0. 0. 0. 0. 0. 0.
      0. 0. 0. 0. 0. 0. 0. 0. 0. 0. 0. 0. 0. 6.62251655e-03 0. 0. 0. 0.
      0. 0. 0. 0. 0. 6.62251655e-03 0. 0. 0. 0. 0. 0. 0. 0. 0.
      6.62251655e-03 0. 0. 0. 0. 0. 0. 0. 0. 1.32450331e-02 0. 0. 0. 0.
      0. 0. 0. 0. 0. 0. 0. 0. 0. 0. 0. 0. 0. 0. 0. 0. 0. 0. 0. 0. 0. 0.
      0. 0. 0. 0. 0. 6.62251655e-03 0. 6.62251655e-03 0. 6.62251655e-03
      0. 0. 0. 0. 0. 0. 0. 0. 0. 0. 0. 0. 0. 0. 0. 6.62251655e-03 0. 0.
      0. 0. 0. 6.62251655e-03 0. 0. 0. 0. 6.62251655e-03 0. 0. 0.
      6.62251655e-03 0. 0. 1.98675506e-02 0. 0. 0. 0. 0. 0. 0. 0. 0. 0.
      0. 6.62251655e-03 0. 0. 0. 0. 0. 0. 0. 0. 0. 0. 0. 0.
      2.64900662e-02 0. 0. 0. 6.62251655e-03 0. 0. 6.62251655e-03 0. 0.
      0. 0. 0. 0. 0. 0. 0. 0. 0. 0. 6.62251655e-03 0. 0. 6.62251655e-03
      0. 0. 0. 6.62251655e-03 0. 0. 0. 0. 0. 6.62251655e-03 0. 0. 0.
      6.62251655e-03 6.62251655e-03 0. 0. 0. 0. 0. 0. 0. 0. 0. 0.
      6.62251655e-03 0. 0. 0. 6.62251655e-03 0. 6.62251655e-03 0. 0. 0.
      0. 0. 0. 0. 0. 0. 0. 0. 0. 0. 0. 0. 0. 0. 0. 0. 0. 0. 0. 0. 0. 0.
      0. 0. 0. 0. 0. 0. 0. 0. 0. 0. 0. 0. 0. 0. 6.62251655e-03 0. 0. 0.
      0. 0. 0. 6.62251655e-03 0. 0. 6.62251655e-03 0. 0. 0. 0. 0. 0. 0.
      0. 0. 0. 0. 0. 0. 0. 0. 1.32450331e-02 0. 0. 0. 0. 0. 0. 0. 0. 0.
      0. 0. 0. 0. 0. 0. 0. 0. 0. 6.62251655e-03 0. 0. 0. 0. 0. 0. 0. 0.
      0. 0. 0. 0. 0. 0. 0. 0. 0. 0. 0. 0. 0. 0. 0. 0. 0. 6.62251655e-03
      0. 0. 6.62251655e-03 0. 0. 0. 0. 6.62251655e-03 0. 0. 0. 0. 0. 0.
      0. 0. 0. 0. 0. 0. 0. 0. 6.62251655e-03 0. 0. 0. 0. 0. 0. 0. 0. 0.
      0. 0. 0. 0. 0. 0. 0. 0. 0. 0. 0. 0. 0. 0. 0. 0. 0. 0. 0. 0. 0. 0.
      0. 0. 0. 0. 0. 0. 0. 0. 0. 0. 0. 0. 0. 0. 6.62251655e-03
      6.62251655e-03 0. 0. 6.62251655e-03 0. 0. 0. 0. 0. 0.
      6.62251655e-03 0. 0. 0. 0. 0. 0. 0. 0. 0. 0. 0. 0. 0. 0. 0. 0. 0.
      0. 0. 0. 0. 0. 0. 6.62251655e-03 0. 0. 0. 0. 0. 0. 0. 0. 0. 0. 0.
      6.62251655e-03 0. 0. 0. 0. 0. 0. 0. 0. 0. 0. 0. 6.62251655e-03 0.
      0. 0. 0. 0. 0. 0. 0. 0. 0. 0. 0. 0. 0. 0. 0. 0. 0. 0. 0. 0.
      6.62251655e-03 0. 0. 0. 0. 0. 0. 0. 0. 0. 0. 0. 0. 0. 0. 0. 0. 0.
      0. 0. 0. 0. 0. 0. 0. 6.62251655e-03 0. 0. 0. 0. 0. 0. 0. 0. 0. 0.
      0. 0. 1.32450331e-02 0. 0. 6.62251655e-03 6.62251655e-03 0. 0. 0.
      0. 0. 0. 0. 0. 0. 0. 1.32450331e-02 0. 0. 0. 0. 0. 0. 0.
      6.62251655e-03 0. 0. 0. 0. 0. 0. 0. 0. 0. 0. 0. 0. 0. 0. 0. 0. 0.
      0. 0. 0. 0. 0. 0. 0. 6.62251655e-03 0. 0. 0. 0. 0. 0. 0. 0. 0. 0.
      0. 0. 0. 0. 0. 6.62251655e-03 0. 0. 0. 0. 0. 0. 0. 0.
      6.62251655e-03 0. 0. 0. 0. 0. 0. 0. 6.62251655e-03 0. 0. 0. 0. 0.
      0. 0. 0. 0. 0. 0. 0. 0. 0. 0. 0. 0. 0. 0. 6.62251655e-03 0. 0. 0.
      0. 0. 0. 0. 0. 0. 0. 0. 0. 0. 0. 6.62251655e-03 0. 0.
      1.98675506e-02 0. 6.62251655e-03 0. 0. 0. 0. 0. 0. 0. 0. 0. 0. 0.
      6.62251655e-03 0. 0. 0. 0. 0. 6.62251655e-03 0. 0. 0. 0. 0. 0. 0.
      0. 0. 0. 0. 0. 0. 0. 0. 0. 0. 0. 6.62251655e-03 0. 0. 0. 0. 0. 0.
      0. 0. 0. 0. 0. 0. 0. 0. 0. 6.62251655e-03 1.32450331e-02 0. 0. 0.
      0. 0. 0. 0. 0. 0. 0. 0. 0. 0. 0. 0. 0. 0. 0. 0. 0. 0. 0. 0. 0. 0.
      0. 0. 0. 0. 0. 0. 0. 0. 0. 0. 0. 0. 0. 0. 0. 0. 6.62251655e-03 0.
      0. 0. 0. 0. 0. 0. 0. 0. 0. 0. 0. 0. 0. 0. 0. 0. 0. 0. 0. 0. 0. 0.
      0. 0. 0. 0. 0. 0. 0. 1.32450331e-02 0. 0. 0. 1.32450331e-02 0. 0.
      0. 0. 0. 0. 0. 0. 0. 0. 0. 0. 0. 0. 0. 0. 0. 0. 6.62251655e-03 0.
      0. 0. 0. 0. 0. 0. 0. 0. 0. 0. 0. 0. 0. 0. 0. 0. 0. 0. 0. 0. 0. 0.
      0. 0. 0. 0. 0. 0. 0. 0. 6.62251655e-03 0. 6.62251655e-03 0. 0. 0.
      6.62251655e-03 0. 0. 0. 0. 0. 0. 0. 0. 0. 6.62251655e-03 0. 0. 0.
      6.62251655e-03 0. 0. 0. 0. 0. 0. 0. 6.62251655e-03 0. 0. 0. 0. 0.
      0. 0. 0. 0. 0. 0. 0. 0. 0. 0. 0. 0. 0. 0. 0. 0. 0. 0. 0. 0. 0. 0.
      0. 0. 6.62251655e-03 0. 0. 0. 6.62251655e-03 0. 0. 0.
      6.62251655e-03 0. 0. 0. 0. 0. 0. 0. 0. 6.62251655e-03 0. 0. 0. 0.
      0. 6.62251655e-03 0. 0. 0. 0. 0. 0. 0. 0. 0. 0. 0. 0. 0. 0.
      6.62251655e-03 0. 0. 0. 0. 0. 6.62251655e-03 0. 0. 0. 0. 0. 0. 0.
      0. 0. 0. 0. 0. 0. 0. 0. 0. 0. 0. 0. 1.32450331e-02 0. 0. 0. 0. 0.
      0. 0. 6.62251655e-03 0. 0. 0. 0. 0. 0. 0. 0. 0. 0. 0. 0.
      6.62251655e-03 0. 0. 0. 1.32450331e-02 0. 0. 0. 0. 0. 0. 0. 0.
      6.62251655e-03 0. 0. 0. 0. 6.62251655e-03 0. 0. 0. 0. 0. 0. 0. 0.
      0. 0. 0. 0. 0. 0. 6.62251655e-03 0. 0. 0. 0. 0. 0. 6.62251655e-03
      0. 6.62251655e-03 0. 0. 6.62251655e-03 0. 6.62251655e-03 0. 0. 0.
      0. 0. 0. 0. 0. 0. 0. 0. 0. 0. 0. 0. 0. 0. 0. 0. 0. 0. 0.
      1.32450331e-02 0. 0. 0. 0. 0. 0. 0. 0. 0. 0. 0. 0. 0. 0. 0. 0. 0.
      0. 0. 0. 0. 0. 6.62251655e-03 0. 0. 0. 0. 0. 0. 0. 6.62251655e-03
      0. 6.62251655e-03 6.62251655e-03 0. 0. 0. 0. 0. 0. 0. 0. 0. 0. 0.
      0. 0. 0. 0. 0. 0. 0. 0. 6.62251655e-03 0. 0. 0. 0. 0. 0. 0. 0. 0.
      6.62251655e-03 0. 0. 0. 0. 0. 0. 0. 0. 0. 0. 0. 0. 0.
      6.62251655e-03 0. 0. 0. 0. 0. 0. 0. 0. 0. 0. 0. 0. 0. 0. 0. 0. 0.
      0. 0. 0. 0. 6.62251655e-03 6.62251655e-03 0. 0. 0. 0. 0.
      6.62251655e-03 0. 0. 0. 0. 0. 0. 0. 0. 6.62251655e-03 0. 0. 0. 0.
      0. 0. 0. 0. 0. 0. 0. 0. 0. 0. 0. 0. 0. 0. 0. 0. 0. 0. 0. 0. 0. 0.
      0. 0. 0. 0. 0. 0. 0. 0. 0. 0. 0. 0. 0. 0. 0. 0. 0. 3.97351012e-02
      0. 0. 0. 0. 0. 0. 0. 0. 0. 0. 0. 0. 0. 0. 0. 0. 0. 0. 0. 0. 0. 0.
      0. 0. 0. 0. 0. 0. 0. 0. 0. 0. 0. 6.62251655e-03 0. 0. 0. 0. 0. 0.
      6.62251655e-03 0. 0. 0. 0. 0. 0. 0. 0. 0. 0. 0. 0. 0. 0. 0. 0. 0.
      0. 0. 0. 0. 0. 0. 0. 0. 0. 0. 0. 0. 0. 0. 0. 0. 0. 0. 0. 0. 0. 0.
      0. 6.62251655e-03 0. 0. 0. 0. 0. 0. 0. 0. 0. 0.</_>
    <_>
      0. 0. 0. 0. 0. 0. 0. 0. 0. 0. 0. 0. 5.47945220e-03 0. 0. 0. 0. 0.
      0. 0. 0. 2.73972610e-03 0. 2.73972610e-03 2.73972610e-03 0. 0. 0.
      0. 0. 0. 8.21917877e-03 2.73972610e-03 2.73972610e-03 0. 0. 0. 0.
      0. 0. 0. 0. 0. 0. 0. 0. 0. 0. 0. 2.73972610e-03 0. 2.73972610e-03
      0. 0. 0. 0. 2.73972610e-03 0. 0. 0. 0. 0. 2.73972610e-03 0. 0. 0.
      0. 0. 0. 0. 0. 2.73972610e-03 0. 5.47945220e-03 0. 0. 0.
      5.47945220e-03 0. 0. 2.73972610e-03 0. 0. 0. 0. 0. 0.
      2.73972610e-03 0. 0. 0. 0. 2.73972610e-03 2.73972610e-03 0. 0.
      2.73972610e-03 0. 2.73972610e-03 0. 2.73972610e-03 0. 0. 0. 0.
      2.73972610e-03 0. 2.73972610e-03 0. 0. 0. 0. 0. 0. 0. 0. 0. 0. 0.
      0. 2.73972610e-03 0. 0. 2.73972610e-03 0. 0. 0. 0. 2.73972610e-03
      0. 0. 0. 0. 0. 0. 0. 5.47945220e-03 0. 0. 2.73972610e-03 0.
      2.73972610e-03 2.73972610e-03 0. 0. 0. 0. 0. 0. 0. 0. 0. 0. 0. 0.
      0. 2.73972610e-03 0. 0. 5.47945220e-03 0. 0. 0. 0. 0.
      2.73972610e-03 0. 2.73972610e-03 0. 2.73972610e-03 0.
      2.73972610e-03 0. 0. 0. 0. 0. 0. 0. 0. 0. 0. 2.73972610e-03
      5.47945220e-03 0. 0. 0. 0. 0. 0. 0. 0. 0. 2.73972610e-03 0. 0. 0.
      0. 0. 0. 0. 0. 0. 0. 0. 0. 0. 0. 0. 0. 0. 0. 2.73972610e-03 0. 0.
      0. 0. 0. 0. 0. 0. 0. 0. 0. 0. 0. 0. 5.47945220e-03 0. 0. 0.
      8.21917877e-03 2.73972610e-03 0. 0. 0. 0. 0. 8.21917877e-03 0. 0.
      0. 0. 0. 0. 2.73972610e-03 2.73972610e-03 0. 2.73972610e-03 0. 0.
      0. 0. 0. 2.73972610e-03 0. 0. 0. 0. 0. 2.73972610e-03 0. 0. 0. 0.
      0. 0. 0. 0. 0. 0. 5.47945220e-03 0. 0. 0. 2.73972610e-03 0. 0. 0.
      0. 0. 0. 0. 0. 0. 2.73972610e-03 0. 0. 0. 0. 0. 0. 0. 0. 0. 0. 0.
      0. 0. 0. 0. 5.47945220e-03 0. 0. 0. 5.47945220e-03 0. 0. 0. 0. 0.
      0. 2.73972610e-03 0. 0. 2.73972610e-03 0. 0. 0. 0. 0. 0. 0. 0. 0.
      0. 0. 0. 0. 0. 0. 0. 0. 0. 2.73972610e-03 0. 0. 2.73972610e-03
      2.73972610e-03 0. 0. 0. 2.73972610e-03 0. 0. 0. 0. 0. 0. 0. 0. 0.
      0. 0. 0. 8.21917877e-03 2.73972610e-03 0. 0. 0. 0. 2.73972610e-03
      0. 0. 0. 2.73972610e-03 0. 2.73972610e-03 2.73972610e-03 0. 0. 0.
      2.73972610e-03 0. 0. 0. 0. 2.73972610e-03 0. 0. 0. 0. 0.
      5.47945220e-03 0. 2.73972610e-03 0. 0. 0. 0. 2.73972610e-03
      5.47945220e-03 0. 1.09589044e-02 5.47945220e-03 0. 0. 0. 0. 0.
      5.47945220e-03 0. 0. 0. 0. 0. 0. 0. 2.73972610e-03 2.73972610e-03
      0. 2.73972610e-03 0. 0. 0. 0. 0. 0. 0. 0. 0. 0. 0. 0.
      2.73972610e-03 0. 0. 5.47945220e-03 0. 0. 0. 0. 0. 0. 0. 0. 0. 0.
      0. 0. 0. 0. 0. 0. 0. 0. 0. 0. 0. 2.73972610e-03 0. 0. 0.
      2.73972610e-03 0. 0. 5.47945220e-03 0. 0. 0. 0. 0. 2.73972610e-03
      0. 5.47945220e-03 0. 0. 0. 2.73972610e-03 0. 0. 0. 0. 0.
      2.73972610e-03 0. 0. 0. 0. 0. 0. 0. 0. 0. 0. 0. 0. 0. 0. 0. 0.
      2.73972610e-03 0. 0. 0. 2.73972610e-03 0. 0. 0. 0. 0. 0.
      1.09589044e-02 0. 2.73972610e-03 2.73972610e-03 0. 0. 0. 0. 0. 0.
      0. 0. 0. 0. 0. 0. 8.21917877e-03 0. 8.21917877e-03 0.
      2.73972610e-03 0. 0. 0. 0. 0. 0. 0. 0. 0. 0. 0. 0. 2.73972610e-03
      0. 0. 0. 0. 0. 0. 0. 0. 0. 0. 0. 0. 0. 0. 0. 0. 0. 2.73972610e-03
      0. 0. 0. 2.73972610e-03 0. 2.73972610e-03 5.47945220e-03 0. 0.
      5.47945220e-03 0. 0. 0. 0. 0. 5.47945220e-03 5.47945220e-03
      2.73972610e-03 0. 0. 2.73972610e-03 0. 0. 0. 0. 0. 0. 0. 0. 0. 0.
      0. 5.47945220e-03 1.09589044e-02 0. 0. 0. 0. 0. 0. 0. 0. 0. 0. 0.
      2.73972610e-03 0. 0. 0. 0. 0. 0. 0. 0. 0. 0. 2.73972610e-03 0. 0.
      8.21917877e-03 0. 2.73972610e-03 0. 0. 5.47945220e-03 0. 0.
      2.73972610e-03 0. 2.73972610e-03 2.73972610e-03 0. 0. 0. 0. 0. 0.
      2.73972610e-03 0. 0. 0. 0. 0. 8.21917877e-03 2.73972610e-03
      2.73972610e-03 2.73972610e-03 0. 0. 0. 0. 0. 2.73972610e-03 0. 0.
      2.73972610e-03 0. 0. 0. 8.21917877e-03 2.73972610e-03 0. 0. 0. 0.
      0. 0. 0. 0. 0. 0. 0. 0. 0. 0. 0. 2.73972610e-03 0. 2.73972610e-03
      0. 0. 0. 0. 0. 0. 0. 0. 0. 0. 0. 0. 0. 0. 2.73972610e-03 0. 0. 0.
      0. 0. 0. 0. 0. 0. 0. 0. 2.73972610e-03 0. 0. 0. 0. 0. 0. 0.
      2.73972610e-03 0. 0. 0. 0. 0. 0. 0. 0. 0. 0. 0. 0. 0.
      5.47945220e-03 0. 5.47945220e-03 0. 5.47945220e-03 0. 0. 0. 0. 0.
      0. 0. 0. 0. 0. 0. 0. 0. 0. 2.73972610e-03 0. 0. 0. 0. 0. 0. 0. 0.
      0. 0. 0. 0. 8.21917877e-03 0. 0. 0. 0. 0. 0. 0. 2.73972610e-03 0.
      0. 0. 2.73972610e-03 0. 0. 0. 0. 0. 2.73972610e-03 0. 0. 0. 0. 0.
      0. 2.73972610e-03 2.73972610e-03 0. 0. 0. 0. 0. 0. 0.
      2.73972610e-03 0. 2.73972610e-03 0. 0. 0. 0. 0. 0. 0. 0. 0. 0. 0.
      0. 0. 0. 0. 0. 2.73972610e-03 2.73972610e-03 2.73972610e-03 0. 0.
      0. 0. 2.73972610e-03 0. 0. 2.73972610e-03 0. 0. 0. 0. 0. 0.
      2.73972610e-03 0. 0. 0. 0. 0. 0. 5.47945220e-03 0. 0. 0. 0.
      2.73972610e-03 5.47945220e-03 2.73972610e-03 0. 5.47945220e-03 0.
      0. 2.73972610e-03 0. 2.73972610e-03 0. 5.47945220e-03 0. 0. 0. 0.
      0. 2.73972610e-03 0. 0. 0. 0. 0. 2.73972610e-03 0. 0.
      5.47945220e-03 0. 0. 0. 0. 0. 0. 0. 0. 0. 2.73972610e-03 0.
      2.73972610e-03 2.73972610e-03 0. 0. 0. 0. 0. 0. 0. 0. 0. 0. 0.
      2.73972610e-03 0. 0. 2.73972610e-03 0. 0. 2.73972610e-03 0. 0.
      2.73972610e-03 0. 0. 0. 0. 2.73972610e-03 5.47945220e-03 0. 0.
      2.73972610e-03 0. 2.73972610e-03 0. 0. 0. 0. 0. 2.73972610e-03 0.
      0. 2.73972610e-03 0. 0. 0. 0. 0. 0. 0. 2.73972610e-03 0. 0. 0. 0.
      0. 0. 0. 0. 5.47945220e-03 0. 0. 0. 0. 0. 0. 0. 0. 0. 0. 0.
      2.73972610e-03 0. 0. 0. 0. 2.73972610e-03 0. 2.73972610e-03 0. 0.
      0. 0. 0. 0. 0. 0. 0. 0. 8.21917877e-03 0. 0. 0. 0. 0. 0. 0.
      2.73972610e-03 0. 0. 2.73972610e-03 0. 0. 0. 0. 0. 2.73972610e-03
      0. 0. 0. 0. 5.47945220e-03 5.47945220e-03 0. 0. 0. 0.
      2.73972610e-03 0. 0. 2.73972610e-03 0. 0. 0. 0. 0. 0. 0.
      2.73972610e-03 0. 0. 5.47945220e-03 2.73972610e-03 0. 0. 0. 0. 0.
      0. 0. 0. 0. 0. 2.73972610e-03 2.73972610e-03 0. 0. 0. 0. 0. 0. 0.
      0. 0. 8.21917877e-03 0. 0. 0. 0. 0. 0. 0. 0. 0. 0. 0. 0.
      2.73972610e-03 5.47945220e-03 0. 0. 0. 0. 0. 2.73972610e-03
      2.73972610e-03 0. 0. 5.47945220e-03 0. 2.73972610e-03 0. 0.
      2.73972610e-03 0. 0. 0. 0. 0. 2.73972610e-03 0. 0. 0. 0. 0. 0. 0.
      0. 0. 0. 0. 0. 0. 0. 0. 0. 0. 2.73972610e-03 0. 0. 2.73972610e-03
      2.73972610e-03 0. 0. 0. 0. 0. 0. 0. 0. 5.47945220e-03 0. 0. 0. 0.
      0. 0. 0. 0. 0. 0. 2.73972610e-03 0. 0. 0. 0. 0. 0. 0. 0. 0. 0. 0.
      5.47945220e-03 0. 0. 0. 0. 2.73972610e-03 0. 0. 0. 0. 0. 0.
      2.73972610e-03 0. 2.73972610e-03 0. 2.73972610e-03 2.73972610e-03
      5.47945220e-03 0. 0. 0. 0. 0. 2.73972610e-03 0. 0. 2.73972610e-03
      0. 8.21917877e-03 0. 2.73972610e-03 0. 0. 2.73972610e-03
      2.73972610e-03 0. 0. 0. 0. 0. 2.73972610e-03 0. 2.73972610e-03 0.
      0. 5.47945220e-03 0. 0. 0. 5.47945220e-03 0. 0. 0. 0. 0. 0. 0. 0.
      0. 0. 0. 0. 0. 0. 0. 0. 0. 0. 2.73972610e-03 0. 0. 0. 0. 0.
      2.73972610e-03 0. 2.73972610e-03 0. 0. 0. 0. 0. 0. 2.73972610e-03
      0. 0. 2.73972610e-03 0. 0. 0. 0. 2.73972610e-03 0. 0. 0. 0. 0. 0.
      0. 0. 0. 0. 0. 0. 0. 0. 0. 0. 5.47945220e-03 0. 0. 0.
      2.73972610e-03 0. 5.47945220e-03 0. 0. 0. 0. 0. 0. 0. 0. 0. 0. 0.
      0. 0. 5.47945220e-03 0. 0. 0. 0. 0. 0. 0. 0. 0. 0. 0. 0.
      2.73972610e-03 0. 0. 0. 0. 0. 0. 0. 0. 0. 2.73972610e-03 0. 0. 0.
      0. 0. 0. 0. 0. 0. 0. 2.73972610e-03 0. 0. 0. 0. 0. 0. 0. 0. 0. 0.
      0. 0. 0. 0. 0. 2.73972610e-03 2.73972610e-03 0. 0. 0. 0. 0. 0. 0.
      0. 2.73972610e-03 0. 0. 0. 0. 0. 0. 0. 5.47945220e-03
      2.73972610e-03 2.73972610e-03 2.73972610e-03 0. 0. 0. 0. 0. 0. 0.
      2.73972610e-03 0. 0. 2.73972610e-03 2.73972610e-03 0. 0. 0. 0.
      2.73972610e-03 0. 2.73972610e-03 0. 0. 0. 0. 0. 2.73972610e-03 0.
      0. 5.47945220e-03 0. 0. 0. 0. 0. 0. 0. 0. 0. 0. 0. 0. 0. 0. 0. 0.
      0. 0. 5.47945220e-03 0. 0. 0. 0. 0. 0. 2.73972610e-03 0. 0.
      2.73972610e-03 0. 0. 0. 0. 0. 2.73972610e-03 0. 0. 1.09589044e-02
      0. 0. 0. 2.73972610e-03 2.73972610e-03 0. 0. 0. 0. 0. 0. 0. 0. 0.
      2.73972610e-03 0. 0. 0. 0. 2.73972610e-03 0. 0. 0. 0.
      1.09589044e-02 0. 0. 0. 0. 0. 0. 0. 0. 0. 0. 0. 0. 2.73972610e-03
      0. 0. 0. 0. 0. 0. 0. 2.73972610e-03 0. 0. 0. 0. 0. 5.47945220e-03
      0. 0. 0. 0. 0. 0. 0. 2.73972610e-03 0. 0. 0. 5.47945220e-03 0. 0.
      0. 0. 0. 0. 0. 0. 0. 0. 0. 0. 0. 0. 0. 0. 0. 0. 0. 0.
      2.73972610e-03 0. 0. 5.47945220e-03 2.73972610e-03 0. 0. 0. 0. 0.
      0. 0. 0. 0. 0. 0. 0. 2.73972610e-03 0. 0. 0. 0. 0. 2.73972610e-03
      0. 5.47945220e-03 0. 0. 0. 5.47945220e-03 0. 2.73972610e-03 0.</_>
    <_>
      0. 0. 0. 0. 0. 0. 0. 0. 0. 0. 0. 0. 0. 0. 7.75193796e-03 0. 0. 0.
      0. 0. 0. 0. 0. 0. 0. 0. 0. 0. 7.75193796e-03 0. 0. 0. 0. 0. 0. 0.
      0. 0. 0. 0. 0. 0. 0. 0. 0. 0. 0. 0. 0. 0. 0. 0. 0. 0.
      7.75193796e-03 0. 0. 0. 0. 7.75193796e-03 0. 0. 7.75193796e-03 0.
      0. 0. 0. 0. 0. 0. 0. 0. 0. 0. 0. 0. 0. 0. 0. 0. 0. 0. 0. 0. 0. 0.
      0. 0. 7.75193796e-03 0. 0. 0. 0. 0. 0. 0. 0. 0. 0. 0. 0. 0. 0. 0.
      0. 0. 0. 0. 0. 0. 0. 0. 0. 0. 0. 0. 0. 0. 0. 0. 0. 0. 0. 0. 0. 0.
      7.75193796e-03 0. 0. 0. 0. 0. 0. 7.75193796e-03 0. 0. 0. 0. 0. 0.
      0. 0. 0. 0. 0. 0. 0. 0. 7.75193796e-03 0. 0. 0. 0. 0. 0. 0. 0. 0.
      0. 0. 0. 0. 0. 0. 0. 0. 0. 7.75193796e-03 0. 0. 0. 0. 0. 0. 0. 0.
      0. 0. 0. 0. 0. 0. 0. 0. 0. 0. 0. 0. 0. 0. 0. 0. 0. 0. 0. 0. 0. 0.
      0. 0. 0. 7.75193796e-03 0. 0. 0. 7.75193796e-03 0. 0. 0. 0. 0. 0.
      0. 0. 0. 0. 0. 0. 7.75193796e-03 0. 0. 0. 0. 0. 0. 7.75193796e-03
      0. 0. 7.75193796e-03 0. 0. 0. 0. 0. 0. 0. 0. 0. 0. 0. 0. 0. 0. 0.
      0. 7.75193796e-03 0. 0. 0. 0. 0. 0. 0. 0. 7.75193796e-03 0. 0. 0.
      0. 0. 0. 0. 0. 0. 0. 0. 0. 0. 0. 0. 0. 0. 7.75193796e-03 0. 0. 0.
      0. 0. 0. 0. 0. 0. 0. 0. 0. 0. 0. 0. 0. 0. 0. 7.75193796e-03 0. 0.
      0. 0. 0. 0. 0. 0. 0. 1.55038759e-02 0. 0. 0. 0. 1.55038759e-02 0.
      0. 0. 7.75193796e-03 0. 0. 0. 0. 0. 0. 0. 7.75193796e-03 0. 0. 0.
      0. 0. 7.75193796e-03 0. 0. 0. 7.75193796e-03 0. 0. 7.75193796e-03
      0. 0. 0. 0. 0. 0. 0. 0. 0. 0. 0. 0. 0. 0. 0. 0. 7.75193796e-03 0.
      0. 0. 0. 7.75193796e-03 0. 0. 0. 0. 0. 0. 0. 7.75193796e-03 0. 0.
      0. 0. 0. 0. 0. 0. 0. 0. 0. 7.75193796e-03 0. 0. 0. 0. 0. 0. 0. 0.
      0. 0. 7.75193796e-03 0. 0. 0. 0. 0. 0. 0. 0. 0. 0. 0. 0. 0. 0. 0.
      0. 0. 0. 7.75193796e-03 0. 0. 0. 0. 0. 0. 0. 0. 0. 0. 0. 0. 0. 0.
      0. 0. 0. 0. 0. 0. 0. 0. 0. 0. 0. 0. 0. 0. 0. 0. 0. 0. 0. 0. 0. 0.
      0. 0. 0. 0. 0. 0. 0. 0. 0. 0. 0. 0. 0. 0. 0. 0. 0. 0. 0. 0. 0. 0.
      0. 0. 0. 0. 0. 7.75193796e-03 0. 7.75193796e-03 0. 0. 0. 0. 0. 0.
      0. 0. 0. 0. 0. 1.55038759e-02 0. 0. 0. 0. 0. 7.75193796e-03 0. 0.
      0. 0. 0. 0. 0. 0. 0. 0. 0. 0. 0. 0. 0. 0. 0. 1.55038759e-02 0. 0.
      0. 0. 0. 0. 0. 0. 0. 0. 0. 0. 0. 0. 0. 0. 0. 0. 0. 0. 0. 0. 0. 0.
      0. 0. 0. 0. 0. 0. 0. 0. 0. 0. 0. 0. 0. 0. 0. 0. 0. 0.
      7.75193796e-03 0. 0. 0. 0. 0. 0. 0. 0. 0. 0. 0. 0. 0. 0. 0. 0.
      7.75193796e-03 0. 0. 0. 0. 0. 0. 0. 0. 0. 0. 0. 0. 0. 0. 0. 0. 0.
      0. 0. 0. 0. 0. 0. 0. 0. 0. 7.75193796e-03 1.55038759e-02 0. 0. 0.
      0. 7.75193796e-03 7.75193796e-03 0. 0. 0. 0. 0. 0. 0. 0. 0. 0. 0.
      0. 0. 0. 0. 0. 0. 0. 0. 0. 0. 0. 0. 0. 7.75193796e-03 0. 0. 0. 0.
      0. 0. 0. 0. 0. 0. 0. 0. 0. 0. 0. 0. 0. 0. 0. 0. 0. 0. 0. 0. 0. 0.
      0. 0. 0. 0. 0. 0. 0. 0. 0. 0. 0. 0. 0. 0. 0. 0. 1.55038759e-02 0.
      0. 7.75193796e-03 0. 0. 0. 0. 0. 0. 0. 0. 0. 0. 0. 0.
      7.75193796e-03 0. 0. 0. 0. 0. 7.75193796e-03 0. 0. 0. 0.
      7.75193796e-03 0. 0. 0. 0. 0. 7.75193796e-03 0. 0. 0.
      7.75193796e-03 0. 0. 0. 0. 0. 0. 0. 0. 0. 0. 0. 0. 0. 0. 0. 0. 0.
      0. 7.75193796e-03 0. 0. 0. 0. 0. 0. 7.75193796e-03 0. 0. 0. 0. 0.
      0. 0. 0. 0. 0. 0. 0. 0. 0. 0. 0. 0. 0. 0. 0. 0. 0. 7.75193796e-03
      0. 0. 0. 0. 0. 0. 0. 0. 0. 0. 0. 0. 0. 0. 0. 0. 0. 0. 0. 0. 0. 0.
      0. 0. 0. 0. 7.75193796e-03 0. 0. 0. 0. 0. 0. 0. 0. 0. 0. 0. 0. 0.
      0. 0. 0. 0. 0. 0. 0. 0. 0. 0. 0. 0. 7.75193796e-03 0. 0. 0.
      7.75193796e-03 0. 0. 7.75193796e-03 0. 0. 0. 0. 0. 0. 0. 0. 0. 0.
      0. 0. 0. 0. 0. 0. 0. 0. 0. 0. 0. 0. 0. 1.55038759e-02 0. 0. 0. 0.
      7.75193796e-03 0. 0. 0. 0. 0. 0. 0. 1.55038759e-02 0. 0.
      7.75193796e-03 0. 0. 0. 0. 0. 0. 0. 0. 0. 0. 0. 0. 0.
      7.75193796e-03 0. 0. 0. 0. 0. 0. 0. 0. 0. 0. 0. 0. 0.
      1.55038759e-02 0. 7.75193796e-03 0. 0. 0. 0. 0. 0. 0. 0. 0. 0. 0.
      0. 0. 0. 0. 0. 0. 0. 0. 0. 0. 0. 7.75193796e-03 0. 0. 0. 0. 0. 0.
      0. 0. 0. 0. 0. 0. 0. 0. 0. 0. 0. 0. 0. 7.75193796e-03 0. 0. 0. 0.
      0. 7.75193796e-03 0. 0. 7.75193796e-03 0. 0. 1.55038759e-02 0. 0.
      0. 0. 0. 0. 0. 0. 0. 0. 0. 0. 0. 0. 0. 0. 0. 0. 0. 0. 0. 0. 0. 0.
      7.75193796e-03 0. 0. 0. 0. 0. 1.55038759e-02 0. 0. 0. 0. 0. 0. 0.
      0. 0. 0. 0. 0. 0. 0. 7.75193796e-03 0. 0. 0. 0. 0. 0. 0. 0. 0. 0.
      0. 0. 0. 0. 0. 0. 0. 0. 0. 0. 0. 0. 0. 0. 0. 0. 0. 0. 0. 0. 0. 0.
      0. 0. 0. 0. 0. 7.75193796e-03 0. 0. 0. 0. 0. 7.75193796e-03 0. 0.
      0. 1.55038759e-02 7.75193796e-03 0. 0. 0. 0. 0. 0. 7.75193796e-03
      7.75193796e-03 0. 0. 0. 0. 0. 7.75193796e-03 0. 0. 0. 0. 0. 0. 0.
      0. 0. 0. 0. 0. 0. 0. 0. 0. 0. 0. 0. 0. 0. 0. 0. 0. 0. 0. 0. 0. 0.
      0. 0. 0. 0. 0. 0. 0. 0. 0. 0. 0. 0. 0. 0. 0. 0. 0. 0. 0. 0. 0.
      7.75193796e-03 0. 7.75193796e-03 0. 0. 0. 0. 0. 0. 0. 0. 0. 0. 0.
      0. 0. 0. 0. 0. 0. 0. 0. 0. 0. 0. 0. 0. 0. 0. 0. 0. 0. 0. 0. 0. 0.
      0. 0. 0. 0. 0. 0. 0. 0. 0. 0. 7.75193796e-03 0. 0. 0. 0. 0. 0. 0.
      7.75193796e-03 0. 0. 0. 0. 0. 0. 0. 0. 0. 0. 0. 0. 0. 0. 0. 0. 0.
      0. 0. 0. 0. 0. 0. 0. 0. 0. 0. 0. 0. 0. 0. 0. 0. 0. 0. 0. 0. 0. 0.
      0. 0. 0. 0. 0. 0. 7.75193796e-03 0. 0. 7.75193796e-03 0. 0. 0. 0.
      0. 0. 0. 0. 0. 0. 0. 7.75193796e-03 0. 0. 0. 0. 0. 0. 0. 0. 0. 0.
      0. 7.75193796e-03 0. 0. 0. 0. 7.75193796e-03 0. 0. 7.75193796e-03
      0. 0. 0. 0. 0. 0. 0. 0. 0. 0. 0. 0. 0. 0. 0. 0. 0. 7.75193796e-03
      0. 0. 0. 0. 0. 0. 0. 0. 0. 0. 0. 0. 0. 0. 0. 0. 7.75193796e-03 0.
      0. 0. 0. 0. 0. 0. 0. 0. 0. 0. 7.75193796e-03 0. 0. 0. 0. 0.
      7.75193796e-03 0. 7.75193796e-03 0. 0. 7.75193796e-03 0. 0.
      7.75193796e-03 0. 0. 0. 0. 0. 1.55038759e-02 0. 0. 0. 0. 0. 0. 0.
      7.75193796e-03 0. 0. 0. 0. 0. 7.75193796e-03 0. 0. 0.
      7.75193796e-03 0. 0. 0. 0. 0. 0. 0. 0. 7.75193796e-03 0. 0. 0. 0.
      0. 0. 0. 0. 7.75193796e-03 0. 0. 0. 0. 0. 0. 0. 0. 0. 0. 0.
      7.75193796e-03 0. 0. 0. 0. 1.55038759e-02 0. 0. 0. 0.
      7.75193796e-03 0. 0. 0. 0. 0. 0. 0. 0. 7.75193796e-03 0. 0. 0. 0.
      0. 0. 0. 0. 0. 0. 0. 0. 0. 0. 0. 0. 0. 0. 0. 0. 0. 7.75193796e-03
      0. 0. 0. 0. 0. 0. 0. 0. 7.75193796e-03 0. 0. 0. 7.75193796e-03 0.
      0. 0. 7.75193796e-03 0. 0. 0. 0. 0. 0. 0. 0. 7.75193796e-03 0. 0.
      0. 0. 0. 0. 0. 0. 0. 0. 0. 0. 0. 0. 0. 0. 0. 0. 0. 0. 0. 0. 0. 0.
      7.75193796e-03 0. 0. 0. 0. 0. 0. 0. 0. 0. 0. 0. 7.75193796e-03 0.
      0. 0. 0. 0. 0. 0. 0. 0. 0. 0. 0. 0. 0. 0. 0. 0. 0. 0. 0. 0. 0. 0.
      0. 0. 7.75193796e-03 0. 0. 0. 0. 0. 0. 0. 0. 0. 0. 0. 0. 0. 0. 0.
      0. 0. 0. 0. 0. 0.</_>
    <_>
      0. 0. 0. 0. 0. 0. 0. 0. 0. 0. 0. 0. 0. 0. 0. 0. 0. 0. 0. 0. 0. 0.
      0. 0. 8.33333377e-03 0. 0. 0. 0. 0. 0. 8.33333377e-03 0. 0. 0. 0.
      0. 0. 0. 8.33333377e-03 8.33333377e-03 0. 0. 0. 0. 0. 0. 0. 0. 0.
      0. 8.33333377e-03 0. 0. 0. 0. 0. 0. 0. 0. 0. 0. 0. 0.
      1.66666675e-02 0. 0. 0. 0. 0. 0. 0. 0. 0. 0. 0. 0. 0. 0. 0. 0. 0.
      0. 0. 0. 0. 0. 0. 0. 0. 0. 0. 0. 0. 0. 0. 0. 0. 0. 0. 0. 0. 0.
      1.66666675e-02 0. 0. 0. 0. 0. 0. 0. 0. 0. 0. 0. 0. 0. 0. 0. 0. 0.
      0. 0. 0. 0. 0. 0. 0. 0. 1.66666675e-02 0. 0. 0. 0. 0. 0. 0. 0. 0.
      0. 0. 0. 0. 0. 0. 0. 0. 0. 0. 0. 0. 0. 0. 0. 0. 0. 0. 0. 0. 0. 0.
      0. 0. 0. 0. 0. 0. 0. 0. 0. 0. 0. 0. 0. 0. 0. 0. 8.33333377e-03 0.
      0. 0. 0. 0. 0. 0. 8.33333377e-03 0. 0. 0. 0. 0. 0. 0. 0. 0. 0. 0.
      0. 0. 0. 0. 0. 0. 0. 2.50000022e-02 0. 0. 2.50000022e-02
      8.33333377e-03 0. 0. 0. 0. 0. 0. 0. 0. 0. 0. 0. 0. 0. 0. 0. 0. 0.
      0. 0. 0. 0. 0. 0. 8.33333377e-03 0. 0. 0. 0. 0. 0. 0. 0. 0. 0. 0.
      0. 0. 0. 0. 0. 0. 0. 0. 0. 0. 0. 0. 0. 0. 0. 0. 0. 0. 0. 0. 0. 0.
      0. 0. 0. 0. 0. 0. 0. 0. 0. 0. 0. 0. 0. 0. 0. 0. 0. 8.33333377e-03
      0. 0. 0. 0. 0. 0. 0. 0. 0. 0. 0. 0. 0. 0. 0. 0. 0. 0. 0. 0. 0. 0.
      0. 0. 0. 0. 0. 0. 0. 0. 0. 0. 0. 0. 0. 0. 0. 8.33333377e-03 0. 0.
      0. 0. 0. 0. 0. 0. 0. 0. 0. 0. 0. 0. 0. 0. 0. 0. 0. 0.
      1.66666675e-02 0. 0. 0. 0. 0. 0. 0. 0. 0. 0. 0. 0. 0. 0. 0. 0. 0.
      0. 0. 0. 0. 0. 0. 0. 8.33333377e-03 0. 0. 0. 0. 0. 0. 0. 0. 0.
      8.33333377e-03 8.33333377e-03 0. 0. 0. 0. 0. 0. 0. 0. 0. 0.
      8.33333377e-03 0. 0. 0. 0. 0. 0. 0. 0. 0. 0. 0. 0. 8.33333377e-03
      0. 0. 0. 0. 0. 0. 0. 0. 0. 0. 0. 0. 0. 0. 0. 0. 0. 0. 0. 0. 0. 0.
      0. 0. 0. 0. 0. 0. 0. 0. 0. 0. 0. 0. 1.66666675e-02 0. 0. 0. 0.
      1.66666675e-02 0. 0. 0. 0. 0. 0. 0. 0. 0. 0. 0. 0. 0. 0. 0. 0. 0.
      0. 0. 0. 0. 0. 0. 0. 0. 0. 0. 0. 0. 0. 0. 0. 0. 0. 0. 0. 0. 0. 0.
      0. 0. 0. 0. 0. 0. 0. 0. 0. 0. 0. 0. 0. 8.33333377e-03 0. 0. 0. 0.
      0. 0. 0. 0. 0. 0. 0. 0. 0. 8.33333377e-03 0. 0. 0. 0. 0. 0. 0. 0.
      0. 0. 0. 0. 0. 0. 0. 0. 0. 0. 0. 0. 0. 0. 0. 0. 0. 0. 0. 0.
      8.33333377e-03 0. 0. 0. 0. 0. 0. 0. 0. 0. 0. 0. 0. 0. 0. 0. 0. 0.
      0. 0. 8.33333377e-03 0. 0. 0. 0. 0. 0. 0. 0. 0. 0. 0.
      8.33333377e-03 0. 0. 0. 0. 0. 0. 0. 0. 0. 8.33333377e-03 0. 0. 0.
      8.33333377e-03 0. 0. 0. 0. 0. 0. 0. 1.66666675e-02 0. 0. 0. 0. 0.
      0. 0. 0. 0. 0. 0. 2.50000022e-02 0. 0. 0. 0. 0. 0. 0. 0. 0. 0. 0.
      0. 0. 0. 0. 0. 0. 0. 0. 0. 0. 0. 0. 0. 0. 0. 0. 0. 0. 0. 0. 0. 0.
      8.33333377e-03 0. 8.33333377e-03 0. 0. 0. 0. 0. 0. 8.33333377e-03
      0. 0. 0. 0. 0. 0. 0. 0. 0. 0. 0. 0. 0. 0. 0. 0. 0. 0. 0. 0. 0. 0.
      0. 0. 0. 0. 0. 0. 0. 0. 0. 0. 0. 0. 0. 0. 0. 0. 0. 0. 0. 0. 0. 0.
      0. 0. 0. 0. 0. 0. 0. 0. 0. 0. 0. 0. 0. 0. 0. 0. 0. 0. 0. 0. 0. 0.
      0. 0. 0. 0. 0. 0. 0. 0. 0. 0. 8.33333377e-03 0. 0. 0. 0. 0. 0. 0.
      0. 0. 0. 0. 0. 0. 0. 8.33333377e-03 0. 0. 0. 0. 0. 0. 0. 0. 0. 0.
      0. 1.66666675e-02 0. 0. 0. 0. 0. 0. 0. 0. 0. 0. 0. 0. 0.
      8.33333377e-03 0. 0. 0. 0. 0. 8.33333377e-03 0. 0. 1.66666675e-02
      0. 0. 0. 0. 0. 0. 0. 0. 0. 0. 0. 0. 0. 0. 0. 0. 1.66666675e-02 0.
      0. 0. 0. 0. 0. 0. 0. 0. 0. 0. 0. 0. 0. 8.33333377e-03 0. 0. 0. 0.
      1.66666675e-02 0. 0. 0. 0. 0. 0. 1.66666675e-02 0. 0. 0. 0. 0. 0.
      0. 0. 0. 0. 0. 0. 8.33333377e-03 0. 0. 0. 0. 0. 0. 0. 0. 0. 0. 0.
      0. 0. 0. 0. 0. 0. 0. 0. 0. 8.33333377e-03 0. 0. 0. 0. 0. 0. 0. 0.
      0. 0. 0. 0. 0. 0. 0. 0. 0. 0. 0. 0. 8.33333377e-03 0. 0. 0. 0. 0.
      0. 0. 0. 0. 0. 0. 8.33333377e-03 0. 0. 0. 0. 0. 0. 0. 0. 0. 0. 0.
      0. 0. 0. 0. 0. 0. 8.33333377e-03 0. 0. 0. 0. 0. 0. 0. 0. 0.
      8.33333377e-03 1.66666675e-02 0. 0. 0. 0. 0. 0. 0. 0. 0. 0. 0. 0.
      0. 0. 0. 0. 0. 0. 0. 0. 0. 0. 0. 0. 0. 0. 0. 0. 0. 0. 0. 0. 0. 0.
      0. 0. 0. 0. 0. 0. 0. 0. 0. 0. 0. 0. 0. 0. 0. 0. 0. 8.33333377e-03
      0. 0. 0. 0. 0. 0. 8.33333377e-03 0. 0. 8.33333377e-03 0. 0. 0. 0.
      0. 0. 0. 0. 0. 0. 0. 0. 0. 8.33333377e-03 0. 1.66666675e-02
      8.33333377e-03 0. 0. 0. 0. 0. 0. 0. 0. 0. 0. 0. 0. 0. 0. 0. 0. 0.
      0. 0. 0. 1.66666675e-02 0. 0. 0. 0. 0. 0. 0. 0. 0. 0. 0. 0. 0. 0.
      0. 0. 0. 0. 0. 0. 0. 0. 0. 0. 0. 0. 0. 0. 0. 0. 8.33333377e-03 0.
      0. 8.33333377e-03 0. 0. 8.33333377e-03 0. 0. 0. 1.66666675e-02 0.
      0. 0. 0. 0. 0. 0. 0. 0. 0. 0. 0. 0. 8.33333377e-03 0. 0. 0. 0. 0.
      0. 8.33333377e-03 0. 0. 0. 0. 0. 0. 0. 0. 0. 0. 0. 0. 0. 0. 0. 0.
      8.33333377e-03 0. 0. 0. 0. 0. 0. 0. 0. 0. 0. 8.33333377e-03 0. 0.
      0. 0. 0. 0. 0. 0. 0. 0. 0. 0. 0. 0. 0. 0. 8.33333377e-03 0. 0. 0.
      0. 0. 0. 0. 0. 0. 0. 0. 0. 0. 0. 0. 8.33333377e-03 0. 0. 0. 0. 0.
      0. 0. 0. 0. 0. 0. 0. 8.33333377e-03 0. 0. 0. 0. 0. 0. 0.
      8.33333377e-03 0. 0. 0. 0. 0. 8.33333377e-03 0. 0. 0. 0. 0. 0. 0.
      0. 0. 0. 0. 0. 0. 0. 0. 0. 0. 0. 0. 0. 0. 0. 8.33333377e-03 0. 0.
      0. 0. 0. 0. 8.33333377e-03 0. 0. 0. 0. 0. 0. 0. 8.33333377e-03 0.
      0. 0. 0. 0. 0. 0. 1.66666675e-02 0. 0. 0. 0. 0. 0. 0. 0. 0. 0. 0.
      0. 0. 0. 0. 0. 0. 0. 0. 0. 0. 0. 0. 0. 0. 0. 0. 0. 0. 0. 0. 0. 0.
      0. 0. 0. 0. 0. 0. 0. 0. 0. 0. 0. 0. 0. 0. 0. 0. 0. 0. 0. 0. 0. 0.
      0. 1.66666675e-02 0. 0. 0. 0. 0. 0. 0. 0. 0. 8.33333377e-03 0. 0.
      0. 0. 0. 0. 0. 0. 0. 0. 0. 0. 0. 0. 0. 0. 0. 8.33333377e-03 0. 0.
      0. 0. 8.33333377e-03 0. 8.33333377e-03 0. 0. 0. 0. 0. 0. 0. 0. 0.
      0. 0. 0. 0. 0. 0. 0. 0. 0. 8.33333377e-03 0. 0. 0. 8.33333377e-03
      0. 0. 0. 0. 8.33333377e-03 0. 0. 0. 0. 0. 0. 0. 0. 0. 0. 0. 0. 0.
      0. 8.33333377e-03 0. 0. 0. 0. 0. 0. 0. 0. 0. 0. 0. 0. 0. 0. 0. 0.
      0. 0. 0. 0. 0. 0. 0. 0. 0. 0. 0. 0. 0. 8.33333377e-03 0. 0. 0. 0.
      0. 0. 8.33333377e-03 0. 0. 0. 0. 0. 0. 0. 0. 0. 0. 0. 0. 0. 0. 0.
      0. 0. 0. 0. 0. 0. 0. 0. 0. 0. 8.33333377e-03 0. 0. 0. 0. 0. 0. 0.
      0. 0. 8.33333377e-03 0. 0. 0. 0. 0. 0. 0. 0. 0. 0. 0. 0. 0. 0. 0.
      0. 0. 0. 0. 0. 0. 0. 0. 0. 0. 0. 0. 0. 0. 0. 0. 0. 0. 0. 0. 0. 0.
      8.33333377e-03 0. 0. 0. 0. 8.33333377e-03 0. 0. 0. 0. 0. 0. 0.
      8.33333377e-03 0. 0. 8.33333377e-03 0. 0. 0. 0. 0. 0. 0. 0. 0. 0.
      0. 0. 0. 0. 0. 0. 0. 0. 0. 0. 0. 1.66666675e-02 0. 0. 0. 0. 0.</_>
    <_>
      0. 0. 0. 0. 0. 0. 0. 0. 0. 0. 0. 0. 0. 0. 0. 0. 0. 0. 0. 0. 0. 0.
      0. 0. 0. 0. 0. 0. 0. 0. 0. 0. 0. 0. 2.17391308e-02 0. 0. 0. 0. 0.
      0. 0. 0. 0. 0. 0. 0. 0. 0. 0. 0. 6.52173907e-02 0. 0. 0. 0. 0. 0.
      0. 0. 0. 0. 0. 0. 0. 2.17391308e-02 0. 0. 0. 0. 0. 0. 0. 0. 0.
      4.34782617e-02 0. 0. 0. 0. 0. 0. 0. 0. 2.17391308e-02 0. 0. 0. 0.
      0. 0. 0. 0. 0. 0. 0. 0. 0. 0. 0. 0. 0. 0. 0. 0. 0. 0. 0. 0. 0. 0.
      0. 0. 0. 0. 0. 0. 0. 0. 0. 0. 0. 0. 0. 0. 0. 0. 0. 0.
      4.34782617e-02 0. 0. 0. 0. 0. 0. 0. 0. 0. 0. 0. 0. 0. 0. 0. 0. 0.
      0. 0. 0. 0. 0. 0. 0. 0. 0. 0. 0. 0. 0. 0. 0. 2.17391308e-02 0. 0.
      0. 0. 0. 0. 0. 0. 0. 0. 0. 0. 0. 0. 0. 0. 2.17391308e-02 0. 0. 0.
      0. 0. 0. 0. 0. 0. 0. 0. 0. 0. 0. 0. 0. 0. 0. 0. 0. 0. 0. 0. 0. 0.
      0. 0. 0. 0. 0. 0. 0. 0. 0. 0. 0. 0. 0. 0. 0. 0. 0. 0. 0. 0. 0. 0.
      0. 2.17391308e-02 0. 0. 0. 0. 0. 0. 0. 0. 0. 0. 0. 0. 0. 0. 0. 0.
      0. 0. 0. 0. 0. 0. 0. 0. 0. 0. 0. 0. 0. 0. 0. 0. 0. 0. 0. 0. 0. 0.
      0. 0. 0. 0. 0. 0. 0. 0. 0. 0. 0. 0. 0. 0. 4.34782617e-02 0. 0. 0.
      0. 0. 0. 0. 0. 0. 0. 0. 0. 0. 0. 0. 0. 0. 0. 0. 0. 0. 0. 0. 0. 0.
      0. 0. 0. 0. 0. 0. 0. 0. 0. 0. 0. 2.17391308e-02 0. 0. 0. 0. 0. 0.
      0. 0. 0. 0. 0. 0. 0. 0. 0. 0. 0. 0. 0. 0. 0. 0. 0. 0. 0. 0. 0. 0.
      0. 0. 0. 0. 0. 0. 0. 0. 0. 0. 0. 0. 0. 0. 0. 0. 0. 0. 0. 0. 0. 0.
      0. 0. 0. 0. 0. 0. 0. 0. 0. 0. 0. 0. 0. 0. 0. 0. 0. 0. 0. 0. 0. 0.
      0. 0. 0. 0. 0. 0. 0. 0. 0. 0. 0. 0. 0. 0. 0. 0. 0. 0. 0. 0. 0. 0.
      0. 0. 0. 0. 0. 0. 0. 0. 0. 0. 0. 2.17391308e-02 0. 0. 0. 0. 0. 0.
      4.34782617e-02 0. 0. 0. 0. 0. 0. 0. 0. 0. 0. 0. 0. 0. 0. 0. 0. 0.
      0. 0. 0. 0. 0. 0. 0. 0. 0. 0. 0. 0. 0. 0. 0. 0. 0. 0. 0. 0. 0. 0.
      2.17391308e-02 0. 0. 0. 0. 0. 0. 0. 0. 0. 0. 0. 0. 0. 0. 0. 0. 0.
      0. 0. 0. 0. 0. 0. 0. 0. 2.17391308e-02 0. 0. 0. 0. 0. 0. 0. 0. 0.
      0. 0. 0. 0. 0. 0. 0. 0. 0. 0. 0. 0. 0. 0. 0. 0. 0. 0. 0. 0. 0. 0.
      0. 0. 2.17391308e-02 0. 0. 0. 0. 0. 0. 0. 0. 0. 0. 0. 0. 0. 0. 0.
      0. 0. 0. 0. 0. 0. 0. 0. 0. 0. 0. 0. 0. 0. 0. 0. 0. 0. 0. 0. 0. 0.
      0. 0. 0. 0. 0. 0. 0. 0. 0. 0. 0. 0. 0. 0. 0. 0. 0. 0. 0. 0. 0. 0.
      0. 0. 0. 0. 0. 0. 0. 0. 0. 0. 0. 0. 0. 0. 0. 0. 0. 0. 0. 0. 0. 0.
      0. 0. 0. 0. 0. 0. 0. 0. 0. 0. 0. 0. 0. 0. 0. 0. 0. 0. 0. 0. 0. 0.
      0. 0. 0. 0. 0. 0. 0. 0. 0. 0. 0. 0. 0. 0. 0. 0. 0. 0. 0. 0. 0. 0.
      0. 0. 0. 0. 0. 0. 0. 0. 0. 0. 2.17391308e-02 0. 0. 0. 0. 0. 0. 0.
      0. 0. 0. 0. 0. 0. 0. 0. 0. 0. 0. 0. 0. 0. 0. 0. 0. 0.
      2.17391308e-02 0. 0. 0. 0. 0. 0. 0. 0. 0. 0. 0. 0. 0. 0. 0. 0. 0.
      0. 0. 0. 0. 0. 0. 0. 0. 0. 0. 0. 0. 0. 0. 0. 0. 0. 0. 0. 0. 0. 0.
