<?xml version="1.0"?>
<opencv_storage>
<my_svm type_id="opencv-ml-svm">
  <svm_type>C_SVC</svm_type>
  <kernel><type>RBF</type>
    <gamma>1.</gamma></kernel>
  <C>1.</C>
  <term_criteria><epsilon>1.1920928955078125e-07</epsilon>
    <iterations>1000</iterations></term_criteria>
  <var_all>1500</var_all>
  <var_count>1500</var_count>
  <class_count>2</class_count>
  <class_labels type_id="opencv-matrix">
    <rows>1</rows>
    <cols>2</cols>
    <dt>i</dt>
    <data>
      0 1</data></class_labels>
  <sv_total>255</sv_total>
  <support_vectors>
    <_>
      0. 0. 0. 2.53807101e-03 0. 0. 5.07614203e-03 0. 0. 2.53807101e-03
      0. 0. 0. 0. 0. 2.53807101e-03 0. 5.07614203e-03 2.53807101e-03 0.
      0. 0. 0. 0. 0. 0. 0. 0. 0. 2.53807101e-03 0. 0. 0. 0. 0. 0. 0. 0.
      0. 0. 2.53807101e-03 0. 0. 0. 0. 0. 0. 0. 0. 0. 0. 5.07614203e-03
      0. 0. 0. 0. 0. 0. 2.53807101e-03 0. 2.53807101e-03 0. 0. 0. 0. 0.
      0. 0. 0. 0. 0. 0. 0. 0. 2.53807101e-03 0. 0. 0. 0. 0. 0.
      2.53807101e-03 0. 0. 0. 0. 0. 2.53807101e-03 2.53807101e-03 0. 0.
      0. 0. 0. 0. 0. 0. 0. 0. 0. 0. 0. 0. 0. 0. 0. 2.53807101e-03 0. 0.
      0. 2.53807101e-03 2.53807101e-03 0. 0. 0. 2.53807101e-03 0. 0. 0.
      0. 2.53807101e-03 0. 0. 2.53807101e-03 0. 0. 0. 0. 0. 0. 0. 0. 0.
      0. 0. 0. 2.53807101e-03 0. 0. 7.61421304e-03 2.53807101e-03
      2.53807101e-03 0. 2.53807101e-03 0. 0. 5.07614203e-03
      2.53807101e-03 0. 0. 0. 0. 0. 0. 0. 0. 2.53807101e-03 0. 0. 0. 0.
      0. 0. 0. 0. 1.01522841e-02 0. 0. 2.53807101e-03 2.53807101e-03 0.
      2.53807101e-03 0. 0. 2.53807101e-03 0. 0. 0. 0. 0. 0. 0.
      5.07614203e-03 5.07614203e-03 0. 0. 0. 0. 0. 0. 0. 0. 0.
      2.53807101e-03 0. 0. 5.07614203e-03 2.53807101e-03 0. 0. 0.
      2.53807101e-03 7.61421304e-03 5.07614203e-03 0. 0. 5.07614203e-03
      2.53807101e-03 0. 0. 0. 0. 0. 0. 2.53807101e-03 2.53807101e-03 0.
      2.53807101e-03 0. 0. 2.53807101e-03 0. 2.53807101e-03 0. 0. 0. 0.
      0. 0. 0. 0. 0. 0. 0. 0. 0. 0. 0. 0. 2.53807101e-03 2.53807101e-03
      0. 0. 0. 0. 5.07614203e-03 0. 0. 0. 0. 0. 0. 0. 0. 0. 0. 0. 0.
      2.53807101e-03 0. 0. 5.07614203e-03 0. 0. 0. 0. 0. 0. 0. 0. 0. 0.
      0. 2.53807101e-03 0. 0. 0. 0. 0. 0. 0. 0. 0. 0. 0. 0. 0.
      2.53807101e-03 0. 0. 0. 0. 0. 0. 0. 0. 0. 2.53807101e-03 0. 0. 0.
      0. 0. 0. 0. 0. 0. 0. 0. 0. 0. 0. 2.53807101e-03 0. 0. 0.
      5.07614203e-03 0. 0. 2.53807101e-03 0. 0. 0. 0. 0. 0. 0. 0. 0. 0.
      0. 5.07614203e-03 0. 0. 0. 0. 0. 0. 0. 0. 0. 2.53807101e-03 0.
      7.61421304e-03 0. 0. 0. 0. 2.53807101e-03 5.07614203e-03
      2.53807101e-03 0. 0. 0. 0. 0. 2.53807101e-03 1.77664980e-02 0. 0.
      7.61421304e-03 0. 5.07614203e-03 5.07614203e-03 0. 0. 0. 0. 0. 0.
      0. 0. 0. 0. 0. 0. 0. 2.53807101e-03 0. 0. 0. 0. 0. 0. 0. 0. 0. 0.
      2.53807101e-03 0. 2.53807101e-03 0. 7.61421304e-03 2.53807101e-03
      0. 0. 2.53807101e-03 0. 0. 0. 0. 0. 0. 0. 0. 2.53807101e-03 0. 0.
      0. 0. 0. 0. 0. 0. 0. 0. 0. 0. 0. 0. 2.53807101e-03 0. 0. 0. 0. 0.
      0. 0. 0. 0. 0. 2.53807101e-03 2.53807101e-03 0. 0. 0. 0. 0.
      2.53807101e-03 0. 0. 0. 0. 5.07614203e-03 0. 0. 2.53807101e-03 0.
      0. 0. 0. 0. 0. 2.53807101e-03 0. 0. 0. 0. 0. 0. 0. 0. 0. 0.
      2.53807101e-03 0. 0. 0. 0. 0. 0. 0. 0. 2.53807101e-03 0. 0. 0. 0.
      2.53807101e-03 0. 0. 0. 0. 0. 0. 0. 0. 0. 2.53807101e-03 0. 0. 0.
      0. 0. 0. 2.53807101e-03 5.07614203e-03 0. 0. 0. 0. 0. 0.
      2.53807101e-03 0. 0. 0. 0. 0. 0. 0. 0. 0. 0. 0. 0. 0. 0. 0. 0. 0.
      2.53807101e-03 0. 0. 2.53807101e-03 0. 0. 0. 0. 0. 0. 0. 0. 0. 0.
      0. 0. 0. 2.53807101e-03 0. 5.07614203e-03 0. 0. 7.61421304e-03 0.
      5.07614203e-03 0. 0. 2.53807101e-03 0. 0. 0. 0. 0. 5.07614203e-03
      0. 0. 2.53807101e-03 0. 0. 0. 0. 7.61421304e-03 0. 0.
      2.53807101e-03 2.53807101e-03 2.53807101e-03 2.53807101e-03 0. 0.
      0. 0. 0. 0. 5.07614203e-03 2.53807101e-03 2.53807101e-03
      5.07614203e-03 0. 5.07614203e-03 0. 0. 2.53807101e-03 0. 0. 0.
      2.53807101e-03 0. 0. 0. 0. 0. 0. 0. 0. 0. 2.53807101e-03 0. 0. 0.
      0. 5.07614203e-03 0. 5.07614203e-03 0. 0. 0. 0. 0. 5.07614203e-03
      0. 0. 2.53807101e-03 0. 0. 0. 0. 0. 0. 0. 0. 0. 0. 0. 0. 0. 0. 0.
      2.53807101e-03 0. 0. 0. 0. 0. 0. 0. 0. 0. 0. 0. 0. 0. 0.
      2.53807101e-03 0. 0. 0. 0. 0. 0. 0. 0. 2.53807101e-03 0. 0. 0. 0.
      0. 0. 0. 0. 0. 2.53807101e-03 7.61421304e-03 0. 2.53807101e-03 0.
      0. 2.53807101e-03 0. 0. 0. 0. 0. 0. 0. 0. 7.61421304e-03 0. 0. 0.
      0. 2.53807101e-03 5.07614203e-03 0. 0. 0. 0. 0. 0. 0. 0.
      2.53807101e-03 0. 0. 0. 0. 2.53807101e-03 0. 0. 2.53807101e-03 0.
      0. 0. 0. 0. 2.53807101e-03 0. 0. 0. 0. 0. 0. 0. 0. 0.
      2.53807101e-03 0. 5.07614203e-03 0. 0. 0. 0. 0. 0. 0. 0. 0. 0. 0.
      5.07614203e-03 0. 0. 5.07614203e-03 2.53807101e-03 0. 0. 0. 0. 0.
      0. 0. 2.53807101e-03 0. 0. 0. 0. 0. 2.53807101e-03 0. 0. 0. 0. 0.
      2.53807101e-03 0. 0. 0. 0. 0. 0. 0. 0. 0. 0. 0. 0. 0. 0. 0. 0. 0.
      0. 0. 0. 0. 0. 2.53807101e-03 0. 5.07614203e-03 0. 5.07614203e-03
      0. 0. 2.53807101e-03 0. 0. 0. 2.53807101e-03 0. 0. 0. 0. 0. 0.
      2.53807101e-03 2.53807101e-03 0. 5.07614203e-03 0. 0. 0. 0.
      2.53807101e-03 2.53807101e-03 0. 0. 0. 2.53807101e-03 0. 0. 0. 0.
      2.53807101e-03 0. 0. 2.53807101e-03 2.53807101e-03 0. 0. 0. 0. 0.
      0. 0. 5.07614203e-03 0. 0. 0. 0. 0. 0. 0. 2.53807101e-03 0. 0. 0.
      0. 0. 0. 2.53807101e-03 2.53807101e-03 0. 0. 0. 0. 0. 0. 0. 0. 0.
      7.61421304e-03 5.07614203e-03 0. 0. 0. 0. 0. 2.53807101e-03 0. 0.
      0. 0. 0. 0. 0. 0. 0. 0. 2.53807101e-03 2.53807101e-03
      2.53807101e-03 0. 2.53807101e-03 2.53807101e-03 0. 0. 0. 0. 0. 0.
      0. 0. 2.53807101e-03 0. 0. 0. 0. 5.07614203e-03 5.07614203e-03 0.
      0. 0. 0. 0. 0. 0. 0. 0. 1.77664980e-02 2.53807101e-03
      7.61421304e-03 2.53807101e-03 0. 0. 2.53807101e-03 0.
      2.53807101e-03 0. 0. 0. 0. 0. 2.53807101e-03 0. 0. 0. 0.
      2.53807101e-03 0. 0. 0. 0. 0. 0. 0. 0. 0. 2.53807101e-03 0.
      2.53807101e-03 0. 0. 0. 5.07614203e-03 2.53807101e-03
      2.53807101e-03 5.07614203e-03 0. 0. 0. 0. 0. 0. 0. 5.07614203e-03
      0. 0. 0. 2.53807101e-03 0. 0. 0. 0. 0. 0. 0. 0. 0. 0. 0. 0. 0. 0.
      0. 0. 0. 0. 0. 2.53807101e-03 0. 0. 0. 0. 5.07614203e-03
      5.07614203e-03 0. 0. 0. 2.53807101e-03 0. 0. 0. 0. 0. 0. 0.
      2.53807101e-03 0. 0. 0. 0. 2.53807101e-03 2.53807101e-03 0. 0. 0.
      0. 0. 0. 0. 2.53807101e-03 0. 0. 2.53807101e-03 0. 0. 0. 0. 0. 0.
      0. 2.53807101e-03 0. 0. 2.53807101e-03 0. 0. 0. 0. 0. 0. 0. 0. 0.
      5.07614203e-03 0. 0. 0. 0. 0. 2.53807101e-03 2.53807101e-03 0.
      5.07614203e-03 0. 0. 0. 2.53807101e-03 0. 0. 0. 2.53807101e-03 0.
      2.53807101e-03 0. 0. 0. 0. 0. 2.53807101e-03 0. 0. 0. 0. 0. 0.
      2.53807101e-03 0. 0. 0. 0. 0. 0. 0. 0. 0. 0. 0. 0. 0.
      2.53807101e-03 0. 0. 0. 0. 0. 0. 2.53807101e-03 0. 2.53807101e-03
      0. 2.53807101e-03 0. 0. 0. 2.53807101e-03 0. 0. 0. 0. 0. 0. 0. 0.
      0. 0. 0. 0. 0. 0. 0. 0. 0. 0. 2.53807101e-03 0. 0. 0. 0. 0. 0.
      2.53807101e-03 0. 0. 0. 0. 0. 0. 0. 0. 0. 0. 0. 0. 5.07614203e-03
      0. 0. 0. 0. 2.53807101e-03 0. 0. 0. 0. 0. 0. 0. 0. 2.53807101e-03
      0. 0. 0. 0. 0. 0. 2.53807101e-03 0. 0. 0. 0. 0. 0. 0. 0. 0. 0. 0.
      0. 0. 0. 0. 0. 0. 0. 0. 0. 0. 0. 0. 2.53807101e-03 2.53807101e-03
      0. 0. 0. 2.53807101e-03 0. 2.53807101e-03 0. 0. 0. 0. 0. 0. 0. 0.
      0. 0. 5.07614203e-03 0. 0. 0. 0. 0. 0. 0. 0. 0. 5.07614203e-03 0.
      0. 0. 0. 0. 0. 0. 7.61421304e-03 0. 0. 0. 0. 0. 0. 0. 0.
      5.07614203e-03 0. 0. 2.53807101e-03 0. 2.53807101e-03 0. 0. 0. 0.
      2.53807101e-03 0. 0. 0. 0. 0. 0. 2.53807101e-03 2.53807101e-03 0.
      0. 5.07614203e-03 2.53807101e-03 0. 0. 0. 0. 2.53807101e-03 0. 0.
      0. 2.53807101e-03 0. 0. 0. 0. 2.53807101e-03 0. 2.53807101e-03 0.
      0. 0. 0. 0. 7.61421304e-03 0. 0. 5.07614203e-03 2.53807101e-03 0.
      0. 2.53807101e-03 0. 0. 0. 0. 0. 7.61421304e-03 0. 0. 0. 0. 0. 0.
      0. 0. 0. 0. 0. 0. 0. 0. 2.53807101e-03 5.07614203e-03 0. 0. 0.
      5.07614203e-03 0. 0. 2.53807101e-03 7.61421304e-03 0. 0. 0.
      2.53807101e-03 2.53807101e-03 5.07614203e-03 2.53807101e-03 0. 0.
      5.07614203e-03 0. 0. 2.53807101e-03 7.61421304e-03 0. 0. 0. 0. 0.
      0. 0. 5.07614203e-03 0. 0. 0. 0. 0. 2.53807101e-03 0.
      2.53807101e-03 0. 0. 0. 0. 7.61421304e-03 0. 0. 0. 0. 0. 0. 0. 0.
      0. 0. 0. 0. 0. 0. 2.53807101e-03 0. 0. 2.53807101e-03 0.
      2.53807101e-03 0. 0. 2.53807101e-03 0. 0. 2.53807101e-03
      2.53807101e-03 0. 2.53807101e-03 0. 0. 0. 0. 0. 0. 2.53807101e-03
      0. 0. 2.53807101e-03 0. 0. 0. 0. 0. 0. 5.07614203e-03 0. 0. 0. 0.
      0. 0. 0. 0. 0. 0. 0. 0. 0. 0. 0. 0. 0. 0. 0. 2.53807101e-03 0.
      2.53807101e-03 0. 0. 0. 0. 0. 0. 0. 2.53807101e-03 0. 0. 0.
      2.53807101e-03 2.53807101e-03 2.53807101e-03 0. 0. 0. 0. 0. 0.
      2.53807101e-03 0. 0. 0. 0. 0. 0. 0. 0. 5.07614203e-03 0. 0. 0. 0.
      0. 0. 0. 0. 0. 0. 0. 0. 0. 0. 0. 0. 0. 0. 0. 0. 0. 0.
      5.07614203e-03 0. 0. 5.07614203e-03 0. 0. 0. 0. 2.53807101e-03 0.
      0. 0. 0. 0. 0. 0. 0. 0. 0. 2.53807101e-03 2.53807101e-03 0. 0. 0.
      0. 5.07614203e-03 0. 0. 0. 2.53807101e-03 2.53807101e-03 0. 0. 0.
      0. 0. 0. 0. 0. 2.53807101e-03 0. 2.53807101e-03 0. 0. 0. 0. 0.</_>
    <_>
      0. 0. 0. 0. 0. 0. 0. 0. 9.17431246e-03 0. 0. 0. 0. 0. 0. 0. 0. 0.
      0. 0. 0. 0. 3.05810408e-03 0. 0. 0. 0. 0. 0. 0. 3.05810408e-03 0.
      0. 0. 0. 0. 0. 0. 0. 0. 0. 0. 0. 0. 0. 0. 0. 0. 0. 0. 0. 0.
      3.05810408e-03 0. 0. 0. 0. 0. 0. 0. 0. 3.05810408e-03 0.
      3.05810408e-03 3.05810408e-03 0. 0. 0. 6.11620815e-03
      6.11620815e-03 0. 0. 0. 0. 0. 0. 0. 0. 3.05810408e-03 0. 0. 0. 0.
      0. 0. 0. 0. 0. 0. 0. 0. 0. 3.05810408e-03 0. 0. 0. 0. 0. 0. 0. 0.
      0. 1.22324163e-02 3.05810408e-03 0. 0. 0. 0. 0. 0. 0. 0. 0. 0. 0.
      0. 0. 0. 0. 0. 0. 2.14067288e-02 0. 0. 0. 0. 0. 3.05810408e-03 0.
      0. 0. 0. 3.05810408e-03 0. 0. 0. 0. 0. 0. 0. 0. 0. 0. 0. 0. 0. 0.
      0. 6.11620815e-03 3.05810408e-03 0. 0. 0. 0. 0. 0. 0. 0. 0. 0.
      3.05810408e-03 0. 0. 0. 3.05810408e-03 0. 0. 0. 0. 0.
      6.11620815e-03 0. 0. 3.05810408e-03 0. 0. 0. 0. 0. 0. 0. 0.
      3.05810408e-03 0. 0. 0. 0. 3.05810408e-03 0. 0. 0. 0. 0. 0. 0. 0.
      0. 0. 0. 3.05810408e-03 0. 0. 0. 0. 0. 3.05810408e-03 0. 0. 0. 0.
      0. 0. 0. 0. 0. 0. 6.11620815e-03 3.05810408e-03 0. 0. 0. 0. 0. 0.
      0. 0. 0. 0. 6.11620815e-03 3.05810408e-03 3.05810408e-03 0. 0. 0.
      3.05810408e-03 0. 0. 0. 0. 0. 0. 0. 0. 0. 0. 0. 0. 3.05810408e-03
      0. 0. 0. 0. 0. 0. 0. 0. 0. 0. 0. 0. 0. 0. 9.17431246e-03 0. 0. 0.
      0. 3.05810408e-03 0. 0. 0. 0. 0. 0. 1.22324163e-02 0. 0. 0. 0. 0.
      0. 0. 0. 0. 0. 0. 0. 3.05810408e-03 0. 0. 0. 0. 0. 0. 0. 0.
      3.05810408e-03 0. 3.05810408e-03 0. 0. 0. 6.11620815e-03 0. 0. 0.
      0. 0. 0. 0. 0. 0. 0. 3.05810408e-03 0. 6.11620815e-03
      3.05810408e-03 0. 0. 0. 0. 0. 0. 0. 0. 0. 0. 0. 0. 0. 0. 0. 0. 0.
      0. 0. 0. 3.05810408e-03 0. 0. 0. 2.75229365e-02 0. 0. 0. 0. 0. 0.
      0. 0. 0. 0. 0. 0. 6.11620815e-03 0. 0. 0. 3.05810408e-03
      3.05810408e-03 0. 0. 0. 0. 3.05810408e-03 0. 0. 0. 0. 0. 0. 0.
      3.05810408e-03 0. 0. 0. 0. 0. 0. 0. 0. 0. 0. 3.05810408e-03 0. 0.
      0. 0. 0. 0. 0. 0. 0. 0. 0. 0. 0. 0. 0. 0. 0. 0. 0. 0. 0. 0. 0. 0.
      0. 0. 0. 0. 0. 0. 0. 0. 0. 0. 0. 0. 0. 0. 0. 0. 0. 0. 0. 0. 0. 0.
      3.05810408e-03 0. 0. 0. 0. 0. 0. 3.05810408e-03 3.05810408e-03 0.
      0. 0. 0. 0. 3.05810408e-03 0. 0. 0. 3.05810408e-03 0. 0. 0. 0. 0.
      6.11620815e-03 0. 0. 0. 0. 0. 0. 0. 0. 0. 0. 0. 0. 0. 0. 0. 0. 0.
      0. 0. 0. 0. 0. 0. 0. 0. 0. 0. 0. 0. 0. 0. 0. 0. 0. 0. 0. 0. 0. 0.
      3.05810408e-03 0. 0. 0. 0. 0. 0. 0. 0. 0. 0. 0. 0. 0. 0. 0. 0. 0.
      0. 0. 0. 0. 0. 0. 0. 0. 0. 0. 0. 0. 0. 0. 0. 0. 0. 0. 0. 0. 0. 0.
      0. 0. 0. 0. 0. 6.11620815e-03 0. 0. 0. 0. 0. 0. 0. 0. 0. 0. 0. 0.
      0. 0. 0. 0. 0. 0. 0. 0. 3.05810408e-03 9.17431246e-03 0. 0. 0.
      3.05810408e-03 0. 0. 0. 0. 0. 0. 0. 6.11620815e-03 0. 0. 0.
      3.05810408e-03 0. 0. 0. 0. 0. 0. 0. 0. 0. 3.05810408e-03 0. 0. 0.
      0. 0. 0. 0. 0. 0. 0. 0. 3.05810408e-03 0. 0. 9.17431246e-03 0. 0.
      0. 0. 0. 3.05810408e-03 6.11620815e-03 0. 0. 0. 0. 0. 0. 0. 0. 0.
      3.05810408e-03 0. 3.05810408e-03 0. 3.05810408e-03 0. 0. 0.
      6.11620815e-03 0. 6.11620815e-03 0. 0. 0. 0. 1.22324163e-02 0. 0.
      0. 0. 9.17431246e-03 0. 0. 3.05810408e-03 0. 0. 0. 0. 0. 0. 0. 0.
      0. 0. 0. 0. 0. 0. 0. 0. 0. 0. 0. 0. 0. 0. 0. 0. 3.05810408e-03 0.
      0. 0. 0. 0. 0. 0. 3.05810408e-03 3.05810408e-03 0. 3.05810408e-03
      0. 0. 0. 0. 3.05810408e-03 0. 0. 0. 9.17431246e-03 0. 0. 0.
      6.11620815e-03 0. 0. 3.05810408e-03 0. 0. 0. 0. 0. 0. 0. 0. 0. 0.
      1.22324163e-02 6.11620815e-03 0. 0. 0. 0. 0. 0. 0. 0. 0. 0. 0. 0.
      0. 0. 0. 0. 0. 0. 3.05810408e-03 0. 3.05810408e-03 0. 0. 0. 0. 0.
      0. 0. 0. 0. 0. 0. 0. 0. 0. 0. 0. 0. 0. 0. 6.11620815e-03 0. 0. 0.
      0. 0. 0. 0. 0. 0. 0. 0. 0. 0. 0. 0. 6.11620815e-03 0. 0. 0. 0. 0.
      0. 0. 0. 0. 0. 0. 3.05810408e-03 0. 0. 0. 0. 0. 0. 0.
      3.05810408e-03 3.05810408e-03 0. 0. 0. 0. 0. 0. 0. 0.
      6.11620815e-03 0. 0. 0. 0. 0. 0. 9.17431246e-03 0. 0. 0. 0. 0. 0.
      0. 0. 0. 0. 0. 0. 0. 0. 0. 0. 0. 0. 0. 0. 0. 0. 0. 0.
      3.05810408e-03 0. 0. 0. 3.05810408e-03 9.17431246e-03 0. 0. 0. 0.
      0. 0. 0. 0. 0. 0. 0. 0. 0. 0. 0. 6.11620815e-03 0. 6.11620815e-03
      0. 0. 0. 0. 0. 0. 0. 0. 0. 0. 0. 0. 0. 0. 0. 0. 0. 3.05810408e-03
      0. 0. 0. 0. 0. 0. 0. 0. 0. 0. 9.17431246e-03 0. 0. 0. 0. 0. 0. 0.
      1.52905202e-02 6.11620815e-03 0. 0. 0. 0. 0. 0. 0. 0. 0. 0.
      3.05810408e-03 0. 0. 0. 0. 0. 3.05810408e-03 0. 0. 0. 0. 0. 0. 0.
      0. 0. 0. 0. 0. 0. 0. 0. 0. 0. 0. 0. 0. 0. 0. 0. 0. 3.05810408e-03
      0. 0. 0. 0. 0. 0. 0. 0. 0. 0. 0. 0. 0. 0. 3.05810408e-03 0. 0. 0.
      0. 0. 0. 0. 0. 9.17431246e-03 0. 0. 0. 0. 0. 0. 0. 0. 0. 0. 0. 0.
      0. 0. 0. 0. 0. 0. 3.05810408e-03 0. 3.05810408e-03 0. 0. 0. 0. 0.
      0. 0. 0. 0. 0. 0. 3.05810403e-02 0. 0. 0. 0. 0. 0. 0. 0. 0.
      6.11620815e-03 3.05810408e-03 3.05810408e-03 0. 0. 0. 0. 0. 0. 0.
      0. 0. 0. 0. 0. 0. 0. 3.05810408e-03 0. 0. 0. 0. 0. 1.83486249e-02
      0. 0. 0. 0. 0. 0. 0. 0. 0. 0. 0. 0. 0. 0. 0. 0. 0. 0.
      3.05810408e-03 0. 0. 0. 0. 0. 3.05810408e-03 0. 0. 0.
      6.11620815e-03 0. 0. 0. 0. 0. 0. 0. 3.05810408e-03 0. 0.
      3.05810408e-03 9.17431246e-03 0. 0. 0. 0. 0. 0. 0. 0. 0. 0. 0. 0.
      3.05810408e-03 0. 0. 0. 0. 0. 0. 0. 0. 0. 0. 3.05810408e-03
      3.05810408e-03 0. 0. 0. 0. 0. 0. 0. 0. 0. 1.22324163e-02
      3.05810408e-03 0. 0. 0. 0. 0. 6.11620815e-03 0. 0. 0. 0. 0.
      3.05810408e-03 0. 0. 0. 0. 0. 0. 0. 0. 0. 0. 0. 0. 0.
      3.05810408e-03 3.05810408e-03 0. 0. 0. 0. 0. 0. 0. 0. 0. 0. 0. 0.
      0. 0. 0. 0. 0. 0. 1.22324163e-02 0. 0. 0. 0. 0. 0. 0. 0. 0. 0. 0.
      0. 0. 0. 3.05810408e-03 0. 0. 0. 0. 0. 0. 0. 0. 0. 0. 0. 0. 0. 0.
      0. 6.11620815e-03 3.05810408e-03 0. 0. 0. 0. 0. 3.05810408e-03
      3.05810408e-03 0. 0. 0. 0. 0. 3.05810408e-03 0. 0. 0. 0. 0. 0. 0.
      3.05810408e-03 0. 0. 0. 0. 0. 0. 0. 1.22324163e-02 0. 0.
      1.83486249e-02 0. 0. 0. 0. 0. 0. 0. 0. 0. 0. 0. 0. 0. 0.
      1.52905202e-02 3.05810408e-03 0. 0. 0. 0. 0. 0. 0. 0. 0. 0. 0. 0.
      0. 0. 3.05810408e-03 0. 0. 9.17431246e-03 0. 3.05810408e-03
      3.05810408e-03 0. 0. 3.05810408e-03 0. 0. 0. 0. 0. 3.05810408e-03
      1.22324163e-02 0. 0. 0. 0. 3.05810408e-03 0. 0. 0. 0. 0. 0. 0. 0.
      3.05810408e-03 0. 0. 0. 0. 0. 0. 0. 0. 0. 3.05810408e-03
      3.05810408e-03 3.05810408e-03 0. 0. 0. 0. 1.52905202e-02 0. 0. 0.
      0. 0. 0. 3.05810408e-03 0. 0. 0. 0. 6.11620815e-03 0. 0. 0. 0. 0.
      0. 0. 3.05810408e-03 0. 0. 0. 0. 0. 0. 0. 0. 0. 0. 0. 0. 0. 0. 0.
      0. 3.05810408e-03 3.05810408e-03 0. 0. 6.11620815e-03 0.
      2.14067288e-02 0. 0. 0. 0. 3.05810408e-03 0. 0. 3.05810408e-03 0.
      0. 0. 0. 0. 0. 0. 0. 0. 0. 0. 0. 0. 0. 0. 0. 0. 0. 0. 0. 0. 0. 0.
      0. 0. 0. 0. 0. 1.52905202e-02 0. 0. 0. 0. 0. 0. 0. 3.05810408e-03
      0. 0. 0. 0. 0. 0. 0. 0. 0. 0. 0. 0. 3.05810408e-03 0. 0. 0.
      3.05810408e-03 0. 6.11620815e-03 0. 0. 0. 0. 3.05810408e-03 0. 0.
      0. 3.05810408e-03 0. 3.05810408e-03 0. 0. 0. 0. 3.05810408e-03 0.
      9.17431246e-03 0. 0. 0. 0. 0. 0. 0. 0. 0. 0. 0. 3.05810408e-03 0.
      0. 9.17431246e-03 0. 0. 0. 0. 0. 0. 0. 0. 0. 0. 0. 0. 0. 0. 0. 0.
      0. 3.05810408e-03 3.05810408e-03 0. 0. 0. 0. 0. 0. 0. 0. 0. 0. 0.
      0. 0. 0. 0. 0. 0. 0. 0. 0. 0. 0. 0. 0. 0. 0. 0. 0. 0. 0. 0. 0. 0.
      0. 0. 0. 0. 0. 0. 0. 0. 0. 0. 6.11620815e-03 0. 0. 0. 0. 0. 0. 0.
      6.11620815e-03 0. 0. 3.05810408e-03 0. 1.22324163e-02</_>
    <_>
      0. 0. 0. 0. 0. 0. 0. 0. 0. 0. 0. 0. 2.26244354e-03 0.
      2.26244354e-03 0. 0. 0. 4.52488707e-03 0. 0. 0. 0. 0. 0. 0.
      2.26244354e-03 0. 0. 0. 2.26244354e-03 0. 0. 2.26244354e-03 0. 0.
      0. 0. 0. 0. 0. 0. 0. 0. 0. 0. 0. 2.26244354e-03 0. 0. 0. 0. 0. 0.
      0. 0. 0. 0. 0. 0. 4.52488707e-03 0. 0. 0. 0. 0. 0. 0. 0. 0. 0. 0.
      0. 0. 2.26244354e-03 2.26244354e-03 0. 0. 0. 0. 0. 0. 0. 0. 0. 0.
      0. 2.26244354e-03 0. 4.52488707e-03 0. 2.26244354e-03 0. 0. 0. 0.
      0. 0. 0. 0. 0. 2.26244354e-03 0. 0. 0. 0. 2.26244354e-03 0.
      2.26244354e-03 2.26244354e-03 0. 2.26244354e-03 2.26244354e-03 0.
      0. 2.26244354e-03 0. 0. 0. 0. 0. 0. 2.26244354e-03 0. 0.
      2.26244354e-03 0. 2.26244354e-03 2.26244354e-03 0. 0. 0. 0. 0. 0.
      0. 0. 2.26244354e-03 0. 0. 0. 0. 2.26244354e-03 2.26244354e-03 0.
      0. 2.26244354e-03 0. 2.26244354e-03 0. 0. 6.78733084e-03 0. 0. 0.
      0. 0. 0. 2.26244354e-03 2.26244354e-03 0. 0. 2.26244354e-03 0. 0.
      0. 0. 0. 0. 2.26244354e-03 0. 0. 0. 0. 0. 0. 0. 0. 0. 0. 0.
      2.26244354e-03 0. 0. 0. 0. 0. 0. 2.26244354e-03 0. 0.
      2.26244354e-03 0. 0. 0. 0. 2.26244354e-03 2.26244354e-03 0. 0. 0.
      0. 0. 2.26244354e-03 2.26244354e-03 0. 2.26244354e-03 0. 0. 0.
      2.26244354e-03 0. 0. 0. 0. 2.26244354e-03 0. 0. 0. 0. 0. 0. 0. 0.
      0. 2.26244354e-03 0. 0. 0. 0. 0. 0. 0. 2.26244354e-03 0. 0.
      2.26244354e-03 0. 0. 0. 0. 0. 4.52488707e-03 0. 0. 0. 0. 0.
      4.52488707e-03 0. 0. 0. 2.26244354e-03 0. 0. 0. 0. 0. 0. 0. 0. 0.
      0. 0. 0. 2.26244354e-03 0. 2.26244354e-03 0. 2.26244354e-03 0. 0.
      2.26244354e-03 0. 0. 0. 0. 1.13122175e-02 0. 0. 0. 0. 0. 0. 0. 0.
      2.26244354e-03 2.26244354e-03 6.78733084e-03 0. 0. 0. 0. 0. 0.
      2.26244354e-03 0. 0. 2.26244354e-03 0. 0. 0. 0. 0. 2.26244354e-03
      0. 0. 0. 0. 0. 0. 0. 0. 0. 0. 0. 0. 0. 0. 9.04977415e-03 0. 0. 0.
      0. 0. 2.26244354e-03 0. 2.26244354e-03 0. 2.26244354e-03 0. 0. 0.
      0. 0. 4.52488707e-03 0. 0. 0. 4.52488707e-03 2.26244354e-03 0. 0.
      0. 0. 0. 0. 0. 0. 0. 0. 0. 0. 0. 0. 0. 0. 0. 0. 0. 2.26244354e-03
      2.26244354e-03 0. 0. 4.52488707e-03 0. 0. 6.78733084e-03 0. 0. 0.
      0. 0. 0. 0. 0. 4.52488707e-03 0. 0. 2.26244354e-03 0.
      2.26244354e-03 0. 0. 0. 0. 2.26244354e-03 0. 0. 0. 0.
      2.26244354e-03 2.26244354e-03 0. 0. 0. 6.78733084e-03
      4.52488707e-03 0. 0. 0. 0. 0. 0. 2.26244354e-03 0. 0. 0. 0. 0. 0.
      0. 0. 0. 0. 0. 0. 0. 0. 2.26244354e-03 0. 0. 4.52488707e-03 0. 0.
      0. 2.26244354e-03 0. 0. 0. 0. 0. 0. 4.52488707e-03 0. 0. 0.
      2.26244354e-03 0. 0. 0. 2.26244354e-03 0. 2.26244354e-03
      2.26244354e-03 0. 9.04977415e-03 2.26244354e-03 0. 0. 0.
      6.78733084e-03 0. 0. 0. 0. 0. 0. 0. 2.26244354e-03 0.
      2.26244354e-03 0. 0. 2.26244354e-03 0. 2.26244354e-03 0. 0.
      2.26244354e-03 2.26244354e-03 0. 6.78733084e-03 2.26244354e-03 0.
      0. 0. 0. 2.26244354e-03 0. 0. 0. 0. 0. 0. 0. 0. 0. 0. 0. 0. 0. 0.
      0. 0. 0. 0. 0. 2.26244354e-03 0. 0. 0. 0. 0. 2.26244354e-03 0. 0.
      0. 0. 0. 0. 2.26244354e-03 4.52488707e-03 0. 0. 0. 0.
      2.26244354e-03 0. 0. 0. 2.26244354e-03 0. 0. 0. 2.26244354e-03 0.
      0. 6.78733084e-03 0. 0. 0. 0. 2.26244354e-03 2.26244354e-03 0. 0.
      4.52488707e-03 6.78733084e-03 0. 0. 0. 0. 2.26244354e-03 0. 0. 0.
      0. 0. 0. 0. 2.26244354e-03 2.26244354e-03 0. 0. 0. 0.
      4.52488707e-03 2.26244354e-03 0. 0. 0. 0. 0. 2.26244354e-03 0. 0.
      0. 0. 0. 0. 2.26244354e-03 2.26244354e-03 0. 0. 1.35746617e-02 0.
      0. 2.26244354e-03 0. 0. 0. 0. 0. 0. 4.52488707e-03 0.
      4.52488707e-03 0. 0. 0. 4.52488707e-03 0. 0. 4.52488707e-03 0. 0.
      0. 0. 4.52488707e-03 0. 0. 0. 0. 0. 0. 4.52488707e-03
      2.26244354e-03 0. 0. 0. 2.26244354e-03 0. 0. 0. 0. 0. 0. 0. 0. 0.
      2.26244354e-03 0. 0. 0. 0. 0. 0. 0. 0. 0. 0. 0. 0. 2.26244354e-03
      0. 0. 0. 0. 0. 0. 0. 4.52488707e-03 0. 0. 0. 0. 2.26244354e-03 0.
      2.26244354e-03 0. 0. 0. 0. 4.52488707e-03 0. 0. 0. 0.
      2.26244354e-03 0. 0. 0. 0. 0. 0. 2.26244354e-03 0. 0. 0. 0. 0. 0.
      2.26244354e-03 0. 0. 0. 0. 4.52488707e-03 2.26244354e-03 0. 0. 0.
      0. 2.26244354e-03 9.04977415e-03 0. 0. 0. 0. 0. 0. 2.26244354e-03
      4.52488707e-03 0. 0. 9.04977415e-03 0. 0. 0. 0. 0. 0. 0. 0. 0. 0.
      0. 2.26244354e-03 0. 2.26244354e-03 0. 0. 0. 0. 0. 0. 0. 0.
      2.26244354e-03 0. 4.52488707e-03 0. 2.26244354e-03 0.
      2.26244354e-03 0. 0. 0. 0. 0. 0. 0. 2.26244354e-03 0. 0. 0. 0.
      2.26244354e-03 0. 2.26244354e-03 0. 0. 0. 2.26244354e-03
      6.78733084e-03 0. 0. 0. 0. 0. 0. 0. 0. 0. 0. 0. 0. 0. 0. 0. 0. 0.
      0. 0. 6.78733084e-03 0. 6.78733084e-03 0. 2.26244354e-03 0. 0. 0.
      0. 0. 2.26244354e-03 0. 0. 0. 2.26244354e-03 0. 0. 0. 0. 0. 0. 0.
      4.52488707e-03 0. 0. 0. 0. 0. 0. 0. 2.26244354e-03 0.
      2.26244354e-03 0. 0. 0. 0. 0. 0. 2.26244354e-03 0. 0. 0. 0. 0. 0.
      0. 0. 0. 2.26244354e-03 0. 0. 0. 0. 0. 2.26244354e-03 0. 0. 0. 0.
      0. 0. 4.52488707e-03 0. 0. 0. 0. 0. 0. 0. 0. 0. 2.26244354e-03 0.
      0. 0. 0. 0. 4.52488707e-03 0. 0. 0. 0. 0. 0. 0. 0. 0.
      4.52488707e-03 0. 0. 0. 0. 2.26244354e-03 2.26244354e-03 0. 0. 0.
      0. 0. 9.04977415e-03 0. 0. 4.52488707e-03 6.78733084e-03 0.
      2.26244354e-03 0. 4.52488707e-03 0. 4.52488707e-03 0. 0. 0. 0. 0.
      0. 0. 0. 2.26244354e-03 0. 0. 4.52488707e-03 2.26244354e-03 0. 0.
      0. 0. 2.26244354e-03 0. 0. 0. 2.26244354e-03 0. 9.04977415e-03 0.
      2.26244354e-03 0. 0. 0. 0. 0. 0. 2.26244354e-03 0. 4.52488707e-03
      0. 0. 0. 0. 0. 2.26244354e-03 0. 2.26244354e-03 0. 0. 0.
      2.26244354e-03 4.52488707e-03 2.26244354e-03 0. 0. 2.26244354e-03
      0. 0. 0. 6.78733084e-03 0. 0. 0. 0. 0. 0. 2.26244354e-03 0. 0.
      2.26244354e-03 0. 0. 0. 0. 2.26244354e-03 4.52488707e-03 0. 0. 0.
      0. 0. 0. 0. 0. 0. 0. 0. 0. 4.52488707e-03 0. 0. 0. 6.78733084e-03
      0. 0. 0. 0. 2.26244354e-03 0. 0. 0. 0. 0. 4.52488707e-03 0. 0. 0.
      0. 0. 0. 0. 0. 0. 0. 0. 0. 0. 0. 0. 0. 0. 0. 2.26244354e-03 0. 0.
      0. 0. 2.26244354e-03 0. 0. 0. 0. 0. 0. 0. 0. 0. 0. 2.26244354e-03
      0. 0. 2.26244354e-03 0. 2.26244354e-03 0. 4.52488707e-03 0. 0. 0.
      0. 0. 0. 2.26244354e-03 0. 0. 0. 0. 0. 0. 2.26244354e-03 0. 0.
      4.52488707e-03 0. 0. 0. 2.26244354e-03 0. 0. 0. 0. 0. 0. 0. 0. 0.
      4.52488707e-03 9.04977415e-03 0. 2.26244354e-03 0. 2.26244354e-03
      0. 0. 0. 4.52488707e-03 0. 0. 0. 0. 0. 0. 0. 0. 0. 0.
      4.52488707e-03 0. 0. 2.26244354e-03 0. 0. 0. 0. 0. 0. 0. 0. 0. 0.
      0. 0. 0. 0. 0. 0. 0. 0. 0. 0. 0. 0. 0. 0. 0. 0. 0. 0. 0. 0. 0. 0.
      0. 4.52488707e-03 4.52488707e-03 0. 2.26244354e-03 0.
      2.26244354e-03 0. 2.26244354e-03 0. 0. 0. 0. 0. 0. 0. 0.
      2.26244354e-03 6.78733084e-03 0. 0. 0. 0. 0. 0. 0. 0.
      6.78733084e-03 0. 0. 0. 0. 0. 2.26244354e-03 0. 2.26244354e-03 0.
      0. 0. 0. 0. 0. 0. 0. 2.26244354e-03 0. 0. 0. 0. 2.26244354e-03 0.
      2.26244354e-03 2.26244354e-03 0. 0. 0. 0. 0. 0. 0. 0.
      4.52488707e-03 0. 2.26244354e-03 0. 0. 0. 0. 0. 0. 0. 0. 0. 0. 0.
      0. 0. 4.52488707e-03 4.52488707e-03 0. 0. 0. 0. 0. 0. 0. 0. 0.
      2.26244354e-03 0. 0. 0. 0. 0. 0. 0. 2.26244354e-03 0. 0.
      4.52488707e-03 0. 0. 0. 0. 2.26244354e-03 0. 0. 0. 0. 0. 0. 0. 0.
      2.26244354e-03 0. 0. 0. 0. 0. 0. 2.26244354e-03 0. 0. 0.
      2.26244354e-03 2.26244354e-03 0. 0. 0. 0. 0. 0. 0. 0. 0. 0.
      2.26244354e-03 0. 0. 0. 0. 0. 0. 2.26244354e-03 0. 0. 0. 0. 0. 0.
      0. 0. 0. 0. 0. 0. 0. 0. 0. 0. 0. 0. 2.26244354e-03 2.26244354e-03
      0. 0. 0. 2.26244354e-03 0. 9.04977415e-03 0. 0. 0. 0. 0. 0. 0.
      2.26244354e-03 0. 0. 0. 0. 0. 0. 4.52488707e-03 0. 0. 0. 0.
      6.78733084e-03 0. 0. 4.52488707e-03 0. 0. 0. 0. 0. 0. 0.
      2.26244354e-03 0. 0. 0. 0. 0. 2.26244354e-03 2.26244354e-03 0. 0.
      0. 0. 2.26244354e-03 0. 0. 0. 6.78733084e-03 0. 0. 0.
      4.52488707e-03 0. 0. 0. 0. 0. 0. 0. 4.52488707e-03 0. 0. 0. 0. 0.
      0. 2.26244354e-03 4.52488707e-03 0. 0. 2.26244354e-03
      4.52488707e-03 0. 2.26244354e-03 2.26244354e-03 0. 0.
      4.52488707e-03 0. 0. 2.26244354e-03 0. 0. 0. 0. 0. 2.26244354e-03
      0. 0. 2.26244354e-03 0. 2.26244354e-03 0. 0. 0. 0. 0. 0. 0. 0. 0.
      4.52488707e-03 0. 0. 0. 2.26244354e-03 2.26244354e-03
      6.78733084e-03 0. 0. 0. 0. 2.26244354e-03 6.78733084e-03
      2.26244354e-03 0. 0. 0. 0. 0. 2.26244354e-03 2.26244354e-03 0. 0.
      0. 0. 2.26244354e-03 0. 0. 0. 0. 4.52488707e-03 0. 0. 0. 0. 0. 0.
      0. 2.26244354e-03 0. 0. 0. 2.26244354e-03 0. 0. 0. 0. 0. 0.
      2.26244354e-03 0. 0. 0. 0. 4.52488707e-03 2.26244354e-03
      2.26244354e-03 2.26244354e-03 4.52488707e-03 2.26244354e-03 0. 0.
      0. 0. 0. 0. 0. 0. 0. 0. 2.26244354e-03 0. 2.26244354e-03 0. 0. 0.
      0. 0. 0. 0. 0. 0. 0. 0. 0. 0. 0. 0. 0. 0. 0. 4.52488707e-03 0. 0.
      0. 0. 0. 0. 0. 2.26244354e-03 2.26244354e-03 0. 6.78733084e-03 0.
      2.26244354e-03 0. 0. 0. 0. 0. 0. 0. 0. 0. 0. 0. 2.26244354e-03 0.
      0. 0. 2.26244354e-03 0. 0. 0. 0. 0.</_>
    <_>
      0. 0. 0. 0. 0. 0. 0. 5.60224103e-03 0. 0. 2.80112051e-03
      2.80112051e-03 0. 0. 0. 0. 0. 0. 0. 0. 0. 0. 0. 0. 0. 0. 0. 0. 0.
      0. 0. 2.80112051e-03 5.60224103e-03 0. 0. 0. 5.60224103e-03
      2.80112051e-03 0. 0. 0. 0. 0. 0. 0. 0. 0. 0. 0. 2.80112051e-03 0.
      0. 0. 0. 5.60224103e-03 8.40336177e-03 0. 0. 0. 0. 2.80112051e-03
      0. 0. 0. 0. 2.80112051e-03 0. 0. 0. 0. 0. 0. 0. 0. 0. 0. 0. 0.
      5.60224103e-03 1.12044821e-02 0. 0. 1.12044821e-02 0. 0. 0. 0. 0.
      2.80112051e-03 0. 0. 5.60224103e-03 0. 0. 0. 0. 0. 0. 0. 0. 0. 0.
      2.80112051e-03 0. 0. 0. 2.80112051e-03 0. 0. 0. 0. 0. 0. 0. 0. 0.
      0. 0. 0. 0. 0. 0. 0. 0. 5.60224103e-03 5.60224103e-03 0. 0.
      5.60224103e-03 0. 0. 2.80112051e-03 0. 0. 0. 0. 0. 0. 0. 0.
      2.80112051e-03 5.60224103e-03 2.80112051e-03 0. 0. 0. 0. 0. 0. 0.
      0. 0. 0. 0. 0. 0. 0. 0. 2.80112051e-03 0. 0. 0. 0. 0. 0. 0. 0. 0.
      0. 0. 0. 0. 0. 0. 0. 0. 2.80112051e-03 0. 0. 0. 0. 0. 0. 0. 0.
      2.80112051e-03 0. 0. 5.60224103e-03 0. 2.80112051e-03 0. 0. 0. 0.
      0. 0. 0. 0. 0. 2.80112051e-03 8.40336177e-03 0. 0. 0. 0. 0. 0. 0.
      0. 0. 0. 0. 0. 0. 0. 0. 0. 0. 0. 0. 0. 0. 0. 0. 0. 0. 0. 0. 0. 0.
      0. 0. 0. 5.60224103e-03 0. 0. 0. 0. 0. 2.80112051e-03 0. 0. 0.
      5.60224103e-03 0. 0. 0. 0. 0. 0. 0. 0. 0. 0. 0. 2.80112051e-03 0.
      2.80112051e-03 0. 2.80112051e-03 2.80112051e-03 0. 0.
      2.80112051e-03 0. 2.80112051e-03 0. 0. 2.80112051e-03 0. 0.
      8.40336177e-03 0. 0. 0. 0. 0. 0. 2.80112051e-03 0. 2.80112051e-03
      0. 0. 0. 0. 0. 0. 2.80112051e-03 0. 2.80112051e-03 0. 0. 0. 0. 0.
      0. 0. 0. 0. 0. 0. 0. 0. 2.80112051e-03 0. 0. 0. 0. 0. 0. 0.
      5.60224103e-03 2.80112051e-03 1.68067235e-02 0. 0. 0. 0. 0. 0. 0.
      0. 0. 0. 2.80112051e-03 0. 8.40336177e-03 5.60224103e-03 0. 0. 0.
      0. 0. 0. 2.80112051e-03 0. 0. 0. 0. 0. 0. 0. 0. 0. 0. 0. 0. 0. 0.
      0. 0. 0. 0. 0. 5.60224103e-03 0. 0. 0. 0. 2.80112051e-03 0. 0. 0.
      0. 0. 0. 0. 0. 0. 2.80112051e-03 8.40336177e-03 0. 0.
      8.40336177e-03 0. 0. 0. 2.80112051e-03 0. 0. 0. 0. 0. 0. 0. 0. 0.
      0. 0. 0. 2.80112051e-03 0. 2.80112051e-03 0. 0. 0. 0.
      2.80112051e-03 0. 0. 0. 0. 2.80112051e-03 0. 0. 0. 0.
      2.80112051e-03 0. 0. 0. 0. 0. 1.40056023e-02 0. 2.80112051e-03 0.
      2.80112051e-03 0. 0. 0. 0. 0. 0. 0. 0. 0. 0. 0. 0. 0.
      2.80112051e-03 0. 0. 0. 0. 2.80112051e-03 2.80112051e-03 0. 0. 0.
      0. 0. 2.80112051e-03 2.80112051e-03 0. 5.60224103e-03 0.
      2.80112051e-03 0. 0. 5.60224103e-03 0. 0. 0. 2.80112051e-03 0. 0.
      5.60224103e-03 8.40336177e-03 2.80112051e-03 0. 2.80112051e-03 0.
      0. 0. 0. 0. 0. 0. 0. 0. 0. 0. 0. 0. 0. 0. 0. 2.80112051e-03 0. 0.
      0. 0. 0. 0. 0. 2.80112051e-03 0. 0. 2.80112051e-03 0. 0.
      2.80112051e-03 2.80112051e-03 0. 0. 0. 0. 0. 0. 0. 2.80112051e-03
      0. 0. 0. 0. 0. 0. 2.80112051e-03 0. 5.60224103e-03 0. 0. 0. 0. 0.
      0. 0. 0. 0. 0. 0. 2.80112051e-03 0. 0. 2.80112051e-03 0. 0. 0.
      2.80112051e-03 0. 0. 2.80112051e-03 2.80112051e-03 0. 0. 0. 0. 0.
      0. 0. 0. 0. 0. 0. 0. 0. 0. 0. 0. 0. 0. 0. 1.40056023e-02
      2.80112051e-03 0. 0. 0. 0. 0. 0. 0. 2.80112051e-03 0.
      2.80112051e-03 2.80112051e-03 0. 0. 2.80112051e-03 0. 0. 0. 0. 0.
      0. 0. 0. 0. 0. 0. 0. 0. 0. 5.60224103e-03 0. 0. 0. 0.
      8.40336177e-03 0. 0. 5.60224103e-03 0. 0. 0. 0. 0. 2.80112051e-03
      0. 0. 0. 0. 0. 0. 0. 0. 0. 0. 0. 0. 0. 0. 0. 0. 0. 0.
      2.80112051e-03 0. 0. 0. 0. 0. 0. 0. 0. 0. 0. 0. 2.80112051e-03
      2.80112051e-03 0. 0. 0. 0. 0. 0. 0. 0. 0. 0. 0. 2.80112051e-03 0.
      0. 0. 0. 0. 0. 0. 0. 0. 0. 2.80112051e-03 0. 2.80112051e-03 0. 0.
      0. 0. 0. 0. 0. 0. 5.60224103e-03 0. 0. 0. 0. 0. 2.80112051e-03 0.
      0. 0. 0. 0. 0. 0. 0. 0. 0. 0. 0. 0. 0. 0. 0. 0. 0. 0. 0. 0. 0.
      2.80112051e-03 0. 0. 2.80112051e-03 0. 0. 0. 0. 0. 2.80112051e-03
      0. 0. 0. 0. 0. 0. 0. 0. 0. 0. 2.80112051e-03 0. 0. 0. 0. 0. 0. 0.
      0. 0. 0. 2.80112051e-03 0. 0. 0. 0. 0. 0. 0. 0. 0. 0. 0. 0. 0. 0.
      0. 0. 0. 0. 0. 0. 0. 0. 0. 2.80112051e-03 0. 2.80112051e-03 0. 0.
      0. 0. 0. 0. 0. 0. 2.80112051e-03 0. 0. 0. 0. 0. 2.80112051e-03 0.
      0. 0. 0. 0. 0. 2.80112051e-03 8.40336177e-03 2.80112051e-03 0. 0.
      0. 0. 0. 2.80112051e-03 0. 0. 0. 0. 2.80112051e-03 0.
      5.60224103e-03 0. 0. 0. 0. 2.80112051e-03 0. 0. 0. 0. 0. 0. 0. 0.
      0. 0. 0. 0. 0. 2.80112051e-03 0. 0. 0. 0. 0. 0. 0. 0. 0. 0. 0. 0.
      2.80112051e-03 0. 0. 0. 0. 0. 2.80112051e-03 0. 0. 0. 0. 0. 0. 0.
      0. 0. 0. 0. 2.80112051e-03 0. 0. 2.80112051e-03 0. 0. 0. 0. 0. 0.
      0. 0. 0. 0. 0. 0. 0. 0. 0. 0. 0. 0. 0. 2.80112051e-03
      2.80112051e-03 2.80112051e-03 0. 0. 2.80112051e-03 0.
      2.80112051e-03 2.80112051e-03 2.80112051e-03 0. 0. 2.80112051e-03
      2.80112051e-03 2.80112051e-03 0. 0. 2.80112051e-03 5.60224103e-03
      0. 0. 2.80112051e-03 0. 0. 0. 5.60224103e-03 2.80112051e-03 0. 0.
      0. 0. 0. 2.80112051e-03 0. 0. 1.40056023e-02 0. 5.60224103e-03
      2.80112051e-03 0. 0. 2.80112051e-03 2.80112051e-03 0. 0. 0. 0.
      2.80112051e-03 0. 0. 0. 0. 0. 0. 0. 2.80112051e-03 0. 0. 0. 0. 0.
      0. 0. 0. 0. 5.60224103e-03 0. 2.80112051e-03 0. 0. 2.80112051e-03
      0. 0. 0. 0. 0. 0. 0. 0. 0. 0. 5.60224103e-03 2.80112051e-03 0. 0.
      0. 8.40336177e-03 0. 0. 0. 0. 0. 0. 0. 0. 0. 2.80112051e-03 0. 0.
      0. 0. 2.80112051e-03 0. 0. 0. 0. 0. 0. 0. 0. 0. 0. 0.
      2.80112051e-03 0. 0. 0. 0. 2.80112051e-03 0. 0. 0. 0. 0. 0. 0. 0.
      0. 0. 0. 0. 5.60224103e-03 2.80112051e-03 2.80112051e-03 0. 0. 0.
      0. 0. 0. 2.80112051e-03 0. 0. 0. 0. 0. 5.60224103e-03
      2.80112051e-03 0. 0. 0. 0. 0. 0. 2.80112051e-03 0. 0. 0. 0. 0. 0.
      0. 2.80112051e-03 2.80112051e-03 0. 0. 0. 2.80112051e-03 0. 0.
      2.80112051e-03 0. 2.80112051e-03 0. 0. 0. 0. 0. 0. 0. 0. 0. 0. 0.
      0. 0. 0. 0. 2.80112051e-03 0. 0. 0. 0. 0. 0. 0. 0. 2.80112051e-03
      0. 0. 0. 0. 0. 0. 0. 5.60224103e-03 0. 0. 0. 0. 0. 0. 0. 0. 0. 0.
      0. 0. 0. 0. 0. 0. 0. 0. 2.80112051e-03 0. 0. 0. 0. 5.60224103e-03
      0. 0. 0. 0. 0. 2.80112051e-03 5.60224103e-03 0. 0. 2.80112051e-03
      0. 0. 2.80112051e-03 0. 0. 0. 0. 0. 0. 0. 0. 0. 0. 0. 0. 0. 0. 0.
      0. 0. 2.80112051e-03 0. 0. 0. 0. 5.60224103e-03 0. 0.
      2.80112051e-03 0. 2.80112051e-03 0. 0. 2.80112051e-03 0. 0. 0. 0.
      0. 0. 0. 0. 0. 0. 0. 2.80112051e-03 0. 0. 0. 0. 2.80112051e-03 0.
      2.80112051e-03 0. 0. 2.80112051e-03 0. 0. 0. 0. 0. 0. 0. 0. 0. 0.
      2.80112051e-03 0. 0. 0. 0. 0. 0. 0. 2.80112051e-03 0. 0. 0.
      5.60224103e-03 0. 0. 0. 0. 0. 2.80112051e-03 0. 0. 0.
      5.60224103e-03 0. 0. 0. 0. 0. 0. 8.40336177e-03 0. 0. 0. 0. 0. 0.
      0. 0. 0. 0. 0. 0. 0. 0. 0. 0. 0. 0. 0. 5.60224103e-03 0. 0. 0. 0.
      0. 0. 0. 0. 0. 0. 0. 0. 0. 0. 0. 0. 1.12044821e-02 0.
      5.60224103e-03 0. 0. 0. 0. 0. 0. 0. 0. 0. 0. 2.80112051e-03 0. 0.
      0. 0. 2.80112051e-03 0. 0. 0. 0. 0. 0. 0. 0. 0. 0. 0. 0. 0.
      2.80112051e-03 0. 0. 0. 0. 0. 0. 0. 0. 0. 2.80112051e-03 0. 0. 0.
      0. 0. 0. 0. 0. 0. 5.60224103e-03 0. 0. 0. 0. 0. 0. 0. 0.
      2.80112051e-03 0. 2.80112051e-03 0. 0. 0. 0. 0. 0. 0. 0. 0.
      2.80112051e-03 0. 0. 0. 0. 2.80112051e-03 0. 2.80112051e-03 0. 0.
      0. 0. 0. 5.60224103e-03 2.80112051e-03 0. 0. 0. 0. 0. 0. 0. 0. 0.
      0. 0. 0. 2.80112051e-03 0. 0. 0. 0. 0. 0. 0. 0. 2.80112051e-03
      5.60224103e-03 0. 5.60224103e-03 0. 0. 0. 0. 0. 5.60224103e-03 0.
      2.80112051e-03 0. 0. 0. 0. 0. 0. 0. 0. 0. 0. 2.80112051e-03 0. 0.
      8.40336177e-03 0. 0. 0. 2.80112051e-03 0. 0. 0. 0. 0. 0.
      2.80112051e-03 0. 2.80112051e-03 0. 0. 0. 2.80112051e-03 0.
      2.80112051e-03 2.80112051e-03 0. 0. 0. 0. 0. 0. 2.80112051e-03 0.
      5.60224103e-03 0. 0. 0. 2.80112051e-03 0. 0. 5.60224103e-03 0. 0.
      0. 0. 0. 0. 0. 0. 0. 0. 0. 0. 0. 0. 2.80112051e-03 0. 0. 0. 0. 0.
      0. 8.40336177e-03 8.40336177e-03 0. 0. 2.80112051e-03 0. 0.
      2.80112051e-03 2.80112051e-03 2.80112051e-03 0. 0. 0. 0. 0.
      5.60224103e-03 0. 0. 0. 0. 0. 5.60224103e-03 0. 0. 0. 0. 0. 0. 0.
      0. 2.80112051e-03 0. 2.80112051e-03 0. 0. 0. 0. 0. 0. 0. 0. 0. 0.
      0. 0. 0. 0. 0. 0. 0. 0. 0. 2.80112051e-03 0. 0. 0. 0. 0. 0. 0. 0.
      0. 8.40336177e-03 0. 0. 0. 0. 5.60224103e-03 0. 0. 0. 0. 0.
      2.80112051e-03 0.</_>
    <_>
      0. 0. 0. 0. 0. 0. 0. 2.33644852e-03 0. 7.00934557e-03 0. 0. 0. 0.
      2.33644852e-03 0. 0. 0. 2.33644852e-03 2.33644852e-03 0. 0. 0. 0.
      0. 0. 0. 0. 0. 0. 4.67289705e-03 0. 0. 0. 0. 0. 0. 2.33644852e-03
      0. 0. 2.33644852e-03 0. 0. 0. 0. 0. 0. 2.33644852e-03 0. 0. 0. 0.
      0. 0. 0. 2.33644852e-03 0. 0. 0. 0. 2.33644852e-03 0. 0. 0. 0.
      2.33644852e-03 0. 0. 0. 2.33644852e-03 0. 2.33644852e-03 0. 0.
      2.33644852e-03 0. 0. 2.33644852e-03 0. 2.33644852e-03 0. 0. 0. 0.
      2.33644852e-03 0. 0. 0. 2.33644852e-03 2.33644852e-03 0. 0. 0. 0.
      0. 0. 4.67289705e-03 0. 0. 0. 0. 0. 0. 0. 0. 0. 0. 0. 0.
      2.33644852e-03 0. 0. 0. 0. 0. 0. 2.33644852e-03 4.67289705e-03 0.
      0. 0. 0. 2.33644852e-03 2.33644852e-03 4.67289705e-03 0. 0. 0. 0.
      0. 0. 4.67289705e-03 0. 0. 2.33644852e-03 4.67289705e-03 0. 0. 0.
      0. 0. 2.33644852e-03 0. 0. 0. 0. 2.33644852e-03 0. 0. 0. 0. 0. 0.
      0. 0. 0. 0. 0. 0. 0. 0. 0. 0. 0. 0. 0. 2.33644852e-03 0. 0.
      2.33644852e-03 0. 0. 0. 0. 0. 0. 0. 0. 0. 0. 2.33644852e-03 0. 0.
      0. 0. 2.33644852e-03 0. 0. 2.33644852e-03 2.33644852e-03 0. 0.
      2.33644852e-03 0. 2.33644852e-03 2.33644852e-03 0. 0.
      2.33644852e-03 0. 0. 0. 2.33644852e-03 4.67289705e-03
      2.33644852e-03 0. 0. 0. 0. 0. 2.33644852e-03 2.33644852e-03
      2.33644852e-03 0. 2.33644852e-03 2.33644852e-03 0. 0. 0. 0.
      2.33644852e-03 0. 0. 0. 0. 4.67289705e-03 0. 0. 0. 0. 0. 0. 0. 0.
      0. 0. 0. 0. 0. 0. 2.33644852e-03 0. 2.33644852e-03 4.67289705e-03
      2.33644852e-03 0. 0. 0. 0. 0. 0. 0. 0. 2.33644852e-03 0. 0. 0. 0.
      0. 0. 2.33644852e-03 0. 0. 4.67289705e-03 0. 0. 0. 2.33644852e-03
      0. 0. 0. 0. 0. 0. 0. 0. 0. 0. 0. 0. 0. 2.33644852e-03 0. 0. 0.
      2.33644852e-03 2.33644852e-03 0. 2.33644852e-03 0. 0. 0. 0. 0. 0.
      0. 0. 0. 0. 0. 0. 2.33644852e-03 0. 2.33644852e-03 0. 0. 0.
      2.33644852e-03 0. 0. 0. 0. 0. 4.67289705e-03 0. 0. 0. 0. 0. 0. 0.
      2.33644852e-03 0. 2.33644852e-03 0. 0. 2.33644852e-03 0. 0.
      2.33644852e-03 0. 2.33644852e-03 0. 0. 0. 0. 4.67289705e-03 0. 0.
      0. 0. 0. 0. 2.33644852e-03 0. 0. 0. 0. 0. 0. 0. 0. 2.33644852e-03
      0. 0. 0. 0. 0. 0. 0. 2.33644852e-03 0. 0. 0. 2.33644852e-03 0. 0.
      0. 0. 0. 0. 0. 0. 0. 0. 0. 0. 0. 2.33644852e-03 0. 0. 0. 0. 0. 0.
      0. 0. 0. 0. 0. 0. 0. 0. 0. 0. 2.33644852e-03 0. 0. 2.33644852e-03
      0. 0. 0. 2.33644852e-03 0. 0. 0. 2.33644852e-03 2.33644852e-03 0.
      0. 0. 0. 2.33644852e-03 0. 0. 7.00934557e-03 2.33644852e-03
      4.67289705e-03 0. 0. 0. 0. 2.33644852e-03 0. 0. 2.33644852e-03 0.
      0. 0. 0. 0. 0. 2.33644852e-03 9.34579410e-03 0. 0. 0. 0. 0.
      2.33644852e-03 2.33644852e-03 2.33644852e-03 2.33644852e-03
      2.33644852e-03 0. 0. 0. 2.33644852e-03 4.67289705e-03
      4.67289705e-03 0. 0. 0. 0. 0. 0. 0. 0. 0. 0. 0. 0. 0. 0. 0. 0.
      9.34579410e-03 2.33644852e-03 0. 0. 0. 2.33644852e-03 0. 0. 0. 0.
      0. 0. 0. 0. 0. 0. 0. 0. 0. 0. 0. 0. 0. 0. 4.67289705e-03 0. 0. 0.
      0. 0. 0. 0. 0. 2.33644852e-03 0. 4.67289705e-03 0. 9.34579410e-03
      0. 0. 4.67289705e-03 0. 0. 0. 0. 0. 2.33644852e-03 0. 0. 0.
      2.33644852e-03 2.33644852e-03 0. 0. 0. 2.33644852e-03
      2.33644852e-03 0. 0. 0. 0. 0. 0. 0. 0. 2.33644852e-03 0. 0. 0. 0.
      2.33644852e-03 0. 0. 0. 0. 0. 0. 0. 0. 0. 0. 0. 0. 2.33644852e-03
      4.67289705e-03 0. 0. 0. 0. 0. 0. 0. 0. 2.33644852e-03 0. 0. 0. 0.
      2.33644852e-03 0. 0. 2.33644852e-03 0. 0. 0. 0. 0. 0. 0.
      4.67289705e-03 0. 2.33644852e-03 0. 0. 0. 2.33644852e-03 0. 0.
      2.33644852e-03 0. 0. 0. 2.33644852e-03 0. 0. 0. 0. 0. 0.
      4.67289705e-03 0. 0. 0. 2.33644852e-03 0. 0. 0. 0. 0.
      2.33644852e-03 0. 0. 0. 0. 0. 0. 0. 0. 0. 0. 4.67289705e-03 0. 0.
      0. 0. 0. 2.33644852e-03 0. 2.33644852e-03 9.34579410e-03 0. 0. 0.
      0. 4.67289705e-03 0. 0. 0. 0. 0. 9.34579410e-03 0. 0. 0. 0. 0.
      4.67289705e-03 0. 0. 2.33644852e-03 0. 0. 0. 0. 0. 0. 0. 0. 0. 0.
      0. 0. 2.33644852e-03 0. 0. 0. 0. 0. 0. 0. 2.33644852e-03 0. 0. 0.
      0. 0. 0. 0. 0. 0. 4.67289705e-03 0. 4.67289705e-03 0. 0.
      2.33644852e-03 0. 0. 0. 0. 0. 0. 7.00934557e-03 0. 0. 0. 0. 0. 0.
      0. 0. 2.33644852e-03 2.33644852e-03 0. 0. 0. 0. 0. 2.33644852e-03
      0. 0. 0. 0. 2.33644852e-03 0. 0. 0. 0. 0. 0. 0. 2.33644852e-03 0.
      0. 0. 0. 0. 0. 0. 0. 2.33644852e-03 0. 2.33644852e-03 0. 0.
      2.33644852e-03 0. 0. 0. 0. 0. 2.33644852e-03 2.33644852e-03 0. 0.
      0. 0. 0. 0. 0. 0. 0. 0. 4.67289705e-03 0. 4.67289705e-03 0. 0. 0.
      0. 0. 0. 0. 0. 4.67289705e-03 4.67289705e-03 0. 0. 0. 0. 0. 0. 0.
      0. 0. 0. 2.33644852e-03 0. 0. 0. 4.67289705e-03 0. 0. 0. 0.
      2.33644852e-03 0. 0. 2.33644852e-03 0. 0. 2.33644852e-03
      2.33644852e-03 0. 0. 0. 0. 4.67289705e-03 0. 0. 0. 0. 0. 0. 0. 0.
      2.33644852e-03 2.33644852e-03 0. 2.33644852e-03 2.33644852e-03 0.
      7.00934557e-03 4.67289705e-03 0. 2.33644852e-03 0. 0. 0. 0. 0.
      2.33644852e-03 0. 0. 0. 0. 0. 0. 0. 0. 0. 0. 0. 0. 0. 0. 0. 0. 0.
      0. 0. 0. 0. 0. 2.33644852e-03 0. 2.33644852e-03 0. 0. 0. 0. 0. 0.
      0. 2.33644852e-03 9.34579410e-03 4.67289705e-03 0. 0. 0. 0. 0. 0.
      2.33644852e-03 0. 0. 0. 0. 2.33644852e-03 2.33644852e-03 0. 0. 0.
      2.33644852e-03 0. 0. 0. 0. 0. 2.33644852e-03 0. 2.33644852e-03
      7.00934557e-03 2.33644852e-03 2.33644852e-03 0. 0. 0. 0. 0. 0. 0.
      0. 0. 0. 0. 0. 0. 0. 0. 2.33644852e-03 0. 0. 0. 0. 0.
      4.67289705e-03 0. 0. 0. 0. 0. 0. 2.33644852e-03 0. 0. 0. 0. 0. 0.
      0. 0. 0. 0. 0. 0. 0. 0. 9.34579410e-03 7.00934557e-03 0. 0.
      4.67289705e-03 0. 2.33644852e-03 2.33644852e-03 0. 0. 0. 0. 0. 0.
      0. 0. 0. 2.33644852e-03 0. 0. 0. 2.33644852e-03 0. 0. 0. 0. 0. 0.
      2.33644852e-03 0. 0. 2.33644852e-03 0. 0. 0. 2.33644852e-03 0.
      2.33644852e-03 2.33644852e-03 0. 0. 2.33644852e-03 0. 0. 0. 0. 0.
      0. 0. 4.67289705e-03 2.33644852e-03 0. 0. 0. 4.67289705e-03 0.
      4.67289705e-03 0. 4.67289705e-03 0. 0. 0. 0. 0. 0. 0. 0.
      4.67289705e-03 0. 0. 0. 0. 0. 0. 4.67289705e-03 0. 0. 0.
      2.33644852e-03 0. 0. 0. 0. 2.33644852e-03 2.33644852e-03 0.
      2.33644852e-03 0. 0. 0. 0. 0. 0. 0. 0. 0. 0. 0. 0. 0. 0. 0. 0. 0.
      0. 0. 2.33644852e-03 0. 0. 0. 2.33644852e-03 0. 0. 0.
      2.33644852e-03 0. 2.33644852e-03 0. 0. 0. 2.33644852e-03
      2.33644852e-03 0. 0. 0. 0. 0. 0. 0. 0. 0. 0. 0. 0. 2.33644852e-03
      0. 0. 9.34579410e-03 0. 0. 0. 0. 2.33644852e-03 0. 0. 0. 0. 0. 0.
      0. 0. 0. 0. 2.33644852e-03 2.33644852e-03 0. 0. 0. 0. 0.
      2.33644852e-03 4.67289705e-03 0. 0. 0. 0. 0. 0. 0. 0. 0. 0. 0. 0.
      0. 0. 0. 0. 0. 0. 2.33644852e-03 0. 4.67289705e-03 2.33644852e-03
      0. 0. 0. 4.67289705e-03 0. 0. 2.33644852e-03 0. 0. 0. 0. 0. 0. 0.
      0. 0. 0. 2.33644852e-03 2.33644852e-03 0. 0. 0. 2.33644852e-03
      2.33644852e-03 0. 0. 0. 2.33644852e-03 4.67289705e-03 0. 0. 0. 0.
      0. 2.33644852e-03 0. 4.67289705e-03 0. 0. 0. 0. 2.33644852e-03
      7.00934557e-03 0. 0. 2.33644852e-03 0. 0. 0. 0. 0. 0. 0. 0. 0. 0.
      0. 0. 0. 0. 0. 0. 0. 0. 0. 0. 0. 0. 0. 0. 0. 0. 0. 0. 0.
      2.33644852e-03 2.33644852e-03 0. 0. 0. 0. 0. 0. 2.33644852e-03 0.
      0. 0. 0. 0. 0. 0. 0. 0. 0. 0. 0. 0. 0. 4.67289705e-03 0.
      2.33644852e-03 0. 0. 0. 0. 0. 0. 0. 0. 0. 0. 0. 0. 2.33644852e-03
      0. 1.40186911e-02 0. 2.33644852e-03 2.33644852e-03 0.
      2.33644852e-03 0. 0. 4.67289705e-03 0. 2.33644852e-03 0. 0. 0. 0.
      0. 0. 0. 0. 0. 0. 0. 0. 0. 0. 0. 2.33644852e-03 0. 0. 0. 0. 0. 0.
      2.33644852e-03 0. 9.34579410e-03 0. 2.33644852e-03 0. 0. 0. 0.
      2.33644852e-03 2.33644852e-03 2.33644852e-03 0. 4.67289705e-03 0.
      0. 0. 0. 0. 0. 0. 0. 0. 0. 0. 0. 4.67289705e-03 0. 0. 0. 0. 0. 0.
      0. 0. 2.33644852e-03 0. 2.33644852e-03 0. 0. 0. 0. 2.33644852e-03
      0. 0. 0. 0. 0. 2.33644852e-03 0. 0. 0. 4.67289705e-03
      7.00934557e-03 0. 0. 0. 0. 0. 2.33644852e-03 2.33644852e-03 0. 0.
      0. 0. 0. 0. 0. 0. 2.33644852e-03 0. 0. 0. 0. 0. 4.67289705e-03 0.
      0. 0. 0. 0. 2.33644852e-03 0. 2.33644852e-03 0. 0. 2.33644852e-03
      0. 2.33644852e-03 2.33644852e-03 0. 0. 0. 0. 4.67289705e-03 0.
      2.33644852e-03 2.33644852e-03 0. 0. 0. 0. 0. 0. 4.67289705e-03 0.
      0. 0. 0. 0. 2.33644852e-03 0. 0. 0. 0. 4.67289705e-03 0. 0. 0. 0.
      0. 0. 0. 4.67289705e-03 0. 0. 0. 0. 0. 2.33644852e-03
      2.33644852e-03 0. 0. 0. 2.33644852e-03 0. 0. 0. 2.33644852e-03 0.
      0. 0. 2.33644852e-03 0. 0. 2.33644852e-03 0. 0. 2.33644852e-03
      2.33644852e-03 2.33644852e-03 4.67289705e-03 0. 0. 0. 0. 0. 0. 0.
      0. 0. 2.33644852e-03 0. 2.33644852e-03 0. 0. 2.33644852e-03 0. 0.
      0. 0. 7.00934557e-03 0. 0. 2.33644852e-03 0. 0. 0. 2.33644852e-03
      0. 0. 0. 0. 0. 0. 4.67289705e-03 2.33644852e-03 0. 0. 0.
      2.33644852e-03 0. 0. 0. 0. 0. 0. 0. 0. 2.33644852e-03
      1.63551401e-02 0. 0. 0. 0. 0. 0. 2.33644852e-03 0. 2.33644852e-03
      0. 2.33644852e-03 0. 0. 0. 0. 0. 2.33644852e-03 0. 0. 0. 0. 0. 0.
      0. 0. 0. 0. 0. 0. 4.67289705e-03 0. 0. 0. 0. 0. 0. 0.
      4.67289705e-03 0. 0. 0. 0. 0.</_>
    <_>
      0. 0. 0. 0. 0. 0. 0. 0. 0. 0. 0. 0. 0. 0. 2.86532962e-03
      8.59598909e-03 0. 0. 0. 0. 0. 0. 0. 5.73065924e-03 0. 0. 0. 0.
      2.86532962e-03 0. 0. 0. 0. 0. 2.86532962e-03 0. 0. 0. 0. 0. 0. 0.
      0. 0. 0. 2.86532962e-03 0. 2.86532962e-03 0. 2.86532962e-03 0. 0.
      0. 0. 0. 0. 0. 0. 2.86532962e-03 0. 0. 0. 0. 0. 0. 2.86532962e-03
      0. 0. 0. 0. 0. 0. 0. 0. 0. 0. 0. 0. 0. 2.86532962e-03 0. 0. 0. 0.
      0. 0. 0. 0. 2.86532962e-03 0. 0. 2.86532962e-03 0. 0. 0. 0.
      2.86532962e-03 0. 0. 0. 0. 2.86532962e-03 0. 0. 0. 0.
      2.86532962e-03 0. 0. 2.86532962e-03 0. 0. 0. 0. 0. 0. 0. 0. 0. 0.
      0. 0. 2.86532962e-03 0. 0. 2.86532962e-03 0. 0. 0. 0.
      2.86532962e-03 0. 2.86532962e-03 0. 0. 2.86532962e-03
      2.86532962e-03 0. 0. 0. 0. 2.86532962e-03 0. 0. 5.73065924e-03 0.
      0. 0. 2.86532962e-03 0. 0. 2.86532962e-03 0. 0. 0. 0. 0. 0. 0.
      2.86532962e-03 0. 0. 0. 0. 0. 0. 0. 0. 0. 0. 0. 0. 0. 0. 0. 0. 0.
      0. 8.59598909e-03 0. 0. 0. 2.86532962e-03 2.86532962e-03 0.
      2.86532962e-03 0. 0. 0. 0. 0. 2.86532962e-03 0. 0. 2.86532962e-03
      0. 0. 1.14613185e-02 0. 0. 0. 0. 0. 0. 0. 0. 2.86532962e-03 0. 0.
      0. 0. 0. 0. 0. 0. 2.86532962e-03 0. 0. 2.86532962e-03 0. 0. 0. 0.
      0. 2.86532962e-03 0. 0. 0. 0. 0. 0. 0. 0. 0. 0. 0. 0.
      5.73065924e-03 0. 2.86532962e-03 2.86532962e-03 0. 0. 0.
      2.86532962e-03 0. 0. 0. 0. 0. 0. 0. 0. 2.86532962e-03 0. 0. 0. 0.
      0. 0. 0. 2.86532962e-03 0. 0. 0. 0. 0. 0. 2.86532962e-03 0. 0. 0.
      0. 2.86532962e-03 0. 0. 0. 2.86532962e-03 0. 2.86532962e-03
      2.86532962e-03 0. 0. 2.86532962e-03 0. 0. 2.86532962e-03 0. 0. 0.
      0. 2.86532962e-03 0. 0. 5.73065924e-03 0. 0. 0. 0. 0.
      2.86532962e-03 0. 0. 0. 0. 0. 0. 0. 0. 2.86532962e-03 0. 0. 0. 0.
      0. 0. 0. 0. 0. 0. 2.86532962e-03 2.86532962e-03 0. 0. 0. 0. 0. 0.
      0. 0. 0. 0. 0. 0. 0. 0. 0. 0. 0. 0. 0. 0. 0. 1.14613185e-02 0. 0.
      0. 0. 0. 0. 0. 2.86532962e-03 0. 0. 0. 2.86532962e-03 0. 0.
      2.86532962e-03 2.86532962e-03 0. 0. 0. 0. 0. 0. 0. 0. 0. 0. 0. 0.
      0. 0. 0. 0. 0. 0. 0. 0. 0. 0. 0. 0. 0. 0. 0. 0. 2.86532962e-03 0.
      2.86532962e-03 0. 0. 0. 2.86532962e-03 2.86532962e-03 0. 0. 0. 0.
      0. 0. 0. 0. 0. 5.73065924e-03 0. 0. 0. 0. 0. 0. 0. 0. 0. 0.
      5.73065924e-03 0. 0. 0. 0. 0. 2.86532962e-03 0. 0. 0. 0. 0. 0. 0.
      0. 0. 2.86532962e-03 0. 0. 0. 0. 0. 0. 0. 0. 0. 8.59598909e-03 0.
      5.73065924e-03 0. 0. 0. 0. 0. 0. 0. 2.86532962e-03 0. 0. 0.
      2.86532962e-03 0. 0. 0. 0. 8.59598909e-03 0. 2.86532962e-03
      1.14613185e-02 0. 0. 0. 0. 0. 0. 0. 0. 5.73065924e-03 0.
      2.86532962e-03 0. 0. 8.59598909e-03 0. 0. 0. 0. 0. 0.
      2.86532962e-03 0. 5.73065924e-03 0. 2.86532962e-03 0. 0. 0. 0. 0.
      0. 0. 0. 0. 0. 5.73065924e-03 0. 0. 0. 0. 0. 0. 2.86532962e-03 0.
      0. 2.86532962e-03 0. 0. 0. 5.73065924e-03 0. 0. 0. 2.86532962e-03
      0. 0. 2.86532962e-03 0. 0. 0. 0. 0. 0. 2.86532962e-03 0. 0.
      2.86532962e-03 0. 2.86532962e-03 0. 0. 0. 0. 1.71919782e-02 0.
      2.86532962e-03 0. 0. 0. 0. 0. 0. 0. 0. 0. 0. 2.86532962e-03 0.
      2.86532962e-03 0. 0. 2.86532962e-03 2.86532962e-03 0. 0. 0. 0. 0.
      0. 2.86532962e-03 0. 0. 0. 2.86532962e-03 0. 0. 0. 2.86532962e-03
      0. 0. 0. 0. 0. 0. 0. 2.86532962e-03 0. 0. 0. 0. 0. 0. 0. 0. 0. 0.
      0. 0. 0. 0. 2.86532962e-03 0. 0. 0. 0. 0. 2.86532962e-03 0. 0. 0.
      0. 0. 0. 0. 0. 0. 0. 0. 0. 0. 0. 0. 0. 0. 0. 0. 2.86532962e-03 0.
      0. 0. 8.59598909e-03 0. 0. 0. 0. 0. 0. 0. 0. 0. 0. 0. 0. 0. 0. 0.
      0. 0. 0. 0. 0. 2.86532962e-03 0. 0. 0. 0. 0. 0. 0. 0. 0. 0. 0. 0.
      0. 0. 0. 0. 0. 2.86532962e-03 0. 0. 0. 0. 0. 0. 0. 0. 0.
      5.73065924e-03 0. 2.86532962e-03 2.86532962e-03 0. 0.
      5.73065924e-03 0. 0. 2.86532962e-03 2.86532962e-03 0. 0. 0.
      5.73065924e-03 0. 2.86532962e-03 2.86532962e-03 0. 0.
      2.86532962e-03 2.86532962e-03 2.86532962e-03 2.86532962e-03 0. 0.
      0. 0. 0. 0. 0. 0. 0. 0. 0. 0. 2.86532962e-03 2.86532962e-03 0. 0.
      0. 0. 0. 0. 0. 2.86532962e-03 0. 2.86532962e-03 0. 0. 0. 0. 0. 0.
      0. 0. 0. 0. 0. 0. 0. 0. 0. 0. 0. 0. 0. 0. 0. 2.86532962e-03 0.
      2.86532962e-03 0. 0. 0. 0. 0. 0. 0. 0. 0. 0. 0. 0. 0. 0. 0. 0.
      2.86532962e-03 0. 0. 0. 2.86532962e-03 0. 0. 0. 0. 0. 0. 0. 0. 0.
      0. 0. 2.86532962e-03 0. 0. 2.86532962e-03 0. 0. 0. 5.73065924e-03
      0. 5.73065924e-03 2.86532962e-03 0. 0. 0. 0. 0. 0. 0. 0. 0. 0. 0.
      0. 0. 0. 0. 0. 0. 0. 2.86532962e-03 0. 2.86532962e-03
      5.73065924e-03 0. 0. 2.86532962e-03 0. 0. 0. 0. 0. 0. 0. 0. 0. 0.
      0. 0. 0. 5.73065924e-03 0. 0. 0. 0. 0. 0. 2.86532962e-03 0. 0. 0.
      0. 0. 0. 0. 8.59598909e-03 2.86532962e-03 0. 0. 0. 0. 0. 0. 0. 0.
      0. 5.73065924e-03 0. 2.86532962e-03 0. 0. 0. 2.86532962e-03 0. 0.
      2.86532962e-03 0. 0. 0. 0. 0. 0. 0. 0. 5.73065924e-03 0.
      2.86532962e-03 0. 0. 0. 0. 0. 0. 0. 5.73065924e-03 0. 0.
      2.86532962e-03 0. 0. 0. 0. 8.59598909e-03 2.86532962e-03 0. 0. 0.
      0. 0. 0. 2.86532962e-03 0. 2.86532962e-03 2.86532962e-03 0. 0. 0.
      2.86532962e-03 0. 0. 0. 0. 0. 0. 0. 0. 0. 0. 1.14613185e-02 0. 0.
      2.86532962e-03 0. 0. 0. 0. 0. 0. 2.86532962e-03 0. 0. 0.
      2.86532962e-03 0. 2.86532962e-03 2.86532962e-03 0. 0. 0. 0.
      5.73065924e-03 0. 0. 0. 2.86532962e-03 0. 5.73065924e-03 0. 0. 0.
      0. 0. 0. 0. 0. 0. 0. 2.86532962e-03 0. 0. 0. 0. 0. 0. 0. 0. 0. 0.
      0. 0. 0. 0. 5.73065924e-03 0. 0. 0. 0. 0. 0. 0. 0. 0. 0. 0. 0. 0.
      0. 0. 0. 2.86532962e-03 0. 0. 2.86532962e-03 0. 0. 0. 0. 0. 0. 0.
      0. 0. 0. 1.14613185e-02 2.86532962e-03 0. 0. 0. 2.86532962e-03 0.
      5.73065924e-03 0. 0. 0. 0. 0. 2.86532962e-03 0. 5.73065924e-03 0.
      0. 0. 0. 0. 0. 0. 0. 0. 0. 0. 0. 0. 0. 2.86532962e-03
      5.73065924e-03 0. 0. 0. 0. 0. 0. 0. 0. 0. 0. 0. 0. 0. 0. 0. 0. 0.
      0. 0. 0. 0. 0. 0. 0. 0. 0. 0. 0. 0. 0. 0. 0. 0. 5.73065924e-03 0.
      2.86532962e-03 0. 0. 0. 0. 0. 0. 0. 0. 0. 0. 0. 0. 0. 0. 0. 0. 0.
      0. 0. 2.86532962e-03 2.86532962e-03 0. 0. 0. 2.86532962e-03 0. 0.
      0. 0. 0. 0. 0. 0. 0. 0. 0. 0. 1.14613185e-02 8.59598909e-03 0. 0.
      0. 0. 0. 0. 2.86532962e-03 5.73065924e-03 0. 0. 1.14613185e-02 0.
      2.86532962e-03 0. 0. 0. 0. 0. 0. 2.86532962e-03 0. 2.86532962e-03
      0. 0. 5.73065924e-03 0. 0. 0. 0. 2.86532962e-03 2.86532962e-03 0.
      0. 0. 0. 0. 0. 0. 2.86532962e-03 0. 0. 2.86532962e-03 0. 0.
      5.73065924e-03 0. 2.86532962e-03 0. 0. 2.86532962e-03
      2.86532962e-03 0. 0. 8.59598909e-03 0. 0. 2.86532962e-03 0.
      2.86532962e-03 0. 2.86532962e-03 0. 0. 0. 0. 0. 0. 0. 0. 0. 0. 0.
      0. 0. 8.59598909e-03 2.86532962e-03 0. 0. 2.86532962e-03 0. 0. 0.
      0. 0. 0. 0. 0. 0. 2.86532962e-03 0. 0. 0. 0. 0. 2.86532962e-03 0.
      0. 0. 0. 0. 0. 0. 2.86532962e-03 0. 0. 0. 0. 0. 0. 0. 0. 0. 0. 0.
      0. 2.86532962e-03 0. 0. 0. 1.14613185e-02 2.86532962e-03 0. 0. 0.
      0. 0. 2.86532962e-03 0. 0. 0. 0. 2.86532962e-03 0. 0. 0. 0. 0.
      2.86532962e-03 0. 0. 0. 0. 0. 2.86532962e-03 0. 0. 2.86532962e-03
      2.86532962e-03 0. 0. 0. 0. 0. 0. 0. 0. 0. 2.86532962e-03 0. 0.
      8.59598909e-03 0. 0. 0. 2.86532962e-03 0. 5.73065924e-03 0.
      1.43266479e-02 0. 0. 0. 0. 0. 0. 0. 0. 0. 0. 0. 0. 0.
      2.86532962e-03 0. 0. 0. 0. 0. 0. 0. 0. 0. 0. 2.86532962e-03 0. 0.
      2.86532962e-03 0. 0. 0. 0. 0. 0. 2.86532962e-03 5.73065924e-03 0.
      0. 0. 0. 0. 0. 0. 0. 0. 0. 0. 0. 0. 2.86532962e-03 0.
      5.73065924e-03 2.86532962e-03 0. 0. 0. 0. 0. 0. 0. 0. 0. 0. 0. 0.
      0. 0. 0. 2.86532962e-03 0. 2.86532962e-03 0. 0. 0. 2.86532962e-03
      0. 0. 0. 0. 0. 0. 0. 0. 0. 0. 0. 0. 0. 0. 0. 0. 0. 0. 0. 0. 0. 0.
      0. 0. 0. 0. 5.73065924e-03 2.86532962e-03 0. 2.86532962e-03 0. 0.
      0. 0. 0. 0. 0. 0. 0. 0. 0. 0. 0. 0. 0. 0. 0. 0. 0. 0.
      2.86532962e-03 0. 0. 0. 0. 0. 0. 0. 0. 0. 0. 2.86532962e-03 0. 0.
      0. 2.86532962e-03 0. 0. 0. 0. 0. 0. 0. 0. 0. 0. 0. 0. 0. 0.
      2.86532962e-03 0. 0. 0. 0. 0. 0. 0. 0. 0. 0. 0. 0. 0. 0. 0. 0. 0.
      0. 0. 0. 0. 0. 2.86532962e-03 0. 8.59598909e-03 0. 0. 0. 0. 0. 0.
      0. 0. 0. 0. 2.86532962e-03 2.86532962e-03 2.86532962e-03 0. 0. 0.
      2.86532962e-03 0. 0. 0. 0. 0. 0. 0. 5.73065924e-03 0.
      2.86532962e-03 0. 0. 0. 0. 0. 0. 5.73065924e-03 0. 0. 0. 0.
      2.86532962e-03 0. 2.86532962e-03 0. 0.</_>
    <_>
      0. 0. 2.83286115e-03 0. 0. 2.83286115e-03 0. 2.83286115e-03 0. 0.
      0. 0. 8.49858299e-03 0. 0. 0. 0. 0. 0. 0. 0. 0. 0. 0.
      2.83286115e-03 0. 0. 0. 0. 0. 0. 2.83286115e-03 5.66572230e-03 0.
      0. 0. 0. 0. 0. 0. 0. 0. 0. 0. 0. 0. 0. 2.83286115e-03 0. 0. 0. 0.
      0. 0. 0. 0. 8.49858299e-03 0. 2.83286115e-03 0. 0. 0. 0. 0.
      2.83286115e-03 0. 2.83286115e-03 0. 0. 0. 0. 0. 8.49858299e-03 0.
      0. 0. 2.83286115e-03 0. 0. 0. 0. 0. 0. 0. 2.83286115e-03 0. 0. 0.
      2.83286115e-03 0. 0. 0. 0. 0. 0. 0. 2.83286115e-03 0. 0. 0.
      2.83286115e-03 0. 0. 2.83286115e-03 0. 0. 0. 5.66572230e-03 0. 0.
      0. 0. 0. 0. 0. 2.83286115e-03 0. 0. 0. 0. 0. 0. 0. 0.
      8.49858299e-03 2.83286115e-03 2.83286115e-03 5.66572230e-03 0. 0.
      5.66572230e-03 0. 0. 0. 0. 2.83286115e-03 0. 0. 0. 0. 0.
      2.83286115e-03 0. 0. 0. 0. 0. 0. 0. 0. 0. 0. 0. 0. 0.
      2.83286115e-03 0. 0. 2.83286115e-03 0. 0. 0. 0. 0. 0. 0.
      2.83286115e-03 0. 0. 0. 0. 0. 0. 0. 0. 0. 2.83286115e-03 0. 0. 0.
      0. 0. 2.83286115e-03 0. 0. 8.49858299e-03 0. 0. 0. 0.
      5.66572230e-03 0. 0. 0. 0. 0. 0. 0. 0. 2.83286115e-03 0. 0. 0. 0.
      0. 0. 0. 0. 0. 0. 0. 0. 0. 0. 0. 0. 0. 5.66572230e-03 0. 0. 0. 0.
      0. 0. 0. 0. 2.83286115e-03 2.83286115e-03 0. 0. 5.66572230e-03 0.
      0. 0. 0. 0. 0. 2.83286115e-03 0. 0. 0. 0. 0. 0. 0. 0. 0. 0. 0.
      2.83286115e-03 0. 0. 0. 2.83286115e-03 0. 0. 0. 0. 0. 0. 0. 0.
      2.83286115e-03 2.83286115e-03 2.83286115e-03 0. 0. 0. 0. 0. 0. 0.
      2.83286115e-03 0. 0. 0. 0. 0. 0. 0. 2.83286115e-03 0. 0. 0. 0. 0.
      0. 0. 0. 2.83286115e-03 2.83286115e-03 0. 0. 0. 0. 0. 0. 0. 0. 0.
      8.49858299e-03 0. 0. 0. 0. 0. 0. 2.83286115e-03 0. 0. 0. 0. 0.
      2.83286115e-03 0. 0. 0. 0. 5.66572230e-03 0. 0. 0. 0. 0. 0. 0.
      2.83286115e-03 0. 0. 0. 0. 0. 0. 0. 0. 0. 8.49858299e-03 0. 0. 0.
      5.66572230e-03 0. 5.66572230e-03 2.83286115e-03 2.83286115e-03 0.
      0. 0. 0. 0. 0. 0. 0. 2.83286115e-03 0. 0. 0. 2.83286115e-03 0. 0.
      2.83286115e-03 8.49858299e-03 0. 0. 2.83286115e-03 0. 0. 0.
      5.66572230e-03 0. 0. 2.83286115e-03 0. 0. 0. 0. 0. 0.
      2.83286115e-03 0. 0. 0. 0. 0. 0. 2.83286115e-03 2.83286115e-03 0.
      0. 0. 0. 0. 0. 0. 0. 2.83286115e-03 0. 0. 0. 0. 0. 0. 0. 0. 0. 0.
      2.83286115e-03 0. 0. 0. 5.66572230e-03 0. 0. 2.83286115e-03 0. 0.
      2.83286115e-03 1.13314446e-02 5.66572230e-03 2.83286115e-03 0. 0.
      0. 0. 0. 0. 0. 1.13314446e-02 0. 0. 0. 0. 1.13314446e-02 0.
      2.83286115e-03 2.83286115e-03 0. 0. 0. 5.66572230e-03 0. 0.
      5.66572230e-03 0. 0. 2.83286115e-03 0. 2.83286115e-03 0. 0. 0. 0.
      0. 0. 0. 0. 0. 0. 0. 0. 2.83286115e-03 0. 2.83286115e-03 0. 0. 0.
      0. 0. 5.66572230e-03 0. 2.83286115e-03 0. 0. 2.83286115e-03 0. 0.
      0. 0. 0. 0. 0. 0. 0. 0. 0. 0. 0. 0. 0. 0. 0. 0. 0. 0. 0. 0. 0. 0.
      2.83286115e-03 0. 0. 0. 0. 0. 0. 2.83286115e-03 2.83286115e-03 0.
      0. 0. 0. 2.83286115e-03 2.83286115e-03 0. 8.49858299e-03 0.
      2.83286115e-03 2.83286115e-03 0. 0. 0. 0. 0. 0. 0. 5.66572230e-03
      0. 0. 0. 0. 0. 0. 2.83286115e-03 0. 0. 0. 0. 0. 0. 0.
      2.83286115e-03 0. 0. 0. 1.13314446e-02 0. 0. 0. 2.83286115e-03 0.
      0. 1.13314446e-02 0. 2.83286115e-03 0. 0. 5.66572230e-03 0. 0.
      5.66572230e-03 0. 0. 0. 0. 2.83286115e-03 0. 0. 0. 0.
      2.83286115e-03 2.83286115e-03 0. 0. 0. 0. 0. 2.83286115e-03 0. 0.
      0. 0. 0. 2.83286115e-03 5.66572230e-03 0. 2.83286115e-03 0. 0. 0.
      2.83286115e-03 0. 0. 0. 0. 2.83286115e-03 2.83286115e-03
      2.83286115e-03 0. 0. 0. 0. 0. 0. 0. 0. 0. 0. 0. 0. 0.
      2.83286115e-03 2.83286115e-03 0. 0. 0. 0. 0. 0. 0. 0. 0. 0. 0. 0.
      2.83286115e-03 0. 0. 0. 2.83286115e-03 0. 0. 0. 0. 2.83286115e-03
      0. 0. 0. 0. 0. 0. 2.83286115e-03 0. 5.66572230e-03 0. 0. 0. 0. 0.
      0. 0. 0. 0. 0. 0. 2.83286115e-03 0. 0. 0. 2.83286115e-03 0. 0.
      2.83286115e-03 0. 0. 0. 0. 0. 0. 0. 2.83286115e-03 0. 0. 0. 0. 0.
      0. 0. 2.83286115e-03 0. 0. 0. 2.83286115e-03 0. 5.66572230e-03 0.
      0. 0. 0. 2.83286115e-03 2.83286115e-03 0. 0. 0. 0. 0.
      2.83286115e-03 0. 0. 0. 0. 0. 0. 0. 0. 2.83286115e-03 0. 0. 0.
      2.83286115e-03 0. 0. 0. 2.83286115e-03 2.83286115e-03
      2.83286115e-03 0. 0. 2.83286115e-03 0. 2.83286115e-03 0.
      5.66572230e-03 0. 0. 0. 2.83286115e-03 0. 2.83286115e-03 0. 0. 0.
      0. 0. 0. 2.83286115e-03 0. 0. 0. 0. 0. 0. 0. 0. 0. 5.66572230e-03
      0. 2.83286115e-03 0. 0. 0. 0. 2.83286115e-03 0. 0. 0.
      2.83286115e-03 0. 0. 0. 0. 0. 2.83286115e-03 0. 0. 0. 0.
      2.83286115e-03 0. 2.83286115e-03 0. 0. 0. 0. 0. 0. 0. 0. 0.
      5.66572230e-03 0. 2.83286115e-03 0. 2.83286115e-03 0. 0. 0. 0. 0.
      5.66572230e-03 0. 0. 2.83286115e-03 0. 2.83286115e-03 0.
      2.83286115e-03 0. 2.83286115e-03 0. 0. 0. 0. 2.83286115e-03 0. 0.
      0. 2.83286115e-03 2.83286115e-03 8.49858299e-03 2.83286115e-03
      2.83286115e-03 0. 0. 0. 0. 0. 0. 0. 0. 0. 0. 0. 0. 0. 0. 0. 0. 0.
      0. 0. 0. 0. 0. 0. 0. 2.83286115e-03 2.83286115e-03 0. 0. 0.
      2.83286115e-03 0. 5.66572230e-03 0. 0. 0. 0. 0. 0. 0. 0. 0. 0. 0.
      0. 0. 0. 0. 0. 0. 0. 0. 0. 2.83286115e-03 0. 0. 0. 0.
      2.83286115e-03 0. 0. 5.66572230e-03 0. 0. 0. 0. 0. 0.
      2.83286115e-03 0. 0. 0. 0. 2.83286115e-03 2.83286115e-03 0. 0. 0.
      0. 0. 0. 0. 0. 0. 0. 0. 0. 0. 0. 0. 0. 0. 5.66572230e-03 0. 0. 0.
      0. 0. 0. 0. 0. 0. 0. 0. 0. 0. 0. 0. 0. 0. 0. 0. 0. 0. 0.
      2.83286115e-03 0. 0. 0. 0. 0. 0. 0. 2.83286115e-03 0.
      2.83286115e-03 0. 2.83286115e-03 0. 8.49858299e-03 0. 0. 0. 0. 0.
      0. 0. 0. 0. 0. 0. 0. 0. 0. 2.83286115e-03 0. 0. 2.83286115e-03 0.
      0. 0. 0. 0. 0. 0. 0. 0. 0. 0. 0. 0. 0. 0. 0. 0. 0. 0.
      2.83286115e-03 0. 0. 0. 0. 2.83286115e-03 0. 0. 0. 2.83286115e-03
      2.83286115e-03 0. 0. 0. 0. 0. 2.83286115e-03 2.83286115e-03 0. 0.
      0. 5.66572230e-03 0. 0. 2.83286115e-03 0. 0. 0. 0. 0. 0. 0. 0. 0.
      0. 0. 0. 0. 0. 0. 0. 0. 2.83286115e-03 0. 0. 8.49858299e-03
      2.83286115e-03 0. 0. 0. 0. 0. 0. 0. 0. 0. 0. 2.83286115e-03
      2.83286115e-03 0. 0. 0. 0. 0. 2.83286115e-03 0. 0. 0.
      2.83286115e-03 0. 0. 0. 0. 0. 0. 0. 0. 0. 0. 0. 0. 0. 0.
      2.83286115e-03 0. 0. 0. 2.83286115e-03 0. 0. 0. 0. 0. 0. 0. 0. 0.
      0. 0. 2.83286115e-03 0. 0. 0. 0. 0. 0. 0. 0. 0. 0. 0.
      5.66572230e-03 0. 0. 0. 0. 0. 0. 0. 0. 2.83286115e-03 0. 0. 0. 0.
      0. 0. 0. 0. 0. 0. 0. 0. 0. 0. 0. 0. 0. 0. 0. 0. 0. 0. 0. 0. 0. 0.
      0. 0. 2.83286115e-03 0. 2.83286115e-03 0. 0. 0. 0. 0. 0. 0. 0. 0.
      0. 0. 0. 0. 0. 5.66572230e-03 0. 0. 0. 0. 0. 0. 2.83286115e-03
      2.83286115e-03 0. 5.66572230e-03 0. 0. 0. 2.83286115e-03 0. 0.
      2.83286115e-03 0. 2.83286115e-03 0. 0. 0. 0. 0. 0. 0. 0. 0. 0. 0.
      0. 0. 0. 0. 0. 0. 0. 0. 0. 0. 0. 0. 0. 0. 0. 0. 0. 0. 0.
      2.83286115e-03 0. 2.83286115e-03 0. 0. 0. 0. 0. 0. 0.
      2.83286115e-03 0. 0. 0. 0. 0. 0. 0. 0. 0. 0. 2.83286115e-03 0. 0.
      0. 0. 0. 0. 0. 0. 0. 0. 0. 0. 0. 0. 0. 0. 0. 0. 0. 2.83286115e-03
      0. 0. 0. 0. 0. 0. 0. 5.66572230e-03 2.83286115e-03 2.83286115e-03
      0. 0. 2.83286115e-03 2.83286115e-03 2.83286115e-03 0. 0. 0. 0. 0.
      2.83286115e-03 5.66572230e-03 0. 0. 0. 2.83286115e-03 0. 0. 0.
      5.66572230e-03 0. 0. 2.83286115e-03 0. 0. 0. 0. 0. 2.83286115e-03
      0. 0. 0. 0. 0. 0. 0. 0. 2.83286115e-03 0. 2.83286115e-03 0. 0. 0.
      0. 0. 0. 0. 0. 0. 0. 0. 0. 0. 0. 0. 5.66572230e-03 2.83286115e-03
      2.83286115e-03 0. 2.83286115e-03 0. 0. 0. 0. 1.69971660e-02 0. 0.
      0. 0. 0. 0. 0. 0. 0. 0. 0. 0. 2.83286115e-03 0. 0. 0. 0. 0.
      2.83286115e-03 0. 0. 0. 0. 0. 0. 0. 2.83286115e-03 2.83286115e-03
      0. 0. 5.66572230e-03 0. 0. 0. 0. 0. 0. 0. 0. 0. 0. 0. 0. 0. 0.
      2.83286115e-03 0. 0. 0. 0. 0. 0. 0. 0. 0. 0. 0. 0. 0. 0. 0. 0. 0.
      2.83286115e-03 0. 0. 2.83286115e-03 0. 0. 2.83286115e-03 0. 0. 0.
      0. 0. 0. 0. 0. 0. 0. 0. 0. 0. 0. 0. 0. 0. 0. 0. 0. 0. 0. 0. 0. 0.
      5.66572230e-03 8.49858299e-03 0. 0. 0. 0. 0. 0. 0. 0. 0. 0. 0.
      2.83286115e-03 2.83286115e-03 0. 0. 0. 0. 0. 2.83286115e-03 0.
      2.83286115e-03 0. 0. 0. 0. 2.83286115e-03 0. 0. 2.83286115e-03 0.
      0. 2.83286115e-03 0. 0. 0. 0. 0. 0. 0. 0. 0. 0. 0. 0. 0. 0. 0. 0.
      2.83286115e-03 0. 0. 0. 0. 0. 0. 0. 0. 0. 0. 8.49858299e-03 0.
      2.83286115e-03 0. 0. 0. 0. 0. 0. 0. 0. 0. 0. 0. 0. 2.83286115e-03
      0. 2.83286115e-03 0. 0. 0. 0. 0. 2.83286115e-03 0. 0. 0. 0. 0.
      2.83286115e-03 0. 5.66572230e-03 0. 0.</_>
    <_>
      0. 0. 0. 2.45700241e-03 0. 0. 0. 0. 0. 1.22850118e-02 0. 0. 0.
      2.45700241e-03 0. 0. 0. 0. 0. 0. 0. 0. 0. 0. 0. 0. 0. 0. 0.
      2.45700241e-03 0. 0. 0. 0. 0. 0. 0. 0. 0. 0. 0. 0. 0. 0. 0. 0.
      2.45700241e-03 0. 0. 0. 0. 2.45700241e-03 0. 0. 0. 0.
      4.91400482e-03 0. 0. 0. 0. 0. 2.45700241e-03 0. 0. 2.45700241e-03
      2.45700241e-03 0. 0. 0. 2.45700241e-03 0. 0. 0. 0. 0.
      4.91400482e-03 2.45700241e-03 2.45700241e-03 2.45700241e-03
      2.45700241e-03 0. 0. 4.91400482e-03 0. 0. 0. 0. 0. 2.45700241e-03
      0. 2.45700241e-03 0. 0. 0. 0. 0. 0. 0. 0. 0. 0. 0. 0. 0. 0. 0. 0.
      0. 2.45700241e-03 0. 2.45700241e-03 0. 0. 0. 0. 0. 0. 0.
      2.45700241e-03 0. 0. 2.45700241e-03 0. 0. 0. 0. 0. 0. 0. 0. 0. 0.
      0. 0. 0. 0. 2.45700241e-03 7.37100746e-03 0. 0. 0. 0. 0. 0. 0. 0.
      0. 0. 0. 0. 0. 0. 2.45700241e-03 7.37100746e-03 0. 0. 0. 0. 0. 0.
      2.45700241e-03 0. 0. 0. 0. 0. 0. 2.45700241e-03 0. 0.
      2.45700241e-03 0. 0. 0. 0. 0. 0. 0. 0. 0. 0. 0. 0. 0. 0. 0. 0. 0.
      4.91400482e-03 0. 0. 4.91400482e-03 0. 0. 0. 0. 0. 0. 0. 0.
      2.45700241e-03 0. 2.45700241e-03 0. 0. 0. 0. 0. 0. 0. 0. 0. 0. 0.
      0. 0. 0. 4.91400482e-03 2.45700241e-03 0. 2.45700241e-03 0. 0. 0.
      0. 0. 0. 0. 0. 0. 0. 4.91400482e-03 2.45700241e-03 4.91400482e-03
      0. 0. 0. 0. 0. 0. 0. 0. 2.45700241e-03 0. 0. 0. 0. 0. 0. 0. 0. 0.
      0. 0. 0. 0. 0. 2.45700241e-03 0. 2.45700241e-03 2.45700241e-03
      2.45700241e-03 2.45700241e-03 0. 0. 0. 0. 0. 4.91400482e-03 0. 0.
      0. 0. 0. 0. 0. 0. 0. 0. 0. 0. 0. 0. 2.45700241e-03 0. 0. 0. 0. 0.
      4.91400482e-03 0. 0. 0. 0. 0. 4.91400482e-03 0. 0. 0. 0.
      2.45700241e-03 9.82800964e-03 2.45700241e-03 0. 0. 0. 0.
      2.45700241e-03 0. 0. 0. 0. 0. 0. 2.45700241e-03 2.45700241e-03
      2.45700241e-03 0. 0. 0. 0. 0. 0. 0. 0. 2.45700241e-03 0. 0. 0. 0.
      0. 0. 0. 0. 0. 0. 0. 0. 0. 0. 0. 1.22850118e-02 0. 0. 0.
      4.91400482e-03 0. 0. 0. 0. 0. 0. 0. 0. 7.37100746e-03 0. 0. 0. 0.
      2.45700241e-03 0. 0. 0. 0. 0. 0. 0. 2.45700241e-03 0. 0. 0. 0. 0.
      0. 0. 0. 0. 4.91400482e-03 0. 0. 2.45700241e-03 2.45700241e-03 0.
      2.45700241e-03 0. 0. 0. 0. 0. 0. 2.45700241e-03 0. 0. 0. 0. 0. 0.
      2.45700241e-03 2.45700241e-03 0. 0. 9.82800964e-03 0. 0. 0. 0. 0.
      4.91400482e-03 0. 0. 0. 0. 0. 2.45700241e-03 2.45700241e-03 0.
      4.91400482e-03 0. 2.45700241e-03 0. 0. 2.45700241e-03 0. 0. 0. 0.
      0. 0. 0. 2.45700241e-03 0. 0. 0. 0. 0. 0. 2.45700241e-03 0. 0. 0.
      2.45700241e-03 0. 0. 0. 0. 2.45700241e-03 0. 0. 0. 0. 0. 0. 0. 0.
      0. 0. 0. 2.45700241e-03 0. 2.45700241e-03 0. 0. 0. 2.45700241e-03
      2.45700241e-03 2.45700241e-03 0. 0. 2.45700241e-03 4.91400482e-03
      0. 0. 0. 0. 0. 0. 0. 0. 0. 0. 0. 0. 0. 0. 2.45700241e-03 0. 0. 0.
      0. 0. 2.45700241e-03 1.47420149e-02 0. 0. 0. 0. 0. 2.45700241e-03
      0. 0. 0. 4.91400482e-03 0. 2.45700241e-03 0. 0. 0. 0. 0. 0. 0. 0.
      0. 0. 4.91400482e-03 0. 0. 0. 0. 2.45700241e-03 0. 0. 0. 0. 0.
      2.45700241e-03 0. 0. 0. 0. 0. 0. 0. 0. 0. 0. 0. 0. 0. 0. 0. 0. 0.
      4.91400482e-03 0. 0. 0. 0. 0. 0. 0. 0. 0. 0. 4.91400482e-03 0. 0.
      0. 0. 0. 0. 0. 0. 0. 4.91400482e-03 0. 0. 0. 2.45700241e-03 0. 0.
      2.45700241e-03 0. 2.45700241e-03 0. 0. 0. 0. 2.45700241e-03 0. 0.
      0. 0. 0. 0. 4.91400482e-03 0. 0. 0. 0. 0. 4.91400482e-03 0. 0. 0.
      0. 0. 0. 0. 0. 0. 0. 9.82800964e-03 0. 0. 0. 0. 0. 2.45700241e-03
      0. 0. 2.45700241e-03 0. 0. 2.45700241e-03 0. 0. 0. 0. 0. 0. 0. 0.
      0. 2.45700241e-03 0. 0. 0. 0. 0. 0. 0. 0. 0. 0. 4.91400482e-03 0.
      2.45700241e-03 0. 0. 0. 0. 0. 0. 0. 0. 0. 4.91400482e-03 0. 0. 0.
      0. 2.45700241e-03 0. 0. 0. 0. 0. 0. 0. 0. 0. 0. 0. 0. 0. 0. 0. 0.
      0. 2.45700241e-03 0. 0. 0. 9.82800964e-03 0. 2.45700241e-03 0. 0.
      2.45700241e-03 2.45700241e-03 0. 0. 0. 0. 0. 0. 0. 0. 0.
      2.45700241e-03 0. 0. 2.45700241e-03 0. 0. 0. 0. 0. 0. 0. 0.
      2.45700241e-03 0. 0. 0. 0. 0. 0. 0. 0. 0. 2.45700241e-03 0.
      4.91400482e-03 0. 0. 2.45700241e-03 0. 0. 0. 0. 0. 0. 0. 0. 0. 0.
      0. 0. 0. 0. 0. 0. 0. 2.45700241e-03 0. 4.91400482e-03
      2.45700241e-03 2.45700241e-03 0. 0. 0. 0. 0. 0. 0. 0.
      9.82800964e-03 2.45700241e-03 0. 2.45700241e-03 0. 4.91400482e-03
      0. 0. 0. 0. 0. 0. 0. 0. 2.45700241e-03 0. 2.45700241e-03 0. 0. 0.
      0. 0. 0. 2.45700241e-03 0. 0. 0. 0. 0. 4.91400482e-03 0. 0. 0. 0.
      0. 0. 0. 4.91400482e-03 0. 0. 0. 0. 0. 4.91400482e-03 0. 0. 0. 0.
      0. 2.45700241e-03 0. 0. 2.45700241e-03 0. 0. 0. 0. 0.
      4.91400482e-03 0. 0. 0. 2.45700241e-03 0. 0. 0. 0. 0. 0. 0. 0. 0.
      0. 0. 0. 0. 0. 4.91400482e-03 0. 0. 0. 0. 0. 2.45700241e-03 0. 0.
      0. 0. 2.45700241e-03 2.45700241e-03 0. 2.45700241e-03 0. 0. 0. 0.
      0. 2.45700241e-03 0. 0. 0. 0. 0. 0. 0. 0. 0. 0. 0. 0. 0.
      2.45700241e-03 0. 2.45700241e-03 0. 0. 0. 0. 4.91400482e-03
      2.45700241e-03 2.45700241e-03 0. 0. 4.91400482e-03 0.
      2.45700241e-03 0. 0. 0. 2.45700241e-03 0. 0. 0. 0. 0. 0. 0.
      4.91400482e-03 0. 0. 0. 0. 0. 4.91400482e-03 2.45700241e-03 0. 0.
      0. 0. 0. 0. 0. 0. 0. 0. 2.45700241e-03 0. 0. 0. 0. 0. 0. 0. 0. 0.
      0. 0. 0. 2.45700241e-03 0. 2.45700241e-03 7.37100746e-03 0. 0. 0.
      0. 0. 0. 0. 0. 0. 0. 0. 0. 2.45700241e-03 0. 0. 0. 0. 0.
      2.45700241e-03 0. 0. 0. 0. 0. 7.37100746e-03 0. 0. 0. 0. 0. 0. 0.
      2.45700241e-03 0. 0. 2.45700241e-03 0. 0. 0. 0. 2.45700241e-03 0.
      0. 0. 0. 0. 0. 0. 0. 0. 0. 0. 0. 2.45700241e-03 0. 0. 0. 0. 0. 0.
      0. 0. 0. 2.45700241e-03 0. 0. 0. 0. 0. 0. 0. 0. 0. 0.
      2.45700241e-03 0. 0. 0. 0. 2.45700241e-03 0. 0. 0. 0. 0.
      2.45700241e-03 0. 0. 0. 0. 0. 0. 0. 0. 0. 0. 0. 0. 0. 0. 0.
      7.37100746e-03 2.45700241e-03 2.45700241e-03 0. 0. 0.
      4.91400482e-03 0. 0. 0. 0. 0. 0. 0. 0. 0. 0. 0. 0. 0. 0.
      2.45700241e-03 0. 0. 0. 0. 0. 2.45700241e-03 2.45700241e-03 0. 0.
      0. 0. 0. 0. 2.45700241e-03 0. 0. 0. 0. 4.91400482e-03 0. 0. 0. 0.
      0. 0. 0. 0. 0. 0. 0. 0. 0. 0. 0. 0. 0. 2.45700241e-03 0. 0. 0. 0.
      0. 2.45700241e-03 0. 0. 0. 9.82800964e-03 0. 2.45700241e-03
      2.45700241e-03 2.45700241e-03 0. 0. 4.91400482e-03 0. 0. 0. 0. 0.
      0. 4.91400482e-03 0. 0. 4.91400482e-03 2.45700241e-03
      1.47420149e-02 0. 0. 0. 2.45700241e-03 0. 9.82800964e-03 0. 0. 0.
      0. 0. 0. 0. 0. 2.45700241e-03 0. 0. 0. 0. 0. 2.45700241e-03 0. 0.
      2.45700241e-03 0. 0. 2.45700241e-03 0. 0. 0. 0. 0. 0. 0. 0. 0. 0.
      0. 0. 4.91400482e-03 2.45700241e-03 0. 0. 0. 0. 0. 0.
      2.45700241e-03 2.45700241e-03 2.45700241e-03 0. 0. 0. 0.
      9.82800964e-03 0. 0. 0. 0. 0. 0. 0. 0. 0. 0. 0. 2.45700241e-03 0.
      0. 0. 0. 0. 0. 0. 0. 0. 2.45700241e-03 0. 0. 0. 2.45700241e-03 0.
      0. 0. 0. 2.45700241e-03 0. 2.45700241e-03 0. 0. 0. 0.
      2.45700241e-03 0. 0. 0. 4.91400482e-03 0. 0. 0. 2.45700236e-02
      7.37100746e-03 0. 0. 0. 0. 2.45700241e-03 0. 0. 0. 0. 0. 0. 0.
      2.45700241e-03 0. 0. 0. 4.91400482e-03 0. 0. 0. 0. 0. 0. 0. 0.
      2.45700241e-03 0. 0. 2.45700241e-03 0. 0. 0. 0. 0. 0. 0. 0. 0.
      2.45700241e-03 2.45700241e-03 0. 0. 0. 0. 0. 0. 0. 0. 0. 0. 0. 0.
      0. 0. 0. 0. 0. 0. 0. 4.91400482e-03 0. 0. 0. 0. 0. 0. 0. 0. 0.
      2.45700241e-03 0. 2.45700241e-03 0. 0. 0. 2.45700241e-03 0. 0.
      7.37100746e-03 0. 0. 4.91400482e-03 2.45700241e-03 0. 0. 0. 0. 0.
      2.45700241e-03 0. 0. 0. 0. 0. 0. 2.45700241e-03 0. 0. 0. 0. 0. 0.
      0. 2.45700241e-03 0. 7.37100746e-03 0. 2.45700241e-03 0.
      2.45700241e-03 0. 0. 0. 0. 0. 0. 2.45700241e-03 0. 2.45700241e-03
      0. 0. 0. 2.45700241e-03 0. 0. 0. 0. 0. 0. 2.45700241e-03 0.
      2.45700241e-03 0. 0. 0. 0. 0. 0. 0. 0. 0. 0. 0. 0. 0. 0. 0. 0. 0.
      4.91400482e-03 0. 0. 0. 0. 0. 0. 0. 0. 0. 0. 2.45700241e-03 0. 0.
      0. 0. 0. 0. 0. 2.45700241e-03 0. 0. 0. 1.96560193e-02 0. 0. 0. 0.
      0. 0. 0. 0. 2.45700241e-03 0. 2.45700241e-03 2.45700241e-03 0. 0.
      0. 0. 0. 0. 0. 0. 0. 0. 0. 0. 0. 0. 2.45700241e-03 0. 0. 0. 0. 0.
      0. 0. 0. 0. 0. 0. 0. 0. 2.45700241e-03 4.91400482e-03
      2.45700241e-03 2.45700241e-03 9.82800964e-03 0. 0. 0. 0.
      2.45700241e-03 2.45700241e-03 0. 0. 9.82800964e-03 0. 0. 0. 0. 0.
      0. 2.45700241e-03 0. 0. 0. 4.91400482e-03 0. 0. 2.45700241e-03 0.
      0. 0. 0. 0. 0. 0. 0. 0. 1.22850118e-02 0. 0. 0. 0. 0.
      2.45700241e-03 2.45700241e-03 0. 0. 0. 0. 0. 0. 0. 0. 0. 0. 0. 0.
      0. 2.45700241e-03 0. 0. 2.45700241e-03 9.82800964e-03 0. 0. 0. 0.
      0. 0. 0. 2.45700241e-03 0. 0. 0. 0.</_>
    <_>
      0. 0. 0. 0. 2.26757373e-03 0. 0. 0. 0. 0. 0. 2.26757373e-03 0. 0.
      2.26757373e-03 0. 0. 4.53514745e-03 2.26757373e-03 0. 0. 0. 0. 0.
      0. 2.26757373e-03 0. 0. 0. 0. 2.26757373e-03 0. 0. 0. 0. 0. 0.
      2.26757373e-03 0. 0. 0. 0. 4.53514745e-03 0. 0. 0. 0. 0. 0. 0. 0.
      0. 0. 0. 2.26757373e-03 2.26757373e-03 4.53514745e-03 0. 0. 0.
      2.26757373e-03 0. 2.26757373e-03 0. 0. 0. 2.26757373e-03 0. 0.
      2.26757373e-03 0. 0. 2.26757373e-03 2.26757373e-03 0. 0. 0. 0.
      2.26757373e-03 0. 0. 2.26757373e-03 0. 0. 0. 0. 0. 0. 0. 0.
      4.53514745e-03 0. 0. 0. 2.26757373e-03 0. 0. 0. 2.26757373e-03 0.
      2.26757373e-03 0. 0. 0. 0. 0. 0. 0. 0. 0. 0. 0. 6.80272095e-03 0.
      0. 0. 0. 0. 0. 0. 0. 0. 0. 0. 0. 0. 0. 0. 2.26757373e-03 0. 0. 0.
      0. 0. 0. 0. 0. 2.26757373e-03 0. 0. 0. 0. 0. 0. 0. 0.
      2.26757373e-03 0. 0. 0. 2.26757373e-03 0. 0. 0. 0. 2.26757373e-03
      2.26757373e-03 2.26757373e-03 0. 0. 0. 0. 6.80272095e-03 0. 0.
      2.26757373e-03 0. 0. 0. 0. 0. 4.53514745e-03 0. 0. 0.
      2.26757373e-03 0. 4.53514745e-03 2.26757373e-03 2.26757373e-03 0.
      0. 0. 2.26757373e-03 0. 0. 2.26757373e-03 0. 0. 4.53514745e-03 0.
      0. 0. 4.53514745e-03 0. 0. 0. 0. 4.53514745e-03 6.80272095e-03 0.
      0. 0. 0. 0. 0. 0. 0. 0. 0. 0. 4.53514745e-03 0. 0. 2.26757373e-03
      0. 0. 0. 0. 0. 0. 0. 0. 4.53514745e-03 0. 0. 0. 0. 0. 0.
      4.53514745e-03 0. 4.53514745e-03 0. 0. 0. 0. 0. 0. 0.
      4.53514745e-03 0. 0. 2.26757373e-03 0. 0. 0. 0. 0. 0. 0.
      2.26757373e-03 0. 4.53514745e-03 0. 0. 0. 0. 0. 0. 4.53514745e-03
      0. 0. 0. 0. 0. 0. 0. 0. 0. 0. 0. 0. 0. 0. 0. 2.26757373e-03 0. 0.
      0. 0. 0. 0. 0. 2.26757373e-03 0. 0. 0. 0. 0. 0. 0. 0. 0. 0. 0. 0.
      0. 0. 0. 2.26757373e-03 0. 0. 0. 0. 0. 0. 2.26757373e-03
      2.26757373e-03 0. 2.26757373e-03 0. 0. 2.26757373e-03 0. 0. 0. 0.
      2.26757373e-03 0. 0. 0. 2.26757373e-03 2.26757373e-03 0. 0. 0. 0.
      0. 0. 0. 2.26757373e-03 0. 0. 0. 0. 0. 0. 2.26757373e-03
      2.26757373e-03 0. 0. 0. 0. 0. 0. 2.26757373e-03 6.80272095e-03
      6.80272095e-03 0. 2.26757373e-03 0. 2.26757373e-03 0. 0. 0. 0. 0.
      0. 0. 0. 0. 0. 0. 0. 0. 0. 0. 0. 0. 4.53514745e-03 0. 0. 0. 0. 0.
      0. 0. 9.07029491e-03 0. 0. 0. 2.26757373e-03 0. 0. 0. 0.
      2.26757373e-03 0. 0. 0. 0. 0. 0. 0. 6.80272095e-03 2.26757373e-03
      0. 0. 0. 0. 0. 0. 0. 0. 0. 0. 0. 2.26757373e-03 0. 0. 0. 0. 0. 0.
      2.26757373e-03 0. 2.26757373e-03 0. 0. 0. 0. 0. 0. 0. 0. 0. 0.
      2.26757373e-03 0. 0. 4.53514745e-03 0. 0. 0. 0. 0. 2.26757373e-03
      0. 0. 0. 0. 0. 0. 0. 0. 0. 0. 0. 0. 0. 2.26757373e-03 0. 0. 0. 0.
      0. 0. 0. 0. 2.26757373e-03 0. 0. 2.26757373e-03 0. 0. 0.
      2.26757373e-03 0. 0. 0. 0. 0. 0. 0. 0. 0. 0. 2.26757373e-03 0. 0.
      2.26757373e-03 2.26757373e-03 0. 2.26757373e-03 4.53514745e-03 0.
      0. 0. 2.26757373e-03 0. 0. 0. 0. 2.26757373e-03 0. 0.
      2.26757373e-03 0. 0. 2.26757373e-03 0. 2.26757373e-03 0. 0.
      2.26757373e-03 0. 0. 2.26757373e-03 2.26757373e-03 0. 0. 0. 0. 0.
      0. 0. 0. 0. 0. 0. 0. 0. 4.53514745e-03 2.26757373e-03 0. 0. 0. 0.
      0. 0. 0. 0. 0. 2.26757373e-03 0. 0. 2.26757373e-03 2.26757373e-03
      0. 0. 0. 0. 0. 0. 0. 0. 2.26757373e-03 0. 0. 0. 0. 0. 0. 0. 0. 0.
      0. 0. 0. 0. 0. 0. 0. 0. 0. 0. 0. 0. 0. 2.26757373e-03 0. 0. 0. 0.
      0. 0. 0. 2.26757373e-03 0. 0. 0. 6.80272095e-03 0. 0. 0. 0.
      2.26757373e-03 0. 0. 0. 0. 0. 0. 0. 0. 2.26757373e-03 0.
      2.26757373e-03 0. 0. 0. 0. 0. 2.26757373e-03 0. 0. 0. 0.
      2.26757373e-03 0. 0. 2.26757373e-03 0. 0. 0. 2.26757373e-03 0. 0.
      0. 0. 0. 2.26757373e-03 0. 0. 4.53514745e-03 2.26757373e-03 0. 0.
      0. 0. 0. 0. 0. 0. 0. 0. 0. 4.53514745e-03 0. 0. 0. 0. 0. 0. 0.
      4.53514745e-03 2.26757373e-03 2.26757373e-03 0. 0. 0. 0.
      4.53514745e-03 0. 0. 0. 0. 2.26757373e-03 2.26757373e-03 0. 0. 0.
      0. 0. 0. 0. 0. 0. 0. 4.53514745e-03 0. 0. 9.07029491e-03 0. 0. 0.
      0. 0. 2.26757373e-03 0. 2.26757373e-03 0. 2.26757373e-03 0.
      2.26757373e-03 0. 0. 0. 0. 0. 0. 0. 0. 0. 2.26757373e-03 0. 0. 0.
      0. 0. 0. 2.26757373e-03 0. 0. 0. 0. 0. 2.26757373e-03
      2.26757373e-03 0. 2.26757373e-03 2.26757373e-03 0. 0. 0. 0.
      2.26757373e-03 0. 0. 0. 2.26757373e-03 0. 0. 0. 0. 0. 0. 0. 0.
      2.26757373e-03 0. 0. 0. 0. 0. 0. 0. 2.26757373e-03 0. 0. 0.
      6.80272095e-03 0. 2.26757373e-03 2.26757373e-03 0. 0. 0. 0.
      2.26757373e-03 0. 6.80272095e-03 4.53514745e-03 0. 0. 0.
      2.26757373e-03 0. 0. 0. 0. 0. 0. 2.26757373e-03 0. 0.
      2.26757373e-03 0. 0. 6.80272095e-03 4.53514745e-03 6.80272095e-03
      0. 2.26757373e-03 0. 0. 0. 0. 0. 2.26757373e-03 0. 0. 0.
      2.26757373e-03 2.26757373e-03 0. 2.26757373e-03 0. 0. 0. 0. 0. 0.
      2.26757373e-03 2.26757373e-03 4.53514745e-03 0. 0. 0.
      4.53514745e-03 0. 0. 2.26757373e-03 0. 0. 0. 2.26757373e-03 0. 0.
      0. 0. 0. 0. 0. 0. 0. 0. 0. 0. 0. 0. 2.26757373e-03 0. 0.
      4.53514745e-03 0. 0. 2.26757373e-03 0. 0. 0. 0. 0. 0. 0. 0.
      4.53514745e-03 0. 0. 2.26757373e-03 2.26757373e-03 0. 0.
      4.53514745e-03 0. 0. 0. 0. 0. 0. 4.53514745e-03 0. 0. 0. 0. 0. 0.
      0. 0. 0. 2.26757373e-03 0. 0. 2.26757373e-03 0. 2.26757373e-03 0.
      0. 0. 2.26757373e-03 4.53514745e-03 0. 0. 0. 0. 2.26757373e-03 0.
      2.26757373e-03 0. 0. 0. 0. 4.53514745e-03 0. 0. 0. 0.
      2.26757373e-03 0. 0. 0. 0. 0. 2.26757373e-03 2.26757373e-03 0. 0.
      4.53514745e-03 2.26757373e-03 0. 4.53514745e-03 0. 0. 0. 0.
      2.26757373e-03 0. 0. 0. 2.26757373e-03 2.26757373e-03 0. 0. 0. 0.
      0. 0. 0. 2.26757373e-03 2.26757373e-03 0. 0. 0. 0. 2.26757373e-03
      0. 2.26757373e-03 0. 0. 4.53514745e-03 0. 0. 2.26757373e-03
      4.53514745e-03 0. 0. 2.26757373e-03 2.26757373e-03 2.26757373e-03
      0. 2.26757373e-03 4.53514745e-03 0. 0. 0. 0. 0. 0. 0. 0.
      2.26757373e-03 0. 0. 0. 0. 2.26757373e-03 0. 0. 0. 2.26757373e-03
      0. 4.53514745e-03 0. 0. 0. 0. 0. 0. 0. 2.26757373e-03
      2.26757373e-03 0. 2.26757373e-03 2.26757373e-03 0. 0. 0. 0. 0.
      1.36054419e-02 0. 0. 0. 0. 0. 0. 0. 0. 2.26757373e-03 0. 0. 0. 0.
      4.53514745e-03 0. 0. 2.26757373e-03 0. 0. 0. 2.26757373e-03 0. 0.
      0. 0. 4.53514745e-03 0. 9.07029491e-03 6.80272095e-03 0. 0.
      4.53514745e-03 0. 0. 0. 0. 0. 0. 0. 0. 0. 6.80272095e-03
      4.53514745e-03 0. 0. 0. 0. 2.26757373e-03 4.53514745e-03 0.
      2.26757373e-03 0. 2.26757373e-03 0. 0. 0. 0. 0. 0. 0. 0.
      4.53514745e-03 0. 0. 2.26757373e-03 0. 0. 2.26757373e-03 0. 0. 0.
      0. 0. 0. 0. 0. 0. 2.26757373e-03 0. 0. 0. 0. 0. 2.26757373e-03 0.
      0. 6.80272095e-03 0. 2.26757373e-03 0. 0. 0. 2.26757373e-03
      2.26757373e-03 0. 0. 0. 0. 0. 0. 0. 0. 0. 0. 0. 0. 0. 0. 0.
      2.26757373e-03 0. 0. 0. 0. 0. 0. 6.80272095e-03 0. 0.
      2.26757373e-03 0. 0. 0. 0. 0. 0. 2.26757373e-03 0. 0. 0. 0. 0. 0.
      0. 0. 0. 0. 2.26757373e-03 0. 0. 0. 2.26757373e-03 0. 0. 0. 0.
      2.26757373e-03 2.26757373e-03 2.26757373e-03 0. 0. 0. 0. 0. 0. 0.
      2.26757373e-03 0. 0. 0. 0. 6.80272095e-03 0. 0. 0. 0. 0. 0.
      6.80272095e-03 2.26757373e-03 0. 0. 0. 0. 0. 6.80272095e-03
      2.26757373e-03 4.53514745e-03 0. 0. 0. 0. 0. 2.26757373e-03
      6.80272095e-03 0. 0. 4.53514745e-03 0. 0. 0. 2.26757373e-03 0. 0.
      2.26757373e-03 0. 2.26757373e-03 0. 4.53514745e-03 0. 0. 0. 0. 0.
      0. 0. 0. 0. 0. 0. 0. 0. 0. 0. 0. 2.26757373e-03 0. 0. 0. 0. 0. 0.
      0. 0. 2.26757373e-03 0. 0. 2.26757373e-03 0. 0. 2.26757373e-03 0.
      0. 0. 0. 0. 2.26757373e-03 0. 0. 0. 0. 0. 0. 0. 0. 2.26757373e-03
      2.26757373e-03 2.26757373e-03 0. 0. 0. 0. 0. 0. 0. 0. 0. 0. 0. 0.
      0. 0. 0. 0. 0. 0. 0. 2.26757373e-03 2.26757373e-03 0. 0. 0. 0. 0.
      0. 0. 0. 0. 2.26757373e-03 0. 0. 0. 0. 0. 0. 0. 0. 0.
      2.26757373e-03 0. 0. 0. 0. 0. 2.26757373e-03 0. 0. 0.
      2.26757373e-03 2.26757373e-03 0. 4.53514745e-03 0. 0. 0.
      4.53514745e-03 0. 2.26757373e-03 0. 0. 4.53514745e-03 0. 0.
      4.53514745e-03 0. 2.26757373e-03 0. 0. 0. 0. 0. 0. 6.80272095e-03
      2.26757373e-03 0. 0. 0. 0. 0. 0. 0. 0. 0. 0. 0. 0. 6.80272095e-03
      0. 0. 0. 0. 0. 0. 0. 2.26757373e-03 0. 2.26757373e-03
      2.26757373e-03 2.26757373e-03 0. 0. 0. 0. 0. 0. 0. 0. 0. 0. 0. 0.
      0. 0. 0. 0. 0. 0. 2.26757373e-03 0. 0. 0. 0. 0. 0. 2.26757373e-03
      2.26757373e-03 2.26757373e-03 2.26757373e-03 2.26757373e-03
      2.26757373e-03 0. 0. 0. 0. 0. 2.26757373e-03 0. 0. 2.26757373e-03
      0. 0. 0. 0. 0. 0. 0. 0. 0. 0. 0. 0. 0. 0. 2.26757373e-03 0. 0. 0.
      0. 0. 0. 0. 0. 0. 0. 0. 0. 0. 0. 2.26757373e-03 0. 0. 0.
      2.26757373e-03 0. 2.26757373e-03 0. 4.53514745e-03 0. 0. 0. 0. 0.
      0. 0. 2.26757373e-03 0. 0. 0. 0. 0. 0. 2.26757373e-03 0. 0. 0.
      4.53514745e-03 2.26757373e-03 0. 0. 0. 0. 4.53514745e-03 0. 0. 0.
      0. 2.26757373e-03 0. 4.53514745e-03 0. 0. 0. 0. 2.26757373e-03 0.
      0. 0. 2.26757373e-03 9.07029491e-03 0. 0. 0. 4.53514745e-03 0. 0.
      4.53514745e-03 0. 0. 0. 0. 0. 2.26757373e-03 0. 2.26757373e-03 0.
      0. 0. 0. 0. 0. 0. 0. 0. 0. 0. 4.53514745e-03 0. 0. 0. 0. 0. 0.
      4.53514745e-03 0. 0. 0. 0. 0. 0. 0. 0. 0. 2.26757373e-03 0.
      2.26757373e-03 2.26757373e-03 0. 0. 0.</_>
    <_>
      0. 0. 0. 0. 0. 5.64971752e-03 0. 0. 0. 0. 0. 2.82485876e-03
      5.64971752e-03 0. 0. 0. 0. 0. 2.82485876e-03 0. 0. 0. 0.
      2.82485876e-03 2.82485876e-03 2.82485876e-03 0. 0. 0.
      5.64971752e-03 0. 0. 0. 0. 0. 0. 8.47457629e-03 1.12994350e-02
      2.82485876e-03 0. 0. 0. 0. 0. 0. 0. 0. 2.82485876e-03 0.
      2.82485876e-03 0. 0. 0. 0. 2.82485876e-03 0. 0. 0. 0. 0.
      2.82485876e-03 0. 0. 0. 0. 2.82485876e-03 2.82485876e-03
      2.82485876e-03 0. 0. 0. 0. 0. 0. 0. 0. 0. 0. 2.82485876e-03
      2.82485876e-03 0. 5.64971752e-03 0. 0. 0. 0. 0. 0. 0. 0.
      5.64971752e-03 2.82485876e-03 2.82485876e-03 0. 0. 0. 0. 0. 0. 0.
      0. 0. 0. 8.47457629e-03 0. 0. 0. 0. 0. 8.47457629e-03 0. 0. 0. 0.
      0. 0. 5.64971752e-03 0. 5.64971752e-03 2.82485876e-03 0. 0.
      2.82485876e-03 0. 2.82485876e-03 0. 0. 0. 0. 0. 0. 0. 0. 0. 0. 0.
      0. 0. 0. 0. 0. 0. 2.82485876e-03 0. 0. 0. 0. 0. 0. 2.82485876e-03
      0. 1.41242938e-02 2.82485876e-03 0. 0. 0. 2.82485876e-03 0. 0. 0.
      0. 0. 2.82485876e-03 0. 0. 2.82485876e-03 1.41242938e-02 0. 0. 0.
      0. 0. 0. 0. 0. 0. 5.64971752e-03 0. 0. 0. 0. 2.82485876e-03 0. 0.
      0. 0. 0. 0. 0. 0. 0. 0. 0. 0. 2.82485876e-03 0. 0. 0. 0.
      5.64971752e-03 0. 2.82485876e-03 0. 0. 2.82485876e-03 0.
      5.64971752e-03 0. 0. 0. 0. 0. 0. 0. 0. 0. 0. 2.82485876e-03 0. 0.
      0. 0. 0. 0. 0. 0. 0. 0. 0. 0. 1.69491526e-02 0. 0. 0. 0. 0. 0. 0.
      0. 0. 0. 0. 5.64971752e-03 0. 0. 0. 0. 0. 0. 0. 0. 0. 0.
      2.82485876e-03 0. 0. 0. 0. 0. 0. 0. 0. 0. 0. 0. 2.82485876e-03
      2.82485876e-03 0. 0. 0. 0. 0. 0. 0. 0. 0. 0. 0. 0. 2.82485876e-03
      0. 0. 0. 0. 0. 0. 0. 0. 0. 0. 8.47457629e-03 0. 0. 0.
      5.64971752e-03 0. 0. 0. 0. 0. 0. 0. 0. 0. 2.82485876e-03 0. 0. 0.
      0. 0. 0. 0. 0. 2.82485876e-03 1.12994350e-02 0. 0. 2.82485876e-03
      0. 0. 0. 0. 0. 0. 0. 0. 2.82485876e-03 0. 0. 0. 0. 2.82485876e-03
      0. 0. 0. 0. 0. 0. 0. 0. 0. 0. 0. 0. 0. 0. 0. 0. 0. 0. 0. 0. 0. 0.
      0. 2.82485876e-03 0. 2.82485876e-03 0. 0. 0. 0. 0. 0.
      2.82485876e-03 0. 0. 0. 0. 0. 2.82485876e-03 2.82485876e-03 0. 0.
      0. 0. 2.82485876e-03 0. 0. 8.47457629e-03 0. 0. 0. 0. 0. 0.
      2.82485876e-03 0. 0. 0. 0. 0. 0. 0. 0. 0. 0. 0. 0. 0.
      2.82485876e-03 0. 2.82485876e-03 0. 2.82485876e-03 0. 0. 0.
      2.82485876e-03 0. 0. 0. 0. 0. 0. 0. 2.82485876e-03 2.82485876e-03
      2.82485876e-03 0. 0. 0. 0. 0. 0. 2.82485876e-03 0. 0. 0. 0. 0. 0.
      5.64971752e-03 0. 0. 0. 2.82485876e-03 0. 0. 0. 0. 0. 0. 0. 0. 0.
      0. 0. 0. 0. 0. 0. 2.82485876e-03 0. 0. 0. 0. 0. 0. 0. 0. 0.
      8.47457629e-03 0. 0. 0. 0. 2.82485876e-03 0. 0. 0. 8.47457629e-03
      0. 5.64971752e-03 0. 0. 0. 0. 0. 0. 0. 0. 5.64971752e-03 0. 0. 0.
      0. 2.82485876e-03 0. 0. 2.82485876e-03 5.64971752e-03 0. 0. 0. 0.
      0. 2.82485876e-03 0. 0. 2.82485876e-03 0. 0. 0. 0. 0.
      5.64971752e-03 0. 0. 0. 0. 0. 0. 0. 0. 0. 0. 0. 0. 0. 0.
      2.82485876e-03 0. 0. 0. 8.47457629e-03 0. 2.82485876e-03 0. 0. 0.
      0. 0. 0. 2.82485876e-03 0. 0. 0. 0. 0. 0. 0. 2.82485876e-03 0.
      5.64971752e-03 0. 2.82485876e-03 0. 0. 0. 0. 2.82485876e-03 0. 0.
      0. 2.82485876e-03 0. 2.82485876e-03 0. 2.82485876e-03 0. 0.
      2.82485876e-03 0. 0. 0. 0. 2.82485876e-03 0. 0. 2.82485876e-03 0.
      0. 0. 0. 0. 0. 2.82485876e-03 0. 0. 0. 0. 0. 0. 2.82485876e-03
      5.64971752e-03 0. 2.82485876e-03 0. 0. 8.47457629e-03
      2.82485876e-03 0. 0. 0. 0. 0. 0. 0. 0. 0. 0. 0. 0. 0. 0. 0. 0. 0.
      0. 0. 0. 0. 0. 0. 0. 0. 0. 0. 2.82485876e-03 0. 0. 0. 0. 0. 0. 0.
      0. 2.82485876e-03 0. 0. 0. 0. 0. 0. 0. 0. 0. 2.82485876e-03 0. 0.
      0. 0. 2.82485876e-03 0. 0. 0. 0. 0. 0. 0. 2.82485876e-03 0. 0. 0.
      0. 0. 0. 0. 2.82485876e-03 0. 0. 2.82485876e-03 0. 0. 0. 0. 0. 0.
      2.82485876e-03 0. 0. 0. 0. 0. 0. 0. 0. 0. 0. 0. 0. 0. 0. 0.
      2.82485876e-03 0. 0. 0. 0. 0. 0. 0. 0. 0. 2.82485876e-03 0.
      8.47457629e-03 0. 0. 0. 0. 0. 0. 2.82485876e-03 0. 0. 0.
      2.82485876e-03 0. 0. 0. 0. 0. 0. 0. 0. 0. 0. 0. 0. 0. 0. 0. 0. 0.
      0. 0. 0. 0. 0. 0. 0. 0. 0. 0. 2.82485876e-03 0. 0. 0.
      2.82485876e-03 0. 0. 0. 0. 0. 0. 0. 0. 0. 0. 0. 0. 2.82485876e-03
      0. 0. 0. 0. 0. 0. 0. 0. 0. 0. 0. 0. 2.82485876e-03 2.82485876e-03
      0. 0. 0. 0. 0. 0. 0. 0. 0. 0. 0. 5.64971752e-03 0. 0. 0. 0. 0.
      2.82485876e-03 0. 8.47457629e-03 2.82485876e-03 0. 0. 0. 0. 0. 0.
      0. 0. 0. 0. 0. 0. 0. 0. 0. 0. 0. 0. 0. 0. 0. 2.82485876e-03
      8.47457629e-03 0. 0. 2.82485876e-03 0. 0. 0. 0. 0. 0.
      2.82485876e-03 0. 0. 0. 0. 0. 2.82485876e-03 0. 0. 0. 0. 0. 0. 0.
      2.82485876e-03 2.82485876e-03 1.12994350e-02 0. 0. 0. 0. 0. 0. 0.
      0. 0. 2.82485876e-03 0. 0. 0. 5.64971752e-03 0. 0. 0. 0. 0. 0. 0.
      0. 0. 0. 0. 0. 0. 0. 1.12994350e-02 0. 0. 0. 0. 2.82485876e-03 0.
      2.82485876e-03 0. 0. 0. 0. 0. 0. 0. 2.82485876e-03 0. 0. 0. 0. 0.
      0. 0. 0. 0. 0. 0. 2.82485876e-03 0. 0. 2.82485876e-03 0. 0.
      5.64971752e-03 0. 0. 0. 0. 0. 0. 0. 0. 0. 0. 0. 0. 0. 0. 0. 0. 0.
      0. 0. 0. 0. 0. 0. 0. 0. 0. 0. 0. 1.12994350e-02 0. 2.82485876e-03
      0. 0. 0. 2.82485876e-03 0. 0. 0. 0. 0. 0. 0. 2.82485876e-03 0. 0.
      0. 0. 2.82485876e-03 0. 0. 0. 0. 0. 0. 0. 0. 0. 0. 0. 0. 0. 0.
      2.82485876e-03 0. 0. 0. 0. 0. 0. 2.82485876e-03 0. 0.
      2.82485876e-03 0. 2.82485876e-03 0. 0. 2.82485876e-03 0. 0. 0.
      2.82485876e-03 0. 0. 0. 0. 0. 0. 0. 0. 0. 0. 0. 2.82485876e-03 0.
      0. 0. 0. 0. 0. 0. 0. 0. 0. 2.82485876e-03 0. 2.82485876e-03 0. 0.
      0. 0. 0. 0. 0. 0. 0. 0. 0. 0. 5.64971752e-03 0. 2.82485876e-03 0.
      0. 0. 0. 0. 0. 5.64971752e-03 0. 0. 2.82485876e-03 0.
      2.82485876e-03 0. 0. 0. 0. 0. 0. 0. 0. 2.82485876e-03
      2.82485876e-03 0. 2.82485876e-03 0. 0. 0. 2.82485876e-03 0. 0.
      2.82485876e-03 2.82485876e-03 0. 0. 0. 0. 8.47457629e-03
      5.64971752e-03 0. 0. 0. 0. 0. 0. 0. 0. 0. 8.47457629e-03 0. 0. 0.
      2.82485876e-03 2.82485876e-03 0. 0. 0. 0. 0. 0. 2.82485876e-03 0.
      0. 0. 0. 0. 0. 5.64971752e-03 0. 0. 0. 0. 0. 0. 0. 2.82485876e-03
      0. 0. 0. 0. 0. 2.82485876e-03 0. 0. 5.64971752e-03 5.64971752e-03
      0. 0. 0. 0. 0. 0. 0. 0. 5.64971752e-03 0. 0. 0. 2.82485876e-03 0.
      0. 0. 0. 0. 0. 0. 0. 0. 0. 0. 2.82485876e-03 0. 0. 0. 0. 0.
      2.82485876e-03 2.82485876e-03 0. 0. 0. 8.47457629e-03
      2.82485876e-03 0. 0. 0. 0. 0. 0. 0. 0. 0. 0. 0. 0. 0. 0. 0. 0. 0.
      0. 0. 0. 0. 0. 0. 0. 0. 0. 0. 5.64971752e-03 0. 2.82485876e-03 0.
      0. 2.82485876e-03 0. 0. 0. 2.82485876e-03 0. 5.64971752e-03 0. 0.
      0. 0. 0. 0. 0. 0. 0. 0. 0. 0. 0. 5.64971752e-03 0. 2.82485876e-03
      0. 0. 2.82485876e-03 0. 0. 0. 0. 0. 0. 5.64971752e-03 0. 0. 0. 0.
      2.82485876e-03 0. 0. 2.82485876e-03 0. 0. 0. 0. 0. 2.82485876e-03
      0. 0. 0. 0. 2.82485876e-03 0. 0. 0. 0. 0. 0. 0. 0. 0. 0. 0. 0. 0.
      0. 0. 0. 0. 0. 2.82485876e-03 0. 0. 0. 0. 0. 0. 0. 0. 0. 0.
      8.47457629e-03 0. 0. 5.64971752e-03 0. 0. 0. 0. 0. 0. 0. 0. 0. 0.
      0. 0. 0. 0. 0. 0. 0. 2.82485876e-03 0. 0. 0. 0. 0. 0. 0. 0.
      2.82485876e-03 0. 0. 0. 2.82485876e-03 2.82485876e-03 0.
      5.64971752e-03 0. 0. 0. 0. 0. 0. 2.82485876e-03 0. 2.82485876e-03
      0. 0. 5.64971752e-03 0. 0. 0. 0. 0. 5.64971752e-03 0. 0. 0. 0. 0.
      2.82485876e-03 0. 5.64971752e-03 0. 0. 2.82485876e-03 0. 0. 0. 0.
      0. 0. 0. 2.82485876e-03 0. 2.82485876e-03 0. 0. 0. 0. 0. 0. 0. 0.
      0. 0. 5.64971752e-03 0. 0. 0. 0. 0. 0. 0. 0. 0. 0. 0.
      2.82485876e-03 0. 5.64971752e-03 0. 0. 0. 0. 0. 0. 0. 0.
      2.82485876e-03 0. 0. 0. 0. 0. 0. 0. 0. 0. 0. 0. 0. 0. 0. 0. 0. 0.
      0. 0. 0. 0. 0. 2.82485876e-03 0. 0. 0. 0. 0. 0. 0. 0.
      2.82485876e-03 0. 0. 0. 0. 2.82485876e-03 0. 2.82485876e-03 0. 0.
      0. 0. 2.82485876e-03 0. 0. 0. 0. 0. 5.64971752e-03 0. 0. 0. 0. 0.
      0. 0. 5.64971752e-03 0. 0. 0. 0. 0. 2.82485876e-03 5.64971752e-03
      0. 0. 0. 0. 2.82485876e-03 0. 0. 0. 0. 0. 0. 0. 0. 0. 0.
      2.82485876e-03 0. 0. 2.82485876e-03 5.64971752e-03 0. 0.
      2.82485876e-03 0. 0. 0. 0. 0. 0. 0. 0. 0. 0. 0. 0. 0. 0.
      8.47457629e-03 0. 0. 2.82485876e-03 5.64971752e-03 2.82485876e-03
      0. 0. 0. 0. 0. 2.82485876e-03 0. 0. 0. 0. 0. 0. 2.82485876e-03 0.
      0. 0. 0. 0. 0. 0. 0. 0. 0. 0.</_>
    <_>
      0. 0. 0. 5.30503970e-03 0. 0. 0. 0. 0. 0. 0. 0. 0. 0.
      2.65251985e-03 0. 0. 0. 0. 2.65251985e-03 0. 0. 0. 0. 0. 0. 0. 0.
      0. 2.65251985e-03 0. 0. 0. 0. 0. 0. 0. 0. 5.30503970e-03 0.
      2.65251985e-03 0. 0. 0. 0. 0. 0. 5.30503970e-03 0. 0. 0. 0. 0. 0.
      0. 0. 2.65251985e-03 0. 2.65251985e-03 2.65251985e-03 0. 0. 0. 0.
      0. 0. 0. 5.30503970e-03 0. 0. 2.65251985e-03 0. 0. 0. 0.
      2.65251985e-03 0. 0. 2.65251985e-03 2.65251985e-03 2.65251985e-03
      0. 0. 0. 0. 0. 0. 0. 0. 0. 0. 5.30503970e-03 0. 0. 0. 0. 0. 0. 0.
      0. 0. 0. 0. 2.65251985e-03 0. 0. 5.30503970e-03 0. 0. 0. 0. 0. 0.
      0. 2.65251985e-03 0. 2.65251985e-03 0. 0. 0. 0. 0. 2.65251985e-03
      0. 0. 2.65251985e-03 7.95755908e-03 0. 0. 0. 0. 5.30503970e-03 0.
      0. 0. 0. 2.65251985e-03 0. 0. 0. 1.06100794e-02 0. 0. 0.
      2.65251985e-03 0. 0. 0. 2.65251985e-03 0. 0. 0. 0. 0. 0. 0. 0. 0.
      0. 0. 0. 0. 2.65251985e-03 0. 0. 2.65251985e-03 0. 0. 0. 0. 0.
      2.65251985e-03 0. 0. 0. 0. 0. 0. 0. 0. 0. 0. 0. 0. 2.65251985e-03
      2.65251985e-03 0. 0. 0. 0. 0. 0. 0. 0. 0. 0. 0. 0. 0. 0. 0. 0. 0.
      0. 0. 0. 0. 0. 0. 2.65251985e-03 2.65251985e-03 5.30503970e-03 0.
      0. 0. 2.65251985e-03 0. 0. 0. 0. 0. 0. 0. 0. 5.30503970e-03 0. 0.
      0. 0. 0. 0. 0. 0. 0. 0. 0. 0. 0. 0. 0. 2.65251985e-03 0. 0. 0.
      5.30503970e-03 0. 0. 0. 0. 0. 0. 0. 0. 0. 0. 0. 0. 0. 0. 0.
      2.65251985e-03 2.65251985e-03 0. 0. 2.65251985e-03 0. 0. 0. 0.
      2.65251985e-03 2.65251985e-03 0. 0. 0. 0. 0. 0. 0. 0. 0. 0. 0. 0.
      2.65251985e-03 0. 0. 0. 0. 0. 0. 0. 2.65251985e-03 0. 0. 0. 0. 0.
      2.65251985e-03 0. 0. 0. 0. 0. 0. 0. 0. 5.30503970e-03 0.
      2.65251985e-03 0. 2.65251985e-03 0. 0. 0. 0. 0. 0. 0. 0.
      2.65251985e-03 2.65251985e-03 0. 0. 5.30503970e-03 0.
      2.65251985e-03 0. 0. 0. 0. 0. 5.30503970e-03 0. 0. 0. 0. 0. 0. 0.
      0. 2.65251985e-03 0. 0. 1.06100794e-02 2.65251985e-03 0. 0.
      7.95755908e-03 0. 0. 0. 0. 0. 5.30503970e-03 2.65251985e-03 0.
      2.65251985e-03 0. 0. 0. 5.30503970e-03 2.65251985e-03 0. 0. 0. 0.
      0. 0. 0. 0. 2.65251985e-03 0. 0. 0. 5.30503970e-03 0. 0. 0.
      5.30503970e-03 0. 0. 0. 0. 0. 0. 0. 5.30503970e-03 0.
      5.30503970e-03 0. 0. 2.65251985e-03 0. 0. 0. 0. 0. 0. 0. 0. 0. 0.
      0. 2.65251985e-03 2.65251985e-03 0. 0. 0. 0. 0. 0. 0.
      2.65251985e-03 0. 0. 0. 0. 0. 2.65251985e-03 0. 0. 2.65251985e-03
      0. 0. 5.30503970e-03 0. 0. 0. 0. 0. 0. 7.95755908e-03
      2.65251985e-03 0. 0. 0. 0. 0. 0. 0. 0. 0. 0. 0. 7.95755908e-03 0.
      0. 0. 0. 5.30503970e-03 0. 0. 0. 0. 0. 0. 0. 0. 0. 0.
      2.65251985e-03 0. 0. 0. 0. 0. 0. 0. 0. 0. 0. 2.65251985e-03 0.
      5.30503970e-03 0. 0. 2.65251985e-03 0. 0. 0. 0. 0. 0. 0. 0. 0. 0.
      0. 0. 0. 0. 0. 0. 0. 0. 0. 0. 0. 0. 0. 2.65251985e-03 0.
      2.65251985e-03 2.65251985e-03 0. 0. 0. 2.65251985e-03
      2.65251985e-03 5.30503970e-03 0. 0. 2.65251985e-03 0. 0. 0. 0. 0.
      2.65251985e-03 0. 5.30503970e-03 0. 0. 0. 0. 5.30503970e-03
      5.30503970e-03 0. 0. 5.30503970e-03 0. 0. 0. 0. 0. 0.
      2.65251985e-03 2.65251985e-03 0. 0. 0. 0. 0. 0. 0. 0. 0. 0. 0. 0.
      0. 0. 0. 0. 0. 0. 0. 0. 0. 0. 0. 0. 2.65251985e-03 0. 0. 0. 0. 0.
      0. 0. 0. 0. 2.65251985e-03 0. 0. 0. 1.06100794e-02 0. 0. 0. 0.
      5.30503970e-03 0. 0. 0. 0. 0. 0. 0. 0. 0. 0. 0. 0. 0. 0. 0.
      2.65251985e-03 2.65251985e-03 0. 0. 2.65251985e-03 0. 0. 0. 0. 0.
      0. 0. 0. 0. 0. 0. 0. 0. 0. 0. 0. 0. 0. 0. 0. 5.30503970e-03
      5.30503970e-03 0. 0. 0. 0. 0. 0. 0. 0. 0. 0. 0. 0. 0. 0. 0. 0. 0.
      0. 0. 0. 0. 0. 2.65251985e-03 0. 0. 0. 7.95755908e-03 0. 0. 0. 0.
      0. 0. 0. 0. 0. 0. 0. 0. 0. 0. 0. 2.65251985e-03 0. 0. 0. 0. 0. 0.
      0. 0. 0. 2.65251985e-03 0. 0. 2.65251985e-03 0. 0. 0. 0. 0. 0. 0.
      2.65251985e-03 0. 0. 2.65251985e-03 0. 0. 0. 0. 0. 0. 0. 0. 0. 0.
      0. 0. 0. 0. 0. 0. 0. 0. 2.65251985e-03 0. 0. 0. 2.65251985e-03
      2.65251985e-03 0. 0. 0. 0. 0. 0. 0. 0. 0. 0. 0. 0. 0. 0. 0. 0. 0.
      2.65251985e-03 0. 0. 2.65251985e-03 0. 2.65251985e-03 0. 0. 0. 0.
      5.30503970e-03 0. 0. 2.65251985e-03 0. 0. 0. 0. 0. 0. 0. 0. 0. 0.
      0. 2.65251985e-03 0. 0. 2.65251985e-03 0. 0. 0. 0. 0.
      7.95755908e-03 0. 0. 0. 2.65251985e-03 0. 2.65251985e-03
      5.30503970e-03 0. 0. 0. 0. 0. 0. 0. 0. 0. 0. 0. 2.65251985e-03 0.
      0. 0. 0. 0. 0. 0. 0. 0. 2.65251985e-03 0. 0. 0. 0. 0. 0. 0. 0. 0.
      0. 0. 2.65251985e-03 2.38726791e-02 0. 0. 0. 0. 0. 0. 0. 0. 0. 0.
      0. 0. 0. 0. 2.65251985e-03 0. 0. 0. 0. 2.65251985e-03 0. 0. 0. 0.
      0. 0. 0. 0. 0. 0. 0. 0. 0. 0. 0. 0. 0. 0. 0. 0. 0. 0. 0. 0. 0. 0.
      0. 0. 0. 0. 0. 0. 0. 0. 0. 0. 0. 5.30503970e-03 0. 0. 0. 0.
      7.95755908e-03 2.65251985e-03 0. 0. 2.65251985e-03 0. 0. 0. 0. 0.
      0. 0. 0. 2.65251985e-03 0. 0. 0. 0. 7.95755908e-03 0. 0. 0. 0.
      2.65251985e-03 5.30503970e-03 0. 0. 2.65251985e-03 0. 0. 0.
      7.95755908e-03 2.65251985e-03 0. 0. 2.65251985e-03 0. 0. 0. 0. 0.
      0. 0. 0. 0. 0. 0. 0. 2.65251985e-03 0. 0. 0. 0. 0. 0.
      2.65251985e-03 0. 0. 0. 2.65251985e-03 2.65251985e-03
      2.65251985e-03 0. 0. 0. 2.65251985e-03 0. 0. 0. 7.95755908e-03 0.
      0. 2.65251985e-03 0. 0. 0. 0. 0. 0. 0. 0. 0. 5.30503970e-03
      2.65251985e-03 0. 0. 0. 0. 0. 0. 0. 0. 0. 0. 0. 0. 0. 0. 0.
      2.65251985e-03 0. 0. 0. 2.65251985e-03 0. 2.65251985e-03 0. 0. 0.
      5.30503970e-03 0. 0. 5.30503970e-03 0. 0. 0. 0. 0. 0. 0.
      2.65251985e-03 0. 0. 0. 2.65251985e-03 0. 0. 0. 0. 0. 0. 0. 0. 0.
      0. 0. 0. 0. 0. 0. 0. 0. 0. 0. 0. 0. 0. 0. 2.65251985e-03 0.
      2.65251985e-03 0. 0. 2.65251985e-03 0. 2.65251985e-03 0.
      5.30503970e-03 2.65251985e-03 0. 5.30503970e-03 2.65251985e-03
      2.65251985e-03 0. 1.06100794e-02 2.65251985e-03 0. 0. 0.
      2.65251985e-03 0. 5.30503970e-03 0. 0. 0. 2.65251985e-03 0. 0. 0.
      0. 2.65251985e-03 0. 0. 2.65251985e-03 0. 0. 2.65251985e-03 0.
      5.30503970e-03 0. 0. 0. 0. 0. 0. 0. 7.95755908e-03 0.
      2.65251985e-03 0. 0. 0. 0. 0. 0. 0. 0. 0. 0. 0. 0. 0. 0. 0. 0. 0.
      2.65251985e-03 2.65251985e-03 0. 0. 0. 2.65251985e-03
      7.95755908e-03 0. 0. 7.95755908e-03 0. 0. 2.65251985e-03 0. 0. 0.
      0. 0. 0. 0. 2.65251985e-03 0. 0. 0. 0. 0. 2.65251985e-03 0. 0. 0.
      5.30503970e-03 0. 0. 2.65251985e-03 0. 0. 0. 0. 5.30503970e-03 0.
      0. 0. 0. 0. 0. 2.65251985e-03 0. 0. 0. 2.65251985e-03 0. 0. 0. 0.
      0. 0. 0. 0. 0. 0. 0. 0. 2.65251985e-03 0. 0. 0. 0. 0. 0.
      5.30503970e-03 5.30503970e-03 0. 0. 7.95755908e-03 0. 0.
      2.65251985e-03 0. 0. 0. 2.65251985e-03 0. 0. 0. 0. 0. 0. 0. 0. 0.
      0. 2.65251985e-03 0. 0. 0. 0. 0. 0. 0. 0. 0. 5.30503970e-03 0. 0.
      0. 0. 0. 0. 0. 0. 0. 0. 0. 0. 0. 0. 2.65251985e-03 0. 0. 0. 0. 0.
      7.95755908e-03 0. 0. 0. 0. 0. 0. 5.30503970e-03 0. 0. 0. 0. 0.
      2.65251985e-03 0. 0. 2.65251985e-03 0. 0. 2.65251985e-03 0. 0. 0.
      0. 0. 1.32625997e-02 0. 0. 0. 2.65251985e-03 0. 0. 0. 0. 0. 0. 0.
      0. 0. 0. 0. 0. 0. 0. 0. 0. 0. 0. 5.30503970e-03 0. 2.65251985e-03
      2.65251985e-03 0. 0. 0. 0. 0. 0. 2.65251985e-03 0. 0.
      2.65251985e-03 0. 0. 5.30503970e-03 0. 0. 0. 0. 0. 2.65251985e-03
      0. 0. 5.30503970e-03 0. 0. 0. 2.65251985e-03 0. 0. 2.65251985e-03
      0. 0. 0. 0. 0. 0. 0. 0. 0. 1.06100794e-02 0. 0. 0. 0. 0.
      1.32625997e-02 2.65251985e-03 0. 0. 0. 0. 0. 0. 0. 0. 0. 0. 0. 0.
      0. 0. 0. 5.30503970e-03 0. 0. 0. 0. 5.30503970e-03 0. 0. 0. 0. 0.
      0. 0. 0. 0. 5.30503970e-03 2.65251985e-03 0. 0. 0. 0. 0. 0. 0.
      2.65251985e-03 0. 0. 2.65251985e-03 0. 0. 0. 0. 0. 0. 0. 0.
      2.65251985e-03 7.95755908e-03 5.30503970e-03 0. 0. 0.
      2.65251985e-03 0. 0. 0. 0. 0. 0. 2.65251985e-03 0. 0. 0. 0. 0. 0.
      0. 0. 0. 2.65251985e-03 0. 0. 0. 0. 0. 0. 0. 0. 0. 0. 0. 0. 0. 0.
      0. 0. 5.30503970e-03 0. 0. 0. 0. 0. 0. 0. 0. 2.65251985e-03
      2.65251985e-03 0. 2.65251985e-03 0. 0. 0. 2.65251985e-03 0. 0. 0.
      2.65251985e-03 0. 0. 0. 0. 0. 0. 0. 0. 0. 0. 0. 0. 0. 0. 0. 0. 0.
      0. 0. 0. 0. 5.30503970e-03 0. 0. 0. 0. 0. 0. 0. 0. 0. 0. 0.
      2.65251985e-03 0. 0. 0. 0. 0. 0. 0. 0. 0. 0. 0. 2.65251985e-03 0.
      2.65251985e-03 2.65251985e-03 0. 0. 0. 0. 0. 0. 0. 0. 0.
      2.65251985e-03 0. 0. 0. 2.65251985e-03 0. 0. 0. 0. 0.
      5.30503970e-03 0. 0. 2.65251985e-03 0. 0. 2.65251985e-03 0. 0. 0.
      5.30503970e-03 0. 0.</_>
    <_>
      0. 0. 0. 0. 0. 0. 0. 0. 0. 0. 0. 0. 3.49650346e-03 0. 0.
      3.49650346e-03 0. 3.49650346e-03 0. 0. 0. 0. 0. 0. 0. 0. 0. 0. 0.
      0. 6.99300691e-03 0. 0. 0. 0. 0. 0. 3.49650346e-03 0. 0. 0. 0. 0.
      3.49650346e-03 0. 0. 0. 0. 3.49650346e-03 0. 0. 0. 0. 0. 0. 0.
      2.09790207e-02 0. 0. 0. 0. 0. 0. 0. 0. 0. 1.39860138e-02 0. 0. 0.
      0. 0. 3.49650346e-03 0. 0. 0. 3.49650346e-03 1.04895104e-02 0. 0.
      0. 0. 0. 3.49650346e-03 0. 0. 0. 3.49650346e-03 0. 0. 0. 0. 0. 0.
      0. 0. 3.49650346e-03 0. 0. 0. 0. 0. 0. 0. 0. 0. 0. 0. 0. 0. 0. 0.
      0. 0. 0. 0. 0. 3.49650346e-03 0. 0. 0. 0. 0. 0. 0. 0. 0. 0. 0. 0.
      0. 0. 0. 0. 0. 0. 0. 0. 0. 0. 0. 0. 0. 0. 0. 0. 0. 0. 0. 0. 0. 0.
      0. 0. 3.49650346e-03 0. 0. 0. 3.49650346e-03 0. 0. 0.
      1.04895104e-02 0. 0. 3.49650346e-03 3.49650346e-03 0. 0. 0. 0. 0.
      0. 0. 0. 0. 0. 0. 0. 0. 0. 0. 0. 1.39860138e-02 0. 0. 0. 0.
      3.49650346e-02 0. 0. 0. 6.99300691e-03 0. 0. 0. 0. 0. 0. 0. 0. 0.
      0. 0. 0. 0. 0. 0. 3.49650346e-03 0. 0. 0. 0. 0. 0. 0. 0. 0. 0. 0.
      0. 0. 0. 0. 0. 0. 0. 0. 0. 0. 0. 0. 0. 0. 0. 0. 0. 0. 0. 0. 0. 0.
      0. 0. 0. 0. 0. 0. 0. 0. 0. 0. 0. 0. 0. 0. 0. 0. 0. 0. 0. 0. 0. 0.
      0. 0. 0. 0. 0. 0. 0. 0. 0. 0. 0. 0. 0. 0. 0. 0. 0. 0. 0. 0. 0. 0.
      0. 0. 0. 3.49650346e-03 0. 0. 0. 0. 0. 0. 0. 0. 0. 0. 0. 0. 0. 0.
      6.99300691e-03 0. 0. 0. 0. 0. 0. 0. 0. 0. 0. 0. 0. 0. 0. 0. 0.
      3.49650346e-03 0. 0. 0. 3.49650346e-03 0. 0. 0. 0. 0. 0. 0. 0. 0.
      0. 0. 0. 0. 0. 3.49650346e-03 0. 0. 0. 0. 0. 1.39860138e-02 0. 0.
      0. 0. 0. 0. 0. 0. 0. 0. 0. 0. 0. 0. 3.49650346e-03 0. 0. 0. 0. 0.
      0. 1.04895104e-02 2.09790207e-02 0. 0. 0. 0. 0. 0. 0. 0.
      1.74825173e-02 0. 0. 0. 0. 0. 0. 0. 0. 0. 0. 0. 0. 0. 0. 0. 0. 0.
      0. 0. 0. 6.99300691e-03 0. 3.49650346e-03 0. 0. 0. 0. 0. 0. 0. 0.
      0. 0. 0. 0. 0. 0. 0. 0. 0. 3.49650346e-03 0. 3.49650346e-03 0. 0.
      0. 0. 0. 0. 3.49650346e-03 0. 0. 0. 0. 0. 0. 0. 0. 0. 0. 0. 0.
      3.49650346e-03 0. 0. 0. 0. 0. 0. 0. 0. 0. 0. 0. 0. 0. 0. 0. 0. 0.
      0. 0. 0. 0. 0. 0. 0. 0. 0. 0. 0. 0. 0. 6.99300691e-03 0. 0. 0. 0.
      0. 0. 0. 0. 0. 0. 0. 0. 0. 0. 0. 0. 0. 0. 0. 0. 0. 0. 0. 0. 0.
      3.14685330e-02 0. 0. 0. 0. 0. 0. 0. 0. 6.99300691e-03 0. 0. 0. 0.
      0. 0. 0. 0. 0. 3.49650346e-03 3.49650346e-03 0. 0. 0.
      3.49650346e-03 0. 0. 0. 0. 0. 0. 0. 0. 0. 0. 0. 0. 0. 0. 0. 0. 0.
      0. 0. 0. 0. 0. 0. 0. 0. 0. 0. 0. 0. 0. 0. 0. 0. 0. 0. 0.
      6.99300691e-03 0. 0. 3.49650346e-03 0. 0. 0. 0. 0. 0. 0. 0. 0. 0.
      0. 0. 0. 0. 0. 0. 0. 0. 3.49650346e-03 0. 0. 0. 0. 0. 0. 0. 0. 0.
      0. 0. 0. 0. 0. 0. 0. 0. 3.49650346e-03 2.09790207e-02 0. 0. 0. 0.
      0. 0. 0. 0. 0. 0. 0. 0. 0. 0. 0. 0. 3.49650346e-03 0. 0.
      3.49650346e-03 0. 0. 0. 3.49650346e-03 0. 0. 0. 3.49650346e-03 0.
      0. 2.79720277e-02 0. 0. 0. 0. 0. 0. 0. 0. 0. 0. 3.49650346e-03 0.
      0. 0. 0. 3.49650346e-03 0. 0. 0. 0. 0. 0. 0. 0. 0. 0. 0. 0. 0. 0.
      0. 0. 3.49650346e-03 0. 3.49650346e-03 0. 0. 0. 0. 0. 0. 0.
      3.49650346e-03 0. 0. 3.49650346e-03 0. 0. 0. 0. 0. 0. 0. 0. 0. 0.
      0. 0. 0. 0. 0. 0. 0. 3.49650346e-03 0. 0. 0. 0. 0. 0. 0. 0. 0. 0.
      0. 0. 0. 0. 0. 0. 0. 0. 0. 0. 0. 0. 0. 0. 0. 0. 0. 3.49650346e-03
      0. 0. 0. 0. 0. 0. 0. 3.49650346e-03 0. 0. 0. 0. 0. 0. 0. 0. 0. 0.
      0. 0. 0. 0. 0. 0. 0. 0. 0. 6.99300691e-03 0. 0. 0. 0. 0. 0. 0. 0.
      0. 0. 0. 0. 0. 0. 0. 0. 0. 0. 0. 0. 0. 0. 0. 0. 0. 0. 0. 0. 0. 0.
      3.49650346e-03 0. 3.49650346e-03 0. 6.64335638e-02 0. 0. 0. 0. 0.
      0. 0. 0. 0. 0. 0. 0. 0. 0. 0. 0. 0. 0. 0. 0. 0. 0. 0. 0.
      3.49650346e-03 0. 0. 0. 0. 0. 0. 0. 0. 0. 0. 0. 0. 0. 0. 0. 0. 0.
      0. 0. 0. 0. 0. 0. 3.49650346e-03 0. 0. 0. 0. 0. 0. 0. 0. 0. 0. 0.
      0. 0. 0. 0. 0. 0. 1.04895104e-02 0. 0. 0. 0. 0. 0. 0. 0. 0. 0. 0.
      0. 0. 0. 0. 0. 0. 0. 0. 0. 0. 0. 0. 0. 6.99300691e-03 0. 0. 0. 0.
      0. 0. 0. 0. 3.49650346e-03 0. 0. 0. 0. 0. 3.49650346e-03 0. 0. 0.
      0. 0. 0. 0. 0. 0. 3.49650346e-03 0. 0. 0. 0. 0. 0. 0. 0. 0. 0. 0.
      0. 0. 0. 0. 0. 0. 0. 0. 0. 0. 0. 0. 0. 3.49650346e-03 0. 0. 0. 0.
      0. 0. 0. 0. 0. 0. 0. 0. 3.14685330e-02 0. 0. 0. 0. 0. 0. 0. 0. 0.
      0. 0. 0. 0. 0. 6.99300691e-03 0. 0. 6.99300691e-02 0.
      3.49650346e-03 6.99300691e-03 0. 0. 0. 0. 0. 0. 0. 0. 0. 0. 0. 0.
      0. 0. 0. 0. 0. 0. 0. 3.49650346e-03 0. 0. 0. 0. 0. 0. 0. 0. 0. 0.
      0. 0. 0. 0. 0. 0. 0. 3.49650346e-03 0. 0. 0. 0. 0. 0. 0.
      6.99300691e-03 0. 0. 4.19580415e-02 0. 0. 0. 0. 0. 3.49650346e-03
      0. 0. 0. 0. 0. 0. 0. 0. 0. 3.49650346e-03 0. 0. 0. 0. 0. 0. 0. 0.
      0. 0. 0. 0. 0. 6.99300691e-03 0. 0. 0. 0. 0. 0. 0. 0.
      6.99300691e-03 3.49650346e-03 0. 0. 0. 0. 6.99300691e-03 0. 0. 0.
      0. 0. 3.49650346e-03 0. 0. 0. 0. 0. 0. 0. 0. 0. 0. 0.
      3.49650346e-03 0. 0. 0. 0. 0. 0. 0. 0. 0. 0. 0. 0. 0. 0.
      3.49650346e-03 0. 3.49650346e-03 0. 0. 0. 0. 0. 3.49650346e-03 0.
      0. 0. 0. 0. 0. 0. 0. 0. 0. 0. 6.99300691e-03 0. 0. 0. 0. 0. 0. 0.
      0. 0. 0. 0. 0. 0. 0. 0. 0. 0. 0. 0. 6.29370660e-02 0. 0. 0. 0. 0.
      0. 0. 0. 0. 0. 0. 0. 0. 0. 0. 0. 6.99300691e-03 0. 0. 0. 0. 0. 0.
      0. 3.49650346e-03 0. 0. 0. 0. 3.49650346e-03 0. 0. 0. 0. 0. 0. 0.
      0. 0. 0. 0. 0. 0. 0. 0. 0. 0. 0. 0. 0. 3.49650346e-03 0. 0. 0. 0.
      0. 0. 0. 0. 0. 0. 0. 0. 0. 0. 0. 0. 0. 3.49650346e-03 0.
      3.49650346e-03 0. 0. 0. 0. 0. 0. 1.39860138e-02 0. 0. 0. 0. 0. 0.
      0. 0. 0. 0. 0. 0. 0. 0. 0. 0. 0. 0. 0. 0. 0. 0. 0. 0. 0. 0. 0. 0.
      0. 0. 0. 0. 0. 0. 0. 0. 0. 0. 0. 0. 0. 0. 0. 0. 0. 0. 0. 0. 0. 0.
      0. 3.49650346e-03 0. 0. 0. 0. 0. 0. 0. 0. 0. 0. 0. 0. 0.
      3.49650346e-03 0. 0. 0. 0. 0. 0. 0. 0. 0. 0. 0. 1.04895104e-02 0.
      0. 0. 0. 0. 0. 0. 0. 0. 0. 0. 0. 0. 0. 0. 0. 0. 0. 0. 0. 0. 0. 0.
      0. 0. 0. 0. 0. 0. 0. 3.49650346e-03 3.49650346e-03 0.
      6.99300691e-03 0. 0. 0. 0. 0. 0. 0. 0. 0. 0. 0. 0. 0. 0. 0. 0. 0.
      0. 0. 0. 0. 0. 0. 0. 0. 0. 0. 0. 0. 0. 0. 0. 0. 0. 0. 0. 0. 0. 0.
      0. 0. 0. 0. 0. 0. 0. 0. 0. 0. 0. 0. 0. 0. 0. 0. 0. 0. 0. 0. 0. 0.
      0. 0. 0. 0. 0. 1.04895104e-02 0. 0. 0. 3.49650346e-03 0. 0. 0. 0.
      0. 0. 0. 0. 0. 0. 0. 0. 0. 0. 3.49650346e-03 0. 0. 0.
      3.49650346e-03 0. 0. 0. 0. 0. 0. 0. 0. 0. 0. 0. 0. 0. 0.
      1.04895104e-02 0. 0. 0. 0. 0. 0. 0. 3.49650346e-03 0. 0. 0. 0. 0.
